svm_type c_svc
kernel_type rbf
gamma 0.03125
nr_class 2
total_sv 387
rho 3.56411
label 1 -1
nr_sv 190 197
SV
2.032305093324583 1:0.426591 2:-0.351931 3:-0.353536 4:0.54374 5:-0.768595 6:-0.0668688 7:0.212122 8:-0.795768 9:-0.897697 10:-0.917132 11:-0.976211 12:-0.318358 13:-0.124432 14:0.306667 15:0.0580457 16:-0.280345 17:0.076922 18:0.818182 21:0.333333 22:-0.938678 23:-0.963119 24:-0.365385 27:-0.264441 28:-0.0422535 29:0.683702 30:0.25 31:-1 32:-0.272728 35:-0.938678 36:-0.963119 37:-0.837248 40:-0.905405 
32 1:0.0510235 2:-0.255711 3:-0.0303022 4:0.54374 5:0.272729 6:-0.120963 7:-0.0909083 8:-0.798276 9:-0.903816 10:-0.90979 11:-0.89671 12:-0.584504 13:-0.368038 14:0.377778 15:-0.410044 16:-0.456587 17:-0.384617 18:0.272728 21:-0.333335 22:-0.646309 23:-0.797507 24:-0.741458 27:-0.844612 28:-0.0422535 29:-0.605078 30:-0.555556 31:-0.848485 32:-0.818182 35:-0.646309 36:-0.797507 37:-0.784536 40:-0.891892 
32 1:0.0525212 2:-0.314584 3:0.0666667 4:0.471698 5:-0.363636 6:-0.0181814 7:0.166667 8:-0.313569 9:-0.664154 10:-0.640627 11:-0.985641 12:-0.462905 13:-0.717718 14:0.315556 15:0.203356 16:-0.0279314 17:-0.323078 18:0.4 21:-0.0833341 22:-0.938978 23:-0.964154 24:-0.678812 27:-0.593543 28:-0.267606 29:0.9177 30:0.777778 31:-0.833333 32:-0.8 35:-0.938978 36:-0.964154 37:-0.842142 40:-0.891892 
32 1:0.366062 2:-0.385236 3:0.0666667 4:0.735849 5:-0.872727 6:-0.315701 7:0.166667 8:-0.378431 9:-0.642509 10:-0.756416 11:-0.997886 12:-0.336603 13:-0.333141 14:-0.00444444 15:-0.418064 16:-0.49369 17:-0.661539 18:0.4 21:0.0999991 22:-0.577074 23:-0.707931 24:-0.896399 27:-0.191589 28:-0.56338 29:-0.323816 30:-0.285714 31:-0.666667 32:-0.2 35:-0.577074 36:-0.707931 37:-0.870502 40:-0.824324 
32 1:-0.265675 2:-0.0999499 3:0.244444 4:0.735849 5:-0.872727 6:0.190082 8:0.331776 9:-0.289032 10:-0.87712 11:-0.992422 12:-0.460811 13:-0.857552 14:0.155556 15:-0.476611 16:-0.480312 17:-0.661539 18:-0.2 21:-0.633334 22:-0.155795 23:-0.458854 24:-0.825183 27:-0.868003 28:-0.366197 29:-0.419824 30:-0.461538 31:-1 32:-0.2 35:-0.155795 36:-0.458854 37:-0.949883 40:-0.310811 
15.72180208481523 1:0.178173 2:-0.268285 3:-0.666667 4:0.273585 5:-0.681817 6:-0.219007 7:0.145833 8:-0.829262 9:-0.930643 10:-0.958499 11:-0.964753 12:-0.340996 13:-0.379534 14:0.582222 15:0.172467 16:-0.24118 17:-0.788462 18:0.25 21:0.145832 22:-0.934467 23:-0.96804 24:-0.946966 27:-0.394089 28:0.169014 29:0.18862 30:-0.244444 31:-0.166667 32:0.25 35:-0.934467 36:-0.96804 37:-0.719421 40:0.202703 
32 1:0.727901 2:-0.0319838 3:0.185186 4:0.823899 5:-0.575758 6:0.438014 7:0.388888 8:-0.898026 9:-0.918014 10:-0.977043 11:-0.991868 12:-0.284886 13:0.300837 14:-0.271111 15:0.568075 16:0.39525 17:0.692305 18:1 21:0.527776 22:-0.878745 23:-0.882954 24:0.240625 27:-0.191941 28:-0.760563 29:0.968302 30:0.6 31:-0.722222 32:1 35:-0.878745 36:-0.882954 37:-0.001374 40:-0.743243 
32 1:0.17548 2:-0.239208 3:-0.259259 4:0.383649 5:-0.893939 6:-0.13223 7:-0.166667 8:-0.837239 9:-0.91836 10:-0.629505 11:-0.992807 12:-0.263005 13:-0.811741 14:0.146667 15:0.110075 16:-0.158331 17:0.128204 18:0.5 21:-0.236111 22:-0.825472 23:-0.894888 24:-0.326645 27:-0.414226 28:-0.183099 29:0.130134 30:-0.16923 31:-0.583333 32:0.5 35:-0.825472 36:-0.894888 37:-0.847392 40:-0.135135 
32 1:0.222918 2:-0.0234584 3:0.111111 4:0.603774 5:-0.0454537 6:0.376033 7:0.0416667 8:-0.845483 9:-0.906287 10:-0.886666 11:-0.978648 12:-0.258009 13:-0.489055 14:0.04 15:0.0107232 16:-0.282605 17:0.480767 18:0.75 21:-0.541667 22:-0.994292 23:-0.995842 24:0.139956 27:-0.857522 28:-0.549296 29:0.309922 30:-0.066666 31:0.0416667 32:0.25 35:-0.994292 36:-0.995842 37:0.234806 40:-0.810811 
32 1:0.181273 2:-0.524012 3:-0.0123449 4:0.383649 5:-0.717172 6:-0.355373 7:0.111112 8:-0.912619 9:-0.94819 10:-0.726461 11:-0.983336 12:-0.45086 13:-0.476401 14:-0.00444444 15:0.250549 16:-0.123855 17:0.504271 18:1 21:0.425925 22:-0.978951 23:-0.985014 24:-0.166233 27:-0.299416 28:-0.28169 29:1 30:1 31:-0.25926 32:-0.111112 35:-0.978951 36:-0.985014 37:1 40:-0.945946 
15.54137857843896 1:0.485707 2:-0.0634469 3:0.333333 4:0.603774 5:-0.840909 6:0.190082 7:0.25 8:-0.949507 9:-0.966714 10:-0.877104 11:-0.996768 12:-0.329462 13:-0.0576989 14:-0.111111 15:0.363235 16:0.117391 17:0.480767 18:1 21:0.374999 22:-0.995254 23:-0.99624 24:0.135154 27:-0.278563 28:-0.577465 29:0.580076 30:0.24138 31:-0.583333 32:1 35:-0.995254 36:-0.99624 37:-0.117472 40:-0.621622 
32 1:-0.135397 2:-0.488858 3:-0.0123449 4:0.383649 5:-0.151513 6:-0.355373 7:0.111112 8:-0.798401 9:-0.882038 10:-0.83358 11:-0.960879 12:-0.635756 13:-0.557993 14:0.0844444 15:-0.600514 16:-0.641469 17:-0.623933 18:-0.555556 21:-0.796297 22:-0.611831 23:-0.727287 24:-0.831731 27:-0.942736 28:-0.380282 29:-0.53597 30:-0.607844 31:-0.814815 32:-0.555556 35:-0.611831 36:-0.727287 37:-0.915281 40:-0.324324 
32 1:0.266177 2:-0.0339189 3:-0.288889 4:0.207547 5:0.145456 6:-0.0181814 8:-0.994405 9:-0.996894 10:-0.892375 11:-0.915111 12:-0.309945 13:-0.431485 14:0.0488889 15:0.245755 16:-0.000166659 17:-0.492308 21:-0.266667 22:-0.942507 23:-0.961713 24:-0.644316 27:-0.634928 28:-0.549296 29:0.33892 30:0.5 31:-1 32:-1 35:-0.942507 36:-0.961713 37:-1 40:-0.959459 
32 1:0.116251 2:-0.352552 3:-0.746032 4:0.509435 5:-0.272727 6:-0.171194 7:0.190477 8:-0.82775 9:-0.931043 10:-0.961782 11:-0.948061 12:-0.331617 13:-0.484105 14:0.653333 15:-0.114257 16:-0.289666 17:-0.274727 18:0.714286 21:-0.0833341 22:-0.862096 23:-0.933713 24:-0.77736 27:-0.744662 28:0.366197 29:-0.080154 30:-0.288462 31:-0.880952 32:0.714286 35:-0.862096 36:-0.933713 37:-0.981769 40:0.391892 
32 1:0.155936 2:-0.0564409 3:-0.209877 4:0.383649 5:-0.575758 6:0.0743781 7:0.111112 8:-0.535725 9:-0.712347 10:-0.84231 11:-0.99053 12:-0.495735 13:-0.318061 14:-0.0933333 15:-0.286436 16:-0.174241 17:-0.247865 18:0.555556 21:0.0185185 22:-0.628125 23:-0.723347 24:-0.726165 27:-0.538196 28:-0.408451 29:-0.241554 30:-0.183674 31:-0.814813 32:0.555556 35:-0.628125 36:-0.723347 37:-0.945192 40:-0.351351 
0.1185187862946049 1:-0.144146 2:-0.409522 3:0.244444 4:0.471698 5:-0.109089 6:-0.375207 7:0.166667 8:-0.856022 9:-0.926061 10:-0.625109 11:-0.975924 12:-0.723524 13:-0.674936 14:0.173333 15:0.0272413 16:-0.382288 17:0.0153831 18:0.8 21:0.0999991 22:-0.860421 23:-0.913935 24:-0.327461 27:-0.163076 28:-0.380282 29:1 30:1 31:-0.166667 35:-0.860421 36:-0.913935 37:1 40:-0.945946 
28.67698718835796 1:-0.16903 2:-0.295198 3:0.29293 4:0.54374 5:-0.768595 6:-0.148011 7:-0.0909083 8:-0.894947 9:-0.948534 10:-0.650489 11:-0.994249 12:-0.505212 13:-0.927751 14:0.208889 15:0.0345807 16:-0.129282 17:0.076922 18:0.272728 21:-0.833333 22:-0.902006 23:-0.942358 24:-0.610129 27:-0.975336 28:-0.0140845 29:0.059366 30:-0.142858 31:-0.0909085 32:0.272728 35:-0.902006 36:-0.942358 37:-0.74725 40:0.027027 
32 1:-0.199237 2:-0.544412 3:-0.0123449 4:0.677149 5:-0.292929 6:-0.388431 7:0.85185 8:-0.982122 9:-0.989877 10:-0.883138 11:-0.967856 12:-0.718612 13:-0.475261 14:0.226667 15:-0.776686 16:-0.711744 17:-0.435899 18:0.333334 21:0.0185185 22:-0.703351 23:-0.798373 24:-0.959993 27:-0.757369 28:-0.15493 29:-0.701114 30:-0.671642 31:-0.629628 32:0.333334 35:-0.703351 36:-0.798373 37:-0.900434 40:-0.108108 
32 1:-0.00777525 2:-0.391037 3:0.333333 4:0.603774 5:-0.522726 6:-0.219007 7:0.25 8:-0.955181 9:-0.973314 10:-0.551039 11:-0.989393 12:-0.575573 13:-0.750632 14:-0.0577778 15:-0.678952 16:-0.681115 17:-0.788462 18:-0.5 21:-0.541667 22:-0.954457 23:-0.967444 24:-0.944186 27:-0.834876 28:-0.0704225 29:-0.609498 30:-0.643836 31:-0.791667 32:-0.5 35:-0.954457 36:-0.967444 37:-0.951718 40:-0.027027 
32 1:0.300535 2:-0.135435 3:0.0666667 4:0.207547 5:-0.236364 6:-0.137193 7:-0.166667 8:-0.347827 9:-0.60178 10:-0.713082 11:-0.934053 12:-0.402353 13:-0.451497 14:-0.00444444 15:-0.254494 16:-0.319768 17:-0.153847 18:0.2 21:-0.45 22:-0.558971 23:-0.676649 24:-0.421907 27:-0.567486 28:-0.56338 29:0.754606 30:-0.052632 31:-0.5 32:0.2 35:-0.558971 36:-0.676649 37:0.301314 40:-0.756757 
4.813411997889738 1:0.289329 2:-0.0871501 3:-0.288889 4:0.471698 5:-0.236364 6:0.0115695 8:-0.922519 9:-0.954401 10:-0.867034 11:-0.945694 12:-0.294567 13:-0.416264 14:0.0488889 15:0.438866 16:0.0280783 17:0.353844 18:0.6 21:-0.266667 22:-0.984824 23:-0.989275 24:0.235762 27:-0.422407 28:-0.535211 29:0.876968 30:0.142858 31:-0.333333 32:0.4 35:-0.984824 36:-0.989275 37:0.367624 40:-0.824324 
32 1:0.566726 2:0.149058 3:0.185186 4:0.677149 5:-0.292929 6:0.107436 7:0.296297 8:-0.990353 9:-0.993722 10:-0.53469 11:-0.985449 12:-0.456269 13:-0.188053 14:-0.111111 15:-0.00416909 16:-0.389736 17:-0.623933 18:0.111112 21:-0.185187 22:-0.600088 23:-0.687839 24:-0.661417 27:0.138079 28:-0.690141 29:0.567978 30:-0.285714 31:-0.62963 32:-0.333334 35:-0.600088 36:-0.687839 37:0.33869 40:-0.824324 
32 1:-0.0496255 2:-0.216162 3:0.111111 4:0.603774 5:-0.681817 6:0.0413203 7:0.25 8:-0.281736 9:-0.535595 10:-0.847391 11:-0.981573 12:-0.305669 13:-0.817669 14:-0.0844444 15:-0.199491 16:-0.36278 17:-0.576924 18:-0.25 21:-0.770834 22:-0.513152 23:-0.622035 24:-0.427059 27:-0.8821 28:-0.661972 29:-0.230078 30:-0.25 31:-1 32:-0.5 35:-0.513152 36:-0.622035 37:-0.51428 40:-0.905405 
32 1:0.152126 2:-0.301967 3:-0.209877 4:0.677149 5:0.131315 6:0.00826251 7:0.296297 8:-0.276454 9:-0.610197 10:-0.79553 11:-0.982164 12:-0.454012 13:-0.434745 14:0.244444 15:-0.47196 16:-0.412527 17:-0.247865 18:0.555556 21:-0.185187 22:-0.516633 23:-0.68732 24:-0.746035 27:-0.532262 28:-0.535211 29:-0.415464 30:-0.4 31:-1 32:0.555556 35:-0.516633 36:-0.68732 37:-0.928551 40:-0.472973 
32 1:-0.165764 2:-0.315956 3:0.269842 4:0.509435 5:-0.0909074 6:-0.0436854 7:0.190477 8:-0.743752 9:-0.825622 10:-0.880022 11:-0.956367 12:-0.483188 13:-0.738015 14:-0.102222 15:0.160028 16:-0.35894 17:0.450547 18:0.714286 21:-0.476191 22:-0.989993 23:-0.991819 24:-0.097473 27:-0.331928 28:-0.577465 29:0.843696 30:0.142858 31:-0.285715 32:0.714286 35:-0.989993 36:-0.991819 37:0.444132 40:-0.635135 
32 1:0.366813 2:-0.132804 3:0.111111 4:0.273585 5:-0.681817 6:0.301652 7:-0.166667 8:-0.972153 9:-0.982512 10:-0.61994 11:-0.989225 12:-0.20207 13:-0.657429 14:-0.0311111 15:0.705233 16:0.232063 17:0.269229 18:0.75 21:0.145832 22:-0.975991 23:-0.981899 24:0.1855 27:0.0623236 28:-0.71831 29:0.995392 30:0.833334 31:0.25 32:1 35:-0.975991 36:-0.981899 37:-0.072216 40:-0.851351 
32 1:-0.0547547 2:-0.137961 3:0.382716 4:0.677149 5:-0.151513 6:-0.0578531 7:0.111112 8:-0.888208 9:-0.93162 10:-0.564564 11:-0.98418 12:-0.524445 13:-0.86402 14:0.0222222 15:0.0984511 16:-0.222265 17:0.316238 18:0.555556 21:0.0185185 22:-0.879463 23:-0.911476 24:-0.210312 27:-0.347956 28:-0.478873 29:0.39639 31:-0.62963 32:0.777778 35:-0.879463 36:-0.911476 37:0.0123458 40:-0.635135 
32 1:0.523382 2:-0.231724 3:-0.19192 4:0.303603 5:-0.53719 6:-0.0398215 7:-0.242425 8:-0.979014 9:-0.989767 10:-0.374285 11:-0.981659 12:-0.076232 13:-0.891777 14:0.191111 15:-0.234741 16:-0.286639 17:-0.0769237 18:0.454546 21:-0.333335 22:-0.624056 23:-0.779895 24:-0.47545 27:-0.889226 28:-0.112676 29:-0.193096 30:-0.285714 31:-0.696968 32:0.454546 35:-0.624056 36:-0.779895 37:-0.700496 40:-0.0675676 
32 1:0.144064 2:-0.391037 3:0.111111 4:0.603774 5:-0.681817 6:-0.107438 7:0.0416667 8:-0.928669 9:-0.954898 10:-0.763729 11:-0.997489 12:-0.0736736 13:-0.931757 14:-0.0577778 15:0.290867 16:-0.120776 17:-0.153847 18:0.5 21:-0.541667 22:-0.981906 23:-0.986261 24:-0.395575 27:-0.733801 28:-0.577465 29:0.844784 31:-0.791667 32:-0.25 35:-0.981906 36:-0.986261 37:-0.36168 40:-0.716216 
32 1:0.340068 2:-0.60322 3:-0.407408 4:0.823899 5:0.272729 6:-0.305785 7:0.388888 8:-0.969688 9:-0.979521 10:-0.923359 11:-0.982916 12:-0.51369 13:0.0197624 14:-0.155556 15:-0.635666 16:-0.739643 17:-0.717949 18:-0.333334 21:-0.38889 22:-0.1518 23:-0.312162 24:-0.941796 27:-0.6433 28:-0.633803 29:0.420892 30:-0.75 31:-0.722222 32:-0.666666 35:-0.1518 36:-0.312162 37:0.326766 40:-0.797297 
32 1:0.0816273 2:-0.401653 3:-0.407408 4:0.677149 5:-0.717172 6:-0.123969 7:0.111112 8:-0.82292 9:-0.895618 10:-0.84977 11:-0.987458 12:-0.536823 13:-0.35718 14:0.0133333 15:0.116548 16:-0.226118 17:0.128204 18:0.555556 21:-0.185187 22:-0.840786 23:-0.887313 24:-0.352173 27:-0.37531 28:-0.366197 29:0.288856 30:0.2 31:-1 32:-0.555556 35:-0.840786 36:-0.887313 37:-0.60109 40:-0.945946 
32 1:-0.111241 2:-0.411142 3:-0.0123449 4:0.677149 5:-0.292929 6:-0.2562 7:0.296297 8:-0.571798 9:-0.765947 10:-0.941774 11:-0.954336 12:-0.557277 13:-0.5115 14:0.0844444 15:-0.129205 16:-0.0506005 17:-0.623933 18:-0.111112 21:-0.592593 22:-0.776833 23:-0.853534 24:-0.904116 27:-0.810257 28:-0.309859 29:-0.094166 30:-0.071428 31:-1 32:-0.111112 35:-0.776833 36:-0.853534 37:-0.966152 40:-0.256757 
32 1:0.180517 2:-0.14405 3:-0.259259 4:0.603774 5:-0.363636 6:-0.0330568 7:-0.0277783 8:-0.253902 9:-0.633732 10:-0.8859 11:-0.956618 12:-0.150694 13:-0.699433 14:0.297778 15:-0.0342097 16:-0.251411 17:-0.294872 18:-0.166666 21:-0.694444 22:-0.564407 23:-0.74324 24:-0.615365 27:-0.925056 28:-0.15493 29:-0.005118 30:-0.253732 31:-0.583333 32:-0.166666 35:-0.564407 36:-0.74324 37:-0.7771 40:-0.108108 
32 1:-0.431883 2:-0.304038 3:0.555556 4:0.603774 5:0.113638 6:-0.293388 7:0.25 8:-0.861793 9:-0.91207 10:-0.812389 11:-0.971533 12:-0.768634 13:-0.78406 14:-0.0577778 15:-0.414537 16:-0.372471 17:-0.153847 18:0.25 21:-0.312501 22:-0.903894 23:-0.926584 24:-0.835169 27:-0.922816 28:-0.169014 29:-0.361636 30:-0.363636 31:-0.791667 32:0.25 35:-0.903894 36:-0.926584 37:-0.928036 40:-0.121622 
32 1:-0.116795 2:-0.357965 3:0.269842 4:0.509435 5:-0.272727 6:-0.2562 7:0.190477 8:-0.920275 9:-0.939319 10:-0.765223 11:-0.954921 12:-0.729581 13:-0.500564 14:-0.235556 15:0.175624 16:-0.0506005 17:-0.0329678 18:0.714286 21:-0.214287 22:-0.976951 23:-0.978931 24:-0.124915 27:-0.208394 28:-0.704225 29:0.796804 30:-0.25 31:-0.523808 32:0.428572 35:-0.976951 36:-0.978931 37:-0.016254 40:-0.689189 
32 1:0.72958 2:-0.127174 3:0.269842 4:0.509435 5:0.0909107 6:0.296338 7:-0.285715 8:-0.204534 9:-0.443326 10:-0.879682 11:-0.983258 12:-0.49028 13:0.439197 14:-0.0844444 15:-0.378849 16:-0.172196 17:-0.274727 18:-0.142858 21:-0.738096 22:-0.425102 23:-0.516924 24:-0.73565 27:-0.848826 28:-0.788732 29:-0.582032 30:-0.142858 31:-1 32:-0.428572 35:-0.425102 36:-0.516924 37:-0.88024 40:-0.824324 
32 1:-0.129821 2:-0.224687 3:0.131314 4:0.54374 5:-0.190083 6:-0.202105 7:0.212122 8:-0.187132 9:-0.582002 10:-0.854071 11:-0.946868 12:-0.43635 13:-0.788615 14:0.235556 15:0.292307 16:0.131995 17:-0.230771 18:-0.09091 21:-0.833333 22:-0.972795 23:-0.983204 24:-0.514214 27:-0.939766 28:-0.352113 29:0.670806 30:0.2 31:-1 32:-1 35:-0.972795 36:-0.983204 37:-1 40:-0.945946 
32 1:-0.024338 2:-0.447909 3:-0.111111 4:0.471698 5:-0.236364 6:-0.345456 8:-0.876795 9:-0.932713 10:-0.654655 11:-0.97467 12:-0.581087 13:-0.6664 14:0.128889 15:0.224438 16:-0.0943129 17:0.353844 18:0.8 21:0.0999991 22:-0.915398 23:-0.944523 24:-0.0362658 27:-0.172749 28:-0.464789 29:0.792722 30:0.666666 31:0.333333 32:0.6 35:-0.915398 36:-0.944523 37:0.730588 40:-0.851351 
26.39030192779246 1:0.715929 2:-0.0063105 3:-0.407408 4:0.603774 5:-0.151513 6:-0.0826454 7:0.25 8:-0.786756 9:-0.885896 10:-0.906814 11:-0.97336 12:-0.116805 13:-0.0183952 14:0.182222 15:0.317737 16:0.0280783 17:-0.576924 18:-0.333334 21:-0.694444 22:-0.904342 23:-0.938542 24:-0.640274 27:-0.719019 28:-0.450704 29:1 30:1 31:-0.722222 32:-0.333334 35:-0.904342 36:-0.938542 37:0.426284 40:-0.945946 
32 1:0.325441 2:-0.400433 3:-0.492064 4:0.132077 5:-0.636364 6:-0.341206 7:-0.166667 8:-0.882289 9:-0.947121 10:-0.434372 11:-0.975526 12:-0.228541 13:-0.896723 14:0.342222 15:-0.0506787 16:-0.219762 17:-0.516485 18:-0.142858 21:-0.607143 22:-0.894497 23:-0.943095 24:-0.745876 27:-0.843921 28:0.028169 29:-0.020556 30:-0.225 31:-0.880953 32:-0.142858 35:-0.894497 36:-0.943095 37:-0.908434 40:0.0675676 
32 1:0.393016 2:-0.0448535 3:0.382716 4:0.677149 5:-0.434343 6:-0.0578531 7:0.111112 8:-0.932178 9:-0.954924 10:-0.335419 11:-0.987218 12:-0.255315 13:-0.874354 14:-0.102222 15:0.488584 16:0.211663 17:0.128204 18:0.555556 21:0.0185185 22:-0.89903 23:-0.919431 24:0.00375133 27:0.0764616 28:-0.760563 29:0.817002 30:0.130434 31:-0.814815 32:0.555556 35:-0.89903 36:-0.919431 37:-0.99569 40:-0.702703 
32 1:0.166063 2:-0.172144 3:0.111111 4:0.273585 5:-0.0454537 6:-0.107438 7:0.0416667 8:-0.86174 9:-0.911885 10:-0.569186 11:-0.962367 12:-0.39198 13:-0.763972 14:-0.146667 15:0.507114 16:0.293961 17:0.0576907 18:0.25 21:-0.770834 22:-0.899951 23:-0.923441 24:-0.30335 27:-0.798478 28:-0.690141 29:0.895926 30:0.6 31:-0.791667 32:-0.25 35:-0.899951 36:-0.923441 37:-0.874558 40:-0.810811 
23.8568982277536 1:0.270007 2:-0.127174 3:0.185186 4:0.677149 5:-0.858586 6:-0.0247953 7:0.296297 8:-0.880978 9:-0.925538 10:-0.759184 11:-0.994465 12:-0.440827 13:-0.32781 14:-0.0844444 15:0.0208214 16:-0.00339409 17:-0.435899 18:0.333334 21:-0.185187 22:-0.664967 23:-0.748341 24:-0.548989 27:-0.532863 28:-0.605634 29:1 30:1 31:-0.62963 32:-0.555556 35:-0.664967 36:-0.748341 37:0.854164 40:-0.972973 
32 1:0.386335 2:-0.149136 3:0.131314 4:0.54374 5:-0.53719 6:-0.0668688 7:-0.0909083 8:-0.200256 9:-0.562577 10:-0.733413 11:-0.987775 12:-0.339285 13:-0.340161 14:0.155556 15:0.314624 16:-0.113142 17:-0.692308 18:-0.454546 21:-0.666667 22:-0.937877 23:-0.959201 24:-0.783349 27:-0.362258 28:-0.549296 29:0.896612 30:0.4 31:-0.69697 32:-0.636364 35:-0.937877 36:-0.959201 37:0.056938 40:-0.878378 
32 1:0.106721 2:-0.371837 3:-0.0303022 4:0.783877 5:-0.421488 6:-0.472578 7:0.212122 8:-0.930045 9:-0.959238 10:-0.819759 11:-0.987619 12:-0.628664 13:-0.245123 14:0.04 15:0.0970046 16:-0.180317 17:0.076922 18:0.454546 21:-0.333335 22:-0.90433 23:-0.93307 24:-0.0985561 27:-0.328664 28:-0.577465 29:0.692616 30:0.181818 31:-0.696968 32:0.272728 35:-0.90433 36:-0.93307 37:-0.265014 40:-0.716216 
32 1:0.828241 2:-0.321571 3:-0.111111 4:0.603774 5:-0.151513 6:-0.305785 7:0.111112 8:-0.887075 9:-0.942873 10:-0.973018 11:-0.986744 12:-0.325251 13:0.468387 14:0.324444 15:0.149428 16:-0.180317 17:0.128204 18:0.833334 21:0.0694429 22:-0.855033 23:-0.911945 24:-0.277807 27:-0.373557 28:-0.056338 29:0.167024 30:-0.18919 31:-0.86111 32:0.833334 35:-0.855033 36:-0.911945 37:-0.835374 40:-0.0135135 
32 1:0.404522 2:0.023439 3:0.0158738 4:0.886793 5:-0.454545 6:0.296338 7:0.428572 8:-0.264777 9:-0.4804 10:-0.882218 11:-0.98311 12:-0.0387757 13:-0.527706 14:-0.217778 15:0.177517 16:0.0759699 17:0.692305 18:1 21:-0.214287 22:-0.980126 23:-0.98313 24:0.285979 27:-0.673331 28:-0.774648 29:0.595268 30:0.3 31:-0.285715 32:1 35:-0.980126 36:-0.98313 37:0.469992 40:-0.743243 
32 1:0.407443 2:-0.0642357 3:0.52381 4:0.886793 5:-0.0909074 6:0.0413203 7:0.190477 8:-0.905537 9:-0.930335 10:-0.77305 11:-0.994531 12:-0.375724 13:-0.217542 14:-0.226667 15:0.223653 16:-0.0243757 17:0.20879 18:0.714286 21:-0.214287 22:-0.925505 23:-0.934035 24:-0.0333892 27:-0.188727 28:-0.802817 29:0.75528 30:0.153846 31:-0.761905 32:1 35:-0.925505 36:-0.934035 37:-0.424586 40:-0.662162 
32 1:-0.0775249 2:-0.464882 3:-0.466667 4:0.471698 5:-0.490909 6:-0.196694 8:-0.88708 9:-0.942551 10:-0.658628 11:-0.992971 12:-0.521457 13:-0.783619 14:0.182222 15:0.0538426 16:-0.269156 17:0.0153831 18:0.4 21:-0.0833341 22:-0.939593 23:-0.963101 24:-0.362503 27:-0.423865 28:-0.211268 29:0.077422 30:-0.269842 31:-0.833333 32:0.4 35:-0.939593 36:-0.963101 37:-0.866786 40:-0.162162 
32 1:0.0351509 2:-0.278043 3:0.269842 4:0.509435 5:-0.636364 6:-0.00118257 7:-0.0476183 8:-0.837659 9:-0.896253 10:-0.61894 11:-0.991817 12:-0.361841 13:-0.881526 14:-0.217778 15:-0.610479 16:-0.544708 17:-0.0329678 18:0.142858 21:-0.738096 22:-0.727292 23:-0.790747 24:-0.897474 27:-0.973201 28:-0.0422535 29:-0.545312 30:-0.52 31:-0.285713 32:0.142858 35:-0.727292 36:-0.790747 37:-0.944151 
25.55992671556066 1:0.266439 2:-0.0128503 3:0.0666667 4:0.735849 5:-0.490909 6:0.0115695 7:0.333333 8:-0.705904 9:-0.836622 10:-0.910505 11:-0.974067 12:-0.310739 13:-0.347345 14:0.0311111 15:-0.466854 16:-0.402948 17:-0.661539 21:-0.45 22:-0.624445 23:-0.749494 24:-0.863391 27:-0.593929 28:-0.450704 29:-0.674794 30:-0.5 31:-0.833333 32:-0.8 35:-0.624445 36:-0.749494 37:-0.674794 40:-0.959459 
32 1:0.0959797 2:-0.342585 3:-0.19192 4:0.54374 5:-0.190083 6:-0.310294 7:0.212122 8:-0.785506 9:-0.88808 10:-0.764654 11:-0.917024 12:-0.409438 13:-0.66457 14:0.208889 15:0.113672 16:-0.0453551 17:-0.384617 18:-0.09091 21:-0.666667 22:-0.903551 23:-0.939573 24:-0.680969 27:-0.808331 28:-0.253521 29:0.632462 30:0.6 31:-1 32:-1 35:-0.903551 36:-0.939573 37:-1 40:-0.878378 
8.779452287160474 1:0.415308 2:0.164372 3:0.333333 4:0.603774 5:-0.204545 6:0.0413203 7:0.25 8:-0.980371 9:-0.985225 10:-0.799683 11:-0.958593 12:-0.0745443 13:-0.587083 14:-0.262222 15:0.570552 16:0.459105 17:0.269229 18:0.75 21:-0.312501 22:-0.996289 23:-0.996641 24:0.0660651 27:-0.271389 28:-0.774648 29:0.942638 30:0.714286 31:0.25 32:0.25 35:-0.996289 36:-0.996641 37:0.942638 40:-0.918919 
32 1:0.809723 2:-0.0799265 3:-0.466667 4:0.735849 5:-0.745455 6:0.0413203 7:0.333333 8:-0.660763 9:-0.802816 10:-0.982957 11:-0.995833 12:-0.240422 13:0.361064 14:-0.00444444 15:0.285635 16:0.0536951 17:0.184614 18:1 21:-0.0833341 22:-0.914563 23:-0.940371 24:0.0023688 27:-0.262168 28:-0.492958 29:0.368266 30:0.142858 31:-0.666667 32:-0.2 35:-0.914563 36:-0.940371 37:-0.38507 40:-0.918919 
32 1:-0.030568 2:-0.114922 3:0.185186 4:0.383649 5:-0.717172 6:0.107436 7:-0.0740733 8:-0.182376 9:-0.514052 10:-0.701129 11:-0.995959 12:-0.367311 13:-0.863463 14:-0.0222222 15:-0.372469 16:-0.261793 17:-0.435899 18:0.111112 21:-0.38889 22:-0.503531 23:-0.645698 24:-0.787432 27:-0.645821 28:-0.56338 29:-0.322202 30:-0.263158 31:-1 32:0.111112 35:-0.503531 36:-0.645698 37:-0.959703 40:-0.5 
32 1:0.0761169 2:-0.243075 3:-0.111111 4:0.509435 5:-0.272727 6:-0.171194 7:-0.0476183 8:-0.908927 9:-0.960486 10:-0.92277 11:-0.975602 12:-0.271303 13:-0.623086 14:0.573333 15:0.145338 16:-0.173606 17:-0.758242 21:-0.214287 22:-0.962506 23:-0.980471 24:-0.916193 27:-0.544873 28:-0.0985915 29:0.16319 30:-0.183098 31:-0.52381 35:-0.962506 36:-0.980471 37:-0.819205 40:-0.0540541 
32 1:0.672387 2:0.104084 3:0.185186 4:0.823899 5:-0.363636 6:0.487602 7:0.666667 8:-0.933204 9:-0.947421 10:-0.463587 11:-0.994855 12:-0.0727329 13:-0.593816 14:-0.288889 15:0.814952 16:0.500156 17:0.692305 18:1 21:0.527776 22:-0.952487 23:-0.955093 24:0.263594 27:0.451746 28:-0.802817 29:0.983304 30:0.473684 31:-0.722222 32:1 35:-0.952487 36:-0.955093 37:-0.83188 40:-0.756757 
32 1:0.108507 2:-0.209859 3:-0.111111 4:0.933962 5:-0.840909 6:-0.107438 7:0.25 8:-0.251438 9:-0.456984 10:-0.941575 11:-0.992733 12:-0.246328 13:-0.573576 14:-0.244444 15:0.22556 16:0.0928737 17:0.480767 18:1 21:-0.541667 22:-0.972213 23:-0.975791 24:-0.00753495 27:-0.624498 28:-0.619718 29:0.748116 30:0.4 31:0.666667 32:0.75 35:-0.972213 36:-0.975791 37:0.586218 40:-0.743243 
32 1:0.0128544 2:-0.398789 3:-0.19192 4:0.303603 5:-0.190083 6:-0.2562 7:-0.0909083 8:-0.9901 9:-0.99503 10:-0.666036 11:-0.971215 12:-0.556968 13:-0.639849 14:0.28 15:-0.00920431 16:-0.205577 17:0.384614 18:0.636364 22:-0.970193 23:-0.982037 24:-0.360665 27:-0.385794 28:-0.169014 29:0.018322 30:-0.212122 31:-0.545455 32:0.636364 35:-0.970193 36:-0.982037 37:-0.885434 40:-0.121622 
14.66510279715128 1:0.427337 2:-0.0140587 3:0.0666667 4:0.471698 5:-0.363636 6:-0.077687 8:-0.988034 9:-0.993114 10:-0.672625 11:-0.98521 12:-0.319306 13:-0.382283 14:-0.0577778 15:-0.56413 16:-0.407402 17:-0.661539 18:-0.2 21:-0.633334 22:-0.594897 23:-0.72024 24:-0.965137 27:-0.818568 28:-0.492958 29:-0.505296 30:-0.75 31:-1 32:-1 35:-0.594897 36:-0.72024 37:-1 40:-0.905405 
6.215343933896078 1:-0.0522893 2:-0.00209443 3:0.382716 4:0.677149 5:-0.151513 6:0.140494 7:-0.0740733 8:-0.869978 9:-0.924175 10:-0.663519 11:-0.989258 12:-0.444504 13:-0.844745 14:0.0222222 15:-0.378102 16:-0.457883 17:-0.247865 18:-0.111112 21:-0.592593 22:-0.403553 23:-0.582369 24:-0.819691 27:-0.876331 28:-0.140845 29:-0.327482 30:-0.441176 31:-0.62963 32:-0.111112 35:-0.403553 36:-0.582369 37:-0.941788 40:-0.0945946 
32 1:0.175002 2:-0.0907095 3:0.0666667 4:0.471698 5:0.145456 6:-0.0181814 8:-0.91032 9:-0.951797 10:-0.560903 11:-0.939293 12:-0.328241 13:-0.864746 14:0.146667 15:0.273361 16:-0.036717 17:0.184614 18:1 21:0.283332 22:-0.892579 23:-0.930675 24:-0.289434 27:-0.0352951 28:-0.380282 29:0.913898 30:0.333334 31:-0.333333 32:-0.2 35:-0.892579 36:-0.930675 37:0.913898 40:-0.932432 
32 1:-0.188462 2:-0.567533 3:-0.466667 4:0.735849 5:-0.745455 6:-0.315701 7:0.333333 8:-0.404829 9:-0.680077 10:-0.969358 11:-0.988995 12:-0.594224 13:-0.497017 14:0.191111 15:-0.772844 16:-0.612337 17:-0.492308 18:0.2 21:-0.45 22:-0.592784 23:-0.737171 24:-0.843078 27:-0.911117 28:-0.492958 29:-0.844658 30:-0.5 31:-0.833333 32:-0.8 35:-0.592784 36:-0.737171 37:-0.950154 40:-0.905405 
32 1:0.795339 2:-0.0972959 3:-0.111111 4:0.603774 5:-0.0454537 6:0.190082 7:0.25 8:-0.570149 9:-0.74129 10:-0.946077 11:-0.971108 12:-0.289508 13:0.336137 14:-0.0133333 15:-0.102192 16:-0.137149 17:-0.576924 21:-0.541667 22:0.176371 23:-0.149879 24:-0.745579 27:-0.916032 28:-0.535211 29:-0.068844 30:-0.15 31:-1 35:0.176371 36:-0.149879 37:-0.870539 40:-0.472973 
32 1:0.00729661 2:-0.288709 3:0.382716 4:0.677149 5:-0.151513 6:-0.123969 7:0.296297 8:-0.362046 9:-0.642824 10:-0.79677 11:-0.968509 12:-0.642507 13:-0.400419 14:0.146667 15:-0.4735 16:-0.508556 17:-0.623933 18:0.111112 21:-0.38889 22:-0.67582 23:-0.782067 24:-0.710988 27:-0.469672 28:-0.549296 29:-1 30:-1 31:-1 32:-1 35:-0.67582 36:-0.782067 37:-1 40:-0.905405 
32 1:0.764564 2:-0.105099 3:0.111111 4:0.603774 5:-0.363636 6:0.115701 7:0.0416667 8:-0.886011 9:-0.926424 10:-0.279832 11:-0.991104 12:-0.259237 13:-0.453514 14:-0.102222 15:0.269335 16:0.101512 17:0.0576907 18:0.5 21:0.145832 22:-0.964621 23:-0.972579 24:-0.169485 27:-0.111651 28:-0.676056 29:1 30:1 31:-0.583333 32:0.25 35:-0.964621 36:-0.972579 37:-0.48956 40:-0.932432 
2.008111342042557 1:0.0923594 2:0.0588539 3:-0.209877 4:0.677149 5:-0.0100994 6:0.206609 7:0.111112 8:-0.822867 9:-0.893385 10:-0.955722 11:-0.910569 12:-0.434805 13:-0.434197 14:-0.00444444 15:0.246617 16:-0.00339409 17:0.316238 18:0.777778 21:-0.185187 22:-0.968065 23:-0.97692 24:0.295557 27:-0.630805 28:-0.605634 29:1 30:1 31:-0.25926 32:-0.111112 35:-0.968065 36:-0.97692 37:1 40:-0.959459 
32 1:0.130357 2:-0.211044 3:-0.111111 4:0.735849 5:-0.872727 6:-0.0181814 8:0.418205 9:-0.201057 10:-0.880287 11:-0.995475 12:-0.310634 13:-0.531271 14:0.04 15:-0.497477 16:-0.561103 17:-0.323078 18:0.2 21:-0.45 22:-0.613721 23:-0.738709 24:-0.497785 27:-0.741797 28:-0.492958 29:-0.199646 30:-0.454546 31:-1 32:-0.8 35:-0.613721 36:-0.738709 37:-0.694212 40:-0.864865 
22.91725511601875 1:0.483759 2:-0.103851 3:-0.209877 4:0.677149 5:-0.575758 6:0.173551 7:0.296297 8:-0.0604298 9:-0.465175 10:-0.842966 11:-0.969523 12:-0.140117 13:-0.359852 14:0.04 15:0.416973 16:0.119872 17:0.316238 18:1 21:0.425925 22:-0.950485 23:-0.966157 24:-0.361305 27:0.061677 28:-0.422535 29:1 30:1 31:-0.0740733 32:0.333334 35:-0.950485 36:-0.966157 37:-0.13926 40:-0.905405 
32 1:0.013019 2:-0.236663 3:-0.0123449 4:0.677149 5:-0.292929 6:-0.223142 7:0.481482 8:-0.975054 9:-0.984334 10:-0.921479 11:-0.962216 12:-0.502014 13:-0.435231 14:-0.04 15:-0.379529 16:-0.272335 17:-1 18:-0.333334 21:-0.185187 22:-0.154982 23:-0.363038 24:-1 27:-0.657905 28:-0.633803 29:-0.648152 30:-0.125 31:-0.62963 32:-0.555556 35:-0.154982 36:-0.363038 37:-0.950656 40:-0.797297 
32 1:0.15202 2:-0.237844 3:0.0666667 4:0.735849 5:-0.109089 6:-0.285951 7:0.166667 8:0.268813 9:-0.237083 10:-0.884742 11:-0.969968 12:-0.156542 13:-0.715574 14:0.04 15:-0.270579 16:-0.339093 17:-0.661539 18:-0.2 21:-0.633334 22:-0.193144 23:-0.417463 24:-0.908314 27:-0.892244 28:-0.422535 29:0.475024 30:0.538462 31:-0.333333 35:-0.193144 36:-0.417463 37:-0.0328372 40:-0.837838 
32 1:0.187845 2:-0.352855 3:0.333333 4:0.603774 5:-0.204545 6:-0.367769 7:0.0416667 8:-0.738665 9:-0.833737 10:-0.486583 11:-0.97196 12:-0.402507 13:-0.80412 14:-0.182222 15:0.586361 16:0.303456 17:0.480767 18:1 21:0.374999 22:-0.869249 23:-0.900118 24:0.131843 27:0.160382 28:-0.647887 29:0.874502 30:0.130434 31:-0.791667 32:0.75 35:-0.869249 36:-0.900118 37:0.17335 40:-0.702703 
32 1:0.398342 2:-0.190947 3:0.111111 4:0.603774 5:-0.522726 6:-0.0702492 7:0.0416667 8:-0.236445 9:-0.448966 10:-0.824033 11:-0.973161 12:-0.347644 13:-0.230258 14:-0.182222 15:-0.407268 16:-0.339093 17:-0.576924 18:-0.5 21:-1 22:-0.852515 23:-0.872195 24:-0.878998 27:-1 28:-0.549296 29:-0.354822 30:-0.333334 31:-0.583333 32:-0.5 35:-0.852515 36:-0.872195 37:-0.917554 40:-0.486486 
32 1:0.280909 2:-0.187539 3:0.481481 4:0.823899 5:-0.787879 6:0.289256 7:0.388888 8:-0.902374 9:-0.927251 10:-0.548024 11:-0.997644 12:-0.431801 13:-0.554443 14:-0.235556 15:0.568301 16:0.112811 17:0.692305 18:1 21:0.527776 22:-0.966308 23:-0.969851 24:0.181532 27:0.269908 28:-0.732394 29:0.934286 30:0.037038 31:-0.722217 32:1 35:-0.966308 36:-0.969851 37:0.518656 40:-0.648649 
32 1:0.154436 2:0.0439403 3:0.111111 4:0.603774 5:-0.0454537 6:0.264463 7:0.25 8:-0.978886 9:-0.986454 10:-0.791291 11:-0.978577 12:-0.374232 13:-0.538469 14:-0.0577778 15:-0.492645 16:-0.522678 17:-0.788462 18:-0.25 21:-0.312501 22:-0.595944 23:-0.688872 24:-0.832563 27:-0.290911 28:-0.704225 29:-0.891329 30:-0.555556 31:-1 32:-0.5 35:-0.595944 36:-0.688872 37:-0.989686 40:-0.891892 
3.12079887109439 1:0.511926 2:0.19648 3:0.185186 4:0.677149 5:-0.0100994 6:0.735534 7:0.111112 8:-0.549204 9:-0.756236 10:-0.37817 11:-0.975336 12:-0.241092 13:-0.705959 14:0.253333 15:-0.110188 16:-0.175906 17:-0.0598298 18:0.555556 21:0.222222 22:-0.744134 23:-0.833872 24:-0.722732 27:-0.42794 28:-0.338028 29:-0.412566 30:-0.25 31:-0.62963 32:-0.555556 35:-0.744134 36:-0.833872 37:-0.45478 40:-0.905405 
4.533980988854627 1:0.201221 2:-0.178151 3:-0.555556 4:0.603774 5:-0.257575 6:-0.157026 7:0.25 8:-0.921212 9:-0.959943 10:-0.920005 11:-0.925497 12:-0.418451 13:-0.339153 14:0.235556 15:0.185804 16:-0.036717 17:-0.0128226 18:0.666666 21:0.0694429 22:-0.959839 23:-0.975485 24:-0.286076 27:-0.388839 28:-0.140845 29:0.376202 30:0.333334 31:-1 32:-0.666666 35:-0.959839 36:-0.975485 37:-0.959472 40:-0.932432 
32 1:0.688442 2:-0.00190791 3:0.111111 4:0.603774 5:-0.204545 6:0.450414 7:0.25 8:-0.809985 9:-0.88357 10:-0.861397 11:-0.994327 12:-0.349985 13:0.20582 14:0.0666667 15:0.401234 16:0.0280783 17:-0.576924 21:-0.312501 22:-0.833113 23:-0.877219 24:-0.705424 27:-0.486615 28:-0.676056 29:0.799912 30:0.17647 31:-0.791667 32:-0.5 35:-0.833113 36:-0.877219 37:-0.742421 40:-0.783784 
32 1:0.407547 2:-0.458094 3:0.0158738 4:0.509435 5:-0.636364 6:-0.0436854 7:-0.0476183 8:-0.847114 9:-0.894953 10:-0.325448 11:-0.997014 12:-0.366263 13:-0.719878 14:-0.111111 15:-0.500351 16:-0.522678 17:-0.758242 18:-0.142858 21:-0.476191 22:-0.674108 23:-0.731149 24:-0.619055 27:-0.82093 28:-0.816901 29:-0.867599 30:-0.625 31:-0.52381 32:-0.428572 35:-0.674108 36:-0.731149 37:-0.955862 40:-0.797297 
32 1:-0.183362 2:-0.278839 3:-0.19192 4:0.54374 5:-0.0743785 6:-0.202105 7:0.0606067 8:-0.984616 9:-0.992082 10:-0.89605 11:-0.937571 12:-0.580328 13:-0.643253 14:0.244444 15:0.246749 16:0.140477 17:-0.538463 18:0.09091 21:-0.166668 22:-0.9367 23:-0.960887 24:-0.68765 27:-0.739432 28:-0.408451 29:0.833304 30:0.538462 31:-0.69697 32:-0.636364 35:-0.9367 36:-0.960887 37:-0.644972 40:-0.837838 
2.791881402826636 1:0.66373 2:0.00334177 3:0.333333 4:0.933962 5:-0.840909 6:0.15289 7:0.25 8:-0.667421 9:-0.76379 10:-0.486051 11:-0.993514 12:-0.155953 13:-0.479096 14:-0.182222 15:0.405913 16:0.112811 17:0.480767 18:0.75 21:-0.0833341 22:-0.892561 23:-0.908372 24:0.140514 27:-0.178733 28:-0.732394 29:0.87321 30:0.12 31:-0.166667 32:0.75 35:-0.892561 36:-0.908372 37:-0.155134 40:-0.675676 
32 1:-0.0249493 2:-0.225589 3:0.111111 4:0.603774 5:-0.363636 6:-0.0702492 7:0.25 8:-0.811202 9:-0.879346 10:-0.884652 11:-0.953553 12:-0.572508 13:-0.446672 14:-0.102222 15:-0.807802 16:-0.75216 17:-1 18:-0.75 21:-0.770834 22:-0.981355 23:-0.985691 24:-1 27:-0.860431 28:-0.422535 29:-0.730282 30:-0.708334 31:-0.791667 32:-0.75 35:-0.981355 36:-0.985691 37:-0.927046 40:-0.364865 
32 1:0.803053 2:-0.113231 3:0.185186 4:0.383649 5:0.0606077 6:0.0413203 7:0.111112 8:-0.83643 9:-0.856202 10:0.2159 11:-0.978829 12:-0.419669 13:-0.766695 14:-0.36 15:0.356977 16:0.185438 17:-0.435899 21:-0.694444 22:-0.680846 23:-0.663128 24:-0.81952 27:-0.883684 28:-0.901408 29:0.79058 30:0.142858 31:-1 32:-1 35:-0.680846 36:-0.663128 37:-1 40:-0.918919 
32 1:-0.1804 2:-0.0171091 3:0.185186 4:0.677149 5:-0.717172 6:-0.157026 7:0.296297 8:-0.823721 9:-0.874429 10:-0.852799 11:-0.98197 12:-0.523644 13:-0.709595 14:-0.235556 15:-0.439664 16:-0.307165 17:-0.623933 18:-0.555556 21:-1 22:-0.947629 23:-0.955202 24:-0.908587 27:-1 28:-0.450704 29:-0.38519 30:-0.304348 31:-0.62963 32:-0.555556 35:-0.947629 36:-0.955202 37:-0.937715 40:-0.391892 
24.04227397535472 1:0.12754 2:-0.355346 3:0.185186 4:0.383649 5:-0.363636 6:-0.380166 7:-0.0277783 8:-0.933338 9:-0.966934 10:-0.323447 11:-0.980399 12:-0.532024 13:-0.892401 14:0.253333 15:0.148347 16:-0.192224 17:-0.0128226 18:0.5 21:0.0694429 22:-0.924728 23:-0.955172 24:-0.302863 27:-0.265172 28:-0.183099 29:0.273416 31:-0.583333 32:-0.5 35:-0.924728 36:-0.955172 37:0.273416 40:-0.932432 
32 1:0.175992 2:-0.309121 3:-0.555556 4:-0.0566036 5:-0.257575 6:-0.0578531 7:0.111112 8:-0.393855 9:-0.722821 10:-0.992273 11:-0.983086 12:-0.0619181 13:-0.668953 14:0.475556 15:0.441599 16:0.153567 17:-0.294872 18:0.833334 21:0.222222 22:-0.97116 23:-0.984169 24:-0.687069 27:-0.288508 28:0.0140845 29:0.440904 30:0.113924 31:-0.583333 32:0.833334 35:-0.97116 36:-0.984169 37:-0.841316 40:0.0540541 
32 1:0.165141 2:-0.0584187 3:-0.209877 4:0.677149 5:-0.575758 6:0.33884 7:0.111112 8:-0.92051 9:-0.953867 10:-0.87764 11:-0.981264 12:-0.285052 13:-0.536519 14:0.0933333 15:0.140828 16:-0.211382 17:0.316238 18:1 21:0.0185185 22:-0.941328 23:-0.959117 24:-0.180812 27:-0.189837 28:-0.450704 29:0.915796 30:0.714286 31:-0.444445 32:-0.111112 35:-0.941328 36:-0.959117 37:0.821435 40:-0.918919 
32 1:0.29612 2:0.0975407 3:-0.0123449 4:0.677149 5:-0.434343 6:0.206609 7:0.111112 8:-0.669691 9:-0.796037 10:-0.639786 11:-0.970719 12:-0.318248 13:-0.602335 14:-0.0755556 15:-0.656291 16:-0.588022 17:-0.811966 18:-0.555556 21:-0.796297 22:-0.897414 23:-0.923938 24:-0.976281 27:-0.954723 28:-0.267606 29:-0.588256 30:-0.559322 31:-1 32:-0.555556 35:-0.897414 36:-0.923938 37:-0.992495 40:-0.216216 
32 1:0.625685 2:0.0449739 3:0.0158738 4:0.886793 5:-0.454545 6:0.253835 7:0.428572 8:-0.13696 9:-0.372039 10:-0.553571 11:-0.984418 12:-0.350788 13:-0.223049 14:-0.253333 15:0.653567 16:0.0280783 17:0.20879 18:0.714286 21:0.047619 22:-0.989292 23:-0.990639 24:0.351196 27:0.318865 28:-0.816901 29:0.939772 30:0.111112 31:0.190477 32:0.714286 35:-0.989292 36:-0.990639 37:0.351624 40:-0.77027 
32 1:0.542544 2:-0.176729 3:-0.111111 4:0.471698 5:-0.490909 6:0.130577 8:-0.80809 9:-0.897082 10:-0.863527 11:-0.971886 12:-0.332595 13:-0.0229566 14:0.208889 15:-0.386483 16:-0.309119 17:-0.661539 21:-0.0833341 22:-0.701637 23:-0.807877 24:-0.790391 27:-0.475136 28:-0.408451 29:0.373466 30:0.5 31:-0.833333 32:-0.4 35:-0.701637 36:-0.807877 37:-0.686918 40:-0.959459 
32 1:0.833519 2:0.193667 3:0.481481 4:0.823899 5:-0.787879 6:0.487602 7:0.388888 8:-0.928002 9:-0.940912 10:-0.383954 11:-0.997331 12:-0.0875021 13:-0.455593 14:-0.377778 15:0.619581 16:0.31795 17:0.692305 18:1 21:0.527776 22:-0.949401 23:-0.950139 24:0.305819 27:0.326166 28:-0.830986 29:0.749232 30:0.5 31:-0.166667 35:-0.949401 36:-0.950139 37:0.749232 40:-0.959459 
32 1:0.497414 2:-0.23889 3:-0.111111 4:0.471698 5:0.145456 6:-0.196694 8:-0.705928 9:-0.833806 10:-0.926643 11:-0.980552 12:-0.14606 13:-0.231146 14:0.12 15:0.0832346 16:-0.0637151 17:0.184614 18:0.6 21:-0.45 22:-0.951498 23:-0.967087 24:-0.212898 27:-0.527705 28:-0.422535 29:0.115934 30:-0.285714 31:-0.666667 32:-0.6 35:-0.951498 36:-0.967087 37:-0.074016 40:-0.824324 
13.83183763003574 1:0.184365 2:-0.491212 3:0.269842 4:0.886793 5:-0.636364 6:-0.171194 7:0.428572 8:-0.903687 9:-0.934888 10:-0.933237 11:-0.959354 12:-0.525105 13:-0.178701 14:-0.0755556 15:0.32826 16:-0.036717 17:0.692305 18:1 21:0.309523 22:-0.967086 23:-0.973281 24:0.14521 27:-0.319875 28:-0.619718 29:0.789816 31:-0.52381 32:1 35:-0.967086 36:-0.973281 37:0.277488 40:-0.608108 
32 1:0.142614 2:0.124551 3:0.481481 4:0.823899 5:-0.363636 6:0.537187 7:0.388888 8:-0.926443 9:-0.943349 10:-0.863749 11:-0.975554 12:-0.271308 13:-0.603519 14:-0.28 15:0.752931 16:0.605062 17:0.128204 18:1 21:0.222222 22:-0.937906 23:-0.942581 24:0.304809 27:-0.0839533 28:-0.802817 29:0.872744 30:0.625 31:-0.166667 32:1 35:-0.937906 36:-0.942581 37:0.615089 40:-0.797297 
32 1:0.207898 2:0.0609095 3:0.382716 4:0.677149 5:-0.575758 6:0.206609 7:-0.0740733 8:-0.245347 9:-0.520774 10:-0.838792 11:-0.970451 12:-0.263005 13:-0.563554 14:-0.0488889 15:0.587183 16:0.174947 17:-0.0598298 18:0.333334 21:-0.185187 22:-0.969002 23:-0.976361 24:0.072561 27:-0.0246276 28:-0.676056 29:0.795524 30:-0.058824 31:-0.444445 32:-0.111112 35:-0.969002 36:-0.976361 37:0.505391 40:-0.783784 
32 1:0.314289 2:-0.235781 3:-0.288889 4:0.471698 5:-0.745455 6:-0.226445 7:0.166667 8:-0.745355 9:-0.829816 10:-0.915933 11:-0.975525 12:-0.458925 13:-0.0965258 14:-0.0933333 15:0.293049 16:-0.0127195 17:0.0153831 18:0.2 21:-0.45 22:-0.958175 23:-0.966434 24:-0.0824295 27:-0.326127 28:-0.71831 29:0.856762 30:0.1 31:-0.5 32:0.4 35:-0.958175 36:-0.966434 37:0.329968 40:-0.743243 
32 1:0.392847 2:-0.0743737 3:-0.288889 4:0.735849 5:-0.618182 6:0.100826 7:0.333333 8:-0.671777 9:-0.812578 10:-0.966597 11:-0.995064 12:-0.168031 13:-0.277754 14:0.0844444 15:0.30842 16:0.131995 17:-0.492308 18:0.4 21:0.283332 22:-0.836139 23:-0.887651 24:-0.914278 27:-0.380379 28:-0.352113 29:-0.082026 30:-0.2 31:-1 32:-1 35:-0.836139 36:-0.887651 37:-1 40:-0.945946 
32 1:0.00299971 2:-0.143078 3:-0.209877 4:0.677149 5:-0.717172 6:0.107436 7:0.111112 8:-0.933124 9:-0.959299 10:-0.850624 11:-0.979013 12:-0.357252 13:-0.68634 14:-0.0222222 15:0.250325 16:-0.0422312 17:0.316238 18:0.777778 21:0.0185185 22:-0.906156 23:-0.931428 24:-0.14494 27:-0.454325 28:-0.43662 29:0.89335 30:0.636364 31:0.111112 32:0.777778 35:-0.906156 36:-0.931428 37:0.610759 40:-0.864865 
32 1:-0.128849 2:-0.461307 3:-0.407408 4:0.603774 5:-0.363636 6:-0.280992 7:0.111112 8:-0.300038 9:-0.678708 10:-0.956524 11:-0.975732 12:-0.464871 13:-0.608563 14:0.431111 15:-0.350726 16:-0.348049 17:-0.153847 18:0.5 21:-0.236111 22:-0.54912 23:-0.751498 24:-0.772294 27:-0.714504 28:0.056338 29:-0.30182 30:-0.341464 31:-0.861112 32:0.5 35:-0.54912 36:-0.751498 37:-0.994081 40:0.0945946 
9.026732882000113 1:0.360227 2:-0.0863302 3:0.333333 4:0.603774 5:-0.522726 6:0.115701 7:0.25 8:-0.960864 9:-0.974008 10:-0.314852 11:-0.974491 12:-0.493548 13:-0.659195 14:-0.0933333 15:0.334677 16:-0.00745426 17:0.269229 18:0.5 21:0.145832 22:-0.988517 23:-0.990841 24:-0.0760804 27:0.118531 28:-0.661972 29:0.887602 30:0.181818 31:-0.375 32:0.25 35:-0.988517 36:-0.990841 37:0.556363 40:-0.716216 
4.276551804684604 1:0.270542 2:-0.184248 3:0.0666667 4:0.735849 5:-0.363636 6:-0.166943 7:0.166667 8:-0.880073 9:-0.92931 10:-0.409722 11:-0.985702 12:-0.541672 13:-0.59765 14:0.04 15:0.423223 16:0.0280783 17:-0.492308 18:-0.2 21:-0.633334 22:-0.959646 23:-0.971439 24:-0.388512 27:-0.832726 28:-0.676056 29:0.867018 30:0.083334 31:-0.833333 32:-0.4 35:-0.959646 36:-0.971439 37:-0.667222 40:-0.689189 
32 1:-0.180768 2:-0.516295 3:-0.111111 4:0.471698 5:0.145456 6:-0.434713 7:0.166667 8:-0.826869 9:-0.911857 10:-0.896433 11:-0.93193 12:-0.655675 13:-0.552826 14:0.253333 15:-0.135083 16:-0.00530191 17:-0.323078 21:-0.633334 22:-0.904278 23:-0.941487 24:-0.819769 27:-0.916448 28:-0.169014 29:-0.099676 30:-0.030304 31:-0.666667 35:-0.904278 36:-0.941487 37:-0.920871 40:-0.121622 
32 1:0.194741 2:-0.154121 3:0.185186 4:0.677149 5:0.272729 6:-0.0247953 7:0.111112 8:-0.986717 9:-0.992531 10:-0.716845 11:-0.946307 12:-0.252369 13:-0.753574 14:0.111111 15:0.271086 16:-0.0943129 17:0.128204 18:0.777778 21:-0.185187 22:-0.953754 23:-0.96879 24:-0.0780735 27:-0.404894 28:-0.464789 29:0.80563 31:-0.629628 32:0.777778 35:-0.953754 36:-0.96879 37:0.463839 40:-0.662162 
8.640209440622742 1:0.0612165 2:0.0631244 3:0.555556 4:0.603774 5:-0.522726 6:0.264463 7:0.25 8:-0.96302 9:-0.975843 10:-0.919607 11:-0.988121 12:-0.394284 13:-0.480871 14:-0.0933333 15:0.684141 16:0.211663 17:0.0576907 18:0.25 21:-0.0833341 22:-0.875021 23:-0.901993 24:0.195841 27:0.0759795 28:-0.760563 29:0.929184 30:0.473684 31:0.0416667 32:0.5 35:-0.875021 36:-0.901993 37:0.632442 40:-0.756757 
32 1:-0.17747 2:-0.659427 3:-0.17037 4:0.383649 5:-0.321212 6:-0.533886 7:-0.222222 8:0.066466 9:-0.602493 10:-0.901527 11:-0.922663 12:-0.577987 13:-0.648487 14:0.804444 15:-0.495644 16:-0.460564 17:-0.661539 18:0.2 21:-0.266667 22:-0.331669 23:-0.700888 24:-0.890498 27:-0.817421 28:0.774648 29:-0.437666 30:-0.44361 31:-0.666667 32:0.2 35:-0.331669 36:-0.700888 37:-0.979175 40:0.783784 
32 1:0.0188114 2:-0.255711 3:0.269842 4:0.886793 5:-0.272727 6:0.0838232 7:0.428572 8:-0.847166 9:-0.901799 10:-0.881216 11:-0.96583 12:-0.291495 13:-0.727447 14:-0.0755556 15:0.415584 16:0.119872 17:0.450547 18:0.714286 21:-0.214287 22:-0.933559 23:-0.94874 24:0.213576 27:-0.314228 28:-0.760563 29:0.89279 30:0.3 31:-0.285715 32:0.714286 35:-0.933559 36:-0.94874 37:0.347842 40:-0.743243 
32 1:0.290263 2:-0.312377 3:-0.0303022 4:0.54374 5:-0.0743785 6:-0.337342 7:0.0606067 8:-0.977393 9:-0.988272 10:-0.925626 11:-0.94977 12:-0.466962 13:-0.133997 14:0.173333 15:0.0942736 16:0.0781465 17:0.230768 18:0.818182 21:-0.166668 22:-0.932366 23:-0.957876 24:-0.104623 27:-0.599282 28:-0.478873 29:0.141002 30:-0.166666 31:-0.545455 32:-0.09091 35:-0.932366 36:-0.957876 37:-0.135922 40:-0.851351 
32 1:0.187153 2:-0.228724 3:0.333333 4:0.603774 5:-0.522726 6:0.115701 7:0.25 8:-0.875503 9:-0.924237 10:-0.759803 11:-0.972846 12:-0.287174 13:-0.644756 14:0.0311111 15:0.316805 16:0.0759699 17:-0.576924 18:-0.25 21:-0.541667 22:-0.914681 23:-0.937658 24:-0.670537 27:-0.808274 28:-0.450704 29:-0.03544 30:-0.333334 31:-0.583333 32:-0.5 35:-0.914681 36:-0.937658 37:-0.03544 40:-0.932432 
32 1:-0.376738 2:-0.296504 3:0.333333 4:0.603774 5:-0.363636 6:-0.181819 7:0.0416667 8:-0.443025 9:-0.637264 10:-0.826401 11:-0.986014 12:-0.673721 13:-0.799746 14:-0.12 15:-0.220385 16:-0.138818 17:-0.365386 21:-0.312501 22:-0.608874 23:-0.694145 24:-0.546321 27:-0.846855 28:-0.633803 29:0.040448 30:-0.142858 31:-0.791667 35:-0.608874 36:-0.694145 37:-0.561656 40:-0.72973 
32 1:0.241393 2:-0.218703 3:0.185186 4:0.677149 5:-0.0100994 6:-0.157026 7:-0.0740733 8:-0.494162 9:-0.6948 10:-0.570606 11:-0.969179 12:-0.458575 13:-0.577267 14:-0.00444444 15:-0.258917 16:-0.443999 17:-0.247865 18:0.111112 21:-0.796297 22:-0.60347 23:-0.712729 24:-0.463806 27:-0.852854 28:-0.507042 29:0.588158 30:-0.166666 31:-0.444445 32:-0.333334 35:-0.60347 36:-0.712729 37:0.107772 40:-0.851351 
32 1:0.489152 2:-0.37136 3:0.269842 4:0.509435 5:-0.818182 6:-0.171194 7:0.190477 8:-0.103146 9:-0.332528 10:-0.695188 11:-0.997656 12:-0.579863 13:0.0552027 14:-0.253333 15:0.518162 16:0.369926 17:0.692305 18:1 21:0.309523 22:-0.969259 23:-0.972522 24:0.0241958 27:0.0525093 28:-0.690141 29:0.785328 30:0.384616 31:-0.761905 32:1 35:-0.969259 36:-0.972522 37:-0.102836 40:-0.662162 
32 1:0.387882 2:-0.0673094 3:0.185186 4:0.823899 5:-0.363636 6:0.388429 7:0.111112 8:-0.432827 9:-0.546129 10:-0.723538 11:-0.956933 12:-0.374444 13:-0.338688 14:-0.271111 15:0.120047 16:0.0759699 17:-0.435899 18:-0.333334 21:-0.694444 22:-0.560523 23:-0.577722 24:-0.495789 27:-0.725977 28:-0.774648 29:0.91564 30:0.5 31:0.111112 32:0.333334 35:-0.560523 36:-0.577722 37:0.892678 40:-0.905405 
32 1:0.496196 2:-0.264462 3:0.244444 4:0.735849 5:-0.745455 6:-0.166943 7:0.166667 8:-0.986772 9:-0.992401 10:-0.49208 11:-0.991533 12:-0.318174 13:-0.488296 14:0.0666667 15:0.0231363 16:-0.192224 17:-0.492308 21:-0.266667 22:-0.552943 23:-0.69176 24:-0.798442 27:-0.486064 28:-0.535211 29:0.094734 31:-0.5 32:-0.4 35:-0.552943 36:-0.69176 37:-0.762172 40:-0.851351 
32 1:0.134435 2:-0.216698 3:-0.407408 4:0.383649 5:-0.575758 6:-0.13223 7:0.111112 8:-0.993175 9:-0.996554 10:-0.902547 11:-0.978088 12:-0.411581 13:-0.395846 14:0.226667 15:0.0570173 16:-0.133476 17:-0.717949 18:0.166666 21:-0.236111 22:-0.968368 23:-0.98083 24:-0.959571 27:-0.498993 28:-0.0422535 29:0.080398 30:-0.146666 31:-0.583333 32:0.166666 35:-0.968368 36:-0.98083 37:-0.765666 
11.63057167496084 1:0.214919 2:0.262395 3:0.111111 4:0.603774 5:-0.840909 6:0.747934 7:0.25 8:-0.299803 9:-0.555326 10:-0.785585 11:-0.998934 12:-0.105075 13:-0.77725 14:-0.0488889 15:0.520763 16:0.174947 17:0.480767 18:1 21:-0.541667 22:-0.998763 23:-0.999053 24:0.324772 27:-0.49646 28:-0.676056 29:0.786402 30:0.333334 31:-0.166667 32:1 35:-0.998763 36:-0.999053 37:0.39009 40:-0.77027 
32 1:-0.00389563 2:-0.0244143 3:0.0666667 4:0.735849 5:-0.363636 6:-0.0181814 8:-0.963077 9:-0.976755 10:-0.818548 11:-0.968912 12:-0.370385 13:-0.725089 14:-0.00444444 15:-0.343924 16:-0.339093 17:-0.830769 18:-0.4 21:-0.633334 22:-0.84882 23:-0.885744 24:-0.981454 27:-0.726499 28:-0.253521 29:-0.295444 30:-0.333334 31:-0.833333 32:-0.4 35:-0.84882 36:-0.885744 37:-0.869675 40:-0.202703 
20.80984890447871 1:0.46556 2:-0.087496 3:-0.466667 4:0.735849 5:-0.745455 6:0.160331 7:0.5 8:-0.949586 9:-0.972037 10:-0.981779 11:-0.984619 12:-0.142659 13:-0.210769 14:0.12 15:0.631249 16:0.358532 17:-1 18:0.6 21:0.466665 22:-0.915871 23:-0.943975 24:-1 27:-0.0575447 28:-0.535211 29:1 30:1 31:-0.833333 32:-0.8 35:-0.915871 36:-0.943975 37:-0.983782 40:-0.851351 
25.72170950594867 1:0.185651 2:0.045926 3:-0.0123449 4:0.677149 5:-0.717172 6:0.438014 7:-0.0740733 8:-0.860099 9:-0.91914 10:-0.822614 11:-0.981064 12:-0.169933 13:-0.712935 14:0.0488889 15:0.56689 16:0.108676 17:0.316238 18:0.777778 21:0.0185185 22:-0.905544 23:-0.934449 24:0.167289 27:-0.068239 28:-0.521127 29:0.910852 30:0.238096 31:-1 32:0.777778 35:-0.905544 36:-0.934449 37:0.093978 40:-0.72973 
25.57936484744618 1:0.175868 2:-0.221625 3:0.269842 4:0.509435 5:-0.0909074 6:-0.128691 7:0.190477 8:-0.959831 9:-0.969997 10:-0.504784 11:-0.956477 12:-0.635126 13:-0.529565 14:-0.235556 15:0.64557 16:0.328492 17:0.692305 18:1 21:-0.476191 22:-0.920808 23:-0.928995 24:0.324032 27:-0.120632 28:-0.788732 29:0.874556 30:0.461538 31:0.190482 32:1 35:-0.920808 36:-0.928995 37:0.670469 40:-0.662162 
32 1:0.641061 2:-0.00324462 3:-0.111111 4:0.603774 5:-0.522726 6:0.115701 7:0.25 8:-0.890205 9:-0.920906 10:-0.825317 11:-0.978798 12:-0.280304 13:0.00340098 14:-0.2 15:0.572026 16:0.313656 17:0.480767 18:1 21:0.145832 22:-0.926981 23:-0.93684 24:0.407689 27:-0.223056 28:-0.71831 29:0.832886 30:0.166666 31:-0.583333 32:1 35:-0.926981 36:-0.93684 37:0.452114 40:-0.689189 
32 1:0.0101364 2:-0.115458 3:0.0666667 4:0.735849 5:-0.363636 6:0.071075 8:-0.928178 9:-0.960713 10:-0.76416 11:-0.954478 12:-0.381921 13:-0.768373 14:0.146667 15:0.143495 16:-0.185117 17:-0.153847 18:0.2 21:-0.266667 22:-0.988478 23:-0.992434 24:-0.528615 27:-0.808617 28:-0.225352 29:0.161462 30:-0.193548 31:-0.833333 32:0.2 35:-0.988478 36:-0.992434 37:-0.778855 40:-0.175676 
32 1:-0.199444 2:-0.451962 3:-0.31624 4:0.248187 5:-0.706293 6:-0.210425 7:-0.102563 8:-0.744578 9:-0.887183 10:-0.90425 11:-0.969749 12:-0.451213 13:-0.779279 14:0.511111 15:0.0317495 16:-0.25316 17:-0.609468 18:-0.076924 21:-0.294873 22:-0.81276 23:-0.9007 24:-0.82963 27:-0.755582 28:0.225352 29:0.056712 30:-0.25532 31:-0.74359 32:-0.076924 35:-0.81276 36:-0.9007 37:-0.988324 40:0.256757 
32 1:-0.112022 2:-0.231724 3:-0.111111 4:0.383649 5:-0.893939 6:-0.13223 7:-0.0277783 8:-0.882184 9:-0.940361 10:-0.832914 11:-0.996983 12:-0.441196 13:-0.72989 14:0.191111 15:0.199938 16:-0.310848 17:-0.435899 18:0.166666 21:-0.541667 22:-0.894385 23:-0.935808 24:-0.405449 27:-0.238388 28:-0.366197 29:0.879868 30:0.5 31:-0.861111 32:-0.5 35:-0.894385 36:-0.935808 37:-0.896672 40:-0.959459 
32 1:0.294447 2:-0.22412 3:-0.901234 4:-0.203355 5:-0.787879 6:-0.652893 7:-0.25926 8:-0.326615 9:-0.758948 10:-0.989022 11:-0.981833 12:-0.254856 13:-0.285605 14:-0.155556 15:0.128771 16:-0.0535151 17:-0.435899 18:0.111112 21:-0.185187 22:-0.98902 23:-0.995289 24:-0.706451 27:-0.51791 28:0.422535 29:0.14766 30:-0.074074 31:-0.814815 32:0.111112 35:-0.98902 36:-0.995289 37:-0.94802 40:0.445946 
19.84286467800784 1:-0.455823 2:-0.19486 3:0.29293 4:0.783877 5:-0.884297 6:-0.202105 7:0.212122 8:-0.165784 9:-0.545476 10:-0.734684 11:-0.99831 12:-0.717921 13:-0.934078 14:0.0755556 15:0.298496 16:0.0536951 17:0.230768 18:0.818182 21:0.166666 22:-0.970676 23:-0.980817 24:-0.281817 27:-0.0925241 28:-0.492958 29:0.806732 30:0.6 31:-0.545455 32:-0.454546 35:-0.970676 36:-0.980817 37:0.332834 40:-0.945946 
30.6562377570933 1:0.346905 2:-0.0823279 3:0.185186 4:0.677149 5:-0.858586 6:-0.0247953 7:0.296297 8:-0.994705 9:-0.996516 10:-0.773034 11:-0.992752 12:-0.092061 13:-0.645606 14:-0.12 15:0.475646 16:0.0969228 17:0.128204 18:0.555556 21:-0.185187 22:-0.893815 23:-0.916278 24:0.0588795 27:-0.185804 28:-0.647887 29:0.87333 31:-0.814815 32:0.555556 35:-0.893815 36:-0.916278 37:-0.009808 40:-0.581081 
17.56402049815739 1:0.87795 2:0.632052 3:0.269842 4:0.509435 5:-0.0909074 6:0.381343 7:-0.0476183 8:-0.993294 9:-0.993539 10:-0.0705153 11:-0.966176 12:-0.0511522 13:-0.822509 14:-0.457778 15:0.82058 16:0.282274 17:-0.0329678 18:0.428572 21:-0.476191 22:-0.892954 23:-0.876506 24:0.48246 27:-0.0816232 28:-0.915493 29:1 30:1 31:-0.285715 32:-0.142858 35:-0.892954 36:-0.876506 37:0.473604 40:-0.959459 
5.596389754185443 1:0.153258 2:-0.204194 3:-0.19192 4:0.303603 5:-0.305785 6:0.014273 7:0.0606067 8:-0.178998 9:-0.599155 10:-0.851932 11:-0.984076 12:-0.340896 13:-0.50828 14:0.315556 15:0.107709 16:-0.0453551 17:0.384614 18:1 21:0.166666 22:-0.912003 23:-0.948415 24:-0.457994 27:-0.306066 28:-0.0422535 29:0.517586 30:0.285714 31:-0.848485 32:0.272728 35:-0.912003 36:-0.948415 37:-0.354162 40:-0.824324 
32 1:0.180104 2:-0.183175 3:0.111111 4:0.603774 5:-0.363636 6:-0.0330568 7:0.0416667 8:-0.484378 9:-0.671407 10:-0.600691 11:-0.968316 12:-0.359785 13:-0.744632 14:-0.137778 15:-0.548258 16:-0.531151 17:-0.365386 18:-0.5 21:-0.770834 22:-0.55831 23:-0.662022 24:-0.834008 27:-0.983392 28:-0.183099 29:-0.486986 30:-0.507692 31:-0.583333 32:-0.5 35:-0.55831 36:-0.662022 37:-0.895581 40:-0.135135 
32 1:-0.220322 2:-0.286696 3:-0.619047 4:0.509435 5:-0.454545 6:-0.107438 7:0.190477 8:-0.962539 9:-0.984546 10:-0.963436 11:-0.981091 12:-0.375369 13:-0.821854 14:0.608889 15:0.155996 16:0.0407391 17:-0.274727 18:0.285714 21:-0.476191 22:-0.986541 23:-0.993338 24:-0.833893 27:-0.731621 28:0.126761 29:0.17318 30:0.011494 31:-0.761905 32:0.285714 35:-0.986541 36:-0.993338 37:-0.972894 40:0.162162 
32 1:0.224165 2:0.072936 3:-0.111111 4:0.471698 5:-0.109089 6:-0.0181814 8:-0.714511 9:-0.819669 10:-0.80867 11:-0.926811 12:-0.263721 13:-0.621678 14:-0.0577778 15:0.371183 16:0.0928737 17:-0.492308 18:-0.4 21:-1 22:-0.981344 23:-0.985848 24:-0.394462 27:-1 28:-0.619718 29:0.79991 30:0.172414 31:-0.333333 32:-0.2 35:-0.981344 36:-0.985848 37:0.368151 40:-0.621622 
32 1:-0.0142601 2:-0.246257 3:0.111111 4:0.603774 5:-0.204545 6:-0.0330568 7:0.25 8:-0.787991 9:-0.868865 10:-0.85991 11:-0.960279 12:-0.357339 13:-0.717943 14:-0.0311111 15:-0.372365 16:-0.47261 17:-0.365386 18:0.25 21:-0.0833341 22:-0.589994 23:-0.695501 24:-0.910494 27:-0.816702 28:-0.0140845 29:-0.322104 30:-0.454546 31:-0.791667 32:0.25 35:-0.589994 36:-0.695501 37:-0.965174 40:0.027027 
32 1:0.498424 2:-0.222282 3:-0.0123449 4:0.677149 5:-0.151513 6:0.00826251 7:0.296297 8:-0.817454 9:-0.896501 10:-0.963912 11:-0.976348 12:-0.46041 13:0.193571 14:0.128889 15:0.21 16:-0.192224 17:0.316238 18:1 21:0.222222 22:-0.964804 23:-0.97604 24:-0.132074 27:-0.0891188 28:-0.394366 29:0.931258 30:0.23077 31:-0.259258 32:0.555556 35:-0.964804 36:-0.97604 37:-0.03773 40:-0.837838 
6.089348167056697 1:0.174037 2:-0.236084 3:0.0158738 4:0.320754 5:-0.181817 6:-0.234946 7:-0.166667 8:-0.99435 9:-0.997571 10:-0.905038 11:-0.949717 12:-0.323304 13:-0.481537 14:0.511111 15:-0.284897 16:-0.36204 17:-0.395605 21:-0.476191 22:-0.98969 23:-0.994678 24:-0.822161 27:-0.888207 28:0.253521 29:-0.240112 30:-0.354166 31:-0.880952 35:-0.98969 36:-0.994678 37:-0.937263 40:0.283784 
32 1:-0.193496 2:-0.129342 3:0.333333 4:0.603774 5:-0.840909 6:0.115701 7:-0.166667 8:-0.604672 9:-0.728955 10:-0.750209 11:-0.996097 12:-0.601628 13:-0.728355 14:-0.155556 15:-0.220856 16:-0.149585 17:-0.365386 21:-0.312501 22:-0.741299 23:-0.787025 24:-0.598778 27:-0.604034 28:-0.661972 29:-0.157238 30:-0.428572 31:-0.583333 32:-0.75 35:-0.741299 36:-0.787025 37:-0.19137 40:-0.824324 
9.521712652506363 1:0.520055 2:0.155866 3:0.52381 4:0.886793 5:-0.636364 6:0.296338 7:0.190477 8:-0.986133 9:-0.989859 10:-0.349585 11:-0.99477 12:-0.312837 13:-0.618122 14:-0.297778 15:-0.61752 16:-0.565044 17:-0.274727 18:-0.142858 21:-1 22:-0.575567 23:-0.627654 24:-0.922337 27:-1 28:-0.366197 29:-0.551912 30:-0.538462 31:-0.285715 32:-0.142858 35:-0.575567 36:-0.627654 37:-0.947083 40:-0.310811 
32 1:0.370199 2:-0.0413874 3:0.185186 4:0.677149 5:-0.575758 6:0.173551 7:-0.0740733 8:-0.128066 9:-0.446326 10:-0.367146 11:-0.992938 12:-0.241968 13:-0.878763 14:-0.0133333 15:0.321882 16:-0.0269973 17:0.316238 18:0.777778 21:0.0185185 22:-0.983992 23:-0.987792 24:-0.0825498 27:-0.204916 28:-0.535211 29:0.756284 30:0.153846 31:-0.0740733 32:1 35:-0.983992 36:-0.987792 37:0.166526 40:-0.662162 
32 1:0.364747 2:-0.114922 3:0.185186 4:0.383649 5:-0.575758 6:0.140494 7:-0.444445 8:-0.917577 9:-0.927441 10:-0.698692 11:-0.983664 12:-0.262822 13:-0.504405 14:-0.431111 15:-0.395348 16:-0.372471 17:-1 18:-0.666666 21:-0.694444 22:-0.840276 23:-0.831189 24:-1 27:-0.949182 28:-0.478873 29:-0.343648 30:-0.363636 31:-0.722222 32:-0.666666 35:-0.840276 36:-0.831189 37:-0.973437 40:-0.418919 
32 1:0.285118 2:-0.0823279 3:-0.288889 4:0.471698 5:-0.618182 6:-0.137193 7:0.166667 8:-0.776023 9:-0.855976 10:-0.924991 11:-0.976265 12:-0.344528 13:-0.263668 14:-0.12 15:0.588288 16:0.234612 17:0.0153831 18:0.8 21:-0.266667 22:-0.933662 23:-0.948779 24:0.00650172 27:-0.220129 28:-0.647887 29:0.88812 30:0.411764 31:-0.166667 32:0.4 35:-0.933662 36:-0.948779 37:0.539631 40:-0.783784 
32 1:0.552218 2:-0.215233 3:0.131314 4:0.303603 5:-0.421488 6:-0.0398215 7:-0.69697 8:-0.961179 9:-0.979226 10:-0.165734 11:-0.978339 12:-0.168164 13:-0.975397 14:0.173333 15:0.455064 16:0.185438 17:-0.230771 18:0.09091 21:-0.666667 22:-0.968903 23:-0.980021 24:-0.0574382 27:-0.803861 28:-0.605634 29:0.453526 30:0.142858 31:-0.545455 32:0.09091 35:-0.968903 36:-0.980021 37:-0.460301 40:-0.540541 
32 1:0.742378 2:0.245286 3:0.185186 4:0.823899 5:-0.575758 6:0.735534 7:0.388888 8:-0.798678 9:-0.832701 10:-0.592296 11:-0.99925 12:-0.293985 13:-0.0858403 14:-0.306667 15:0.645583 16:0.358532 17:0.692305 18:1 21:0.222222 22:-0.872664 23:-0.872942 24:0.411273 27:0.0468695 28:-0.816901 29:0.927496 30:0.25 31:-0.444445 32:1 35:-0.872664 36:-0.872942 37:0.51545 40:-0.689189 
32 1:-0.0264335 2:-0.255711 3:-0.209877 4:0.677149 5:-0.292929 6:-0.0578531 7:0.111112 8:-0.916022 9:-0.948892 10:-0.872944 11:-0.967353 12:-0.381013 13:-0.682405 14:0.0311111 15:0.280572 16:-0.0566544 17:0.504271 18:0.777778 21:0.222222 22:-0.949262 23:-0.962924 24:-0.138758 27:-0.354855 28:-0.366197 29:0.69323 30:0.545454 31:-0.62963 32:0.777778 35:-0.949262 36:-0.962924 37:-0.925908 40:-0.716216 
32 1:0.10211 2:-0.0790833 3:0.382716 4:0.677149 5:-0.434343 6:-0.0909108 7:0.296297 8:-0.592943 9:-0.745809 10:-0.699641 11:-0.989121 12:-0.372367 13:-0.697207 14:-0.0755556 15:0.46574 16:0.234612 17:0.316238 18:1 21:0.222222 22:-0.920667 23:-0.940513 24:-0.202842 27:-0.0466552 28:-0.647887 29:0.766118 30:0.25926 31:-0.814815 32:1 35:-0.920667 36:-0.940513 37:-0.949114 40:-0.648649 
32 1:0.636904 2:0.184427 3:0.481481 4:0.823899 5:-0.363636 6:0.487602 7:0.388888 8:-0.94935 9:-0.958238 10:-0.436459 11:-0.991262 12:-0.31262 13:-0.377546 14:-0.333333 15:0.716272 16:0.39525 17:0.692305 18:1 21:0.527776 22:-0.90919 23:-0.910114 24:0.208026 27:0.502341 28:-0.802817 29:0.906366 30:0.473684 31:-0.722222 32:1 35:-0.90919 36:-0.910114 37:-0.19516 40:-0.756757 
32 1:0.214504 2:-0.143078 3:0.333333 4:0.603774 5:-0.0454537 6:0.0413203 7:0.25 8:-0.93541 9:-0.958005 10:-0.695334 11:-0.988146 12:-0.576089 13:-0.309173 14:-0.0222222 15:0.288812 16:-0.129282 17:0.0576907 18:0.75 21:-0.0833341 22:-0.945864 23:-0.95774 24:-0.0461431 27:-0.00101587 28:-0.704225 29:0.85122 30:0.375 31:-0.791667 32:0.5 35:-0.945864 36:-0.95774 37:0.102048 40:-0.797297 
32 1:0.509217 2:0.124551 3:0.185186 4:0.823899 5:0.272729 6:0.438014 7:0.388888 8:-0.789916 9:-0.836275 10:-0.233051 11:-0.978557 12:-0.414214 13:-0.652931 14:-0.28 15:0.809857 16:0.487041 17:0.692305 18:1 21:0.527776 22:-0.952474 23:-0.955521 24:0.0668371 27:0.183875 28:-0.760563 29:0.969718 30:0.555556 31:-0.444445 32:1 35:-0.952474 36:-0.955521 37:0.24682 40:-0.77027 
32 1:0.420119 2:0.275676 3:0.185186 4:0.677149 5:-0.717172 6:0.173551 7:0.296297 8:-0.85861 9:-0.898152 10:-0.760757 11:-0.964408 12:-0.20171 13:-0.461189 14:-0.208889 15:-0.122422 16:-0.237805 17:-0.435899 18:0.111112 21:-0.185187 22:-0.635531 23:-0.684786 24:-0.695505 27:0.091667 28:-0.690141 29:0.69924 30:0.071428 31:-0.259258 32:0.555556 35:-0.635531 36:-0.684786 37:0.517741 40:-0.635135 
32 1:0.261502 2:-0.255711 3:-0.407408 4:0.383649 5:-0.858586 6:0.0413203 7:0.111112 8:-0.648324 9:-0.785426 10:-0.843341 11:-0.99328 12:-0.400126 13:-0.297209 14:-0.0222222 15:-0.502845 16:-0.389736 17:-0.0598298 18:0.777778 21:0.0185185 22:-0.737219 23:-0.807482 24:-0.746055 27:-0.61117 28:-0.28169 29:-0.444416 30:-0.37931 31:-1 32:0.777778 35:-0.737219 36:-0.807482 37:-0.969783 40:-0.22973 
32 1:0.262156 2:-0.21282 3:-0.179488 4:0.248187 5:-0.412586 6:-0.393517 7:-0.102563 8:-0.977604 9:-0.989044 10:-0.941325 11:-0.985684 12:-0.538607 13:-0.0260416 14:0.0933333 15:-0.0739047 16:-0.186851 17:0.171596 18:0.692308 21:-0.0128205 22:-0.950986 23:-0.971212 24:-0.397638 27:-0.616852 28:0.056338 29:-0.042328 30:-0.195122 31:-0.74359 32:0.692308 35:-0.950986 36:-0.971212 37:-0.78985 40:0.0945946 
32 1:-0.0427775 2:-0.180984 3:-0.19192 4:0.783877 5:-0.305785 6:-0.175058 7:0.212122 8:-0.794272 9:-0.889261 10:-0.869617 11:-0.958717 12:-0.395845 13:-0.697844 14:0.137778 15:-0.610853 16:-0.497259 17:-0.692308 18:-0.09091 21:-0.333335 22:-0.803934 23:-0.873279 24:-0.961207 27:-0.729463 28:-0.183099 29:-0.545662 30:-0.476924 31:-0.69697 32:-0.09091 35:-0.803934 36:-0.873279 37:-0.88502 40:-0.135135 
32 1:0.59131 2:-0.194032 3:0.269842 4:0.886793 5:-0.636364 6:0.168829 7:0.428572 8:-0.965864 9:-0.977114 10:-0.951512 11:-0.990881 12:-0.155622 13:-0.0613785 14:-0.128889 15:0.510596 16:0.336502 17:0.20879 18:1 21:0.571428 22:-0.918961 23:-0.934779 24:-0.118296 27:0.0488935 28:-0.746479 29:0.702918 30:0.25 31:-0.52381 32:0.714286 35:-0.918961 36:-0.934779 37:0.034184 40:-0.689189 
12.05993009698245 1:-0.0532728 2:-0.389459 3:-0.555556 4:0.603774 5:-0.151513 6:-0.280992 7:0.25 8:-0.847424 9:-0.929967 10:-0.959689 11:-0.938204 12:-0.502915 13:-0.502015 14:0.386667 15:-0.0702926 16:-0.265658 17:0.269229 18:1 21:-0.236111 22:-0.945241 23:-0.969823 24:-0.297902 27:-0.753007 28:0.169014 29:-0.038942 30:-0.266666 31:-0.444445 32:1 35:-0.945241 36:-0.969823 37:-0.650725 40:0.202703 
32 1:0.463817 2:-0.0095046 3:0.269842 4:0.886793 5:-0.272727 6:0.253835 7:0.428572 8:-0.996352 9:-0.997418 10:-0.290772 11:-0.959938 12:-0.311014 13:-0.793951 14:-0.173333 15:0.546184 16:0.264117 17:0.450547 18:0.714286 21:0.309523 22:-0.979374 23:-0.982526 24:-0.0505549 27:-0.0477036 28:-0.704225 29:0.9094 30:0.36 31:-1 32:0.714286 35:-0.979374 36:-0.982526 37:-0.222368 40:-0.675676 
32 1:0.375797 2:-0.276271 3:-0.703703 4:0.603774 5:-0.257575 6:-0.0578531 7:0.25 8:-0.916257 9:-0.960179 10:-0.852545 11:-0.983625 12:-0.32104 13:-0.249119 14:0.431111 15:0.045351 16:-0.138818 17:-0.717949 18:0.5 21:0.0694429 22:-0.914596 23:-0.95124 24:-0.78333 27:-0.619658 28:-0.169014 29:0.069462 30:-0.151516 31:-0.305557 32:0.5 35:-0.914596 36:-0.95124 37:-0.948823 40:-0.121622 
32 1:0.0654299 2:-0.275334 3:-0.492064 4:0.132077 5:-0.545455 6:-0.128691 7:-0.0476183 8:-0.922874 9:-0.966227 10:-0.959668 11:-0.966627 12:-0.355803 13:-0.501604 14:0.511111 15:-0.45548 16:-0.468208 17:-0.879121 18:-0.142858 21:-0.214287 22:-0.565807 23:-0.771695 24:-0.901941 27:-0.760314 28:0.183099 29:-0.400016 30:-0.45055 31:-0.404763 32:-0.142858 35:-0.565807 36:-0.771695 37:-0.941528 40:0.216216 
24.46929593230337 1:-0.15867 2:-0.263961 3:0.0666667 4:0.735849 5:-0.618182 6:-0.077687 7:0.166667 8:-0.996474 9:-0.998044 10:-0.900535 11:-0.981938 12:-0.412206 13:-0.766454 14:0.146667 15:0.112437 16:0.0280783 17:0.353844 18:0.4 21:-0.0833341 22:-0.943684 23:-0.962555 24:-0.364912 27:-0.478056 28:-0.338028 29:0.132348 31:-0.5 32:0.4 35:-0.943684 36:-0.962555 37:-0.840102 40:-0.283784 
21.73183527559123 1:0.232323 2:-0.0938026 3:0.0666667 4:0.471698 5:-0.490909 6:-0.0181814 8:-0.755133 9:-0.860185 10:-0.616769 11:-0.977527 12:-0.28896 13:-0.737742 14:0.0311111 15:0.497848 16:0.119872 17:-0.153847 18:0.2 21:-0.816667 22:-0.908941 23:-0.937571 24:-0.243743 27:-0.930536 28:-0.422535 29:0.984824 30:0.846154 31:-0.5 35:-0.908941 36:-0.937571 37:0.51749 40:-0.837838 
32 1:0.0504438 2:-0.218703 3:-0.555556 4:0.603774 5:-0.469696 6:-0.0826454 7:0.25 8:-0.878824 9:-0.942379 10:-0.897093 11:-0.976171 12:-0.433334 13:-0.4841 14:0.306667 15:-0.445768 16:-0.29772 17:-0.435899 18:0.166666 21:-0.0833341 22:-0.672942 23:-0.813261 24:-0.828549 27:-0.619482 28:-0.0985915 29:-0.862501 30:-0.555556 31:-1 32:-1 35:-0.672942 36:-0.813261 37:-1 40:-0.891892 
32 1:0.547163 2:0.00998255 3:0.52381 4:0.886793 5:-0.636364 6:0.381343 7:-0.285715 8:-0.922585 9:-0.940828 10:-0.0651559 11:-0.999269 12:-0.36285 13:-0.830838 14:-0.208889 15:0.443895 16:0.0280783 17:0.450547 18:0.714286 21:0.047619 22:-0.978322 23:-0.9801 24:0.30738 27:-0.0547974 28:-0.760563 29:0.963644 30:0.714286 31:-0.761905 32:0.428572 35:-0.978322 36:-0.9801 37:-0.383048 40:-0.918919 
32 1:-0.0389949 2:-0.142091 3:-0.555556 4:0.383649 5:0.0606077 6:-0.13223 7:0.111112 8:-0.881253 9:-0.939586 10:-0.925829 11:-0.961251 12:-0.467445 13:-0.540242 14:0.271111 15:0.0750225 16:-0.0691147 17:-0.576924 18:0.166666 21:-0.0833341 22:-0.893833 23:-0.935147 24:-0.823649 27:-0.625151 28:-0.140845 29:0.097276 30:-0.088236 31:-0.583333 32:0.166666 35:-0.893833 36:-0.935147 37:-0.924222 40:-0.0945946 
32 1:0.254444 2:0.0474375 3:0.382716 4:0.677149 5:-0.575758 6:0.272725 7:-0.0740733 8:-0.983914 9:-0.990451 10:-0.72773 11:-0.973388 12:-0.19813 13:-0.70342 14:0.00444444 15:0.272994 16:-0.16349 17:-0.247865 18:0.111112 21:-0.592593 22:-0.936284 23:-0.954606 24:-0.465506 27:-0.898658 28:-0.450704 29:0.747974 31:-0.814815 32:-0.333334 35:-0.936284 36:-0.954606 37:-0.0868892 40:-0.824324 
32 1:0.0868626 2:-0.440748 3:-0.525925 4:0.559748 5:-0.660606 6:-0.395041 7:0.111112 8:-0.969473 9:-0.986651 10:-0.926655 11:-0.958068 12:-0.498496 13:-0.34424 14:0.493333 15:-0.235774 16:-0.409508 17:-0.323078 18:0.066666 21:-0.511111 22:-0.964739 23:-0.981488 24:-0.380508 27:-0.692847 28:-0.0704225 29:-0.194064 30:-0.39726 31:-0.777778 32:0.066666 35:-0.964739 36:-0.981488 37:-0.738455 40:-0.027027 
32 1:0.227386 2:-0.423798 3:0.185186 4:0.823899 5:-1 6:0.289256 7:0.388888 8:-0.248302 9:-0.478507 10:-0.59931 11:-1 12:-0.469801 13:-0.516791 14:-0.0844444 15:0.434387 16:0.232063 17:0.692305 18:1 21:0.222222 22:-0.970753 23:-0.975632 24:0.108202 27:-0.195982 28:-0.71831 29:0.844108 30:0.25 31:-0.166667 32:1 35:-0.970753 36:-0.975632 37:-0.015246 40:-0.689189 
32 1:0.0232233 2:-0.285834 3:0.382716 4:0.677149 5:-1 6:-0.157026 7:-0.0740733 8:-0.964412 9:-0.978949 10:-0.771146 11:-1 12:-0.47485 13:-0.581131 14:-0.102222 15:0.184724 16:0.0280783 17:0.316238 18:0.777778 21:0.0185185 22:-0.966935 23:-0.976518 24:-0.258375 27:-0.346001 28:-0.422535 29:0.485112 30:0.444444 31:-0.259258 32:0.777778 35:-0.966935 36:-0.976518 37:-0.324584 40:-0.77027 
32 1:0.532283 2:-0.0100564 3:0.0158738 4:0.509435 5:0.0909107 6:0.168829 7:0.190477 8:-0.159976 9:-0.391288 10:-0.495368 11:-0.977099 12:-0.361006 13:-0.40139 14:-0.217778 15:0.559634 16:0.128217 17:0.692305 18:1 21:0.047619 22:-0.917962 23:-0.928613 24:0.0318071 27:-0.0244975 28:-0.633803 29:0.877136 30:0.272728 31:-0.0476183 32:1 35:-0.917962 36:-0.928613 37:0.570174 40:-0.716216 
2.459497173649401 1:0.395416 2:0.114362 3:0.481481 4:0.823899 5:-0.151513 6:0.388429 7:0.388888 8:-0.153843 9:-0.308162 10:-0.740719 11:-0.928933 12:-0.308496 13:-0.42115 14:-0.315556 15:0.749933 16:0.39525 17:0.692305 18:1 21:-0.0833341 22:-0.914322 23:-0.915877 24:0.489267 27:-0.210376 28:-0.802817 29:0.970686 30:0.647058 31:-0.444445 32:1 35:-0.914322 36:-0.915877 37:0.627361 40:-0.783784 
32 1:0.413826 2:-0.0872667 3:-0.163399 4:0.0210885 5:0.197862 6:-0.203695 7:-0.411765 8:-0.356551 9:-0.752149 10:-0.812917 11:-0.948812 12:-0.0833727 13:-0.573941 14:0.733333 15:0.172305 16:-0.174831 17:-0.601811 18:0.058824 21:-0.137256 22:-0.993338 23:-0.996925 24:-0.789157 27:-0.390806 28:-0.028169 29:0.188468 30:-0.18421 31:-0.607843 32:0.058824 35:-0.993338 36:-0.996925 37:-0.82523 40:0.0135135 
32 1:0.619859 2:-0.134965 3:0.269842 4:0.886793 5:-0.272727 6:0.0838232 7:0.190477 8:-0.187305 9:-0.425614 10:-0.913522 11:-0.997444 12:-0.185802 13:-0.022767 14:-0.2 15:0.287886 16:0.228353 17:-0.274727 18:0.142858 21:-0.476191 22:-0.542169 23:-0.611465 24:-0.569251 27:-0.522953 28:-0.788732 29:0.423306 30:0.2 31:-0.761905 32:0.142858 35:-0.542169 36:-0.611465 37:-0.84913 40:-0.743243 
32 1:-0.124333 2:-0.372494 3:0.185186 4:0.383649 5:-0.717172 6:-0.355373 7:-0.0740733 8:-0.787667 9:-0.861705 10:-0.619229 11:-0.992303 12:-0.71663 13:-0.647212 14:-0.164444 15:-0.464714 16:-0.366803 17:-0.623933 18:-0.555556 21:-0.592593 22:-0.969015 23:-0.975766 24:-0.861008 27:-0.849431 28:-0.352113 29:-0.408672 30:-0.35849 31:-1 32:-0.555556 35:-0.969015 36:-0.975766 37:-0.984 40:-0.297297 
32 1:0.352767 2:-0.0938026 3:-0.288889 4:0.735849 5:-0.363636 6:-0.107438 7:0.166667 8:-0.111646 9:-0.448106 10:-0.598755 11:-0.973379 12:-0.289315 13:-0.608204 14:-0.04 15:0.0849158 16:-0.166306 17:0.353844 18:0.8 21:-0.45 22:-0.980867 23:-0.985725 24:0.152052 27:-0.530494 28:-0.619718 29:0.374256 30:0.058824 31:-0.833333 32:0.6 35:-0.980867 36:-0.985725 37:-0.89598 40:-0.783784 
32 1:0.420164 2:-0.315754 3:0.333333 4:0.603774 5:-0.363636 6:0.0785127 7:0.0416667 8:-0.865967 9:-0.919793 10:-0.874812 11:-0.990933 12:-0.351811 13:-0.122415 14:0.0933333 15:0.230506 16:0.0536951 17:0.480767 18:1 21:0.604165 22:-0.876866 23:-0.911527 24:-0.271578 27:0.0448837 28:-0.492958 29:0.800322 30:0.333334 31:-0.583333 32:0.25 35:-0.876866 36:-0.911527 37:-0.040552 40:-0.891892 
32 1:0.173382 2:0.138501 3:-0.407408 4:0.383649 5:-0.575758 6:-0.479339 7:-0.305555 8:-0.959367 9:-0.979814 10:-0.748548 11:-0.920766 12:-0.255234 13:-0.769521 14:-0.431111 15:-0.13737 16:-0.263126 17:-0.153847 18:0.166666 21:-0.541667 22:-0.940168 23:-0.964314 24:-0.730556 27:-0.867773 28:0.126761 29:-0.10182 30:-0.264368 31:-0.583333 32:0.166666 35:-0.940168 36:-0.964314 37:-0.885528 40:0.162162 
12.49176933261564 1:0.336547 2:0.226245 3:-0.604939 4:0.97065 5:-0.151513 6:0.272725 7:0.481482 8:-0.973163 9:-0.983279 10:-0.919466 11:-0.929999 12:0.0161248 13:-0.697373 14:-0.102222 15:0.231342 16:-0.0525193 17:-0.811966 18:-0.111112 21:-0.185187 22:-0.185749 23:-0.391057 24:-0.826524 27:-0.284322 28:-0.521127 29:0.684138 30:0.333334 31:-0.814815 32:-0.555556 35:-0.185749 36:-0.391057 37:-0.321098 40:-0.851351 
19.98302652943367 1:-0.12821 2:-0.0511951 3:0.131314 4:0.303603 5:-0.305785 6:0.149509 7:-0.242425 8:-0.968377 9:-0.984507 10:-0.639953 11:-0.988213 12:-0.496456 13:-0.904592 14:0.271111 15:0.137054 16:-0.123855 17:0.230768 18:0.818182 21:0.166666 22:-0.998361 23:-0.999039 24:-0.231681 27:-0.187526 28:-0.28169 29:0.155424 30:-0.137932 31:-0.848485 32:0.818182 35:-0.998361 36:-0.999039 37:-0.901186 40:-0.22973 
32 1:-0.257974 2:-0.0830079 3:0.0666667 4:0.471698 5:-0.490909 6:-0.107438 8:-0.967435 9:-0.980163 10:-0.847721 11:-0.987143 12:-0.629026 13:-0.678794 14:-0.0488889 15:0.471057 16:0.0280783 17:0.0153831 18:0.6 21:0.0999991 22:-0.926459 23:-0.94622 24:0.00601152 27:-0.0875385 28:-0.507042 29:0.864934 30:0.23077 31:-0.166667 32:0.6 35:-0.926459 36:-0.94622 37:0.193396 40:-0.662162 
32 1:0.121831 2:-0.108522 3:0.382716 4:0.677149 5:-0.434343 6:-0.0578531 7:-0.0740733 8:-0.705565 9:-0.819454 10:-0.164926 11:-0.993844 12:-0.606404 13:-0.968575 14:-0.0755556 15:0.224498 16:0.207394 17:-0.435899 18:-0.111112 21:-0.38889 22:-0.879538 23:-0.911306 24:-0.720607 27:-0.806976 28:-0.492958 29:0.101786 30:0.294118 31:-0.62963 32:-0.333334 35:-0.879538 36:-0.911306 37:-0.786524 40:-0.783784 
32 1:-0.27555 2:-0.426984 3:0.0158738 4:0.886793 5:-0.272727 6:-0.2562 7:0.428572 8:-0.182978 9:-0.432698 10:-0.94148 11:-0.984642 12:-0.648273 13:-0.576788 14:-0.173333 15:0.319979 16:-0.161838 17:0.450547 18:1 21:-0.214287 22:-0.932008 23:-0.943308 24:0.0836389 27:-0.65092 28:-0.690141 29:0.764218 30:0.333334 31:-0.285713 32:1 35:-0.932008 36:-0.943308 37:0.19723 40:-0.77027 
32 1:0.813023 2:0.0904375 3:0.0158738 4:0.509435 5:0.0909107 6:0.296338 7:0.190477 8:-0.993219 9:-0.994834 10:-0.0464383 11:-0.973869 12:-0.203902 13:-0.735573 14:-0.217778 15:0.568299 16:0.185438 17:0.450547 18:0.714286 21:-0.214287 22:-0.988086 23:-0.989117 24:0.537779 27:-0.239532 28:-0.802817 29:0.823658 30:0.142858 31:0.190477 32:0.714286 35:-0.988086 36:-0.989117 37:0.417512 40:-0.824324 
32 1:-0.276946 2:-0.323883 3:0.111111 4:0.603774 5:-0.363636 6:-0.14463 7:0.25 8:-0.929475 9:-0.953809 10:-0.866337 11:-0.976891 12:-0.618284 13:-0.706576 14:-0.0666667 15:0.168042 16:0.134676 17:0.0576907 18:0.5 21:-0.0833341 22:-0.981143 23:-0.985169 24:-0.0870878 27:-0.443287 28:-0.661972 29:0.338932 30:-0.071428 31:-0.375 32:0.25 35:-0.981143 36:-0.985169 37:0.0592844 40:-0.635135 
21.20053104067712 1:0.352835 2:0.098652 3:0.333333 4:0.603774 5:-0.363636 6:-0.0330568 7:0.0416667 8:-0.237829 9:-0.428022 10:-0.220978 11:-0.992054 12:-0.368392 13:-0.907395 14:-0.306667 15:-0.594584 16:-0.438663 17:-0.576924 18:-0.25 21:-0.312501 22:-0.913508 23:-0.922055 24:-0.831284 27:-0.793555 28:-0.267606 29:-0.530412 30:-0.423728 31:-0.791667 32:-0.25 35:-0.913508 36:-0.922055 37:-0.992955 40:-0.216216 
32 1:-0.127227 2:-0.422838 3:0.111111 4:0.603774 5:-1 6:-0.181819 7:0.0416667 8:-0.134212 9:-0.448259 10:-0.663839 11:-1 12:-0.523672 13:-0.83095 14:-0.146667 15:0.65791 16:0.39525 17:0.0576907 18:0.5 21:0.145832 22:-0.903129 23:-0.925872 24:-0.102762 27:0.385258 28:-0.802817 29:0.945876 30:0.333334 31:-0.166667 32:0.25 35:-0.903129 36:-0.925872 37:0.763582 40:-0.851351 
32 1:0.64804 2:-0.0511951 3:0.269842 4:0.509435 5:-0.272727 6:0.168829 7:-0.0476183 8:-0.204354 9:-0.413859 10:-0.42259 11:-0.995449 12:0.155614 13:-0.950372 14:-0.235556 15:0.409604 16:-0.211382 17:0.20879 18:0.428572 21:-0.214287 22:-0.98699 23:-0.988485 24:0.410923 27:-0.230284 28:-0.774648 29:0.857962 30:0.375 31:-0.285713 32:0.714286 35:-0.98699 36:-0.988485 37:0.752613 40:-0.797297 
32 1:0.184182 2:-0.0134331 3:0.185186 4:0.383649 5:-0.0100994 6:0.107436 7:-0.25926 8:-0.926599 9:-0.956227 10:-0.540067 11:-0.965192 12:-0.34651 13:-0.82594 14:-0.0133333 15:0.553622 16:0.176932 17:0.316238 18:0.777778 21:0.222222 22:-0.989414 23:-0.992419 24:-0.0390103 27:-0.0261121 28:-0.577465 29:0.721458 30:0.25926 31:-0.814815 32:0.777778 35:-0.989414 36:-0.992419 37:-0.012186 40:-0.648649 
32 1:0.442711 2:-0.0467964 3:0.333333 4:0.603774 5:-0.204545 6:0.673553 7:-1 8:-0.758188 9:-0.861362 10:-0.443913 11:-0.987211 12:-0.00458049 13:-1 14:0.128889 15:0.682393 16:0.39525 17:0.480767 18:0.75 21:-1 22:-0.887396 23:-0.922483 24:0.0793005 27:-1 28:-0.633803 29:1 30:1 31:-0.166667 35:-0.887396 36:-0.922483 37:-0.897431 40:-0.824324 
32 1:-0.26016 2:0.202014 3:0.382716 4:0.677149 5:-0.151513 6:0.173551 7:0.296297 8:-0.862823 9:-0.914184 10:-0.796004 11:-0.965558 12:-0.652458 13:-0.732765 14:-0.0666667 15:-0.265576 16:-0.192224 17:-0.623933 18:-0.333334 21:-0.796297 22:-0.857889 23:-0.893257 24:-0.887524 27:-0.884281 28:-0.676056 29:-0.81504 30:-0.571428 31:-1 32:-1 35:-0.857889 36:-0.893257 37:-1 40:-0.824324 
32 1:0.147933 2:-0.423798 3:0.111111 4:0.603774 5:-0.363636 6:-0.2562 7:0.0416667 8:-0.173073 9:-0.481765 10:-0.474108 11:-0.986033 12:-0.516844 13:-0.713003 14:-0.0844444 15:-0.431977 16:-0.381054 17:-0.576924 21:-0.312501 22:-0.491398 23:-0.617278 24:-0.699682 27:-0.782154 28:-0.605634 29:-0.716054 30:-0.368422 31:-0.791667 32:-0.25 35:-0.491398 36:-0.617278 37:-0.916831 40:-0.756757 
32 1:0.105257 2:-0.10947 3:-0.111111 4:0.603774 5:-1 6:0.190082 7:0.25 8:-0.758456 9:-0.84822 10:-0.844111 11:-1 12:-0.278906 13:-0.637333 14:-0.146667 15:0.505845 16:0.293961 17:0.480767 18:0.75 21:-0.0833341 22:-0.795981 23:-0.846069 24:-0.123462 27:-0.571825 28:-0.690141 29:0.153022 30:0.111112 31:-0.583333 35:-0.795981 36:-0.846069 37:-0.921762 40:-0.891892 
32 1:0.0022283 2:-0.328476 3:0.0940178 4:0.45138 5:-0.706293 6:-0.233314 7:-0.358975 8:-0.709525 9:-0.858953 10:-0.767005 11:-0.980197 12:-0.44103 13:-0.675155 14:0.333333 15:0.0713271 16:-0.205577 17:-0.218937 18:0.384616 21:-0.294873 22:-0.929824 23:-0.959087 24:-0.608097 27:-0.470112 28:-0.169014 29:0.093812 30:-0.212122 31:-0.871795 32:0.384616 35:-0.929824 36:-0.959087 37:-0.99005 40:-0.121622 
32 1:0.667905 2:0.203898 3:0.111111 4:0.603774 5:-0.522726 6:0.450414 7:0.0416667 8:-0.790344 9:-0.854284 10:-0.775964 11:-0.989063 12:-0.277564 13:-0.00925503 14:-0.146667 15:0.455486 16:0.174947 17:-0.365386 18:0.25 21:-0.541667 22:-0.857601 23:-0.881163 24:-0.708883 27:-0.672889 28:-0.676056 29:0.869932 30:0.333334 31:-0.791667 32:0.5 35:-0.857601 36:-0.881163 37:-0.553858 40:-0.608108 
32 1:-0.388562 2:-0.0903559 3:0.0666667 4:0.735849 5:-0.363636 6:-0.107438 7:0.166667 8:-0.372379 9:-0.621946 10:-0.682328 11:-0.986122 12:-0.729744 13:-0.904584 14:0.00444444 15:-0.34363 16:-0.458636 17:-0.153847 21:-0.633334 22:-0.681949 23:-0.769963 24:-0.435477 27:-0.854527 28:-0.492958 29:-0.34094 30:-0.411764 31:-0.666667 32:-0.2 35:-0.681949 36:-0.769963 37:-0.541241 40:-0.783784 
-22.77788556044307 1:0.609706 2:-0.437045 3:-0.604939 4:0.383649 5:-0.292929 6:-0.157026 7:0.111112 8:-0.912037 9:-0.951666 10:-0.980897 11:-0.990839 12:-0.205592 13:0.0558921 14:0.0844444 15:0.442819 16:-0.106253 17:0.128204 18:1 21:0.222222 22:-0.989201 23:-0.992876 24:-0.0573443 27:0.0632419 28:-0.521127 29:0.934906 30:0.777778 31:-0.259258 32:0.333334 35:-0.989201 36:-0.992876 37:-0.012074 40:-0.891892 
-32 1:0.633433 2:-0.0120459 3:0.0158738 4:0.886793 5:-0.0909074 6:-0.0436854 7:0.190477 8:-0.259571 9:-0.355464 10:-0.32307 11:-0.959055 12:-0.101828 13:-0.800696 14:-0.351111 15:0.426427 16:0.248381 17:0.20879 18:0.714286 21:0.047619 22:-0.97704 23:-0.97599 24:-0.061985 27:-0.0160912 28:-0.816901 29:0.931824 30:0.466666 31:0.190477 32:0.714286 35:-0.97704 36:-0.97599 37:0.6826 40:-0.810811 
-32 1:-0.463086 2:-0.45565 3:0.555556 4:0.603774 5:-0.204545 6:-0.2562 7:0.25 8:-0.873895 9:-0.922127 10:-0.880938 11:-0.991151 12:-0.707041 13:-0.803106 14:0.0755556 15:-0.349079 16:-0.192224 17:-0.365386 18:-0.25 21:-0.770834 22:-0.375144 23:-0.536707 24:-0.798615 27:-0.933552 28:-0.535211 29:-1 30:-1 31:-1 32:-1 35:-0.375144 36:-0.536707 37:-1 40:-0.932432 
-32 1:0.133851 2:-0.0678495 3:0.185186 4:0.677149 5:-0.151513 6:-0.0909108 7:0.111112 8:-0.91206 9:-0.943087 10:-0.671241 11:-0.979893 12:-0.48259 13:-0.562299 14:-0.0844444 15:0.361413 16:0.0280783 17:-0.0598298 18:0.333334 21:-0.185187 22:-0.972053 23:-0.978282 24:-0.0531967 27:-0.425778 28:-0.647887 29:0.187628 30:0.428572 31:-0.814813 32:0.555556 35:-0.972053 36:-0.978282 37:-0.69132 40:-0.824324 
-12.46248341483088 1:0.510805 2:-0.448247 3:-0.407408 4:0.677149 5:-0.717172 6:-0.0909108 7:-0.0740733 8:0.774499 9:0.0485327 10:-0.762983 11:-0.942238 12:-0.472929 13:-0.0331366 14:0.0666667 15:-0.746846 16:-0.557832 17:-0.623933 18:0.111112 21:-0.38889 22:0.507547 23:0.0696101 24:-0.856657 27:-0.754785 28:-0.43662 29:-0.673142 30:-0.531914 31:-0.814815 32:0.111112 35:0.507547 36:0.0696101 37:-0.969493 40:-0.378378 
-32 1:0.484004 2:0.0176026 3:0.481481 4:0.823899 5:-0.363636 6:0.438014 7:0.111112 8:-0.173537 9:-0.337901 10:-0.666713 11:-0.885554 12:-0.250276 13:-0.507806 14:-0.28 15:0.580178 16:0.128217 17:0.410254 18:0.666666 21:-0.0833341 22:-0.926006 23:-0.928814 24:0.36901 27:-0.209041 28:-0.788732 29:0.97673 30:0.473684 31:0.111112 32:0.666666 35:-0.926006 36:-0.928814 37:0.754973 40:-0.756757 
-32 1:0.335149 2:0.0386673 3:0.269842 4:0.886793 5:-0.454545 6:0.168829 7:0.428572 8:-0.143121 9:-0.322666 10:-0.758464 11:-0.990024 12:-0.260843 13:-0.471854 14:-0.271111 15:0.72777 16:0.64003 17:0.20879 18:0.428572 21:-0.214287 22:-0.907962 23:-0.912635 24:0.20605 27:-0.387546 28:-0.84507 29:0.937398 30:0.68421 31:-0.761905 32:0.428572 35:-0.907962 36:-0.912635 37:0.36058 40:-0.756757 
-32 1:0.293256 2:-0.370481 3:-0.555556 4:0.273585 5:-0.522726 6:-0.200415 7:0.145833 8:-0.671592 9:-0.873848 10:-0.761449 11:-0.966753 12:-0.401583 13:-0.373533 14:0.857778 15:-0.00418403 16:-0.208956 17:-0.894231 18:-0.125 21:-0.197917 22:-0.859312 23:-0.935114 24:-0.954661 27:-0.460179 28:0.0140845 29:0.201922 31:-0.6875 32:-0.375 35:-0.859312 36:-0.935114 37:-0.321196 40:-0.851351 
-32 1:0.377168 2:-0.154518 3:-0.238096 4:0.886793 5:-0.0909074 6:0.211332 7:0.428572 8:-0.0750631 9:-0.406296 10:-0.9733 11:-0.977644 12:-0.323185 13:-0.117974 14:-0.111111 15:0.0107915 16:-0.137149 17:-0.0329678 18:0.714286 21:0.047619 22:-0.867993 23:-0.898255 24:-0.263515 27:-0.540729 28:-0.535211 29:0.647824 31:-0.761903 32:0.428572 35:-0.867993 36:-0.898255 37:0.283932 40:-0.662162 
-32 1:0.377854 2:-0.113231 3:0.269842 4:0.509435 5:0.0909107 6:-0.213697 7:-0.0476183 8:-0.828389 9:-0.863888 10:-0.0327805 11:-0.973265 12:-0.47654 13:-0.969962 14:-0.36 15:0.571345 16:0.185438 17:-0.516485 18:-0.428572 21:-1 22:-0.837439 23:-0.845189 24:-0.453051 27:-1 28:-0.901408 29:1 30:1 31:-0.761905 32:-0.714286 35:-0.837439 36:-0.845189 37:1 40:-1 
-32 1:0.100527 2:-0.279698 3:-0.466667 4:0.735849 5:-0.363636 6:-0.0181814 7:0.166667 8:-0.577821 9:-0.779568 10:-0.959486 11:-0.975212 12:-0.364229 13:-0.437589 14:0.191111 15:0.069168 16:0.0280783 17:-0.153847 18:0.6 21:-0.266667 22:-0.700371 23:-0.812153 24:-0.673784 27:-0.651722 28:-0.366197 29:0.646224 30:0.6 31:-0.833333 32:-0.8 35:-0.700371 36:-0.812153 37:-0.59562 40:-0.945946 
-32 1:-0.222672 2:-0.292983 3:0.0666667 4:0.471698 5:-0.618182 6:-0.226445 7:-0.166667 8:-0.808848 9:-0.892989 10:-0.853607 11:-0.98618 12:-0.425391 13:-0.878954 14:-0.0133333 15:-0.518644 16:-0.500044 17:-0.323078 21:-0.266667 22:-0.536856 23:-0.688684 24:-0.849988 27:-0.702063 28:-0.0704225 29:-0.459226 30:-0.479452 31:-1 35:-0.536856 36:-0.688684 37:-0.946478 40:-0.027027 
-32 1:-0.0605673 2:-0.506775 3:-0.444444 4:0.273585 5:-0.124999 6:-0.479339 7:-0.0625 8:-0.966573 9:-0.987662 10:-0.904785 11:-0.940369 12:-0.417615 13:-0.674491 14:0.768889 15:-0.148315 16:-0.220011 17:-0.259617 18:0.375 21:-0.427084 22:-0.955038 23:-0.980073 24:-0.683365 27:-0.819469 28:0.464789 29:-0.11208 30:-0.225226 31:-0.791667 32:0.375 35:-0.955038 36:-0.980073 37:-0.878623 40:0.486486 
-32 1:-0.529807 2:-0.163191 3:0.269842 4:0.509435 5:-0.818182 6:0.0838232 7:0.190477 8:-0.833783 9:-0.886792 10:-0.914522 11:-0.997053 12:-0.694296 13:-0.860439 14:-0.253333 15:-0.602235 16:-0.619871 17:-0.516485 18:-0.142858 21:-0.476191 22:-0.70844 23:-0.761573 24:-0.959309 27:-0.915968 28:-0.140845 29:-0.537584 30:-0.588236 31:-1 32:-0.142858 35:-0.70844 36:-0.761573 37:-0.983801 40:-0.0945946 
-32 1:0.626878 2:-0.183175 3:0.111111 4:0.933962 5:-0.363636 6:-0.0330568 7:0.0416667 8:-0.965286 9:-0.976395 10:-0.451698 11:-0.987948 12:-0.367308 13:-0.309751 14:-0.137778 15:-0.365563 16:-0.395581 17:-0.153847 21:-1 22:-0.190368 23:-0.339167 24:-0.563484 27:-1 28:-0.732394 29:-0.294254 30:-0.272728 31:-0.166667 35:-0.190368 36:-0.339167 37:-0.7779 40:-0.716216 
-32 1:0.884259 2:0.228499 3:0.481481 4:0.823899 5:-1 6:0.785122 7:0.388888 8:-0.934355 9:-0.943127 10:0.0720551 11:-1 12:-0.478919 13:-0.409221 14:-0.297778 15:0.709385 16:0.336502 17:0.692305 18:1 21:0.527776 22:-0.995874 23:-0.995697 24:0.143428 27:0.478989 28:-0.746479 29:0.981532 30:0.538462 31:-1 32:1 35:-0.995874 36:-0.995697 37:-0.42444 40:-0.662162 
-32 1:-0.166433 2:-0.437628 3:-0.353536 4:0.303603 5:-0.305785 6:-0.229153 7:0.0606067 8:0.35527 9:-0.340155 10:-0.933869 11:-0.973418 12:-0.53117 13:-0.602286 14:0.333333 15:-0.46592 16:-0.515705 17:-0.538463 18:0.272728 21:-0.166668 22:-0.58449 23:-0.757092 24:-0.901104 27:-0.628522 28:0.0140845 29:-0.409802 30:-0.49367 31:-0.69697 32:0.272728 35:-0.58449 36:-0.757092 37:-0.873209 40:0.0540541 
-32 1:0.643569 2:-0.20729 3:0.269842 4:0.509435 5:-0.454545 6:-0.128691 7:0.190477 8:-0.99835 9:-0.998626 10:-0.923287 11:-0.99246 12:-0.290993 13:0.142321 14:-0.297778 15:0.3004 16:-0.0566544 17:0.20879 18:1 21:0.309523 22:-0.993111 23:-0.993172 24:0.0238494 27:-0.170231 28:-0.732394 29:0.694168 30:-0.166666 31:-1 32:0.142858 35:-0.993111 36:-0.993172 37:-0.151622 40:-0.851351 
-32 1:0.204189 2:-0.274619 3:0.185186 4:0.677149 5:-0.292929 6:-0.2562 7:0.296297 8:-0.811038 9:-0.885212 10:-0.511436 11:-0.943019 12:-0.575603 13:-0.573752 14:-0.0311111 15:0.0030829 16:-0.298295 17:-0.0598298 18:0.777778 21:0.222222 22:-0.984406 23:-0.988624 24:-0.436414 27:-0.465693 28:-0.338028 29:0.02984 30:-0.296296 31:-0.814815 32:0.777778 35:-0.984406 36:-0.988624 37:-0.895282 40:-0.283784 
-32 1:-0.132746 2:-0.352552 3:0.269842 4:0.509435 5:-0.272727 6:-0.341206 7:0.190477 8:-0.834632 9:-0.880162 10:-0.818912 11:-0.979613 12:-0.585834 13:-0.612254 14:-0.297778 15:-0.502203 16:-0.522678 17:-0.0329678 18:0.428572 21:-0.214287 22:-0.797844 23:-0.824103 24:-0.758166 27:-0.773493 28:-0.366197 29:-0.443814 30:-0.5 31:-0.761903 32:0.428572 35:-0.797844 36:-0.824103 37:-0.953621 40:-0.310811 
-32 1:-0.0195517 2:-0.142701 3:-0.0123449 4:0.677149 5:-0.575758 6:0.173551 7:0.111112 8:-0.944075 9:-0.967386 10:-0.743648 11:-0.987928 12:-0.346661 13:-0.836527 14:0.0755556 15:0.381398 16:0.171753 17:0.128204 18:0.777778 21:0.0185185 22:-0.979048 23:-0.98533 24:-0.193634 27:-0.391368 28:-0.450704 29:0.868926 30:0.181818 31:-0.0740733 32:0.333334 35:-0.979048 36:-0.98533 37:0.323325 40:-0.716216 
-32 1:0.2381 2:-0.287613 3:-0.0427342 4:0.45138 5:-0.118881 6:-0.164654 7:-0.102563 8:-0.928547 9:-0.969966 10:-0.461951 11:-0.90196 12:-0.485863 13:-0.739317 14:0.555556 15:0.0269746 16:-0.120776 17:-0.349114 18:0.23077 21:-0.435898 22:-0.643448 23:-0.820034 24:-0.604475 27:-0.641137 28:-0.056338 29:0.052236 30:-0.135136 31:-0.871795 32:0.23077 35:-0.643448 36:-0.820034 37:-0.918086 40:-0.0135135 
-32 1:0.592108 2:-0.299173 3:-0.407408 4:0.383649 5:-0.575758 6:0.0743781 7:-0.0740733 8:-0.979553 9:-0.988424 10:-0.976592 11:-0.946138 12:-0.264067 13:0.0530455 14:0.0755556 15:0.241302 16:-0.0720602 17:0.128204 18:0.777778 21:0.0185185 22:-0.976401 23:-0.983962 24:-0.287006 27:-0.398745 28:-0.323944 29:0.76482 30:0.333334 31:-0.62963 32:0.333334 35:-0.976401 36:-0.983962 37:0.167716 40:-0.851351 
-24.62089035419266 1:0.0595361 2:0.189536 3:0.185186 4:0.823899 5:-0.151513 6:0.388429 7:0.111112 8:-0.863864 9:-0.889186 10:-0.856288 11:-0.981833 12:-0.380156 13:-0.576908 14:-0.395556 15:0.61761 16:0.441145 17:0.128204 18:1 21:0.222222 22:-0.943465 23:-0.944739 24:0.414798 27:-0.0936184 28:-0.873239 29:0.875738 30:0.428572 31:-0.444443 32:1 35:-0.943465 36:-0.944739 37:0.717494 40:-0.824324 
-32 1:0.109118 2:0.0113542 3:0.0158738 4:0.509435 5:-0.636364 6:0.0838232 7:-0.0476183 8:-0.239027 9:-0.40903 10:-0.760707 11:-0.978186 12:-0.253315 13:-0.779111 14:-0.386667 15:0.547396 16:-0.0943129 17:0.20879 18:0.714286 21:-0.476191 22:-0.964853 23:-0.967218 24:0.605271 27:-0.35945 28:-0.84507 29:0.870862 30:-0.058824 31:0.190477 32:0.714286 35:-0.964853 36:-0.967218 37:0.835946 40:-0.783784 
-1.146540239479603 1:0.715518 2:-0.322562 3:-0.19192 4:0.303603 5:-0.53719 6:-0.202105 7:-0.242425 8:-0.832801 9:-0.910328 10:-0.867332 11:-0.997351 12:-0.330527 13:0.226119 14:0.128889 15:0.093529 16:-0.0342717 17:-0.0769237 18:0.636364 22:-0.846647 23:-0.901247 24:-0.524321 27:-0.295743 28:-0.352113 29:0.114624 30:-0.056604 31:-1 32:0.636364 35:-0.846647 36:-0.901247 37:-0.955988 40:-0.297297 
-32 1:0.172108 2:0.0950888 3:-0.466667 4:0.735849 5:-0.363636 6:0.190082 7:0.333333 8:-0.264285 9:-0.583238 10:-0.901023 11:-0.983606 12:-0.231657 13:-0.565074 14:0.0311111 15:-0.292747 16:-0.16963 17:-0.323078 21:-0.633334 22:-0.509415 23:-0.666315 24:-0.716995 27:-0.682078 28:-0.549296 29:0.373664 30:0.6 31:-0.666667 32:-0.6 35:-0.509415 36:-0.666315 37:-0.221386 40:-0.945946 
-32 1:0.141419 2:-0.318894 3:0.0666667 4:1 5:-0.109089 6:-0.226445 7:0.333333 8:-0.97804 9:-0.987828 10:-0.953326 11:-0.987597 12:-0.310221 13:-0.445566 14:0.208889 15:0.317139 16:0.00360051 17:-0.153847 18:0.6 21:-0.0833341 22:-0.9328 23:-0.955288 24:-0.293901 27:-0.40582 28:-0.464789 29:1 30:1 31:-0.333333 32:-0.2 35:-0.9328 36:-0.955288 37:1 40:-0.959459 
-32 1:0.896838 2:-0.0442395 3:-0.111111 4:0.823899 5:-0.363636 6:0.190082 7:0.388888 8:-0.876488 9:-0.891818 10:-0.146383 11:-0.997643 12:-0.571502 13:-0.0409611 14:-0.377778 15:0.475262 16:0.197542 17:0.692305 18:1 21:0.222222 22:-0.918819 23:-0.914622 24:0.123762 27:-0.12013 28:-0.732394 29:0.818596 30:0.172414 31:-0.444438 32:1 35:-0.918819 36:-0.914622 37:0.151318 40:-0.621622 
-28.97595940491223 1:0.328779 2:0.0490579 3:0.0158738 4:0.509435 5:-0.454545 6:0.168829 7:-0.0476183 8:-0.355347 9:-0.474053 10:-0.202393 11:-0.989551 12:-0.510973 13:-0.785733 14:-0.342222 15:-0.34635 16:-0.405851 17:-1 18:-0.428572 21:-0.476191 22:-0.0179885 23:-0.0380009 24:-1 27:-0.678254 28:-0.633803 29:-0.297718 30:-0.39394 31:-0.52381 32:-0.428572 35:-0.0179885 36:-0.0380009 37:-0.831821 40:-0.567568 
-32 1:0.0530061 2:-0.241629 3:-0.407408 4:0.603774 5:-0.575758 6:-0.00826445 7:0.111112 8:-0.954537 9:-0.977744 10:-0.739176 11:-0.984806 12:-0.467639 13:-0.603516 14:0.386667 15:-0.208424 16:-0.339093 17:-0.0128226 18:0.5 21:-0.38889 22:-0.990152 23:-0.994214 24:-0.519204 27:-0.59404 29:-0.168426 30:-0.333334 31:-0.583333 32:0.5 35:-0.990152 36:-0.994214 37:-0.884604 40:0.0405405 
-32 1:0.430903 2:0.103113 3:0.185186 4:0.677149 5:-0.717172 6:0.438014 7:0.296297 8:-0.699798 9:-0.812863 10:-0.79336 11:-0.989314 12:-0.162069 13:-0.433746 14:0.0666667 15:0.666402 16:0.303456 17:0.504271 18:0.777778 21:-0.185187 22:-0.930751 23:-0.948166 24:0.239202 27:0.0817915 28:-0.647887 29:0.731974 30:0.866666 31:0.111112 32:0.777778 35:-0.930751 36:-0.948166 37:0.162148 40:-0.810811 
-32 1:0.301182 2:-0.0863302 3:0.333333 4:0.603774 5:-0.681817 6:0.190082 7:0.0416667 8:-0.259385 9:-0.514614 10:-0.593719 11:-0.984784 12:-0.520346 13:-0.382995 14:-0.0933333 15:0.554682 16:0.248381 17:0.480767 18:1 21:0.145832 22:-0.977329 23:-0.982156 24:0.187948 27:-0.28309 28:-0.676056 29:0.845894 30:0.714286 31:-0.166667 32:0.5 35:-0.977329 36:-0.982156 37:0.41152 40:-0.824324 
-32 1:0.0449199 2:-0.215233 3:-0.407408 4:0.603774 5:-0.151513 6:0.0165279 7:-0.0277783 8:-0.355754 9:-0.695481 10:-0.953726 11:-0.993089 12:-0.365632 13:-0.493972 14:0.457778 15:-0.0230512 16:-0.192224 17:-0.717949 18:-0.166666 21:-0.541667 22:-0.993811 23:-0.996491 24:-0.852887 27:-0.673937 28:-0.112676 29:0.15354 30:0.6 31:-1 32:-1 35:-0.993811 36:-0.996491 37:-1 40:-0.945946 
-32 1:-0.0589253 2:-0.392708 3:0.185186 4:0.823899 5:-0.575758 6:-0.206611 7:0.666667 8:-0.995898 9:-0.996741 10:-0.897996 11:-0.983527 12:-0.675554 13:-0.316481 14:-0.324444 15:0.386327 16:0.264117 17:0.692305 18:1 21:0.833332 22:-0.97908 23:-0.980114 24:0.103511 27:-0.085591 28:-0.704225 29:0.25195 30:0.307692 31:-0.722222 32:1 35:-0.97908 36:-0.980114 37:-0.0939572 40:-0.662162 
-32 1:0.182518 2:-0.00768217 3:0.185186 4:0.677149 5:-0.434343 6:0.206609 7:-0.0740733 8:-0.20144 9:-0.500025 10:-0.807044 11:-0.967677 12:-0.0871986 13:-0.850168 14:0.00444444 15:0.337987 16:0.311323 17:0.128204 18:0.555556 21:-0.185187 22:-0.942959 23:-0.957115 24:-0.317375 27:-0.40261 28:-0.605634 29:0.679614 30:0.368422 31:-0.0740733 32:0.333334 35:-0.942959 36:-0.957115 37:-0.17291 40:-0.756757 
-32 1:0.527461 2:0.0332311 3:0.333333 4:0.603774 5:-0.204545 6:0.227271 7:0.0416667 8:-0.984361 9:-0.989321 10:-0.270846 11:-0.982329 12:-0.450734 13:-0.539075 14:-0.0933333 15:0.794305 16:0.328492 17:0.269229 18:1 21:0.374999 22:-0.929933 23:-0.942589 24:0.213899 27:0.559516 28:-0.788732 29:0.931306 30:0.666666 31:-0.166667 32:0.75 35:-0.929933 36:-0.942589 37:0.34014 40:-0.851351 
-32 1:0.609424 2:-0.172874 3:-0.407408 4:0.383649 5:-0.469696 6:-0.0330568 7:-0.0277783 8:-0.972156 9:-0.98616 10:-0.86309 11:-0.993774 12:-0.30072 13:0.0458443 14:0.28 15:0.0696053 16:-0.0978091 17:-0.435899 18:0.333334 21:-0.38889 22:-0.906825 23:-0.944393 24:-0.512917 27:-0.893878 28:-0.112676 29:0.092198 30:-0.114286 31:-1 32:0.333334 35:-0.906825 36:-0.944393 37:-0.723593 40:-0.0675676 
-32 1:0.357759 2:-0.60322 3:-0.466667 4:0.471698 5:-0.490909 6:-0.375207 7:0.166667 8:-0.770458 9:-0.888321 10:-0.88773 11:-0.990724 12:-0.299805 13:-0.251859 14:0.208889 15:0.0864712 16:-0.113142 17:0.353844 18:0.8 21:-0.0833341 22:-0.899586 23:-0.941342 24:-0.50945 27:-0.622095 29:0.108008 30:-0.128206 31:-0.5 32:0.8 35:-0.899586 36:-0.941342 37:-0.863294 40:0.0405405 
-32 1:-0.00223326 2:-0.110787 3:0.185186 4:0.677149 5:-0.434343 6:0.107436 7:-0.0740733 8:-0.702119 9:-0.817818 10:-0.757353 11:-0.987959 12:-0.258224 13:-0.908155 14:0.0222222 15:0.463417 16:0.0928737 17:0.880337 18:1 21:0.0185185 22:-0.811783 23:-0.861782 24:-0.0430757 27:-0.287406 28:-0.380282 29:0.594268 30:0.666666 31:-0.25926 32:-0.111112 35:-0.811783 36:-0.861782 37:0.314142 40:-0.932432 
-32 1:-0.149072 2:-0.393967 3:0.0370364 4:0.383649 5:-0.469696 6:-0.280992 7:-0.166667 8:-0.673835 9:-0.846732 10:-0.856498 11:-0.934094 12:-0.463984 13:-0.790065 14:0.333333 15:-0.29519 16:-0.318112 17:-0.294872 18:-0.166666 21:-0.694444 22:-0.704415 23:-0.833222 24:-0.706005 27:-0.721117 28:-0.112676 29:-0.24976 30:-0.314286 31:-0.583333 32:-0.166666 35:-0.704415 36:-0.833222 37:-0.945458 40:-0.0675676 
-32 1:0.325766 2:-0.265907 3:-0.407408 4:0.383649 5:0.272729 6:-0.322315 7:-0.0740733 8:-0.934618 9:-0.958808 10:-0.468925 11:-0.988862 12:-0.244293 13:-0.82462 14:-0.12 15:0.776319 16:0.536468 17:0.128204 18:0.777778 21:0.0185185 22:-0.900427 23:-0.924682 24:0.0353089 27:-0.104956 28:-0.732394 29:0.977204 30:0.666666 31:-0.814815 32:0.333334 35:-0.900427 36:-0.924682 37:-0.112962 40:-0.851351 
-25.34978464650307 1:0.00110501 2:-0.167395 3:0.111111 4:0.603774 5:-1 6:0.264463 7:-0.166667 8:-0.780489 9:-0.857952 10:-0.682304 11:-1 12:-0.377379 13:-0.827183 14:-0.0755556 15:0.230576 16:-0.255167 17:0.0576907 18:0.25 21:-0.0833341 22:-0.946857 23:-0.958706 24:-0.171006 27:-0.280675 28:-0.605634 29:0.700482 30:0.071428 31:-0.166667 32:0.5 35:-0.946857 36:-0.958706 37:0.34748 40:-0.635135 
-32 1:0.10338 2:-0.622291 3:-0.407408 4:0.383649 5:-0.717172 6:-0.2562 7:0.111112 8:-0.88679 9:-0.93457 10:-0.912284 11:-0.99655 12:-0.528348 13:-0.261298 14:0.164444 15:0.246813 16:0.13823 17:0.504271 18:1 21:0.0185185 22:-0.878622 23:-0.915772 24:-0.0516087 27:-0.490028 28:-0.535211 29:0.461412 30:0.185186 31:-0.259258 32:1 35:-0.878622 36:-0.915772 37:0.112436 40:-0.648649 
-32 1:-0.156491 2:-0.437499 3:-0.111111 4:0.471698 5:-0.236364 6:-0.226445 7:0.166667 8:-0.969391 9:-0.984732 10:-0.77506 11:-0.955336 12:-0.469224 13:-0.860208 14:0.271111 15:-0.0985346 16:-0.250972 17:-0.323078 21:-0.266667 22:-0.946164 23:-0.96776 24:-0.691008 27:-0.822444 28:-0.0422535 29:-0.065416 30:-0.253334 31:-1 35:-0.946164 36:-0.96776 37:-0.882276 
-32 1:0.0313638 2:-0.245822 3:-0.111111 4:0.735849 5:-0.618182 6:-0.285951 7:0.166667 8:-0.400026 9:-0.620697 10:-0.879295 11:-0.946543 12:-0.548455 13:-0.417936 14:-0.0844444 15:-0.687994 16:-0.559396 17:-0.492308 21:-0.45 22:-0.583369 23:-0.683734 24:-0.652996 27:-0.793607 28:-0.676056 29:-0.839528 30:-0.473684 31:-0.833333 32:-0.2 35:-0.583369 36:-0.683734 37:-0.924917 40:-0.756757 
-32 1:0.367075 2:0.0424793 3:0.333333 4:0.603774 5:0.590912 6:0.227271 7:-0.166667 8:-0.648448 9:-0.779277 10:-0.272349 11:-0.985202 12:-0.345188 13:-0.868481 14:-0.0133333 15:0.0667698 16:-0.101512 17:0.0576907 18:0.5 21:-0.541667 22:-0.707346 23:-0.779375 24:-0.212919 27:-0.887225 28:-0.619718 29:0.647874 30:-0.166666 31:-0.375 32:-0.25 35:-0.707346 36:-0.779375 37:-0.169478 40:-0.851351 
-32 1:0.389685 2:-0.203482 3:-0.0123449 4:0.383649 5:-0.575758 6:-0.223142 7:0.296297 8:-0.445924 9:-0.650963 10:-0.484675 11:-0.996006 12:-0.153922 13:-0.829447 14:-0.146667 15:0.123614 16:0.0280783 17:-0.623933 18:-0.111112 21:-0.185187 22:-0.689436 23:-0.765092 24:-0.894354 27:-0.280105 28:-0.732394 29:0.244246 30:0.066666 31:-0.814815 32:-0.333334 35:-0.689436 36:-0.765092 37:-0.860587 40:-0.810811 
-17.78185382371893 1:0.251886 2:-0.62892 3:-0.838384 4:0.783877 5:-0.421488 6:-0.418483 7:0.363637 8:-0.372775 9:-0.698121 10:-0.997973 11:-0.977633 12:-0.418402 13:-0.133161 14:0.324444 15:-0.704284 16:-0.652269 17:-0.846154 18:0.272728 22:-0.592215 23:-0.764341 24:-0.953318 27:-0.567972 28:-0.140845 29:-0.633244 30:-0.617648 31:-0.242423 32:0.272728 35:-0.592215 36:-0.764341 37:-0.805983 40:-0.0945946 
-32 1:0.0494378 2:-0.205892 3:0.244444 4:0.471698 5:0.0181835 6:-0.107438 7:-0.333333 8:-0.215242 9:-0.56035 10:-0.836369 11:-0.872116 12:-0.276653 13:-0.85604 14:0.137778 15:-0.286628 16:-0.353215 17:-0.153847 18:0.4 21:-0.266667 22:-1 23:-1 24:-0.379692 27:-0.750183 28:-0.366197 29:0.540564 30:0.333334 31:-0.5 32:0.2 35:-1 36:-1 37:0.12766 40:-0.851351 
-32 1:-0.469224 2:-0.391037 3:-0.111111 4:0.603774 5:-0.681817 6:-0.107438 7:0.25 8:-0.8846 9:-0.92917 10:-0.937578 11:-0.987649 12:-0.661296 13:-0.808503 14:-0.0577778 15:-0.444147 16:-0.421834 17:-0.576924 21:0.145832 22:-0.954933 23:-0.966787 24:-0.914762 27:-0.747466 28:-0.0985915 29:-0.389392 30:-0.40845 31:-0.375 35:-0.954933 36:-0.966787 37:-0.926076 40:-0.0540541 
-6.447298821255551 1:0.405681 2:-0.014731 3:0.111111 4:0.603774 5:-0.840909 6:0.376033 7:-0.166667 8:-0.977587 9:-0.985398 10:-0.805388 11:-0.992479 12:-0.364764 13:-0.199808 14:-0.102222 15:0.293231 16:-0.231101 17:0.0576907 18:1 21:-0.0833341 22:-0.979215 23:-0.983744 24:0.0184807 27:-0.138037 28:-0.619718 29:0.728172 30:-0.130434 31:-0.583333 32:0.5 35:-0.979215 36:-0.983744 37:0.253924 40:-0.702703 
-2.165038176148976 1:0.100793 2:-0.291689 3:0.185186 4:0.823899 5:-0.787879 6:0.0413203 7:0.666667 8:0.239034 9:-0.05707 10:-0.821435 11:-0.999698 12:-0.171325 13:-0.800725 14:-0.288889 15:0.0333497 16:-0.118791 17:-1 18:-0.333334 21:-0.38889 22:0.564785 23:0.429877 24:-1 27:-0.837633 28:-0.676056 29:0.484674 30:-0.111112 31:-0.722223 32:-0.333334 35:0.564785 36:0.429877 37:-0.98761 40:-0.648649 
-32 1:0.266602 2:-0.135435 3:0.333333 4:0.603774 5:-0.681817 6:0.227271 7:0.25 8:-0.775347 9:-0.863177 10:-0.829836 11:-0.995651 12:-0.265516 13:-0.468718 14:-0.00444444 15:-0.0097441 16:0.0536951 17:0.480767 18:1 21:0.145832 22:-0.897524 23:-0.92506 24:-0.403902 27:-0.357388 28:-0.492958 29:0.237396 30:0.0625 31:-0.583333 32:0.75 35:-0.897524 36:-0.92506 37:-0.682236 40:-0.581081 
-32 1:0.162089 2:-0.273096 3:-0.209877 4:0.677149 5:-0.434343 6:0.00826251 7:0.111112 8:-0.886791 9:-0.937019 10:-0.918447 11:-0.960563 12:-0.171276 13:-0.657486 14:0.0755556 15:0.269902 16:0.0739739 17:0.504271 18:0.777778 21:-0.185187 22:-0.983586 23:-0.989036 24:-0.0307973 27:-0.806338 28:-0.422535 29:0.446376 30:0.166666 31:-0.62963 32:-0.111112 35:-0.983586 36:-0.989036 37:0.181626 40:-0.851351 
-18.54929646763804 1:0.241801 2:-0.430528 3:0.244444 4:0.207547 5:-0.363636 6:-0.226445 7:-0.333333 8:-0.969257 9:-0.983852 10:-0.946974 11:-0.997388 12:-0.435727 13:-0.159855 14:0.2 15:-0.571226 16:-0.452069 17:-0.830769 18:-0.6 21:-0.633334 22:-0.964111 23:-0.977369 24:-0.961867 27:-0.855635 28:-0.549296 29:-0.788448 30:-0.6 31:-1 32:-1 35:-0.964111 36:-0.977369 37:-1 40:-0.945946 
-30.22876258176049 1:0.390632 2:-0.416434 3:0.111111 4:0.603774 5:-0.522726 6:-0.181819 7:0.25 8:-0.730067 9:-0.827028 10:-0.763227 11:-0.990786 12:-0.374549 13:-0.255217 14:-0.0311111 15:-0.199892 16:-0.192224 17:-0.576924 21:-0.312501 22:-0.329949 23:-0.484458 24:-0.784094 27:-0.211046 28:-0.746479 29:-0.741982 30:-0.1 31:-0.791667 32:-0.5 35:-0.329949 36:-0.484458 37:-0.921469 40:-0.743243 
-24.26599627522567 1:0.985237 2:-0.529448 3:-0.555556 4:-0.0566036 5:0.0606077 6:-0.429754 7:0.25 8:-0.843834 9:-0.927431 10:0.773644 11:-0.997199 12:-0.531368 13:-0.992556 14:0.475556 15:-0.866512 16:-0.774259 17:-1 18:-0.5 21:-0.541667 22:-0.871637 23:-0.92838 24:-1 27:-0.911839 28:0.0422535 29:-0.785316 30:-0.728396 31:-0.583333 32:-0.5 35:-0.871637 36:-0.92838 37:-0.953917 40:0.0810811 
-32 1:0.176592 2:-0.192525 3:0.52381 4:0.886793 5:-0.636364 6:0.126326 7:0.190477 8:-0.158488 9:-0.392124 10:-0.86436 11:-0.989241 12:-0.297424 13:-0.51285 14:-0.155556 15:-0.762803 16:-0.452069 17:-0.516485 18:-0.428572 21:-1 22:-0.827399 23:-0.850288 24:-0.934248 27:-1 28:-0.549296 29:-0.6881 30:-0.435898 31:-0.52381 32:-0.428572 35:-0.827399 36:-0.850288 37:-0.955199 40:-0.486486 
-32 1:-0.0226193 2:-0.35748 3:0.333333 4:0.603774 5:-0.522726 6:-0.0702492 7:0.0416667 8:-0.931002 9:-0.955545 10:-0.896116 11:-0.992965 12:-0.532528 13:-0.438258 14:-0.00444444 15:0.385985 16:-0.0506005 17:0.0576907 18:0.5 21:0.145832 22:-0.95118 23:-0.962234 24:0.000390397 27:0.201457 28:-0.704225 29:0.731956 30:-0.076924 31:0.25 32:0.25 35:-0.95118 36:-0.962234 37:0.731956 40:-0.837838 
-32 1:0.616793 2:0.267376 3:0.0666667 4:0.471698 5:-0.872727 6:0.63636 8:-0.339171 9:-0.631811 10:-0.485426 11:-0.987718 12:-0.282736 13:-0.389725 14:0.137778 15:0.253617 16:-0.0453551 17:-0.323078 18:0.8 21:0.0999991 22:-0.977973 23:-0.985264 24:-0.758427 27:-0.416977 28:-0.253521 29:0.537222 30:0.142858 31:-0.833333 32:-0.8 35:-0.977973 36:-0.985264 37:-0.590486 40:-0.918919 
-21.40040169553162 1:0.661208 2:0.1467 3:0.111111 4:0.603774 5:-0.840909 6:0.15289 7:-0.166667 8:-0.276863 9:-0.44383 10:-0.19021 11:-0.99869 12:-0.282393 13:-0.647358 14:-0.333333 15:0.42846 16:0.0721388 17:0.0576907 18:1 21:-0.0833341 22:-0.987295 23:-0.988259 24:0.137927 27:-0.0744184 28:-0.746479 29:0.780874 30:0.083334 31:-0.375 32:0.75 35:-0.987295 36:-0.988259 37:0.403362 40:-0.689189 
-19.84459466904996 1:0.0671419 2:-0.186498 3:-0.209877 4:0.383649 5:-0.151513 6:-0.157026 7:0.111112 8:-0.339042 9:-0.575349 10:-0.863323 11:-0.963992 12:-0.246702 13:-0.742702 14:-0.0844444 15:0.111065 16:-0.00169115 17:0.316238 18:0.777778 21:-0.38889 22:-0.981876 23:-0.986015 24:-0.328796 27:-0.465096 28:-0.577465 29:0.538904 30:0.333334 31:-0.444445 32:-0.111112 35:-0.981876 36:-0.986015 37:0.0059502 40:-0.851351 
-32 1:0.555392 2:0.109318 3:0.269842 4:0.509435 5:-0.636364 6:0.296338 7:0.428572 8:-0.94343 9:-0.958916 10:-0.877813 11:-0.997275 12:-0.384573 13:0.10018 14:-0.271111 15:0.62736 16:0.39525 17:0.450547 18:1 21:0.571428 22:-0.905704 23:-0.917783 24:0.0177733 27:0.0163055 28:-0.676056 29:0.757652 30:0.538462 31:-0.7619 32:1 35:-0.905704 36:-0.917783 37:-0.594498 40:-0.662162 
