svm_type c_svc
kernel_type rbf
gamma 0.00195313
nr_class 2
total_sv 179
rho 11.2578
label 1 -1
nr_sv 88 91
SV
512 1:0.273378 2:-0.169352 3:-0.300001 4:0.701334 5:-0.130133 6:-0.160449 7:-0.422222 8:-0.752585 9:-0.849393 10:-0.919958 11:0.0998748 12:-0.864913 13:-0.967123 14:0.00666667 15:0.0947961 16:-0.0375804 17:-0.241667 18:-0.066666 21:-0.581818 22:-0.924933 23:-0.94304 24:0.000862285 27:-0.785619 28:-0.36478 29:-0.014862 30:-0.392156 31:-0.333333 32:-0.066666 35:-0.924933 36:-0.94304 37:-0.685939 40:-0.36478 
512 1:0.0693027 2:-0.264611 3:-0.0454555 4:0.796364 5:-0.0415648 6:-0.365414 7:-0.0151526 8:-0.601178 9:-0.687924 10:-0.906742 11:-0.239616 12:-0.774581 13:-0.940425 14:-0.233333 15:-0.0440113 16:0.0687499 17:-0.113636 18:0.272728 21:-0.429753 22:-0.960573 23:-0.961557 24:-0.039781 27:-0.762374 28:-0.503145 29:-0.139766 30:-0.325 31:-0.31818 32:0.272728 35:-0.960573 36:-0.961557 37:-0.716237 40:-0.503145 
512 1:0.15576 2:-0.451059 3:0.0499999 4:0.519999 5:-0.269312 6:-0.378331 7:-0.535714 8:-0.937372 9:-0.961372 10:-0.897007 11:-0.00407437 12:-0.914793 13:-0.950308 14:0.0266667 15:0.0537508 16:-0.0386919 17:0.160714 18:0.714286 21:0.344155 22:-0.997861 23:-0.998349 24:0.15745 27:-0.487394 28:-0.301887 29:-0.051796 30:-0.392858 31:-0.821427 32:0.714286 35:-0.997861 36:-0.998349 37:-0.782148 40:-0.301887 
512 1:-0.218883 2:-0.109467 3:-0.0117652 4:0.341176 5:-0.588604 6:0.1399 7:-0.617646 8:0.00901997 9:-0.390316 10:-0.800229 11:-0.893581 12:-0.477817 13:-0.991594 14:0.0666667 15:0.119963 16:0.00330125 17:-0.0441187 18:0.17647 21:-1 22:-0.986699 23:-0.989984 24:0.096919 27:-1 28:-0.371069 29:0.007784 30:-0.366336 31:0.470588 32:0.17647 35:-0.986699 36:-0.989984 37:-0.526776 40:-0.371069 
512 1:0.275031 2:0.0208841 3:-0.258824 4:0.472941 5:-0.210365 6:0.052139 7:0.0196072 8:-0.946994 9:-0.970547 10:-0.923948 11:0.126369 12:-0.879079 13:-0.974786 14:0.146667 15:-0.232183 16:-0.0993874 17:-0.617647 18:-0.294118 21:-0.508022 22:-0.868187 23:-0.908399 24:-0.778012 27:-0.841476 28:-0.320755 29:-0.30909 30:-0.431192 31:-1 32:-0.294118 35:-0.868187 36:-0.908399 37:-0.991282 40:-0.320755 
512 1:-0.112694 2:-0.0984287 3:0.0499999 4:0.44 5:-0.227554 6:0.113081 7:0.0833332 8:-0.690164 9:-0.782641 10:-0.915203 11:-0.499102 12:-0.759751 13:-0.867474 14:-0.106667 15:-0.188417 16:-0.185714 17:-0.0520845 18:0.666666 21:0.0454543 22:-0.947032 23:-0.953694 24:-0.248273 27:-0.636552 28:-0.345912 29:-0.269708 30:-0.485714 31:-0.791667 32:0.666666 35:-0.947032 36:-0.953694 37:-0.875275 40:-0.345912 
512 1:-0.211175 2:-0.169571 3:0.18125 4:0.72 5:-0.191025 6:-0.0630544 7:-0.59375 8:-0.189511 9:-0.532365 10:-0.831718 11:-0.660708 12:-0.679725 13:-0.977476 14:0.16 15:-0.27975 16:-0.150406 17:-0.59375 18:-0.125 21:-0.607955 22:-0.726021 23:-0.803037 24:-0.73792 27:-0.936959 28:-0.232704 29:-0.351892 30:-0.463414 31:-0.84375 32:-0.125 35:-0.726021 36:-0.803037 37:-0.921553 40:-0.232704 
512 1:0.143534 2:-0.198796 3:-0.400001 4:0.519999 5:-0.185805 6:-0.0941399 7:0.0833332 8:-0.818182 9:-0.883561 10:-0.970309 11:-0.183791 12:-0.753492 13:-0.878552 14:0.0133333 15:0.0824183 16:0.0245084 17:-0.419643 18:0.142858 21:-0.253247 22:-0.944687 23:-0.955839 24:-0.43505 27:-0.577923 28:-0.36478 29:-0.026 30:-0.352942 31:-1 32:0.142858 35:-0.944687 36:-0.955839 37:-0.988048 40:-0.36478 
512 1:0.0775789 2:-0.112609 3:-0.265 4:0.552 5:-0.402923 6:-0.0195361 7:-0.133333 8:-0.683502 9:-0.845477 10:-0.933659 11:-0.387127 12:-0.679257 13:-0.847942 14:0.326667 15:-0.188882 16:0.0124719 17:-0.59375 18:-0.1 21:-0.372727 22:-0.834789 23:-0.899429 24:-0.793699 27:-0.773647 28:-0.081761 29:-0.270126 30:-0.360544 31:-0.875 32:-0.1 35:-0.834789 36:-0.899429 37:-0.964704 40:-0.081761 
512 1:-0.0209395 2:-0.0215095 3:-0.2125 4:0.44 5:-0.191025 6:0.154531 7:-0.0520834 8:0.724426 9:-0.0161733 10:-0.920006 11:-0.345766 12:-0.73204 13:-0.963684 14:0.166667 15:-0.369524 16:-0.155555 17:-0.898438 18:-0.25 21:-0.346591 22:-0.291758 23:-0.496606 24:-0.956897 27:-0.828612 28:-0.251572 29:-0.432674 30:-0.466666 31:-0.375 32:-0.25 35:-0.291758 36:-0.496606 37:-0.924481 40:-0.251572 
512 1:-0.197645 2:-0.23562 3:-0.192309 4:0.31077 5:-0.205076 6:-0.132395 7:-1.08333e-006 8:-0.256012 9:-0.507085 10:-0.877331 11:-0.670583 12:-0.729237 13:-0.845021 14:-0.0533333 15:0.157643 16:0.00406442 17:-0.250001 18:-0.23077 21:-0.356644 22:-0.981519 23:-0.98474 24:0.0660946 27:-0.382646 28:-0.490566 29:0.854802 30:0.5 31:-0.0384625 32:-0.23077 35:-0.981519 36:-0.98474 37:0.648906 40:-0.955975 
512 1:-0.109777 2:-0.266803 3:-0.60625 4:0.44 5:-0.300628 6:-0.0630544 7:-0.0520834 8:-0.905034 9:-0.945926 10:-0.931428 11:-0.366311 12:-0.787515 13:-0.968111 14:0.16 15:-0.102849 16:-0.0386919 17:-0.187501 18:0.5 21:-0.0852275 22:-0.988081 23:-0.991527 24:-0.275936 27:-0.606925 28:-0.301887 29:-0.19271 30:-0.392858 31:-0.84375 32:0.5 35:-0.988081 36:-0.991527 37:-0.903478 40:-0.301887 
512 1:0.188919 2:0.0255941 3:-0.0117652 4:0.736471 5:0.0991034 6:0.0228832 7:-0.107843 8:-0.782298 9:-0.883953 10:-0.882723 11:-0.477043 12:-0.718541 13:-0.613851 14:0.293333 15:-0.339634 16:-0.208333 17:-0.617647 18:-0.529412 21:-1 22:-0.70284 23:-0.802465 24:-0.581477 27:-1 28:-0.578616 29:-0.405996 30:-0.507246 31:-0.411765 32:-0.529412 35:-0.70284 36:-0.802465 37:-0.81951 40:-0.572327 
512 1:0.35765 2:-0.161339 3:-0.236364 4:0.592728 5:0.0115762 6:-0.365414 7:0.378789 8:-0.827284 9:-0.862433 10:-0.95513 11:-0.0333055 12:-0.758846 13:-0.805018 14:-0.266667 15:-0.420086 16:-0.116278 17:-0.113636 18:0.454546 21:-0.049588 22:-0.817138 23:-0.818541 24:-0.561805 27:-0.881325 28:-0.465409 29:-0.478172 30:-0.44186 31:-0.772725 32:0.454546 35:-0.817138 36:-0.818541 37:-0.876125 40:-0.465409 
512 1:0.233772 2:0.0217089 3:-0.226316 4:0.410526 5:-0.181412 6:0.0367385 7:-0.429824 8:-0.343509 9:-0.6718 10:-0.937369 11:0.0208979 12:-0.814279 13:-0.966852 14:0.246667 15:0.089195 16:0.123657 17:-0.572369 18:-0.368422 21:-0.449761 22:-0.98031 23:-0.987734 24:-0.452078 27:-0.675049 28:-0.226415 29:-0.019902 30:-0.290322 31:-1 32:-0.368422 35:-0.98031 36:-0.987734 37:-0.942059 40:-0.226415 
345.4375102816643 1:0.219385 2:-0.126489 3:-0.192309 4:0.483077 5:-0.11514 6:-0.0941399 7:0.166668 8:-0.769535 9:-0.843033 10:-0.952144 11:-0.119469 12:-0.714749 13:-0.926858 14:-0.0666667 15:-0.0282796 16:0.1875 18:0.384616 21:-0.195805 22:-0.929356 23:-0.940034 24:-0.398148 27:-0.731411 28:-0.301887 29:-0.12561 30:-0.25 31:-0.423075 32:0.384616 35:-0.929356 36:-0.940034 37:-0.887843 40:-0.301887 
512 1:-0.0477017 2:-0.243609 3:-0.452173 4:0.513044 5:-0.214849 6:-0.375241 7:-0.246377 8:-0.799669 9:-0.916704 10:-0.934926 11:-0.287973 12:-0.819355 13:-0.942655 14:0.48 15:-0.181163 16:0.0861507 17:-0.434783 18:-0.043478 21:-0.454545 22:-0.914492 23:-0.955621 24:-0.723883 27:-0.878365 28:0.295597 29:-0.26318 30:-0.31401 31:-0.78261 32:-0.043478 35:-0.914492 36:-0.955621 37:-0.947673 40:0.295597 
512 1:-0.0957968 2:-0.199891 3:-0.300001 4:0.44 5:-0.178844 6:-0.177026 7:-0.548612 8:-0.858269 9:-0.943655 10:-0.915669 11:-0.420871 12:-0.730895 13:-0.97205 14:0.68 15:-0.00908276 16:0.0266364 17:-0.187501 18:0.083334 21:-0.390151 22:-0.900999 23:-0.950816 24:-0.4688 27:-0.75807 28:0.371069 29:-0.108336 30:-0.351598 31:-0.479167 32:0.083334 35:-0.900999 36:-0.950816 37:-0.903684 40:0.371069 
512 1:-0.482237 2:-0.213977 3:0.0499999 4:0.58 5:-0.300628 6:-0.28064 7:-0.0520834 8:-0.21855 9:-0.549337 10:-0.894493 11:-0.734779 12:-0.87514 13:-0.918647 14:0.0666667 15:-0.359006 16:-0.227036 17:-0.59375 18:-0.25 21:-0.607955 22:-0.755974 23:-0.824653 24:-0.836165 27:-0.733488 28:-0.207547 29:-0.42321 30:-0.511812 31:-0.84375 32:-0.25 35:-0.755974 36:-0.824653 37:-0.924331 40:-0.207547 
512 1:-0.120481 2:-0.204393 3:-0.434615 4:0.396922 5:-0.317491 6:-0.266293 7:-0.25 8:-0.914209 9:-0.967403 10:-0.922912 11:-0.590439 12:-0.686555 13:-0.851606 14:0.666667 15:-0.456951 16:-0.176667 17:-0.500001 21:-0.437063 22:-0.571753 23:-0.796116 24:-0.835904 27:-0.804731 28:0.251572 29:-0.511344 30:-0.48 31:-0.903848 35:-0.571753 36:-0.796116 37:-0.963565 40:0.251572 
444.6336398508203 1:0.43806 2:0.0727564 3:-0.515385 4:0.655385 5:0.0197529 6:0.0206332 7:0.166668 8:-0.747969 9:-0.816051 10:-0.986536 11:0.0598158 12:-0.646509 13:-0.920657 14:-0.14 15:-0.0569603 16:-0.0375804 17:-0.375001 18:0.538462 21:-0.0349663 22:-0.965287 23:-0.968426 24:-0.467725 27:-0.537888 28:-0.36478 29:-0.151418 30:-0.392156 31:-0.807692 32:0.538462 35:-0.965287 36:-0.968426 37:-0.975872 40:-0.36478 
512 1:0.120893 2:-0.0499805 3:-0.475 4:0.533334 5:-0.130133 6:-0.425697 7:-0.277779 8:-0.895766 9:-0.952323 10:-0.886987 11:-0.41302 12:-0.721679 13:-0.761333 14:0.333333 15:-0.268059 16:0.157705 17:-0.796875 18:-0.666666 21:-0.825758 22:-0.899236 23:-0.942397 24:-0.792505 27:-0.843008 28:-0.421384 29:-0.341546 30:-0.276596 31:-0.895833 32:-0.666666 35:-0.899236 36:-0.942397 37:-0.996693 40:-0.415094 
512 1:0.022722 2:-0.195454 3:-0.377778 4:0.502223 5:-0.368283 6:-0.259918 7:-0.277779 8:-0.919011 9:-0.968194 10:-0.967095 11:-0.496149 12:-0.630366 13:-0.813173 14:0.693333 15:-0.384268 16:-0.142967 17:-0.337964 18:-0.037038 21:-0.612795 22:-0.735827 23:-0.87001 24:-0.69335 27:-0.883935 28:0.36478 29:-0.445942 30:-0.458716 31:-0.444445 32:-0.037038 35:-0.735827 36:-0.87001 37:-0.931442 40:0.36478 
512 1:-0.0130208 2:0.0740854 3:-0.300001 4:0.701334 5:-0.286015 6:-0.193603 7:0.3 8:-0.576279 9:-0.702754 10:-0.879752 11:-0.614382 12:-0.707506 13:-0.712857 14:-0.173333 15:-0.471091 16:-0.109375 17:-1 18:-1 21:-1 22:-0.973967 23:-0.977241 24:-1 27:-1 28:-0.805031 29:-0.327588 30:-0.764706 31:-1 32:-1 35:-0.973967 36:-0.977241 37:-1 40:-0.899371 
512 1:-0.448581 2:-0.262019 3:-0.720001 4:0.850666 5:-0.20807 6:-0.0609855 7:-0.133333 8:-0.227797 9:-0.538951 10:-0.986786 11:-0.606494 12:-0.843167 13:-0.973799 14:0.0933333 15:0.0768995 16:-0.0875694 17:-0.566666 18:-0.2 21:-0.024242 22:-0.962814 23:-0.972335 24:-0.559031 27:-0.461156 28:-0.264151 29:-0.030966 30:-0.423728 31:-0.5 32:-0.2 35:-0.962814 36:-0.972335 37:-0.894345 40:-0.264151 
512 1:0.011882 2:-0.317765 3:-0.500001 4:0.466667 5:-0.380654 6:-0.307284 7:-0.174604 8:0.0415818 9:-0.499633 10:-0.963316 11:-0.514839 12:-0.519623 13:-0.941614 14:0.366667 15:-0.142142 16:-0.0193562 17:-0.535715 18:-0.04762 21:-0.402598 22:-0.89845 23:-0.939215 24:-0.503338 27:-0.872647 28:-0.0314465 29:-0.228068 30:-0.380646 31:-1 32:-0.04762 35:-0.89845 36:-0.939215 37:-0.855667 40:-0.0314465 
512 1:-0.18455 2:-0.309342 3:-0.668421 4:0.646315 5:0.0647172 6:-0.512948 7:-0.201755 8:-0.523822 9:-0.765373 10:-0.975813 11:-0.365458 12:-0.859986 13:-0.927323 14:0.313333 15:-0.129629 16:-0.00419425 17:-0.486843 18:-0.052632 21:-0.559809 22:-0.944248 23:-0.96576 24:-0.612606 27:-0.861604 28:-0.00628931 29:-0.216808 30:-0.37107 31:-0.736842 32:-0.052632 35:-0.944248 36:-0.96576 37:-0.90887 40:-0.00628931 
512 1:0.370727 2:-0.181926 3:-0.353847 4:0.138462 5:-0.384936 6:-0.208907 7:-0.833333 8:-0.876536 9:-0.945313 10:-0.862517 11:0.00679409 12:-0.701237 13:-0.996947 14:0.52 15:-0.230347 16:0.0233747 17:-0.6875 18:-0.461538 21:-0.758741 22:-0.561608 23:-0.757379 24:-0.803369 27:-0.881651 28:0.0251572 29:-0.307438 30:-0.353658 31:-0.807692 32:-0.461538 35:-0.561608 36:-0.757379 37:-0.98016 40:0.0251572 
512 1:0.599873 2:0.0826649 3:-0.0307702 4:0.827692 5:-0.11514 6:0.36494 7:-0.166668 8:-0.795014 9:-0.849437 10:-0.883787 11:0.252068 12:-0.812109 13:-0.851909 14:-0.0333333 15:-0.413174 16:0.0258226 17:-0.375001 18:-0.076924 21:-0.678322 22:-0.858333 23:-0.870338 24:-0.678785 27:-0.878254 28:-0.559748 29:-0.471952 30:-0.352112 31:-0.423078 32:-0.076924 35:-0.858333 36:-0.870338 37:-0.928278 40:-0.559748 
512 1:-0.0478587 2:-0.0971701 3:-0.708333 4:0.253334 5:-0.292505 6:-0.5224 7:-0.398148 8:-0.313054 9:-0.809498 10:-0.918896 11:-0.580481 12:-0.671052 13:-0.798866 14:0.746667 15:-0.340105 16:-0.111509 17:-0.954861 18:-0.833333 21:-0.825758 22:-0.872949 23:-0.956065 24:-0.940281 27:-0.892347 28:-0.132075 29:-0.406408 30:-0.446808 31:-0.861111 32:-0.833333 35:-0.872949 36:-0.956065 37:-0.96666 40:-0.119497 
228.8715105816215 1:-0.172278 2:-0.159697 3:0.0499999 4:0.86 5:-0.41023 6:-0.0941399 7:0.0833332 8:-0.820025 9:-0.897473 10:-0.901995 11:-0.649152 12:-0.709677 13:-0.838562 14:0.0933333 15:-0.279667 16:-0.0555544 17:-0.898438 18:-0.625 21:-0.738636 22:-0.949394 23:-0.964048 24:-0.95319 27:-0.959668 28:-0.647799 29:-0.352098 30:-0.413794 31:-0.84375 32:-0.625 35:-0.949394 36:-0.964048 37:-0.998047 40:-0.641509 
512 1:-0.0748874 2:-0.285815 3:-0.611112 4:0.336297 5:-0.303333 6:-0.444116 7:-0.277779 8:0.0592717 9:-0.581738 10:-0.963587 11:-0.459355 12:-0.732235 13:-0.853381 14:0.62 15:-0.221599 16:-0.109831 17:-0.518519 18:-0.185186 21:-0.303031 22:-0.940154 23:-0.970555 24:-0.76784 27:-0.716825 28:0.358491 29:-0.299566 30:-0.437788 31:-0.907408 32:-0.185186 35:-0.940154 36:-0.970555 37:-0.944658 40:0.358491 
512 1:0.138846 2:-0.165119 3:-0.515385 4:0.655385 5:-0.205076 6:-0.0176288 7:0.166668 8:-0.968464 9:-0.977625 10:-0.940886 11:0.00168254 12:-0.905123 13:-0.945352 14:-0.0733333 15:-0.350616 16:-0.22449 17:-0.625001 18:-0.076924 21:-0.517483 22:-0.861677 23:-0.877457 24:-0.603257 27:-0.903429 28:-0.389937 29:-0.41566 30:-0.510204 31:-1 32:-0.076924 35:-0.861677 36:-0.877457 37:-0.88187 40:-0.389937 
33.4561725220012 1:0.0939163 2:-0.0506801 3:-0.4225 4:0.16 5:-0.432151 6:-0.628774 7:-0.5125 8:-0.743497 9:-0.923937 10:-0.746059 11:-0.410516 12:-0.723145 13:-0.934466 14:0.633333 15:-0.232872 16:0.0503294 17:-0.796875 18:-0.35 21:-0.581818 22:-0.82899 23:-0.936649 24:-0.917294 27:-0.8747 28:0.264151 29:-0.30971 30:-0.336634 31:-0.8125 32:-0.35 35:-0.82899 36:-0.936649 37:-0.966874 40:0.264151 
512 1:-0.221602 2:-0.148464 3:-0.0307702 4:0.655385 5:-0.205076 6:-0.0941399 7:-1.08333e-006 8:-0.664554 9:-0.765258 10:-0.826967 11:-0.559924 12:-0.838651 13:-0.919915 14:-0.0866667 15:-0.534418 16:-0.312894 17:-0.500001 18:0.076924 21:-0.195805 22:-0.583213 23:-0.636591 24:-0.811629 27:-0.852642 28:-0.339623 29:-0.581052 30:-0.566038 31:-0.807692 32:0.076924 35:-0.583213 36:-0.636591 37:-0.999653 40:-0.339623 
512 1:-0.245947 2:-0.206375 3:-0.400001 4:0.253334 5:-0.241476 6:-0.141505 7:-0.484128 8:0.139433 9:-0.483356 10:-0.976787 11:-0.488435 12:-0.78093 13:-0.952738 14:0.433333 15:0.150013 16:0.375239 17:0.0833332 18:0.428572 21:-0.502165 22:-0.94463 23:-0.968719 24:-0.401936 27:-0.855821 28:0.0943396 29:0.034824 30:-0.131428 31:0.07143 32:0.428572 35:-0.94463 36:-0.968719 37:-0.821161 40:0.0943396 
512 1:0.162931 2:0.0483036 3:-0.300001 4:0.253334 5:-0.269312 6:0.332147 7:-0.587302 8:0.0811378 9:-0.489763 10:-0.893047 11:-0.240398 12:-0.648965 13:-0.992297 14:0.486667 15:0.217209 16:0.153572 17:-0.458334 18:0.142858 21:-0.402598 22:-0.926453 23:-0.956752 24:-0.261662 27:-0.645824 28:-0.125786 29:0.09529 30:-0.271428 31:-0.880953 32:0.142858 35:-0.926453 36:-0.956752 37:-0.875959 40:-0.125786 
512 1:0.262939 2:0.0299054 3:-0.58 4:0.253334 5:-0.130133 6:-0.293073 7:-0.35 8:-0.885187 9:-0.95694 10:-0.895639 11:-0.11923 12:-0.743049 13:-0.896951 14:0.706667 15:-0.341972 16:-0.0666662 17:-0.675 18:-0.333334 21:-0.581818 22:-0.805083 23:-0.908532 24:-0.835092 27:-0.852764 28:0.188679 29:-0.407882 30:-0.410526 31:-1 32:-0.333334 35:-0.805083 36:-0.908532 37:-0.990292 40:0.188679 
512 1:-0.0486996 2:-0.00200516 3:-0.328 4:0.2832 5:-0.402923 6:-0.114034 7:-0.133333 8:-0.881329 9:-0.949927 10:-0.869929 11:-0.58901 12:-0.673187 13:-0.835974 14:0.473333 15:-0.12696 16:-0.00374458 17:-0.87 18:-0.36 21:-0.414546 22:-0.969368 23:-0.983847 24:-0.945049 27:-0.414372 28:-0.446541 29:-0.214586 30:-0.377778 31:-0.5 32:-0.36 35:-0.969368 36:-0.983847 37:-0.702191 40:-0.440252 
512 1:-0.0593247 2:-0.0750195 3:-0.416666 4:0.502223 5:-0.260033 6:-0.149399 7:-0.0370381 8:0.592323 9:-0.0883763 10:-0.982783 11:-0.419531 12:-0.746071 13:-0.845145 14:0.126667 15:-0.542559 16:-0.222222 17:-0.819445 18:-0.777778 21:-0.883838 22:-0.460212 23:-0.614997 24:-0.916077 27:-0.976054 28:-0.647799 29:-0.588542 30:-0.517242 31:-0.861112 32:-0.777778 35:-0.460212 36:-0.614997 37:-0.976953 40:-0.641509 
218.9646748405447 1:-0.169848 2:0.144344 3:0.0499999 4:0.519999 5:-0.185805 6:-0.023092 7:-0.380953 8:0.129182 9:-0.13117 10:-0.887565 11:-0.740681 12:-0.503479 13:-0.992338 14:-0.2 15:0.275642 16:0.181591 17:-0.0714285 18:0.142858 21:-1 22:-0.996246 23:-0.996393 24:0.336875 27:-1 28:-0.584906 29:0.954974 30:0.6 31:-0.285715 32:-0.428572 35:-0.996246 36:-0.996393 37:0.954974 40:-0.974843 
512 1:0.21096 2:-0.235761 3:-0.100001 4:0.519999 5:-0.311062 6:-0.236236 7:-0.0714296 8:-0.855905 9:-0.904924 10:-0.754687 11:-0.535616 12:-0.76539 13:-0.590224 14:-0.0733333 15:0.196123 16:0.126602 17:-0.187501 18:0.142858 21:-0.253247 22:-0.95752 23:-0.965053 24:-0.168396 27:-0.335593 28:-0.352201 29:0.076316 30:-0.288462 31:-0.642857 32:0.142858 35:-0.95752 36:-0.965053 37:-0.99392 40:-0.352201 
512 1:0.228019 2:-0.22038 3:-0.353847 4:0.483077 5:-0.0252114 6:-0.170651 7:-1.08333e-006 8:-0.963115 9:-0.974933 10:-0.93343 11:-0.0602438 12:-0.812375 13:-0.886052 14:-0.0266667 15:-0.597685 16:-0.256802 17:-0.625001 18:-0.23077 21:-0.356644 22:-0.614958 23:-0.673183 24:-0.853918 27:-0.900147 28:-0.389937 29:-0.637982 30:-0.530612 31:-0.807692 32:-0.23077 35:-0.614958 36:-0.673183 37:-0.99181 40:-0.389937 
512 1:-0.106932 2:-0.156027 3:-0.300001 4:0.533334 5:-0.227554 6:-0.0734184 7:-0.1875 8:-0.948719 9:-0.980637 10:-0.902963 11:-0.460742 12:-0.77716 13:-0.896135 14:0.753333 15:-0.370346 16:-0.144145 17:-0.661459 18:-0.5 21:-0.825758 22:-0.737879 23:-0.875486 24:-0.788959 27:-0.975525 28:-0.308176 29:-0.433534 30:-0.464286 31:-0.687501 32:-0.5 35:-0.737879 36:-0.875486 37:-0.922411 40:-0.301887 
512 1:-0.218722 2:-0.261566 3:-0.387499 4:0.533334 5:-0.251917 6:-0.342804 7:-0.0972216 8:-0.526306 9:-0.814069 10:-0.963331 11:-0.54239 12:-0.770794 13:-0.883275 14:0.626667 15:-0.284215 16:-0.0560896 17:-0.932292 18:-0.583334 21:-0.651515 22:-0.558196 23:-0.783771 24:-0.972945 27:-0.913483 28:-0.352201 29:-0.356062 30:-0.409524 31:-0.687499 32:-0.583334 35:-0.558196 36:-0.783771 37:-0.964171 40:-0.345912 
512 1:0.114177 2:-0.00227095 3:-0.16 4:0.552 5:-0.130133 6:-0.0609855 7:0.155555 8:-0.123302 9:-0.453119 10:-0.950902 11:-0.2227 12:-0.751712 13:-0.890051 14:0.0133333 15:-0.243076 16:-0.0386919 17:-0.675 18:-0.333334 21:-0.442424 22:-0.496101 23:-0.608381 24:-0.830663 27:-0.921302 28:-0.301887 29:-0.318892 30:-0.392858 31:-0.833333 32:-0.333334 35:-0.496101 36:-0.608381 37:-0.970162 40:-0.301887 
512 1:-0.0751704 2:0.00389306 3:-0.447368 4:0.292633 5:-0.304473 6:-0.434418 7:-0.0877186 8:-0.899884 9:-0.941567 10:-0.870101 11:-0.569752 12:-0.667037 13:-0.897175 14:-0.0933333 15:-0.124228 16:0.0310064 17:-0.401316 18:0.052632 21:-0.559809 22:-0.970996 23:-0.978872 24:-0.476125 27:-0.751429 28:-0.194969 29:-0.211948 30:-0.348838 31:-0.605263 32:0.052632 35:-0.970996 36:-0.978872 37:-0.910491 40:-0.194969 
512 1:0.0916273 2:-0.196134 3:0.13077 4:0.138462 5:-0.384936 6:-0.0558843 7:-1.08333e-006 8:-0.899569 9:-0.933524 10:-0.877294 11:-0.614497 12:-0.582952 13:-0.739894 14:-0.0866667 15:0.197981 16:0.19903 17:-0.250001 18:0.384616 21:0.286714 22:-0.986967 23:-0.989237 24:-0.143811 27:-0.289796 28:-0.358491 29:0.919146 30:0.777778 31:0.153845 32:-0.076924 35:-0.986967 36:-0.989237 37:0.66016 40:-0.949686 
512 1:0.0470898 2:-0.192507 3:0.0499999 4:0.839999 5:-0.0187901 6:-0.200708 7:-0.22619 8:-0.735613 9:-0.835835 10:-0.855419 11:-0.227243 12:-0.842172 13:-0.950822 14:0.0466667 15:-0.131723 16:-0.0469252 17:-0.419643 18:-0.142858 21:-0.402598 22:-0.939684 23:-0.953318 24:-0.298596 27:-0.880936 28:-0.358491 29:-0.218692 30:-0.398058 31:-0.821427 32:-0.142858 35:-0.939684 36:-0.953318 37:-0.762787 40:-0.358491 
512 1:-0.0735197 2:-0.309342 3:-0.2125 4:0.626666 5:-0.495477 6:-0.28064 7:0.0833332 8:-0.943046 9:-0.976549 10:-0.874838 11:-0.585772 12:-0.733958 13:-0.791384 14:0.633333 15:-0.506502 16:-0.223856 17:-0.932292 18:-0.416666 21:-0.477273 22:-0.425692 23:-0.703191 24:-0.960191 27:-0.740052 28:-0.36478 29:-0.556048 30:-0.514564 31:-0.479167 32:-0.416666 35:-0.425692 36:-0.703191 37:-0.874462 40:-0.358491 
464.4796998098474 1:-0.0278832 2:-0.29771 3:-0.400001 4:0.68 5:-0.269312 6:-0.307284 7:0.0833332 8:-0.868469 9:-0.916205 10:-0.832419 11:-0.551289 12:-0.723638 13:-0.831146 14:-0.06 15:0.0637682 16:0.126602 17:-0.0714285 18:0.714286 21:0.0454543 22:-0.96147 23:-0.969389 24:-0.236456 27:-0.493902 28:-0.352201 29:1 30:1 31:0.0714275 32:-0.142858 35:-0.96147 36:-0.969389 37:0.780468 40:-0.955975 
434.9326146496385 1:-0.27744 2:-0.141463 3:-0.300001 4:0.466667 5:-0.241476 6:-0.378331 7:-0.277779 8:0.148386 9:-0.451973 10:-0.932938 11:-0.674675 12:-0.764363 13:-0.838363 14:0.226667 15:-0.295828 16:-0.0833324 17:-0.535715 18:-0.04762 21:-0.303031 22:-0.223031 23:-0.538005 24:-0.783021 27:-0.797551 28:-0.0503145 29:-0.36636 30:-0.421052 31:-0.880953 32:-0.04762 35:-0.223031 36:-0.538005 37:-0.982437 40:-0.0503145 
512 1:-0.0357606 2:-0.0576845 3:-0.0199993 4:0.850666 5:-0.130133 6:0.104793 7:0.0111117 8:-0.721045 9:-0.829 10:-0.952839 11:-0.455022 12:-0.814279 13:-0.723437 14:0.146667 15:-0.461736 16:-0.200338 17:-0.458334 18:-0.066666 21:-0.581818 22:-0.839865 23:-0.87765 24:-0.734291 27:-0.867428 28:-0.383648 29:-0.51565 30:-0.49495 31:-0.666667 32:-0.066666 35:-0.839865 36:-0.87765 37:-0.958169 40:-0.383648 
411.1584504960932 1:-0.218939 2:-0.309342 3:-0.0454555 4:0.694545 5:-0.38698 6:-0.25238 7:-0.409092 8:-0.975161 9:-0.98928 10:-0.847285 11:-0.547042 12:-0.786271 13:-0.974561 14:0.526667 15:-0.332246 16:-0.108783 17:-0.556819 21:-0.144628 22:-0.843192 23:-0.914372 24:-0.722251 27:-0.753407 28:0.0440252 29:-0.39913 30:-0.437126 31:-0.65909 35:-0.843192 36:-0.914372 37:-0.984413 40:0.0440252 
512 1:0.14271 2:0.00948249 3:-0.269565 4:0.513044 5:-0.138606 6:-0.11576 7:-0.811594 8:-0.997005 9:-0.998799 10:-0.893962 11:-0.217354 12:-0.697206 13:-0.98417 14:0.393333 15:-0.336553 16:0.0376659 17:-0.576087 18:-0.47826 21:-1 22:-0.607036 23:-0.777292 24:-0.781275 27:-1 28:0.106918 29:-0.403006 30:-0.344632 31:-0.347825 32:-0.47826 35:-0.607036 36:-0.777292 37:-0.90564 40:0.106918 
512 1:-0.0347379 2:-0.214407 3:-0.0307702 4:0.483077 5:-0.0252114 6:0.0206332 7:-1.08333e-006 8:-0.82078 9:-0.881316 10:-0.828733 11:-0.548419 12:-0.776133 13:-0.783117 14:0.106667 15:0.0371301 16:0.0896056 18:0.692308 21:0.286714 22:-0.988239 23:-0.990288 24:-0.106038 27:-0.37271 28:-0.421384 29:0.884524 30:0.454546 31:0.538463 32:0.23077 35:-0.988239 36:-0.990288 37:0.884524 40:-0.937107 
512 1:-0.0584694 2:-0.247358 3:-0.387499 4:0.626666 5:-0.0327042 6:-0.46714 7:-0.368055 8:-0.851889 9:-0.940617 10:-0.970069 11:-0.221865 12:-0.868364 13:-0.938181 14:0.606667 15:-0.426736 16:-0.270232 17:-0.458334 21:-0.564395 22:-0.793621 23:-0.896611 24:-0.691318 27:-0.897843 28:0.522013 29:-0.484156 30:-0.539094 31:-0.6875 35:-0.793621 36:-0.896611 37:-0.922928 40:0.522013 
512 1:0.117978 2:-0.0949617 3:-0.269565 4:0.610435 5:-0.0877753 6:-0.202254 7:-0.905797 8:-0.891737 9:-0.952157 10:-0.935648 11:-0.146636 12:-0.753156 13:-0.986894 14:0.453333 15:-0.0582739 16:0.0901629 17:-0.505435 18:-0.043478 21:-0.363636 22:-0.921085 23:-0.956411 24:-0.502276 27:-0.69363 28:0.144654 29:-0.1526 30:-0.311476 31:-1 32:-0.043478 35:-0.921085 36:-0.956411 37:-0.953512 40:0.144654 
512 1:0.208745 2:-0.234991 3:0.13077 4:0.31077 5:0.109681 6:-0.247162 7:-0.166668 8:-0.838132 9:-0.892815 10:-0.83011 11:-0.487578 12:-0.652103 13:-0.710088 14:0.0466667 15:0.256294 16:0.252746 17:0.125 18:0.538462 21:0.286714 22:-0.993688 23:-0.994785 24:-0.010556 27:-0.305516 28:-0.433962 29:0.764066 30:0.555556 31:0.153845 32:-0.076924 35:-0.993688 36:-0.994785 37:0.588836 40:-0.949686 
512 1:0.147434 2:-0.3582 3:-0.360869 4:0.610435 5:-0.392757 6:-0.353621 7:-0.152175 8:-0.996139 9:-0.998573 10:-0.80917 11:-0.571245 12:-0.696034 13:-0.654523 14:0.553333 15:-0.475185 16:-0.236609 17:-0.64674 18:-0.130434 21:-0.363636 22:-0.729812 23:-0.860064 24:-0.896427 27:-0.892167 28:0.402516 29:-0.527752 30:-0.517858 31:-0.782608 32:-0.130434 35:-0.729812 36:-0.860064 37:-0.985469 40:0.402516 
512 1:-0.343524 2:-0.419004 3:-1 4:0.44 5:-0.432151 6:-0.317938 7:0.0833332 8:-0.374982 9:-0.703516 10:-1 11:-0.726582 12:-0.665222 13:-0.910284 14:0.32 15:-0.103669 16:0.00563192 17:-0.35 18:0.4 21:-0.268182 22:-0.951435 23:-0.97129 24:-0.515419 27:-0.65711 28:-0.0754717 29:-0.193448 30:-0.364864 31:-0.875 32:0.4 35:-0.951435 36:-0.97129 37:-0.979236 40:-0.0754717 
80.39929631082518 1:0.0766306 2:-0.156141 3:-0.634783 4:0.610435 5:-0.0369445 6:-0.418488 7:-0.434782 8:-0.989991 9:-0.995846 10:-0.985539 11:-0.179021 12:-0.802521 13:-0.890007 14:0.393333 15:-0.127169 16:-0.00954592 17:-0.434783 18:0.304348 21:0.0909085 22:-0.937193 23:-0.966192 24:-0.627354 27:-0.608123 28:0.421384 29:-0.214594 30:-0.37445 31:-0.565217 32:0.304348 35:-0.937193 36:-0.966192 37:-0.945574 40:0.421384 
512 1:0.254058 2:-0.0438047 3:-0.115789 4:0.410526 5:-0.273704 6:-0.25119 7:-0.657894 8:-0.59034 9:-0.763222 10:-0.878018 11:-0.171984 12:-0.662146 13:-0.961421 14:0.0466667 15:0.0730743 16:0.20865 17:-0.315789 18:0.052632 21:-0.119617 22:-0.977745 23:-0.983968 24:-0.250104 27:-0.584602 28:-0.18239 29:-0.034408 30:-0.236642 31:-1 32:0.052632 35:-0.977745 36:-0.983968 37:-0.904592 40:-0.18239 
512 1:-0.143295 2:-0.251282 3:-0.6 4:0.573334 5:-0.352818 6:-0.259918 7:-0.277779 8:0.215323 9:-0.42475 10:-0.963107 11:-0.409007 12:-0.780191 13:-0.936242 14:0.306667 15:-0.171034 16:0.0281374 17:-0.535715 18:-0.238096 21:-0.502165 22:-0.947968 23:-0.969314 24:-0.669029 27:-0.856492 28:-0.0377358 29:-0.254066 30:-0.35065 31:-0.880953 32:-0.238096 35:-0.947968 36:-0.969314 37:-0.936019 40:-0.0377358 
243.3194116949287 1:-0.0796762 2:-0.181614 3:-0.135294 4:0.736471 5:-0.382292 6:-0.123396 7:-0.107843 8:-0.89257 9:-0.941241 10:-0.905938 11:-0.689593 12:-0.566968 13:-0.84887 14:0.133333 15:-0.151557 16:-0.149253 17:-0.426471 18:0.058824 21:-0.385026 22:-0.98415 23:-0.989178 24:-0.405937 27:-0.656127 28:-0.163522 29:-0.23654 30:-0.462686 31:-0.852942 32:0.058824 35:-0.98415 36:-0.989178 37:-0.932544 40:-0.163522 
512 1:-0.034395 2:-0.0167683 3:-0.178262 4:0.123479 5:-0.443587 6:0.0788474 7:-0.152175 8:-0.543809 9:-0.799719 10:-0.89575 11:-0.675613 12:-0.508824 13:-0.890963 14:0.506667 15:-0.111604 16:0.0497246 17:-0.434783 18:0.304348 21:-0.363636 22:-0.978899 23:-0.988453 24:-0.741674 27:-0.767466 28:0.132075 29:-0.200588 30:-0.337016 31:-0.891305 32:0.304348 35:-0.978899 36:-0.988453 37:-0.983754 40:0.132075 
512 1:0.311856 2:-0.34855 3:-0.549999 4:0.68 5:-0.311062 6:-0.307284 7:-0.22619 8:-0.81055 9:-0.874827 10:-0.992518 11:-0.0582522 12:-0.724638 13:-0.835085 14:-0.1 15:-0.117896 16:-1.58333e-006 17:-0.187501 18:0.428572 21:-0.551948 22:-0.964009 23:-0.970356 24:-0.353796 27:-0.734539 28:-0.408805 29:-0.20625 30:-0.368422 31:-0.285715 32:0.428572 35:-0.964009 36:-0.970356 37:-0.866992 40:-0.408805 
512 1:0.458978 2:0.058091 3:-0.37 4:0.776 5:-0.227554 6:0.253994 7:0.0833332 8:-0.755689 9:-0.770336 10:-0.883327 11:0.254948 12:-0.844825 13:-0.984924 14:-0.36 15:0.104211 16:0.303922 17:-0.35 18:0.4 21:-0.372727 22:-0.946701 23:-0.937585 24:-0.319528 27:-0.738768 28:-0.578616 29:-0.00639 30:-0.17647 31:-0.75 32:0.4 35:-0.946701 36:-0.937585 37:-0.849886 40:-0.578616 
512 1:0.161198 2:-0.152599 3:-0.353847 4:0.655385 5:0.109681 6:-0.0941399 7:-0.333334 8:-0.945869 9:-0.962144 10:-0.948874 11:-0.0523115 12:-0.839402 13:-0.927346 14:-0.0266667 15:-0.223717 16:0.124999 17:-0.625001 18:-0.23077 21:-0.678322 22:-0.810767 23:-0.834896 24:-0.443938 27:-0.940874 28:-0.528302 29:-0.301472 30:-0.289474 31:-0.807692 32:-0.23077 35:-0.810767 36:-0.834896 37:-0.792576 40:-0.528302 
512 1:0.00661803 2:-0.237285 3:-0.100001 4:0.68 5:-0.185805 6:-0.55595 7:-0.535714 8:-0.395789 9:-0.598122 10:-0.807597 11:-0.231883 12:-0.893914 13:-0.978999 14:-0.253333 15:0.0336383 16:0.101449 17:-0.419643 18:0.428572 21:0.0454543 22:-0.95838 23:-0.965506 24:-0.460947 27:-0.510241 28:-0.427673 29:-0.069894 30:-0.304348 31:-0.642857 32:0.428572 35:-0.95838 36:-0.965506 37:-0.963614 40:-0.427673 
512 1:-0.103123 2:-0.194504 3:-0.328 4:0.1936 5:-0.426305 6:-0.372648 7:-0.393333 8:-0.723133 9:-0.884473 10:-0.937438 11:-0.468863 12:-0.75846 13:-0.870519 14:0.38 15:-0.254912 16:-0.17134 17:-0.805 18:-0.52 21:-0.665455 22:-0.875403 23:-0.935142 24:-0.78059 27:-0.815065 28:-0.333333 29:-0.329694 30:-0.481482 31:-0.9 32:-0.52 35:-0.875403 36:-0.935142 37:-0.993105 40:-0.327044 
512 1:0.208481 2:0.166682 3:-0.34375 4:0.16 5:-0.300628 6:0.18561 7:0.0833332 8:0.0370714 9:-0.382759 10:-0.919725 11:-0.390576 12:-0.513331 13:-0.900893 14:-0.0133333 15:0.160232 16:0.414895 17:-1 18:-0.75 21:-0.738636 22:-0.144736 23:-0.365809 24:-1 27:-0.793846 28:-0.710692 29:0.043494 30:-0.125 31:-0.6875 32:-0.75 35:-0.144736 36:-0.365809 37:-0.886852 40:-0.704403 
512 1:-0.149141 2:-0.404573 3:-0.37 4:0.253334 5:-0.695198 6:-0.508585 7:-0.783333 8:0.221516 9:-0.60216 10:-0.911471 11:-0.363471 12:-0.827531 13:-0.990111 14:0.393333 15:-0.378085 16:-0.130399 17:-0.566666 18:-0.266666 21:-0.721213 22:-0.242539 23:-0.692534 24:-0.813097 27:-0.932626 28:0.207547 29:-0.440378 30:-0.450778 31:-0.666665 32:-0.266666 35:-0.242539 36:-0.692534 37:-0.956365 40:0.207547 
512 1:-0.0649048 2:-0.0790064 3:-0.593549 4:0.0606446 5:-0.350124 6:-0.334787 7:-0.231182 8:-0.978633 9:-0.992556 10:-0.979289 11:-0.501417 12:-0.658347 13:-0.866171 14:0.686667 15:-0.270672 16:-0.00516325 17:-0.580646 18:-0.096774 21:-0.258064 22:-0.817421 23:-0.918601 24:-0.82251 27:-0.790943 28:0.415094 29:-0.343724 30:-0.371682 31:-0.758062 32:-0.096774 35:-0.817421 36:-0.918601 37:-0.961772 40:0.415094 
512 1:0.0856216 2:-0.35677 3:-0.269565 4:0.415651 5:-0.31651 6:-0.375241 7:-0.0579702 8:-0.283904 9:-0.702434 10:-0.887043 11:-0.464805 12:-0.768217 13:-0.687539 14:0.64 15:-0.217972 16:-0.0529609 17:-0.505435 18:0.130434 21:-0.363636 22:-0.834286 23:-0.914175 24:-0.840825 27:-0.789167 28:0.339623 29:-0.296302 30:-0.40187 31:-1 32:0.130434 35:-0.834286 36:-0.914175 37:-0.952896 40:0.339623 
512 1:-0.0493916 2:-0.432497 3:-0.557895 4:0.528422 5:-0.304473 6:-0.277368 7:-0.201755 8:0.0841614 9:-0.487059 10:-0.924908 11:-0.365354 12:-0.796035 13:-0.893156 14:0.433333 15:-0.0737878 16:-0.186936 17:-0.315789 18:0.368422 21:-0.119617 22:-0.963846 23:-0.978688 24:-0.384472 27:-0.372808 28:-0.0754717 29:-0.16656 30:-0.486486 31:-1 32:0.368422 35:-0.963846 36:-0.978688 37:-0.921138 40:-0.0754717 
512 1:-0.13386 2:-0.234768 3:-0.0199993 4:0.402666 5:-0.20807 6:-0.127294 7:-0.422222 8:-0.65619 9:-0.770949 10:-0.93995 11:-0.481424 12:-0.723576 13:-0.932284 14:0.0866667 15:0.0950783 16:0.0657036 17:-0.241667 18:0.066666 21:-0.163637 22:-0.902105 23:-0.918728 24:-0.346286 27:-0.506628 28:-0.352201 29:-0.014608 30:-0.326924 31:-0.833333 32:0.066666 35:-0.902105 36:-0.918728 37:-0.988904 40:-0.352201 
484.6632624966106 1:0.100664 2:0.0208841 3:-0.0117652 4:0.868234 5:0.13349 6:-0.269668 7:-0.107843 8:-0.404191 9:-0.656916 10:-0.888335 11:-0.280498 12:-0.777544 13:-0.870272 14:0.146667 15:0.037928 16:0.0382517 17:-0.904412 18:-0.764706 21:-0.877005 22:-0.43035 23:-0.591264 24:-0.935539 27:-0.73032 28:-0.622642 29:0.067298 30:-0.333334 31:-0.852941 32:-0.882353 35:-0.43035 36:-0.591264 37:-0.143706 40:-0.968553 
512 1:-0.0502325 2:-0.388942 3:-0.447368 4:0.292633 5:-0.335235 6:-0.0679616 7:0.0263152 8:-0.572762 9:-0.792855 10:-0.841603 11:-0.424361 12:-0.772275 13:-0.937084 14:0.6 15:0.0233164 16:0.0950142 17:-0.486843 18:-0.052632 21:-0.449761 22:-0.949656 23:-0.969574 24:-0.609747 27:-0.54939 28:-0.333333 29:-0.079182 30:-0.308412 31:-0.868422 32:-0.052632 35:-0.949656 36:-0.969574 37:-0.920918 40:-0.333333 
512 1:-0.00837242 2:-0.134846 3:-0.427273 4:0.592728 5:-0.466692 6:-0.139352 7:-0.212122 8:-0.925318 9:-0.963899 10:-0.913174 11:-0.614129 12:-0.636606 13:-0.759825 14:0.313333 15:-0.219499 16:-0.0500001 17:-0.926136 18:-0.545454 21:-0.619835 22:-0.970641 23:-0.98225 24:-0.801115 27:-0.740834 28:-0.566038 29:-0.297916 30:-0.40845 31:-0.659091 32:-0.545454 35:-0.970641 36:-0.98225 37:-0.943506 40:-0.559748 
387.0292236960192 1:0.143249 2:-0.0351352 3:-0.475 4:0.44 5:-0.256788 6:-0.243341 7:-0.241667 8:-0.418184 9:-0.688782 10:-0.987283 11:-0.325077 12:-0.69944 13:-0.763677 14:0.126667 15:0.194087 16:0.161112 17:-0.5125 18:0.2 21:-0.268182 22:-0.935767 23:-0.957182 24:-0.53578 27:-0.480007 28:-0.251572 29:0.074484 30:-0.266666 31:-0.875 32:0.2 35:-0.935767 36:-0.957182 37:-0.914728 40:-0.251572 
512 1:-0.198635 2:-0.159338 3:0.0499999 4:0.72 5:-0.446764 6:-0.125225 7:-0.59375 8:-0.53398 9:-0.713361 10:-0.913501 11:-0.436772 12:-0.814055 13:-0.978747 14:-0.04 15:-0.547076 16:-0.254902 17:-0.796875 18:-0.75 21:-1 22:-0.919193 23:-0.938064 24:-0.888122 27:-1 28:-0.685535 29:-0.592678 30:-0.538462 31:-0.6875 32:-0.75 35:-0.919193 36:-0.938064 37:-0.951762 40:-0.679245 
512 1:0.0674889 2:0.168625 3:0.119999 4:0.253334 5:-0.597773 6:0.767913 7:-0.566667 8:-0.332148 9:-0.587401 10:-0.847025 11:-0.803712 12:-0.245533 13:-0.986146 14:0.0466667 15:0.448633 16:0.195578 17:0.299999 18:0.333334 21:-1 22:-0.995738 23:-0.996716 24:0.736053 27:-1 28:-0.389937 29:0.303534 30:-0.244898 31:1 32:0.333334 35:-0.995738 36:-0.996716 37:-0.251046 40:-0.389937 
512 1:-0.269011 2:-0.249992 3:-0.2125 4:0.86 5:-0.191025 6:-0.46714 7:-0.0520834 8:-0.828787 9:-0.897547 10:-0.969819 11:-0.53346 12:-0.836738 13:-0.867956 15:-0.530273 16:-0.150406 17:-1 18:-0.875 21:-0.869318 22:-0.909603 23:-0.932549 24:-1 27:-0.947649 28:-0.748428 29:-0.858157 30:-0.5 31:-1 32:-1 35:-0.909603 36:-0.932549 37:-1 40:-0.981132 
512 1:-0.161965 2:-0.157919 3:-0.360869 4:0.610435 5:-0.0369445 6:-0.353621 7:-0.811594 8:-0.0794758 9:-0.591957 10:-0.941675 11:-0.319794 12:-0.861889 13:-0.98468 14:0.433333 15:-0.0188001 16:0.223926 17:-0.64674 18:-0.391304 21:-0.727272 22:-0.938204 23:-0.965867 24:-0.719877 27:-0.900184 28:0.0188679 29:-0.11708 30:-0.226994 31:-0.78261 32:-0.391304 35:-0.938204 36:-0.965867 37:-0.933963 40:0.0188679 
512 1:0.0284054 2:-0.045505 3:-0.124999 4:1 5:-0.0814224 6:-0.0526969 7:0.0833332 8:-0.651872 9:-0.731961 10:-0.892529 11:-0.140484 12:-0.89037 13:-0.978741 14:-0.18 15:-0.472651 16:-0.247917 17:-0.59375 18:-0.166666 21:-0.477273 22:-0.898274 23:-0.902417 24:-0.75854 27:-0.882875 28:-0.503145 29:-0.525472 30:-0.525 31:-1 32:-0.166666 35:-0.898274 36:-0.902417 37:-0.960148 40:-0.503145 
512 1:0.149645 2:0.0015752 3:-0.25 4:0.68 5:0.189982 6:-0.129661 7:-0.0714296 8:-0.822964 9:-0.88007 10:-0.931131 11:-0.214924 12:-0.8264 13:-0.78627 14:-0.00666667 15:-0.262651 16:-0.105072 17:-0.883929 18:-0.714286 21:-0.850649 22:-0.723627 23:-0.766647 24:-0.676773 27:-0.971451 28:-0.716981 29:-0.38143 30:-0.666666 31:-0.821429 32:-0.857143 35:-0.723627 36:-0.766647 37:-0.478054 40:-0.930818 
512 1:0.0141525 2:-0.326075 3:-0.639999 4:0.232 5:-0.402923 6:-0.662522 7:-0.257143 8:-0.340155 9:-0.798201 10:-0.962114 11:-0.332823 12:-0.786575 13:-0.829253 14:0.766667 15:-0.171294 16:0.0604659 17:-0.814285 18:0.028572 21:-0.103897 22:-0.919799 23:-0.96942 24:-0.933055 27:-0.664142 28:0.345912 29:-0.2543 30:-0.330232 31:-0.214287 32:0.028572 35:-0.919799 36:-0.96942 37:-0.844452 40:0.345912 
-512 1:0.101283 2:-0.196889 3:-0.387499 4:0.346666 5:-0.300628 6:-0.239197 7:-0.548612 8:-0.364174 9:-0.716586 10:-0.95987 11:-0.0812413 12:-0.837879 13:-0.95651 14:0.5 15:-0.259175 16:-0.0371624 17:-0.661459 18:-0.333334 21:-0.651515 22:-0.994414 23:-0.996899 24:-0.675773 27:-0.871993 28:-0.0754717 29:-0.333378 30:-0.391892 31:-0.895835 32:-0.333334 35:-0.994414 36:-0.996899 37:-0.930417 40:-0.0754717 
-512 1:-0.0244702 2:-0.309342 3:-0.37 4:0.664 5:-0.0521884 6:-0.417408 7:-0.35 8:-0.44674 9:-0.737448 10:-0.971574 11:-0.278716 12:-0.84582 13:-0.857366 14:0.42 15:-0.455439 16:-0.291376 17:-0.8375 18:-0.1 21:-0.163637 22:-0.74452 23:-0.84889 24:-0.914177 27:-0.719022 28:-0.106918 29:-0.509984 30:-0.552448 31:-0.25 32:-0.1 35:-0.74452 36:-0.84889 37:-0.882732 40:-0.106918 
-512 1:-0.035554 2:-0.0274664 3:0.200001 4:0.68 5:-0.185805 6:-0.520427 7:-0.380953 8:-0.599269 9:-0.526887 10:-0.855275 11:-0.532204 12:-0.641912 13:-0.938157 14:-0.746667 15:-0.185915 16:-0.472221 17:-0.767858 18:-0.714286 21:-1 22:-0.986559 23:-0.980216 24:0.698015 27:-1 28:-0.968553 29:0.489202 31:-0.642857 32:-0.714286 35:-0.986559 36:-0.980216 37:0.489202 40:-0.993711 
-124.2194539982758 1:0.266121 2:-0.343723 3:-0.300001 4:0.626666 5:-0.276273 6:-0.384254 7:-0.458333 8:-0.890154 9:-0.910853 10:-0.825401 11:0.0108714 12:-0.842488 13:-0.993571 14:-0.28 15:-0.112066 16:-0.0833324 17:-0.187501 18:0.5 21:-0.128787 22:-0.996065 23:-0.996011 24:-0.0618388 27:-0.565773 28:-0.528302 29:-0.201004 30:-0.421052 31:-0.791667 32:0.5 35:-0.996065 36:-0.996011 37:-0.833712 40:-0.528302 
-512 1:0.379006 2:-0.0579659 3:-0.236364 4:0.796364 5:0.0115762 6:-0.0489276 7:-0.212122 8:-0.765868 9:-0.806001 10:-0.865781 11:0.0439939 12:-0.829927 13:-0.871886 14:-0.26 15:-0.287691 16:-0.208333 17:-0.113636 18:0.09091 21:-0.809917 22:-0.799729 23:-0.793278 24:-0.117257 27:-0.97342 28:-0.528302 29:-0.359038 30:-0.5 31:0.136365 32:0.09091 35:-0.799729 36:-0.793278 37:-0.63377 40:-0.528302 
-512 1:0.0107458 2:-0.281637 3:-0.353847 4:0.396922 5:-0.362454 6:-0.228038 7:-0.416666 8:-0.730346 9:-0.904549 10:-0.93511 11:-0.258603 12:-0.783829 13:-0.949278 14:0.76 15:-0.305814 16:-0.174564 17:-0.3125 21:-0.517483 22:-0.850598 23:-0.933988 24:-0.647252 27:-0.867229 28:0.320755 29:-0.375346 30:-0.478672 31:-0.51923 35:-0.850598 36:-0.933988 37:-0.920729 40:0.320755 
-421.284055279297 1:-0.102554 2:-0.332982 3:-0.676923 4:0.827692 5:-0.11514 6:-0.0941399 7:0.166668 8:-0.763399 9:-0.832115 10:-0.989236 11:-0.432738 12:-0.819464 13:-0.786834 14:0.06 15:-0.474398 16:-0.385113 17:-0.375001 18:0.076924 21:-0.517483 22:-0.8804 23:-0.894246 24:-0.587339 27:-0.829062 28:-0.358491 29:-0.527044 30:-0.61165 31:-0.615385 32:0.076924 35:-0.8804 36:-0.894246 37:-0.91584 40:-0.358491 
-512 1:0.160099 2:-0.0759068 3:-0.475 4:0.58 5:-0.0448856 6:-0.249554 7:-0.0520834 8:-0.316841 9:-0.590691 10:-0.968828 11:-0.0508669 12:-0.850938 13:-0.89666 14:0.02 15:-0.0929157 16:0.0245084 17:-0.796875 18:-0.25 21:-0.477273 22:-0.925723 23:-0.944548 24:-0.930617 27:-0.718371 28:-0.36478 29:-0.183772 30:-0.352942 31:-0.6875 32:-0.25 35:-0.925723 36:-0.944548 37:-0.875283 40:-0.36478 
-71.53236265817175 1:0.0305871 2:-0.318488 3:-0.300001 4:-0.12 5:-0.649733 6:-0.0941399 7:-0.75926 8:-0.754663 9:-0.862253 10:-0.444804 11:-0.916618 12:-0.500976 13:-0.990847 14:0.0666667 15:0.592922 16:0.948719 17:-0.638889 18:-0.444444 21:-0.883838 22:0.146884 23:-0.197201 24:0.958425 27:-0.699953 28:-0.924528 29:0.836888 30:0.777778 31:-0.444444 32:-0.333334 35:0.146884 36:-0.197201 37:0.559381 40:-0.949686 
-512 1:0.533711 2:-0.124273 3:-0.475 4:0.346666 5:-0.130133 6:-0.197747 7:-0.458333 8:0.00133813 9:-0.558188 10:-0.883903 11:0.194808 12:-0.920862 13:-0.733777 14:0.58 15:-0.409875 16:-0.149253 17:-0.864583 18:-0.5 21:-0.651515 22:-0.890349 23:-0.939714 24:-0.899433 27:-0.859305 28:-0.163522 29:-0.468984 30:-0.462686 31:-0.791666 32:-0.5 35:-0.890349 36:-0.939714 37:-0.966126 40:-0.163522 
-512 1:0.139464 2:-0.180531 3:-0.562501 4:0.533334 5:-0.349339 6:-0.0526969 7:-0.1875 8:-0.727618 9:-0.885815 10:-0.834913 11:-0.661738 12:-0.622142 13:-0.622814 14:0.653333 15:-0.167658 16:0.217947 17:-0.796875 18:-0.416666 21:-0.564395 22:-0.956883 23:-0.977453 24:0.118272 27:-0.637468 28:-0.842767 29:-0.005054 30:-0.23077 31:-0.895833 32:-0.666666 35:-0.956883 36:-0.977453 37:-0.0328254 40:-0.842767 
-512 1:-0.0394524 2:-0.255339 3:-0.2125 4:0.72 5:-0.117952 6:-0.37389 7:-0.1875 8:-0.290389 9:-0.594451 10:-0.964838 11:-0.329709 12:-0.767371 13:-0.917427 14:0.0866667 15:-0.039995 16:-0.0104167 17:-0.0859381 18:0.125 21:-0.607955 22:-0.913493 23:-0.938396 24:-0.268602 27:-0.891828 28:-0.201258 29:-0.136152 30:-0.375 31:-0.0625 32:0.125 35:-0.913493 36:-0.938396 37:-0.743866 40:-0.201258 
-6.939974345631245 1:-0.303246 2:-0.268265 3:-0.649999 4:0.626666 5:-0.227554 6:-0.0388804 7:-0.398148 8:-0.686742 9:-0.846408 10:-0.993017 11:-0.5671 12:-0.772916 13:-0.923855 14:0.326667 15:-0.309319 16:-0.117859 17:-0.548611 18:-0.111112 21:-0.651515 22:-0.903625 23:-0.941083 24:-0.675917 27:-0.90966 28:-0.125786 29:-0.3785 30:-0.442858 31:-0.722222 32:-0.111112 35:-0.903625 36:-0.941083 37:-0.909795 40:-0.125786 
-512 1:0.129632 2:-0.27176 3:-0.2125 4:0.58 5:-0.373695 6:-0.031969 7:-0.0520834 8:-0.224968 9:-0.540424 10:-0.88406 11:-0.203822 12:-0.81771 13:-0.880192 14:0.206667 15:-0.256701 16:-0.163522 17:-0.492188 18:-0.125 21:-0.477273 22:-0.98794 23:-0.991087 24:-0.656208 27:-0.631076 28:-0.339623 29:-0.331152 30:-0.471698 31:-0.84375 32:-0.125 35:-0.98794 36:-0.991087 37:-0.94573 40:-0.339623 
-512 1:0.479968 2:0.150586 3:-0.100001 4:0.519999 5:-0.102297 6:0.403195 7:-0.22619 8:-0.35397 9:-0.572019 10:-0.697945 11:-0.109876 12:-0.685797 13:-0.91296 14:0.0133333 15:0.41685 16:0.485597 17:-0.187501 18:0.285714 21:0.194806 22:-0.992224 23:-0.993577 24:-0.214204 27:-0.0902724 28:-0.496855 29:0.274934 30:-0.061728 31:-0.821427 32:0.285714 35:-0.992224 36:-0.993577 37:-0.839446 40:-0.496855 
-512 1:-0.136157 2:-0.266233 3:-0.124999 4:0.346666 5:-0.251917 6:-0.28064 7:-0.638888 8:-0.73934 9:-0.892494 10:-0.886012 11:-0.483665 12:-0.725843 13:-0.983185 14:0.633333 15:-0.357335 16:-0.220034 17:-0.59375 18:-0.166666 21:-0.564395 22:-0.831433 23:-0.913256 24:-0.692143 27:-0.88721 28:0.27044 29:-0.421706 30:-0.50739 31:-0.895833 32:-0.166666 35:-0.831433 36:-0.913256 37:-0.929123 40:0.27044 
-512 1:-0.152653 2:-0.237086 3:-0.515385 4:0.483077 5:-0.384936 6:-0.285424 7:0.166668 8:-0.742916 9:-0.797327 10:-0.931671 11:-0.543596 12:-0.757312 13:-0.850429 14:-0.233333 15:0.355368 16:0.449798 17:0.25 18:0.384616 21:-0.356644 22:-0.96367 23:-0.96431 24:0.0837714 27:-0.681094 28:-0.484277 29:0.21961 30:-0.084338 31:0.153847 32:0.384616 35:-0.96367 36:-0.96431 37:-0.707568 40:-0.484277 
-512 1:0.241728 2:0.27604 3:0.0499999 4:0.72 5:-0.154488 6:0.776201 7:-0.458333 8:-0.318687 9:-0.316106 10:-0.890806 11:-0.0483752 12:-0.765595 13:-0.981958 14:-0.473333 15:0.182103 16:0.244047 17:0.0156244 18:0.5 21:-0.215909 22:-0.970698 23:-0.963349 24:-0.351339 27:-0.895601 28:-0.654088 29:0.25592 30:0.6 31:-0.6875 32:-0.75 35:-0.970698 36:-0.963349 37:-0.467928 40:-0.974843 
-512 1:0.208688 2:-0.20994 3:-0.124999 4:0.626666 5:-0.227554 6:-0.259918 7:0.0833332 8:-0.685069 9:-0.772981 10:-0.891055 11:-0.0212468 12:-0.885261 13:-0.908554 14:-0.213333 15:0.180123 16:0.130953 17:-0.322917 18:0.166666 21:-0.303031 22:-0.924446 23:-0.932136 24:-0.295393 27:-0.830188 28:-0.477987 29:0.061918 30:-0.285714 31:-0.791665 32:0.166666 35:-0.924446 36:-0.932136 37:-0.789272 40:-0.477987 
-407.2388966060029 1:-0.243109 2:-0.158607 3:-0.2125 4:0.72 5:-0.154488 6:-0.342804 7:0.354167 8:-0.825949 9:-0.783823 10:-0.975075 11:-0.530797 12:-0.737527 13:-0.954286 14:-0.553333 15:-0.0370767 16:-0.0256421 17:-0.796875 18:-0.75 21:-1 22:-0.1281 23:0.347898 24:0.0432209 27:-1 28:-0.924528 29:0.001868 30:-0.25 31:-0.6875 32:-0.75 35:-0.1281 36:0.347898 37:-0.094246 40:-0.955975 
-512 1:0.378033 2:-0.21934 3:-0.515385 4:0.483077 5:0.0197529 6:-0.400191 7:-0.166668 8:-0.650512 9:-0.741783 10:-0.988778 11:0.239086 12:-0.840261 13:-0.9644 14:-0.166667 15:-0.0564158 16:-0.0172409 17:-0.375001 18:0.076924 21:-0.356644 22:-0.93455 23:-0.939746 24:-0.4171 27:-0.76148 28:-0.459119 29:-0.150928 30:-0.37931 31:-0.807692 32:0.076924 35:-0.93455 36:-0.939746 37:-0.879508 40:-0.459119 
-512 1:0.365393 2:-0.289955 3:-0.0307702 4:1 5:0.0647172 6:-0.132395 7:-0.500001 8:-0.599013 9:-0.744372 10:-0.839112 11:0.184442 12:-0.894839 13:-0.998963 14:0.08 15:-0.0907309 16:-0.259741 17:-0.500001 18:0.384616 21:-0.195805 22:-0.956773 23:-0.965658 24:-0.129185 27:-0.543898 28:-0.522013 29:-0.181806 30:-0.532468 31:-0.807692 32:0.384616 35:-0.956773 36:-0.965658 37:-0.874778 40:-0.522013 
-512 1:-0.221889 2:-0.249918 3:-0.434615 4:0.396922 5:-0.317491 6:-0.132395 7:-0.583333 8:-0.855728 9:-0.947385 10:-0.889061 11:-0.718679 12:-0.624786 13:-0.932528 14:0.793333 15:-0.308166 16:-0.119429 17:-0.4375 18:-0.307692 21:-0.919581 22:-0.799001 23:-0.908348 24:-0.640725 27:-0.950875 28:0.169811 29:-0.377462 30:-0.44385 31:-0.230769 32:-0.307692 35:-0.799001 36:-0.908348 37:-0.87198 40:0.169811 
-512 1:-0.241555 2:-0.450586 3:-0.328 4:0.4624 5:-0.33278 6:-0.551688 7:-0.306667 8:-0.356348 9:-0.753436 10:-0.878219 11:-0.78233 12:-0.733718 13:-0.762003 14:0.653333 15:-0.510053 16:-0.335 17:-0.74 18:-0.44 21:-0.749091 22:-0.424796 23:-0.725316 24:-0.821247 27:-0.94775 28:0.251572 29:-0.559128 30:-0.58 31:-0.9 32:-0.44 35:-0.424796 36:-0.725316 37:-0.951576 40:0.251572 
-32.78844969208007 1:-0.404056 2:-0.309342 3:-0.412 4:-0.0752002 5:-0.543215 6:-0.273179 7:-0.306667 8:0.199272 9:-0.496633 10:-0.905641 11:-0.828891 12:-0.676502 13:-0.944319 14:0.526667 15:-0.298884 16:-0.101164 17:-0.545 18:-0.2 21:-0.498182 22:-0.932336 23:-0.964614 24:-0.806987 27:-0.862415 28:0.433962 29:-0.36911 30:-0.432314 31:-0.9 32:-0.2 35:-0.932336 36:-0.964614 37:-0.992283 40:0.433962 
-512 1:0.557534 2:-0.124508 3:-0.58 4:0.552 5:-0.247039 6:0.137954 7:-0.133333 8:-0.749048 9:-0.849392 10:-0.980058 11:0.00257578 12:-0.711434 13:-0.639691 14:0.08 15:-0.00621335 16:0.0773189 17:-0.35 18:0.2 21:-0.163637 22:-0.980299 23:-0.98526 24:-0.429395 27:-0.519128 28:-0.396226 29:-0.105754 30:-0.319588 31:-1 32:0.2 35:-0.980299 36:-0.98526 37:-0.982106 40:-0.396226 
-512 1:0.449952 2:-0.132575 3:-0.300001 4:0.751111 5:-0.260033 6:0.182157 7:0.203705 8:-0.966619 9:-0.966569 10:-0.852927 11:0.141836 12:-0.894713 13:-0.83492 14:-0.36 15:-0.145467 16:0.142077 17:-0.638889 18:0.111112 21:-0.0707083 22:-0.861101 23:-0.827071 24:-0.777603 27:-0.690639 28:-0.622642 29:-0.23106 30:-0.278688 31:-0.444445 32:0.111112 35:-0.861101 36:-0.827071 37:-0.926066 40:-0.622642 
-512 1:-0.188638 2:-0.270982 3:-0.58 4:0.44 5:-0.198328 6:-0.168737 7:-0.35 8:-0.451247 9:-0.745266 10:-0.96508 11:-0.480887 12:-0.773486 13:-0.913454 14:0.433333 15:-0.25785 16:-0.143138 17:-0.59375 18:-0.4 21:-0.477273 22:-0.934098 23:-0.961871 24:-0.748633 27:-0.78755 28:0.0628931 29:-0.332186 30:-0.458824 31:-1 32:-0.4 35:-0.934098 36:-0.961871 37:-0.991781 40:0.0628931 
-512 1:0.280194 2:-0.292409 3:-0.258824 4:0.604705 5:-0.382292 6:-0.181901 7:-0.235295 8:0.308913 9:-0.274134 10:-0.893028 11:-0.731014 12:-0.111667 13:-0.931279 14:0.166667 15:-0.108067 16:-0.126437 17:-0.522059 18:0.058824 21:-0.385026 22:-0.977485 23:-0.984443 24:-0.564049 27:-0.725782 28:-0.27673 29:-0.197406 30:-0.448276 31:-1 32:0.058824 35:-0.977485 36:-0.984443 37:-0.962506 40:-0.27673 
-512 1:0.384644 2:0.08125 3:-0.439999 4:0.552 5:-0.20807 6:0.204262 7:0.0111117 8:0.427516 9:-0.135148 10:-0.910723 11:-0.25407 12:-0.494912 13:-0.879107 15:-0.420264 16:-0.227644 17:-0.675 18:0.066666 21:-0.163637 22:-0.259763 23:-0.44129 24:-0.90745 27:-0.819919 28:-0.232704 29:-0.478332 30:-0.512196 31:-0.5 32:0.066666 35:-0.259763 36:-0.44129 37:-0.94104 40:-0.232704 
-18.63043590625272 1:-0.176317 2:-0.281637 3:-0.60625 4:0.72 5:-0.227554 6:-0.218475 7:-0.0520834 8:0.849508 9:-0.027162 10:-0.971055 11:-0.612593 12:-0.681151 13:-0.851576 14:0.113333 15:-0.43826 16:-0.316548 17:-0.898438 18:-0.5 21:-0.607955 22:-0.189691 23:-0.468997 24:-0.937385 27:-0.884863 28:-0.132075 29:-0.494526 30:-0.568346 31:-0.6875 32:-0.5 35:-0.189691 36:-0.468997 37:-0.963788 40:-0.132075 
-512 1:-0.150335 2:-0.190283 3:-0.124999 4:0.626666 5:-0.324983 6:-0.0941399 7:-0.548612 8:-0.241486 9:-0.686816 10:-0.88642 11:-0.527096 12:-0.696231 13:-0.985152 14:0.666667 15:-0.185735 16:0.0287644 17:-0.390625 18:-0.083334 21:-0.564395 22:-0.949723 23:-0.97413 24:-0.628843 27:-0.877326 28:0.232704 29:-0.267294 30:-0.350254 31:-0.583333 32:-0.083334 35:-0.949723 36:-0.97413 37:-0.907242 40:0.232704 
-512 1:-0.501465 2:0.133537 3:0.47 4:0.552 5:0.415449 6:0.353464 7:-0.133333 8:-0.94355 9:-0.951944 10:-0.934848 11:-0.713303 12:-0.879151 13:-0.921672 14:-0.146667 15:-0.406981 16:-0.0806439 17:-0.5125 21:-0.372727 22:-0.79639 23:-0.784106 24:-0.845202 27:-0.640882 28:-0.616352 29:-0.724588 30:-0.6 31:-0.75 32:-0.8 35:-0.79639 36:-0.784106 37:-0.724588 40:-0.974843 
-512 1:-0.0481707 2:-0.258826 3:-0.720001 4:0.178666 5:-0.461378 6:-0.326227 7:-0.0611119 8:-0.829508 9:-0.940592 10:-0.993831 11:-0.48474 12:-0.763866 13:-0.723968 14:0.786667 15:-0.397895 16:-0.233873 17:-0.675 18:-0.266666 21:-0.512122 22:-0.864429 23:-0.940956 24:-0.781902 27:-0.780315 28:0.163522 29:-0.458204 30:-0.51613 31:-0.916667 32:-0.266666 35:-0.864429 36:-0.940956 37:-0.973455 40:0.163522 
-5.31629928718511 1:-0.0787424 2:-0.383548 3:-0.42069 4:0.150345 5:-0.499676 6:-0.419981 7:-0.327586 8:0.000371896 9:-0.675584 10:-0.998779 11:-0.841023 12:-0.263043 13:-0.946457 14:0.773333 15:-0.670858 16:-0.229731 17:-1 18:-0.862069 21:-0.855799 22:-0.764404 23:-0.90477 24:-1 27:-0.893259 28:-0.773585 29:-0.935551 30:-0.692308 31:-0.827586 32:-0.862069 35:-0.764404 36:-0.90477 37:-0.935551 40:-0.924528 
-512 1:-0.155872 2:-0.361277 3:-0.452173 4:0.31826 5:-0.418172 6:-0.310374 7:-0.340579 8:-0.877733 9:-0.947789 10:-0.967827 11:-0.301222 12:-0.867966 13:-0.965632 14:0.513333 15:-0.347911 16:-0.126437 17:-0.788043 18:-0.47826 21:-0.727272 22:-0.71804 23:-0.849521 24:-0.830358 27:-0.833199 28:-0.459119 29:-0.413418 30:-0.454546 31:-1 32:-0.47826 35:-0.71804 36:-0.849521 37:-0.981597 40:-0.45283 
-512 1:-0.34986 2:-0.132575 3:0.336364 4:0.592728 5:-0.466692 6:-0.184564 7:-0.0151526 8:-0.26874 9:-0.361956 10:-0.897028 11:-0.70861 12:-0.89654 13:-0.762218 14:-0.36 15:-0.358002 16:-0.0541136 17:-0.409092 18:-0.272728 21:-1 22:-0.982506 23:-0.980975 24:-0.738969 27:-1 28:-0.522013 29:-0.422306 30:-0.402598 31:-0.09091 32:-0.272728 35:-0.982506 36:-0.980975 37:-0.887388 40:-0.522013 
-512 1:0.289997 2:-0.00132114 3:-0.16 4:0.776 5:-0.110649 6:0.253994 7:0.3 8:-0.723561 9:-0.756966 10:-0.941176 11:0.0293858 12:-0.75846 13:-0.972819 14:-0.26 15:0.102046 16:-0.136365 17:-0.0250006 21:-0.372727 22:-0.867847 23:-0.855273 24:-0.00761685 27:-0.71241 28:-0.591195 29:-0.008338 30:-0.454546 31:-0.25 35:-0.867847 36:-0.855273 37:-0.729798 40:-0.591195 
-486.3420849647047 1:0.0797957 2:-0.280937 3:-0.447368 4:0.292633 5:-0.550599 6:-0.434418 7:-0.201755 8:-0.096747 9:-0.43924 10:-0.815813 11:-0.344356 12:-0.730404 13:-0.950021 14:-0.0333333 15:-0.0430578 16:-0.0310951 17:-0.572369 18:0.157894 21:-0.339714 22:-0.995151 23:-0.996246 24:-0.65321 27:-0.626629 28:-0.163522 29:-0.138908 30:-0.38806 31:-0.868422 32:0.157894 35:-0.995151 36:-0.996246 37:-0.944581 40:-0.163522 
-212.3927040045997 1:0.38289 2:0.323315 3:0.166668 4:0.751111 5:0.844118 6:0.790011 7:0.203705 8:-0.794765 9:-0.820663 10:-0.540402 11:-0.2531 12:-0.767121 13:-0.921688 14:-0.14 15:-0.420955 16:-0.291667 17:-0.0972221 18:0.111112 21:-0.767677 22:-0.879218 23:-0.868531 24:-0.203087 27:-0.974198 28:-0.528302 29:-0.690546 30:-0.368422 31:-0.444445 32:-0.555556 35:-0.879218 36:-0.868531 37:-0.730564 40:-0.886792 
-512 1:-0.356217 2:-0.328135 3:-0.661291 4:0.205161 5:-0.463264 6:-0.447087 7:-0.370967 8:-0.000408006 9:-0.687458 10:-0.978536 11:-0.5721 12:-0.812392 13:-0.948289 14:0.726667 15:-0.334722 16:-0.0648771 17:-0.895161 18:-0.741936 21:-0.797654 22:-0.627436 23:-0.854797 24:-0.957577 27:-0.887324 28:-0.0691824 29:-0.401462 30:-0.413334 31:-0.919355 32:-0.741936 35:-0.627436 36:-0.854797 37:-0.956436 40:-0.0628931 
-512 1:0.461151 2:0.0505707 3:-0.200001 4:0.146667 5:0.148224 6:0.000590611 7:-0.277779 8:0.387916 9:-0.340652 10:-0.499468 11:-0.506565 12:-0.421835 13:-0.991096 14:0.566667 15:-0.0801823 16:0.0346544 17:-0.845238 18:-0.619048 21:-0.701299 22:-0.83082 23:-0.899863 24:-0.948908 27:-0.932688 28:-0.371069 29:-0.172314 30:-0.346534 31:-0.880953 32:-0.619048 35:-0.83082 36:-0.899863 37:-0.985079 40:-0.371069 
-104.6742209011431 1:0.339335 2:0.0223147 3:-0.192309 4:0.483077 5:-0.339969 6:0.0971443 7:0.166668 8:-0.245151 9:-0.454112 10:-0.958801 11:-0.647367 12:-0.606692 13:-0.296022 14:-0.173333 15:0.226447 16:0.319445 17:-0.625001 18:0.23077 21:0.286714 22:-0.890481 23:-0.901326 24:-0.899284 27:0.611194 28:-0.779874 29:0.820266 31:-0.03846 32:0.384616 35:-0.890481 36:-0.901326 37:0.737349 40:-0.767296 
-512 1:-0.221156 2:-0.22011 3:-0.16 4:0.552 5:-0.402923 6:-0.127294 7:-0.566667 8:-0.866809 9:-0.915755 10:-0.937899 11:-0.490768 12:-0.77084 13:-0.971072 14:-0.0666667 15:0.0994636 16:0.193988 17:-0.241667 18:0.466666 21:-0.303031 22:-0.955772 23:-0.965113 24:-0.50821 27:-0.727528 28:-0.238994 29:-0.010662 30:-0.245902 31:-0.666665 32:0.466666 35:-0.955772 36:-0.965113 37:-0.937458 40:-0.238994 
-512 1:-0.176052 2:-0.192214 3:-0.353847 4:0.655385 5:-0.160112 6:-0.32368 7:-0.166668 8:-0.424857 9:-0.588241 10:-0.91827 11:-0.504464 12:-0.772893 13:-0.918234 14:-0.206667 15:0.180492 16:0.425 17:-0.125 18:-0.076924 21:-1 22:-0.954284 23:-0.959219 24:-0.0552882 27:-1 28:-0.503145 29:0.06225 30:-0.1 31:0.346155 32:-0.076924 35:-0.954284 36:-0.959219 37:-0.59244 40:-0.503145 
-416.9160465111568 1:0.105293 2:-0.324609 3:-0.710345 4:-0.0813803 5:-0.479519 6:-0.454279 7:-0.477012 8:-0.80633 9:-0.927016 10:-0.899789 11:-0.695863 12:-0.543962 13:-0.654041 14:0.526667 15:0.276625 16:0.696428 17:-0.943965 18:-0.931034 21:-0.9279 22:0.270005 23:-0.402241 24:-0.851544 27:-0.904793 28:-0.830189 29:0.112488 30:0.037038 31:-1 32:-0.931034 35:0.270005 36:-0.402241 37:-0.997277 40:-0.836478 
-512 1:-0.31096 2:-0.239095 3:-0.300001 4:0.360001 5:-0.269312 6:-0.307284 7:-0.277779 8:-0.910609 9:-0.957988 10:-0.937413 11:-0.629958 12:-0.786899 13:-0.898648 14:0.373333 15:-0.186477 16:0.155406 17:-0.922619 18:-0.619048 21:-0.601732 22:-0.925764 23:-0.956381 24:-0.90429 27:-0.724468 28:-0.540881 29:-0.268188 30:-0.28 31:-0.642857 32:-0.619048 35:-0.925764 36:-0.956381 37:-0.890023 40:-0.534591 
-512 1:-0.0253751 2:-0.332743 3:-0.124999 4:0.44 5:-0.349339 6:-0.363532 7:-0.638888 8:-0.965514 9:-0.985933 10:-0.879896 11:-0.3627 12:-0.730016 13:-0.991601 14:0.56 15:-0.254572 16:-0.0929654 17:-0.322917 21:-0.564395 22:-0.803527 23:-0.898895 24:-0.577115 27:-0.877002 28:0.245283 29:-0.329236 30:-0.427136 31:-0.479165 35:-0.803527 36:-0.898895 37:-0.885104 40:0.245283 
-512 1:-0.0165164 2:-0.109467 3:-0.562501 4:0.16 5:-0.471121 6:-0.28064 7:-0.458333 8:-0.604693 9:-0.845412 10:-0.976813 11:-0.274515 12:-0.786509 13:-0.918926 14:0.213333 15:-0.146494 16:-0.0104167 17:-0.729166 18:-0.25 21:-0.390151 22:-0.808943 23:-0.906822 24:-0.856794 27:-0.591359 28:-0.100629 29:-0.231984 30:-0.375 31:-0.6875 32:-0.25 35:-0.808943 36:-0.906822 37:-0.837385 40:-0.100629 
-512 1:-0.182558 2:-0.147487 3:-0.475 4:0.216 5:-0.022962 6:-0.243341 7:0.0833332 8:-0.601207 9:-0.782067 10:-0.93604 11:-0.524382 12:-0.757195 13:-0.904259 14:0.44 15:-0.461171 16:-0.302754 17:-0.59375 18:-0.3 21:-0.790909 22:-0.789434 23:-0.856579 24:-0.684209 27:-0.873284 28:-0.320755 29:-0.515142 30:-0.559634 31:-0.625 32:-0.3 35:-0.789434 36:-0.856579 37:-0.933347 40:-0.320755 
-512 1:-0.166737 2:-0.41628 3:-0.300001 4:0.346666 5:-0.471121 6:-0.46714 7:-0.368055 8:-0.889372 9:-0.954476 10:-0.871545 11:-0.494136 12:-0.768764 13:-0.970327 14:0.48 15:-0.354356 16:-0.271518 17:-0.458334 21:-0.564395 22:-0.620164 23:-0.804533 24:-0.780235 27:-0.865281 28:0.333333 29:-0.419026 30:-0.539906 31:-0.6875 35:-0.620164 36:-0.804533 37:-0.979168 40:0.333333 
-512 1:-0.159591 2:-0.50061 3:-0.331818 4:0.287272 5:-0.519833 6:-0.388017 7:-0.212122 8:-0.772076 9:-0.902735 10:-0.875798 11:-0.782247 12:-0.520939 13:-0.922611 14:0.54 15:-0.336255 16:-0.197963 17:-0.335228 18:0.363636 21:-0.049588 22:-0.951888 23:-0.974382 24:-0.749286 27:-0.813813 28:0.433962 29:-0.402738 30:-0.49345 31:-0.886365 32:0.363636 35:-0.951888 36:-0.974382 37:-0.994079 40:0.433962 
-512 1:0.352002 2:0.015795 3:-0.618182 4:0.592728 5:0.117858 6:-0.00371532 7:0.181819 8:-0.140802 9:-0.278792 10:-0.971554 11:0.133784 12:-0.783667 13:-0.958936 14:-0.253333 15:0.19282 16:0.247473 17:-0.556819 18:0.272728 21:-0.049588 22:-0.976989 23:-0.975929 24:-0.857807 27:-0.390738 28:-0.591195 29:0.073344 30:-0.212122 31:-0.545455 32:0.272728 35:-0.976989 36:-0.975929 37:-0.726782 40:-0.591195 
-445.0704830761135 1:-0.275945 2:-0.23868 3:-0.634783 4:0.123479 5:-0.367341 6:-0.245501 7:-0.246377 8:-0.620783 9:-0.831878 10:-0.983032 11:-0.577744 12:-0.69697 13:-0.98021 14:0.433333 15:-0.337965 16:-0.0532649 17:-0.858696 18:-0.73913 21:-0.909091 22:-0.469603 23:-0.706799 24:-0.736247 27:-0.964905 28:-0.396226 29:-0.40443 30:-0.408164 31:-0.891305 32:-0.73913 35:-0.469603 36:-0.706799 37:-0.90551 40:-0.389937 
-512 1:-0.142148 2:-0.252967 3:0.200001 4:1 5:-0.102297 6:-0.0941399 7:0.238096 8:-0.787156 9:-0.768554 10:-0.974309 11:-0.415704 12:-0.807166 13:-0.883534 14:-0.486667 15:-0.201475 16:-0.194916 17:-0.535715 18:-0.142858 21:-0.402598 22:-0.867092 23:-0.820036 24:-0.573024 27:-0.660233 28:-0.63522 29:0.203844 30:-0.157894 31:-1 32:-0.142858 35:-0.867092 36:-0.820036 37:-0.771198 40:-0.886792 
-512 1:-0.216233 2:-0.00132114 3:0.0499999 4:0.552 5:-0.344468 6:0.452933 7:0.0833332 8:-0.667754 9:-0.716752 10:-0.815498 11:-0.829097 12:-0.592932 13:-0.909287 14:-0.26 15:0.051326 16:-0.0952391 17:-0.35 18:-0.2 21:-0.163637 22:-0.939773 23:-0.936031 24:-0.448045 27:-0.256744 28:-0.610063 29:0.813182 30:0.25 32:-0.2 35:-0.939773 36:-0.936031 37:0.682766 40:-0.955975 
-512 1:0.0856361 2:-0.217487 3:0.0499999 4:1 5:-0.00834883 6:0.0301955 7:0.354167 8:-0.61468 9:-0.636886 10:-0.936901 11:-0.57304 12:-0.5425 13:-0.784646 14:-0.346667 15:0.0126945 16:0.0704219 17:-0.390625 18:0.25 21:-0.477273 22:-0.985632 23:-0.983121 24:-0.344015 27:-0.815158 28:-0.559748 29:-0.08874 30:-0.323944 31:-0.6875 32:0.25 35:-0.985632 36:-0.983121 37:-0.818502 40:-0.559748 
-512 1:-0.197356 2:-0.206195 3:-0.34375 4:0.72 5:-0.0448856 6:-0.436054 7:-0.1875 8:-0.156067 9:-0.483892 10:-0.964574 11:-0.413022 12:-0.889288 13:-0.863477 14:0.02 15:-0.00673789 16:0.148968 17:-0.59375 18:-0.25 21:-0.346591 22:-0.976442 23:-0.982047 24:-0.81222 27:-0.717269 28:-0.295597 29:-0.106226 30:-0.274336 31:-0.84375 32:-0.25 35:-0.976442 36:-0.982047 37:-0.925755 40:-0.295597 
-512 1:0.151122 2:-0.0321373 3:-0.549999 4:0.68 5:0.231732 6:0.0479559 7:0.0833332 8:-0.190473 9:-0.462462 10:-0.934981 11:-0.266358 12:-0.799419 13:-0.753662 14:0.106667 15:-0.0469563 16:0.115531 17:-0.767858 21:-0.253247 22:-0.965602 23:-0.97154 24:-0.881601 27:-0.800403 28:-0.45283 29:-0.142416 30:-0.295454 31:-0.464285 35:-0.965602 36:-0.97154 37:-0.941475 40:-0.45283 
-512 1:-0.107139 2:-0.382071 3:-0.124999 4:0.44 5:-0.519833 6:-0.28064 7:-0.638888 8:0.142725 9:-0.528088 10:-0.884254 11:-0.43253 12:-0.746969 13:-0.983926 14:0.566667 15:-0.266425 16:-0.0904257 17:-0.458334 18:0.166666 21:-0.477273 22:-0.982057 23:-0.99077 24:-0.643493 27:-0.77122 28:0.176101 29:-0.339902 30:-0.425532 31:-0.791667 32:0.166666 35:-0.982057 36:-0.99077 37:-0.971828 40:0.176101 
-512 1:0.361724 2:-0.280027 3:-0.192309 4:0.655385 5:0.0647172 6:-0.0558843 7:-1.08333e-006 8:-0.91451 9:-0.942359 10:-0.969881 11:0.0318646 12:-0.684995 13:-0.949847 14:0.153333 15:-0.0670644 16:0.113552 17:-0.375001 18:0.076924 21:-0.356644 22:-0.975991 23:-0.979806 24:-0.500181 27:-0.688399 28:-0.433962 29:-0.16051 30:-0.296704 31:-0.807692 32:0.076924 35:-0.975991 36:-0.979806 37:-0.955481 40:-0.433962 
-512 1:0.32627 2:-0.0672803 3:-0.634783 4:0.123479 5:-0.69774 6:0.100468 7:-0.340579 8:-0.0529265 9:-0.608332 10:-0.864692 11:-0.968322 12:-0.342292 13:-0.351959 14:0.28 15:0.364676 16:0.696428 17:-0.929348 18:-0.73913 21:-0.727272 22:-0.799333 23:-0.896582 24:-0.795507 27:-0.391154 28:-0.830189 29:0.247274 30:0.1 31:-0.782608 32:-0.73913 35:-0.799333 36:-0.896582 37:-0.523813 40:-0.880503 
-512 1:-0.640579 2:-0.326075 3:-0.671875 4:0.0899999 5:-0.428497 6:-0.498224 7:-0.322917 8:-0.715163 9:-0.914963 10:-0.980549 11:-0.816883 12:-0.871264 13:-0.932508 14:0.766667 15:-0.466575 16:-0.249383 17:-0.695313 18:-0.3125 21:-0.411932 22:-0.879736 23:-0.955163 24:-0.838808 27:-0.875498 28:0.691824 29:-0.520004 30:-0.525926 31:-0.765625 32:-0.3125 35:-0.879736 36:-0.955163 37:-0.998827 40:0.691824 
-512 1:0.567142 2:-0.112609 3:-0.300001 4:0.751111 5:-0.130133 6:0.016379 7:-0.277779 8:-0.805136 9:-0.817097 10:-0.939414 11:0.374493 12:-0.822023 13:-0.965643 14:-0.426667 15:0.101911 16:0.122362 17:-0.0972221 18:0.111112 21:-0.303031 22:-0.962301 23:-0.955919 24:-0.212173 27:-0.74907 28:-0.509434 29:-0.00846 30:-0.29114 31:-0.444442 32:0.111112 35:-0.962301 36:-0.955919 37:-0.797914 40:-0.509434 
-512 1:-0.247366 2:-0.324097 3:-0.688889 4:0.336297 5:-0.195083 6:-0.407277 7:-0.277779 8:-0.882386 9:-0.955375 10:-0.915427 11:-0.541489 12:-0.817397 13:-0.909974 14:0.806667 15:-0.282094 16:-0.126947 17:-0.518519 18:-0.111112 21:-0.457913 22:-0.940373 23:-0.971701 24:-0.759952 27:-0.784864 28:0.339623 29:-0.354002 30:-0.448598 31:-0.907408 32:-0.111112 35:-0.940373 36:-0.971701 37:-0.985423 40:0.339623 
-512 1:-0.196323 2:-0.316745 3:-0.0375007 4:0.533334 5:-0.349339 6:-0.301361 7:-0.819445 8:-0.836972 9:-0.932828 10:-0.91925 11:-0.538319 12:-0.70226 13:-0.987399 14:0.58 15:-0.32412 16:-0.180204 17:-0.526041 21:-0.477273 22:-0.993149 23:-0.996478 24:-0.716651 27:-0.829974 28:0.232704 29:-0.391818 30:-0.482234 31:-0.895833 35:-0.993149 36:-0.996478 37:-0.971126 40:0.232704 
-512 1:0.117005 2:-0.0528963 3:0.18125 4:0.16 5:-0.0814224 6:-0.031969 7:-0.322917 8:-0.589122 9:-0.75876 10:-0.953534 11:-0.229028 12:-0.745355 13:-0.884392 14:0.16 15:0.0916066 16:0.423546 17:-0.492188 21:-0.346591 22:-0.902883 23:-0.928938 24:-0.783489 27:-0.740413 28:-0.320755 29:-0.017732 30:-0.100918 31:-1 35:-0.902883 36:-0.928938 37:-0.950859 40:-0.320755 
-512 1:-0.0402664 2:-0.461765 3:-0.8 4:0.573334 5:-0.21364 6:-0.544109 7:-0.277779 8:-0.914763 9:-0.960342 10:-0.978309 11:-0.235419 12:-0.859795 13:-0.90286 14:0.38 15:-0.230243 16:-0.0833324 17:-0.458334 18:-0.142858 21:-0.402598 22:-0.75817 23:-0.859291 24:-0.621951 27:-0.826324 28:0.188679 29:-0.307344 30:-0.421052 31:-0.880953 32:-0.142858 35:-0.75817 36:-0.859291 37:-0.932275 40:0.188679 
-512 1:0.151713 2:-0.173397 3:-0.557895 4:0.410526 5:0.00318671 6:-0.172668 7:-0.0877186 8:-0.823383 9:-0.916224 10:-0.983531 11:-0.131541 12:-0.848793 13:-0.801359 14:0.413333 15:-0.357117 16:-0.0633792 17:-0.657895 18:-0.052632 21:-0.339714 22:-0.828789 23:-0.898654 24:-0.845802 27:-0.784757 28:-0.113208 29:-0.42151 30:-0.40845 31:-0.736842 32:-0.052632 35:-0.828789 36:-0.898654 37:-0.948327 40:-0.113208 
-512 1:0.275424 2:-0.227912 3:0.0499999 4:0.776 5:-0.344468 6:-0.0444083 7:-0.35 8:-0.821624 9:-0.848947 10:-0.918871 11:0.0965946 12:-0.867024 13:-0.959415 14:-0.34 15:-0.272817 16:-0.152581 17:-0.35 18:0.6 21:-0.163637 22:-0.829122 23:-0.819742 24:-0.302217 27:-0.806626 28:-0.559748 29:-0.345654 30:-0.464788 31:-1 32:0.6 35:-0.829122 36:-0.819742 37:-0.805155 40:-0.559748 
-512 1:-0.177763 2:-0.251345 3:-0.2125 4:0.533334 5:-0.227554 6:-0.177026 7:-0.819445 8:-0.550778 9:-0.814594 10:-0.909422 11:-0.536907 12:-0.696149 13:-0.983921 14:0.673333 15:-0.315438 16:-0.140703 17:-0.526041 18:-0.25 21:-0.825758 22:-0.86777 23:-0.931955 24:-0.720526 27:-0.928407 28:0.245283 29:-0.384006 30:-0.457286 31:-0.479166 32:-0.25 35:-0.86777 36:-0.931955 37:-0.918745 40:0.245283 
-512 1:0.13588 2:-0.188669 3:-0.192309 4:0.655385 5:0.0197529 6:-0.247162 7:-0.166668 8:-0.68578 9:-0.774203 10:-0.871622 11:-0.233864 12:-0.841146 13:-0.822069 14:-0.0733333 15:-0.226253 16:-0.00581558 17:-0.375001 18:0.076924 21:-0.356644 22:-0.866767 23:-0.880707 24:-0.545638 27:-0.784558 28:-0.465409 29:-0.303754 30:-0.372094 31:-0.807692 32:0.076924 35:-0.866767 36:-0.880707 37:-0.922287 40:-0.465409 
-512 1:0.069435 2:-0.183443 3:-0.540625 4:0.23 5:-0.172757 6:-0.498224 7:-0.661458 8:-0.454993 9:-0.830198 10:-0.946861 11:-0.284124 12:-0.741603 13:-0.888704 14:0.773333 15:-0.420028 16:-0.266977 17:-0.542969 18:-0.25 21:-0.738636 22:-0.913056 23:-0.96622 24:-0.768932 27:-0.900839 28:0.352201 29:-0.47812 30:-0.537038 31:-0.609375 32:-0.25 35:-0.913056 36:-0.96622 37:-0.954766 40:0.352201 
-512 1:-0.241164 2:-0.329601 3:-0.353847 4:0.827692 5:0.199618 6:-0.132395 7:-0.166668 8:-0.698963 9:-0.809057 10:-0.975503 11:-0.346373 12:-0.918098 13:-0.947495 14:0.186667 15:-0.0975388 16:-0.00374458 17:-0.75 18:-0.23077 21:-0.356644 22:-0.635863 23:-0.712162 24:-0.725381 27:-0.65649 28:-0.446541 29:-0.187932 30:-0.370786 31:-0.615385 32:-0.23077 35:-0.635863 36:-0.712162 37:-0.929843 40:-0.446541 
-512 1:0.246573 2:-0.417159 3:-0.720001 4:0.402666 5:-0.402923 6:-0.293073 7:0.0111117 8:-0.606388 9:-0.747687 10:-0.976556 11:0.0332088 12:-0.806774 13:-0.935962 14:0.0133333 15:0.123606 16:0.0932536 17:-0.133334 18:0.2 21:-0.442424 22:-0.941403 23:-0.953192 24:-0.186031 27:-0.698888 28:-0.477987 29:0.011062 30:-0.309524 31:-0.333335 32:0.2 35:-0.941403 36:-0.953192 37:-0.814193 40:-0.477987 
-512 1:-0.0105479 2:-0.147733 3:-0.124999 4:0.533334 5:-0.227554 6:-0.239197 7:-0.548612 8:-0.919897 9:-0.967087 10:-0.87047 11:-0.458975 12:-0.648826 13:-0.969567 14:0.553333 15:-0.359393 16:-0.159864 17:-0.59375 18:-0.166666 21:-0.390151 22:-0.70053 23:-0.845891 24:-0.758196 27:-0.810853 28:0.226415 29:-0.423558 30:-0.469388 31:-0.895833 32:-0.166666 35:-0.70053 36:-0.845891 37:-0.999548 40:0.226415 
-512 1:0.211611 2:0.219352 3:0.3125 4:0.44 5:-0.0814224 6:0.341031 7:-0.1875 8:-0.968733 9:-0.981031 10:-0.947141 11:-0.291747 12:-0.711551 13:-0.74564 14:0.16 15:-0.490557 16:-0.0500001 17:-1 18:-0.875 21:-0.869318 22:0.0109793 23:-0.232119 24:-1 27:-0.64591 28:-0.943396 29:-0.769334 30:-0.5 31:-0.84375 32:-0.875 35:0.0109793 36:-0.232119 37:-0.769334 40:-0.981132 
-512 1:-0.301064 2:-0.423624 3:-0.452173 4:0.415651 5:-0.494417 6:-0.504981 7:-0.152175 8:-0.0145845 9:-0.559304 10:-0.960377 11:-0.761922 12:-0.705572 13:-0.809276 14:0.373333 15:-0.482715 16:-0.219379 17:-0.788043 18:-0.130434 21:-0.272728 22:-0.274182 23:-0.595511 24:-0.946995 27:-0.848709 28:0.345912 29:-0.534528 30:-0.506976 31:-0.456522 32:-0.130434 35:-0.274182 36:-0.595511 37:-0.939789 40:0.345912 
-512 1:0.283592 2:-0.0151931 3:-0.382352 4:0.472941 5:-0.0384339 6:-0.0356284 7:-0.490196 8:-0.77155 9:-0.854401 10:-0.976111 11:0.125136 12:-0.822564 13:-0.979448 14:0.126667 15:-0.00486866 16:0.183149 17:-0.426471 18:-0.17647 21:-0.385026 22:-0.862151 23:-0.890494 24:-0.771919 27:-0.615058 28:-0.433962 29:-0.104544 30:-0.252748 31:-0.852942 32:-0.17647 35:-0.862151 36:-0.890494 37:-0.887015 40:-0.433962 
-512 1:-0.0537756 2:-0.522557 3:-0.688889 4:0.170371 5:-0.563133 6:-0.517795 7:0.0432087 8:-0.718269 9:-0.898227 10:-0.98654 11:-0.723434 12:-0.683144 13:-0.558924 14:0.706667 15:-0.371404 16:-0.13278 17:-0.458334 18:0.037038 21:-0.22559 22:-0.925778 23:-0.96654 24:-0.833683 27:-0.78922 28:0.509434 29:-0.434366 30:-0.452282 31:-0.907408 32:0.037038 35:-0.925778 36:-0.96654 37:-0.956006 40:0.509434 
-512 1:0.181289 2:-0.0502423 3:0.26 4:0.552 5:-0.0521884 6:-0.0444083 7:0.0833332 8:-0.990861 9:-0.992048 10:-0.52888 11:-0.724549 12:-0.5694 13:-0.86698 14:-0.3 15:-0.0288374 16:-0.140475 17:-0.187501 18:0.2 21:-0.372727 22:-0.979278 23:-0.97757 24:-0.44837 27:-0.578203 28:-0.566038 29:0.816778 30:0.2 31:-0.25 32:-0.2 35:-0.979278 36:-0.97757 37:0.0824804 40:-0.880503 
-512 1:-0.242462 2:0.0493003 3:0.500001 4:1 5:-0.102297 6:0.0479559 7:0.54762 8:-0.962678 9:-0.953904 10:-0.857884 11:-0.648579 12:-0.784458 13:-0.876907 14:-0.553333 15:0.185561 16:0.1875 17:0.160714 18:1 21:0.194806 22:-0.991183 23:-0.98646 24:-0.171381 27:-0.472978 28:-0.704403 29:0.739062 30:0.2 31:0.07143 32:0.428572 35:-0.991183 36:-0.98646 37:-0.0485122 40:-0.91195 
-512 1:0.0571364 2:-0.348347 3:-0.58 4:0.216 5:-0.373695 6:-0.243341 7:-0.0250001 8:-0.946896 9:-0.976066 10:-0.899471 11:-0.568893 12:-0.617374 13:-0.770507 14:0.406667 15:-0.271566 16:-0.103083 17:-0.5125 21:-0.372727 22:-0.993056 23:-0.996077 24:-0.643073 27:-0.761484 28:0.081761 29:-0.344528 30:-0.433526 31:-1 35:-0.993056 36:-0.996077 37:-0.976993 40:0.081761 
-512 1:0.259902 2:-0.0890791 3:-0.16 4:0.328 5:-0.286015 6:-0.0444083 7:0.3 8:-0.766183 9:-0.785774 10:-0.898783 11:-0.240195 12:-0.70997 13:-0.797337 14:-0.366667 15:0.0882771 16:0.0734461 17:0.137499 18:0.4 21:0.0454543 22:-0.987435 23:-0.985649 24:0.18452 27:-0.421125 28:-0.63522 29:0.95294 30:0.6 32:0.2 35:-0.987435 36:-0.985649 37:0.692162 40:-0.943396 
-512 1:-0.205244 2:-0.234877 3:-0.0199993 4:0.701334 5:-0.402923 6:0.0384841 7:-0.566667 8:-0.849156 9:-0.909982 10:-0.967594 11:-0.595895 12:-0.686806 13:-0.902138 14:0.0666667 15:-0.171065 16:-0.110192 17:0.0833332 18:0.866666 21:0.115151 22:-0.955404 23:-0.966809 24:-0.426414 27:-0.499974 28:-0.245283 29:-0.254094 30:-0.438016 31:-0.666665 32:0.866666 35:-0.955404 36:-0.966809 37:-0.972874 40:-0.245283 
-512 1:-0.0809117 2:-0.125285 3:0.137501 4:0.533334 5:-0.154488 6:-0.0734184 7:-0.638888 8:-0.600725 9:-0.835227 10:-0.86838 11:-0.43458 12:-0.734159 13:-0.981327 14:0.766667 15:-0.232101 16:-0.0704821 17:-0.322917 21:-0.564395 22:-0.789426 23:-0.891638 24:-0.634855 27:-0.887563 28:0.257862 29:-0.309016 30:-0.412936 31:-0.479165 35:-0.789426 36:-0.891638 37:-0.904214 40:0.257862 
-512 1:0.0715877 2:-0.0376016 3:-0.496 4:0.0143998 5:-0.262632 6:-0.0145642 7:-0.48 8:0.217167 9:-0.49719 10:-0.836891 11:-0.363407 12:-0.681721 13:-0.975522 14:0.6 15:0.0186823 16:0.163965 17:-0.61 18:-0.12 21:-0.498182 22:-0.969158 23:-0.984128 24:-0.794136 27:-0.802349 28:0.157233 29:-0.083352 30:-0.264864 31:-1 32:-0.12 35:-0.969158 36:-0.984128 37:-0.980276 40:0.157233 
-512 1:-0.115303 2:-0.0219395 3:-0.124999 4:0.44 5:-0.300628 6:0.113081 7:-0.638888 8:-0.795224 9:-0.915581 10:-0.85668 11:-0.639501 12:-0.58033 13:-0.982209 14:0.633333 15:-0.271166 16:-0.0784842 17:-0.458334 18:-0.25 21:-0.825758 22:-0.691458 23:-0.841222 24:-0.633918 27:-0.959126 28:0.18239 29:-0.344168 30:-0.41799 31:-0.375001 32:-0.25 35:-0.691458 36:-0.841222 37:-0.864513 40:0.18239 
-512 1:-0.0755836 2:-0.425876 3:-0.360869 4:0.31826 5:-0.392757 6:-0.353621 7:0.0362321 8:-0.732797 9:-0.88418 10:-0.913565 11:-0.512593 12:-0.751455 13:-0.819065 14:0.706667 15:-0.469953 16:-0.245155 17:-0.717392 18:-0.304348 21:-0.545455 22:-0.565145 23:-0.764862 24:-0.813192 27:-0.932419 28:0.0754717 29:-0.523044 30:-0.523256 31:-0.891305 32:-0.304348 35:-0.565145 36:-0.764862 37:-0.95652 40:0.0754717 
-512 1:-0.0360374 2:-0.365056 3:-0.6 4:0.573334 5:-0.40849 6:-0.307284 7:-0.380953 8:-0.766129 9:-0.891434 10:-0.867844 11:-0.46801 12:-0.752613 13:-0.867254 14:0.34 15:-0.322337 16:-0.173149 17:-0.535715 18:0.04762 21:-0.303031 22:-0.945864 23:-0.968652 24:-0.765639 27:-0.699396 28:0.125786 29:-0.390214 30:-0.477778 31:-0.880953 32:0.04762 35:-0.945864 36:-0.968652 37:-0.936037 40:0.125786 
-512 1:-0.310276 2:-0.215201 3:-0.447368 4:0.646315 5:-0.181412 6:-0.408247 7:-0.0877186 8:-0.473872 9:-0.730839 10:-0.931941 11:-0.689627 12:-0.802952 13:-0.814884 14:0.186667 15:-0.325478 16:-0.197184 17:-0.828948 18:-0.263158 21:-0.449761 22:-0.977426 23:-0.985607 24:-0.972633 27:-0.71419 28:-0.113208 29:-0.39304 30:-0.492958 31:-0.605263 32:-0.263158 35:-0.977426 36:-0.985607 37:-0.854861 40:-0.113208 
