svm_type c_svc
kernel_type rbf
gamma 0.0078125
nr_class 2
total_sv 128
rho 5.01756
label 1 -1
nr_sv 62 66
SV
241.2997020772057 1:-0.630735 2:0.187806 3:-0.076924 4:0.204245 6:-0.346316 7:0.076924 8:-0.910753 10:-0.739925 11:-0.943159 12:-0.194631 13:-0.389136 14:-0.48052 15:-0.23077 16:0.076924 17:-0.384616 18:-0.913778 19:-0.798819 20:-0.358333 21:-0.72695 22:-0.594936 23:-0.692308 24:0.076924 25:-0.996141 26:-0.347107 
71.64420487235388 1:-0.310611 2:-0.561905 3:-0.515152 4:-0.379311 6:-0.817287 7:-0.39394 8:-0.968677 10:-0.3719 11:-0.930009 12:0.785235 13:-0.402838 14:-0.553072 15:-0.212122 16:-0.09091 17:-0.272728 18:-0.69616 19:-0.758588 20:0.491667 21:-0.462454 22:-0.63536 23:-0.939394 24:-0.09091 25:-0.887453 26:0.495868 
62.83047475866948 1:0.469955 2:0.134075 4:0.0948276 6:-0.126056 7:-0.25 8:-0.634751 10:-0.0964838 11:-0.651723 12:0.322148 13:0.35736 14:-0.142858 15:-0.25 16:-0.25 17:-0.625 18:-0.58866 19:-0.816827 20:-0.416667 21:0.262406 22:-0.171428 23:-0.625 24:-0.25 25:-0.733774 26:-0.421488 
512 1:-0.779406 2:-0.451113 3:-0.2 4:0.172414 6:-0.595779 7:0.2 8:-0.936656 10:-0.864567 11:-0.952658 12:-0.201342 13:-0.029988 14:-0.492958 16:0.6 18:-0.564104 19:-0.611426 20:-0.408333 21:-0.318466 22:-0.722222 23:-0.6 25:-0.997486 26:-0.404959 
512 1:-0.450759 2:-0.0411452 3:0.2 4:0.37931 6:-0.389874 7:0.4 8:-0.840132 10:-0.819863 11:-0.723014 12:-0.255034 13:0.179792 14:-0.419354 15:0.4 16:0.8 18:-0.360074 19:-0.514562 20:-0.483333 21:0.647806 22:-0.25 23:-0.8 24:-0.4 25:-0.246484 26:-0.933884 
512 1:-0.194841 2:-0.286784 3:-0.45946 4:-0.174279 6:-0.739081 7:-0.351352 8:-0.78051 10:-0.565584 11:-0.761209 12:0.818792 13:-0.663382 14:-0.70248 15:-0.945946 16:-0.837838 17:-0.891892 18:-0.992806 19:-0.893797 20:0.00833333 21:-0.813254 22:-0.821138 23:-1 24:-0.891892 25:-0.953959 26:0.0165289 
512 1:-0.0406006 2:-0.299584 4:0.172414 6:-0.467089 7:-0.2 8:-0.723418 10:-0.518781 11:-0.690616 12:-0.228188 13:-0.930369 14:-0.789474 15:-1 16:-1 17:-1 18:-1 19:-1 20:-0.841667 21:-1 22:-1 23:-1 24:-1 25:-1 26:-0.991736 
512 1:0.583066 2:0.177641 3:0.333334 4:0.54023 6:-0.0295376 7:0.555556 8:-0.965344 10:-0.366881 11:0.0384347 12:-0.187919 13:0.185572 14:-0.025642 15:-0.777778 16:-0.333334 17:-0.555556 18:-0.883591 19:-0.826078 20:-0.675 21:0.569792 22:0.428572 23:-0.777778 24:-0.777778 25:-0.71558 26:-0.942149 
512 1:0.629304 2:0.254306 3:-0.23077 4:0.0450938 6:-0.00973934 7:-0.23077 8:-0.612704 10:-0.206045 11:-0.381478 12:0.033557 13:0.276838 14:-0.192308 15:-0.538462 16:-0.538462 17:-0.692308 18:-0.743588 19:-0.910609 20:-0.566667 21:-0.283978 23:-0.846154 24:-0.846154 25:-0.339502 26:-0.966942 
450.2047043390154 1:0.364301 2:0.0840459 3:-0.09091 4:0.435737 6:-0.0997331 7:0.454546 8:-0.66526 10:-0.237583 11:-0.59301 12:-0.0134228 13:0.43968 14:-0.127272 15:0.454546 16:1 17:0.454546 18:-0.455616 19:-0.1759 20:-0.541667 21:0.922714 22:0.555556 23:-0.636364 24:0.818182 25:-0.709738 26:-0.85124 
216.8981940246025 1:0.366624 2:0.354979 3:0.5 4:0.482759 6:0.163503 7:0.5 8:-0.435944 10:-0.376105 11:-0.641262 12:-0.275168 13:0.552524 14:0.111112 15:0.75 16:0.75 17:0.25 18:-0.28265 19:-0.134924 20:-0.775 21:1 22:1 23:-1 24:-1 25:-1 26:-0.975207 
512 1:-0.00311791 2:-0.083506 3:0.09091 4:0.435737 6:-0.169929 7:0.09091 8:-0.90382 10:-0.535544 11:-0.477747 12:0.0469799 13:-0.04647 14:-0.402598 15:0.272728 16:0.818182 17:-0.09091 18:-0.45235 19:-0.741063 20:-0.358333 21:-0.637504 22:-0.74026 23:-0.636364 24:-0.09091 25:-0.990646 26:-0.363636 
512 1:-0.475741 2:-0.361638 3:-0.333334 4:-0.149426 6:-0.77309 7:-0.444444 8:-0.901507 10:-0.630734 11:-0.896286 12:0.785235 13:-0.694068 14:-0.61062 15:-0.666666 16:-0.611112 17:-0.833333 18:-0.933316 19:-0.974254 20:-0.0583333 21:-0.755378 22:-0.704348 23:-0.833333 24:-0.611112 25:-0.953739 26:-0.0495868 
97.13228002340321 1:-0.185161 2:0.0227909 3:0.111112 4:0.54023 6:-0.0867339 7:0.555556 8:-0.7624 10:-0.500622 11:-0.834294 12:-0.14094 13:0.592496 14:0.16129 15:0.555556 16:0.555556 17:0.333334 18:-0.088322 19:-0.404625 20:-0.741667 21:0.974112 22:0.777778 23:0.333334 24:0.555556 25:0.860464 26:-0.92562 
512 1:-0.255172 2:0.340169 3:0.4 4:0.586207 6:0.0991559 7:0.2 8:-0.868986 10:-0.441036 11:-0.882154 12:-0.120805 13:-0.608338 14:-0.625 15:-0.4 16:-0.4 17:-0.8 18:-0.856723 19:-0.955766 20:-0.6 21:-0.608338 22:-0.625 23:-0.6 24:-0.4 25:-0.891767 26:-0.603306 
151.230601872884 1:0.359267 2:0.112202 3:-0.384616 4:0.522547 6:-0.0889322 7:0.538462 8:-0.940616 10:-0.295454 11:-0.302232 12:0.154362 13:-0.032368 14:-0.307692 15:-0.384616 16:-0.384616 17:-0.538462 18:-0.777428 19:-0.850592 20:-0.35 21:-0.181872 22:-0.410256 23:-0.846154 24:-0.384616 25:-0.895793 26:-0.355372 
512 1:0.621757 2:0.0510284 3:-0.4 4:0.586207 6:-0.0295376 7:0.4 8:-0.873076 10:-0.296366 11:-0.0722149 12:-0.0738255 13:0.051558 14:-0.26923 15:0.4 16:0.8 17:0.2 18:-0.41079 19:-0.622756 20:-0.566667 21:0.418954 22:0.09091 23:-0.2 25:0.229746 26:-0.909091 
512 1:0.145759 2:0.161866 3:-0.166666 4:0.482759 6:-0.0938809 7:0.166666 8:-0.878297 10:-0.140705 11:-0.751249 12:-0.0134228 13:-0.194272 14:-0.375 15:-0.166666 16:-0.166666 17:-0.666666 18:-0.704436 19:-0.954311 20:-0.466667 21:-0.286964 22:-0.4375 23:-0.5 24:-0.166666 25:-0.74063 26:-0.471074 
344.8978888337589 1:-0.361033 2:-0.396312 3:0.04762 4:0.211823 6:-0.642356 7:-0.333334 8:-0.85099 10:-0.705477 11:-0.735716 12:0.530201 13:-0.607892 14:-0.623932 15:-0.238096 16:0.238096 17:-0.238096 18:-0.824094 19:-0.801584 20:-0.025 21:-0.62739 22:-0.663866 23:-0.904762 24:0.142858 25:-0.995352 26:-0.0165289 
203.0361612476738 1:0.342271 2:0.399718 3:0.09091 4:0.24765 6:-0.0763346 7:0.09091 8:-0.585468 10:-0.156124 11:-0.770819 12:-0.228188 13:0.136458 14:-0.166666 15:0.272728 16:1 17:0.272728 18:-0.539746 19:-0.533692 20:-0.4 21:0.002808 22:-0.277778 23:-0.818182 24:1 25:-0.972901 26:-0.404959 
463.4584555351402 1:-0.590252 2:-0.395901 3:-0.363636 4:0.52978 6:-0.579401 7:0.181818 8:-0.947141 10:-0.729828 11:-0.87839 12:0.825503 13:-0.732546 14:-0.75 15:-0.818182 16:-0.363636 17:-0.545454 18:-0.975252 19:-0.867551 20:0.133333 21:-0.7641 22:-0.782608 23:-0.727272 24:-0.363636 25:-0.919857 26:0.140496 
512 1:0.353617 2:-0.0452933 3:-0.857143 4:0.408868 6:-0.158228 7:0.428572 8:-0.985483 10:-0.305159 11:-0.259838 12:0.248322 13:-0.426336 14:-0.468086 15:-0.285714 16:0.285714 17:-0.142858 18:-0.897965 19:-0.763559 20:-0.216667 21:-1 22:-1 23:-1 24:-1 25:-1 26:-0.92562 
512 1:-0.460557 2:-0.249 3:-0.529412 4:-0.399595 6:-0.688135 7:-0.470588 8:-0.881518 10:-0.608504 11:-0.920122 12:0.691275 13:-0.584366 14:-0.647668 15:-0.823529 16:-0.529412 17:-0.588236 18:-0.91476 19:-0.849106 20:0.608333 21:-0.68933 22:-0.774358 23:-0.882353 24:-0.647058 25:-0.991717 26:0.61157 
157.2925918196095 1:-0.0777464 2:0.178038 3:0.333334 4:0.54023 6:0.0276588 7:0.555556 8:-0.862619 10:-0.44071 11:-0.694061 12:-0.147651 13:0.502632 14:-0.05 15:1 16:1 17:0.333334 18:-0.054886 19:-0.429331 20:-0.666667 21:0.250298 22:-0.076924 23:-0.333334 24:-0.111112 25:-0.147246 26:-0.892562 
323.9750125712906 1:0.626099 2:0.207346 3:0.111112 4:0.54023 6:0.0848551 7:0.555556 8:-0.935501 10:-0.23045 11:-0.0832431 12:-0.147651 13:0.280676 14:-0.023256 15:0.777778 16:0.777778 17:0.333334 18:-0.31876 19:-0.606838 20:-0.641667 21:0.628828 22:0.2 23:-0.111112 24:0.555556 25:0.063354 26:-0.834711 
512 1:0.544651 2:0.252027 3:0.6 4:0.586207 6:0.0734185 8:-0.212055 10:-0.270014 11:-0.74958 12:-0.0805369 13:0.499418 14:0.052632 15:0.6 16:1 17:0.2 18:-0.205006 19:-0.257407 20:-0.683333 21:0.109442 22:0.142858 23:-1 24:0.2 25:-0.972448 26:-0.884298 
512 1:0.597098 2:0.375877 3:0.2 4:0.37931 6:0.124893 8:-0.26669 10:-0.113602 11:-0.809675 12:-0.161074 13:-0.089864 14:-0.265306 15:-0.4 16:0.4 17:0.2 18:-0.683152 19:-0.67079 20:-0.591667 21:-0.089864 22:-0.265306 23:-0.4 24:0.4 25:-0.943961 26:-0.595041 
512 1:0.553631 2:0.293223 3:0.333334 4:0.310346 6:0.227846 7:0.111112 8:-0.212693 10:-0.155993 11:-0.858878 12:-0.127517 13:0.507702 14:0.027028 15:0.555556 16:0.777778 17:0.111112 18:-0.231662 19:-0.247693 20:-0.691667 21:1 22:1 23:0.333334 24:0.333334 25:0.82505 26:-0.942149 
52.18791278988847 1:0.632973 2:0.0399609 4:0.482759 6:-0.222574 7:0.166666 8:-0.740494 10:-0.251133 11:-0.220841 12:-0.0201342 13:-0.189032 14:-0.382352 15:-0.5 16:0.166666 17:-0.333334 18:-0.840066 19:-0.897258 20:-0.433333 21:-1 22:-1 23:-1 24:-1 25:-1 26:-0.966942 
512 1:0.381566 2:0.277899 3:-0.076924 4:0.363396 6:-0.14833 7:0.076924 8:-0.283344 10:-0.278844 11:-0.857543 12:-0.0604027 13:-0.260776 14:-0.36 15:-0.076924 16:0.076924 17:-0.538462 18:-0.652174 19:-0.904162 20:-0.583333 21:-0.260776 22:-0.36 23:-0.538462 24:0.076924 25:-0.7281 26:-0.586777 
37.91538797222876 1:0.0778149 2:-0.093418 3:-0.714286 4:0.408868 6:-0.213383 7:0.428572 8:-0.959347 10:-0.315012 11:-0.573238 12:0.255034 13:-0.06837 14:-0.34 15:0.428572 16:0.714286 18:-0.521016 19:-0.781232 20:-0.166667 21:-0.258504 22:-0.5 23:-0.857143 24:0.428572 25:-0.745146 26:-0.173554 
297.9774639770175 1:0.329965 2:0.343451 3:-0.09091 4:0.435737 6:0.134252 7:0.454546 8:-0.764642 10:-0.0393712 11:-0.753522 12:-0.0134228 13:0.280536 14:-0.14754 15:0.272728 16:1 17:0.272728 18:-0.362324 19:-0.415938 20:-0.491667 21:0.773022 22:0.142858 23:-0.272728 24:0.454546 25:0.20617 26:-0.826446 
512 1:0.143438 2:-0.1638 3:0.076924 4:0.522547 6:-0.425512 7:0.23077 8:-0.866601 10:-0.331752 11:-0.563298 12:0.0536913 13:0.013662 14:-0.23077 15:0.384616 16:0.692308 17:-0.384616 18:-0.442796 19:-0.7423 20:-0.566667 21:0.009566 22:-0.26923 23:-0.384616 24:0.538462 25:-0.651046 26:-0.570248 
512 1:-0.346349 2:-0.127225 3:0.052632 4:0.23775 6:-0.246281 7:-0.68421 8:-0.822082 10:-0.506831 11:-0.952862 12:0.677852 13:0.035948 14:-0.410852 15:0.157894 16:0.263158 17:-0.473684 18:-0.684588 19:-0.788628 20:0.075 21:-0.03281 22:-0.496184 23:-0.368422 24:0.052632 25:-0.855293 26:0.0826446 
512 1:-0.227734 2:-0.349533 4:0.37931 6:-0.441352 7:0.4 8:-0.889249 10:-0.636767 11:-0.629431 12:-0.0536913 13:-0.23118 14:-0.253732 15:-0.4 16:-0.2 17:-0.6 18:-0.894986 19:-0.947387 20:-0.441667 21:-0.475068 22:-0.462686 23:-0.8 24:-0.2 25:-0.936667 26:-0.446281 
512 1:-0.58431 2:-0.491668 3:-0.454546 4:-0.316615 6:-0.809487 7:-0.39394 8:-0.898788 10:-0.799923 11:-0.8397 12:0.691275 13:-0.755526 14:-0.765518 15:-0.878788 16:-0.757576 17:-0.878788 18:-0.968077 19:-0.986281 20:0.208333 21:-0.84322 22:-0.836735 23:-1 24:-0.757576 25:-0.978956 26:0.214876 
512 1:-0.526567 2:-0.341796 3:-0.307692 4:-0.114059 6:-0.692796 7:-0.384616 8:-0.915797 10:-0.769399 11:-0.794084 12:0.496644 13:-0.509326 14:-0.480314 15:-0.538462 16:-0.384616 17:-0.76923 18:-0.910534 19:-0.95608 20:0.0583333 21:-0.729484 22:-0.627906 23:-0.846154 24:-0.461538 25:-0.945601 26:0.0661157 
234.9548461287742 1:0.365572 2:0.0655624 3:0.4 4:0.37931 6:-0.106753 8:-0.355355 10:-0.2243 11:-0.870659 12:-0.107383 13:0.460126 14:0.022222 15:0.6 16:1 17:0.4 18:-0.33275 19:-0.141137 20:-0.625 21:-1 22:-1 23:-1 24:-1 25:-1 26:-0.975207 
512 1:-0.217289 2:-0.136253 3:-0.23077 4:0.204245 6:-0.286921 7:0.076924 8:-0.897539 10:-0.440882 11:-0.816495 12:0.127517 13:-0.167022 14:-0.382978 15:-0.538462 16:-0.076924 17:-0.23077 18:-0.866684 19:-0.830555 20:-0.216667 21:-0.603572 22:-0.702128 23:-0.692308 24:-0.384616 25:-0.996253 26:-0.22314 
512 1:0.415418 2:0.488719 3:0.5 4:0.741379 6:0.324368 7:0.75 8:-0.860701 10:0.0335612 11:-0.654511 12:-0.241611 13:0.420004 14:0.142858 15:1 16:1 17:-0.25 18:0.14899 19:-0.760698 20:-0.825 21:0.731286 22:0.222222 23:0.25 24:1 25:0.648962 26:-0.85124 
512 1:0.459137 2:0.260318 3:0.166666 4:0.310346 6:-0.115332 7:0.166666 8:-0.875102 10:-0.0616356 11:-0.494517 12:-0.0671141 13:-0.248258 14:-0.3125 15:0.166666 16:0.333334 17:-0.333334 18:-0.61808 19:-0.857513 20:-0.466667 21:-0.248258 22:-0.3125 23:-0.5 24:0.333334 25:-0.730962 26:-0.471074 
314.886564607017 1:-0.319224 2:-0.44756 3:-0.4 4:0.0689655 6:-0.518567 7:-0.1 8:-0.882794 10:-0.597699 11:-0.775928 12:0.805369 13:-0.349128 14:-0.559056 15:-0.2 16:0.1 17:-0.4 18:-0.740354 19:-0.722283 20:0.0583333 21:-0.438174 22:-0.658914 23:-0.7 24:0.1 25:-0.94002 26:0.0661157 
512 1:0.332829 2:0.62222 3:0.333334 4:0.54023 6:0.342239 7:0.333334 8:-0.439375 10:-0.254387 11:-0.802991 12:-0.228188 13:0.555822 14:0.111112 15:0.555556 16:0.777778 17:0.111112 18:-0.202974 19:-0.368174 20:-0.7 21:0.588666 22:-0.142858 23:-1 24:0.333334 25:-0.293564 26:-0.826446 
512 1:-0.569457 2:-0.192236 3:-0.5 4:0.275862 6:-0.364137 7:0.3 8:-0.983774 10:-0.738391 11:-0.815344 12:0.758389 13:-0.516542 14:-0.421052 15:-1 16:-0.7 17:-0.7 18:-1 19:-0.741396 20:-0.683333 21:-0.69362 22:-0.555556 23:-0.8 24:-0.8 25:-0.69362 26:-0.92562 
500.9393148474458 1:0.214765 2:-0.0332418 3:-0.076924 4:0.363396 6:-0.14833 7:0.23077 8:-0.723645 10:-0.272506 11:-0.669818 12:0.234899 13:-0.000884 14:-0.225 15:-0.23077 16:0.538462 17:-0.076924 18:-0.798598 19:-0.819514 20:-0.333333 21:-0.191124 22:-0.35 23:-0.846154 24:0.23077 25:-0.869412 26:-0.338843 
512 1:0.579815 2:0.471134 3:0.09091 4:0.435737 6:0.087455 7:0.09091 8:-0.746486 10:-0.0876134 11:-0.445405 12:-0.147651 13:0.479382 14:-0.038462 15:-0.09091 16:0.09091 17:-0.454546 18:-0.590072 19:-0.716126 20:-0.566667 21:0.91915 22:0.666666 23:-0.272728 24:-0.272728 25:0.535154 26:-0.950413 
129.9291723685165 1:-0.518557 2:-0.401164 3:-0.636364 4:0.0595621 6:-0.579401 7:0.09091 8:-0.979948 10:-0.689026 11:-0.814801 12:0.704698 13:-0.597956 14:-0.607594 15:-0.818182 16:0.09091 18:-0.981806 19:-0.781091 20:0.316667 21:-0.687754 22:-0.6875 23:-0.363636 24:-0.09091 25:-0.862331 26:0.322314 
398.4619882178366 1:0.759985 2:0.233746 3:0.4 4:0.37931 6:-0.235443 7:0.2 8:0.0032813 10:-0.0952438 11:-0.881887 12:-0.302013 13:0.689764 14:0.333334 15:0.6 16:0.8 17:0.4 18:0.028684 19:-0.237746 20:-0.775 21:0.905814 22:0.304348 23:-0.8 24:0.6 25:0.259938 26:-0.809917 
512 1:-0.722371 2:-0.24357 3:0.111112 4:0.310346 6:-0.344117 7:-0.111112 8:-0.917677 10:-0.818767 11:-0.954631 12:-0.221477 13:0.10945 14:-0.362318 15:0.333334 16:0.333334 17:-0.333334 18:-0.681204 19:-0.768541 20:-0.425 21:-0.14316 22:-0.577464 23:-0.777778 24:-0.111112 25:-0.928004 26:-0.413223 
512 1:-0.120162 2:-0.357964 3:-0.1 4:0.275862 6:-0.441352 7:-0.2 8:-0.91364 10:-0.438422 11:-0.699165 12:0.872483 13:-0.603952 14:-0.707318 15:-0.7 16:-0.4 17:-0.6 18:-0.955129 19:-0.927574 20:0.025 21:-0.618284 22:-0.728 23:-0.8 24:-0.5 25:-0.973359 26:0.0330579 
512 1:0.624789 2:0.299632 3:0.4 4:0.586207 6:-0.0295376 7:0.2 8:-0.255769 10:-0.194299 11:-0.704073 12:-0.187919 13:0.347948 14:0.095238 15:0.6 16:0.8 17:0.4 18:-0.317934 19:-0.453039 20:-0.65 21:0.567364 22:0.030304 23:-0.6 24:0.8 25:-0.286614 26:-0.727273 
487.2970333288744 1:0.43006 2:0.53994 3:-0.09091 4:0.435737 6:0.0172595 7:0.272728 8:-0.903322 10:-0.206975 11:-0.349624 12:-0.234899 13:0.356316 14:-0.142858 15:0.454546 16:0.818182 17:-0.09091 18:-0.017298 19:-0.681189 20:-0.65 21:0.26092 22:-0.25 23:-0.09091 24:-0.09091 25:0.21639 26:-0.867769 
512 1:-0.301397 2:-0.468436 3:-0.756098 4:-0.463414 6:-0.820521 7:-0.512196 8:-0.941364 10:-0.565516 11:-0.740119 12:0.711409 13:-0.571062 14:-0.655172 15:-0.756098 16:-0.463414 17:-0.658536 18:-0.92734 19:-0.889489 20:0.45 21:-0.719362 22:-0.806818 23:-0.853659 24:-0.609756 25:-0.975717 26:0.454545 
512 1:0.221411 2:0.177641 3:0.555556 4:0.54023 6:-0.0295376 7:0.333334 8:-0.772671 10:-0.484157 11:-0.398507 12:-0.187919 13:-0.087018 14:-0.190476 15:-0.333334 16:0.111112 17:-0.333334 18:-0.750074 19:-0.708603 20:-0.65 21:-0.27452 23:-0.555556 24:-0.555556 25:-0.27452 26:-0.966942 
512 1:0.0410429 2:0.0470925 3:0.25 4:0.482759 6:-0.0617092 7:0.5 8:-0.869252 10:-0.508189 11:-0.487768 12:-0.248322 13:-0.126246 14:-0.352942 15:0.75 16:0.75 17:-0.5 18:-0.3122 19:-0.879138 20:-0.716667 21:0.022576 22:-0.111112 23:-0.25 24:0.25 25:-0.218544 26:-0.85124 
512 1:0.1698 2:0.0797443 3:0.333334 4:0.310346 6:-0.13678 7:-0.166666 8:-0.40091 10:-0.528444 11:-0.72644 12:0.033557 13:0.128642 14:-0.295774 15:0.5 16:0.833334 17:0.5 18:-0.454498 19:-0.392558 20:-0.408333 21:0.096158 22:-0.352112 23:-1 24:0.833334 25:-0.935729 26:-0.413223 
512 1:0.276444 2:0.405572 3:0.333334 4:0.54023 6:0.227846 7:0.555556 8:-0.637611 10:-0.309499 11:-0.637194 12:-0.161074 13:0.609404 14:0.045454 15:0.555556 16:1 17:0.555556 18:-0.330262 19:-0.168758 20:-0.633333 21:0.88192 22:0.411764 23:-0.777778 24:0.777778 25:-0.492046 26:-0.859504 
25.66372944591013 1:0.425369 2:0.51985 3:0.2 4:0.37931 6:0.124893 7:0.4 8:-0.848728 10:-0.155343 11:-0.455636 12:-0.208054 13:0.294704 14:-0.043478 15:0.8 16:1 17:0.2 18:-0.2472 19:-0.510086 20:-0.616667 21:0.451756 22:-0.083334 23:-0.4 24:0.8 25:-0.48167 26:-0.801653 
512 1:-0.453171 2:0.0616761 3:0.4 4:0.586207 6:-0.106753 7:0.4 8:-0.706046 10:-0.738694 11:-0.925531 12:-0.0604027 13:0.36904 14:-0.16279 15:0.2 16:0.2 17:-0.6 18:-0.644948 19:-0.759061 20:-0.641667 21:0.80031 22:0.142858 25:-0.31777 26:-0.826446 
512 1:0.140224 2:0.088704 3:-0.5 4:0.482759 6:-0.201127 7:0.5 8:-0.914983 10:-0.399964 11:-0.45384 12:-0.0604027 13:0.204258 14:-0.17647 15:0.166666 16:0.666666 17:0.166666 18:-0.445262 19:-0.561579 20:-0.433333 21:0.016832 22:0.076924 23:-0.833333 24:-0.333334 25:-0.462326 26:-0.892562 
512 1:-0.141192 2:-0.157833 3:0.111112 4:0.54023 6:-0.315519 7:0.555556 8:-0.93755 10:-0.540842 11:-0.594212 12:-0.187919 13:-0.339938 14:-0.438596 15:-1 16:-0.555556 17:-0.555556 18:-1 19:-0.865628 20:-0.525 21:-0.934223 22:-0.777778 23:-1 24:-1 25:-1 26:-0.92562 
512 1:-0.206626 2:0.0953481 4:0.310346 6:-0.115332 8:-0.779466 10:-0.484924 11:-0.859624 12:0.0201342 13:-0.365062 14:-0.46875 16:0.166666 17:-0.333334 18:-0.662686 19:-0.796145 20:-0.466667 21:-0.419766 22:-0.5625 23:-0.833333 25:-0.828012 26:-0.471074 
-512 1:0.249692 2:0.0342827 4:0.586207 6:-0.235443 7:0.4 8:-0.381564 10:-0.432575 11:-0.756298 12:-0.194631 13:0.375626 14:-0.23077 15:0.2 16:0.6 17:0.2 18:-0.359916 19:-0.231538 20:-0.675 21:0.675248 22:0.23077 23:-1 24:0.2 25:-0.72948 26:-0.892562 
-402.9238877157254 1:0.569123 2:0.0861492 3:0.333334 4:0.54023 6:-0.0867339 7:0.333334 8:-0.965344 10:-0.373188 11:0.0298169 12:-0.187919 13:0.159522 14:-0.076924 15:-0.777778 16:-0.333334 17:-0.555556 18:-0.883591 19:-0.826078 20:-0.675 21:0.195256 23:-0.777778 24:-0.777778 25:-0.431188 26:-0.966942 
-63.31768431235442 1:0.138739 2:0.313187 3:-0.4 4:0.37931 6:0.0476778 7:0.2 8:-0.712625 10:-0.269435 11:-0.765545 12:-0.214765 13:0.146502 14:-0.08772 15:0.2 16:0.6 18:-0.603978 19:-0.724482 20:-0.525 21:-0.205468 22:-0.285714 23:-1 24:0.2 25:-0.820696 26:-0.768595 
-512 1:0.191291 2:0.0593696 3:0.272728 4:0.435737 6:-0.193327 7:0.09091 8:-0.869901 10:-0.341562 11:-0.497889 12:-0.0805369 13:-0.111578 14:-0.515152 15:-0.09091 16:0.454546 17:-0.272728 18:-0.640202 19:-0.703384 20:-0.45 21:0.012262 22:-0.25 23:-0.636364 24:-0.636364 25:-0.35574 26:-0.933884 
-54.62512990315102 1:-0.0005601 2:0.583745 3:1 4:1 6:0.48523 7:1 8:-0.0410773 10:-0.803919 11:-0.931323 12:-0.926174 13:-1 14:-1 15:-1 16:-1 17:-1 18:-1 19:-1 20:-0.991667 21:-1 22:-1 23:-1 24:-1 25:-1 26:-0.991736 
-512 1:0.053745 2:0.0597623 3:0.5 4:0.482759 6:-0.0295376 7:0.25 8:-0.694081 10:-0.410109 11:-0.726659 12:-0.234899 13:0.356596 14:-0.095238 15:0.75 16:1 17:0.25 18:-0.37225 19:-0.478602 20:-0.65 21:-0.386692 22:-0.058824 23:-0.5 25:-0.584252 26:-0.859504 
-284.1481699638836 1:0.823352 2:0.772913 3:0.2 4:1 6:-0.13249 7:0.6 8:-0.339506 10:0.00269333 11:-0.622191 12:-0.818792 13:0.947334 14:0.6 15:0.2 16:0.2 17:-1 18:0.944986 19:-1 20:-0.958333 21:1 22:1 23:0.2 24:0.2 25:1 26:-0.975207 
-151.7253834802068 1:0.749871 2:-0.354818 3:-0.657142 4:-0.59606 6:-0.742857 7:-0.828571 8:0.444655 10:-0.36181 11:-0.990762 12:0.456376 13:-0.61477 14:-0.708334 15:-1 16:-0.942857 17:-0.942857 18:-1 19:-0.998657 20:-0.6 21:-0.966387 22:-0.6 23:-0.942857 24:-0.942857 25:-0.966387 26:-0.958678 
-512 1:-0.1305 2:0.0251515 3:0.25 4:0.224138 6:0.0348092 7:0.25 8:-0.883612 10:-0.404542 11:-0.771704 12:-0.187919 13:0.081718 14:-0.018868 15:0.75 16:1 17:0.25 18:-0.729566 19:-0.727673 20:-0.558333 21:-0.385886 22:-0.285714 23:-0.75 24:-0.25 25:-0.926675 26:-0.884298 
-356.6944068369879 1:0.907304 2:-0.452747 3:-0.76 4:-0.324138 6:-0.575191 7:-0.36 8:-0.996293 10:-0.920312 11:1 12:0.852349 13:-0.414494 14:-0.492064 15:-0.84 16:-0.6 17:-0.68 18:-0.994188 19:-0.949634 20:0.05 21:-0.50896 22:-0.640624 23:-0.76 24:-0.68 25:-0.965453 26:0.0578512 
-253.7646344715347 1:0.335508 2:0.037352 3:0.2 4:0.586207 6:-0.158228 7:0.4 8:-0.649667 10:-0.186619 11:-0.69129 12:-0.107383 13:-0.129166 14:-0.444444 15:-0.2 16:-0.2 17:-0.6 18:-0.812319 19:-0.751884 20:-0.7 21:0.008018 22:-0.272728 23:-1 24:-0.6 25:-0.930334 26:-0.909091 
-199.7106491506852 1:-0.583808 2:-0.16022 3:-0.901639 4:-0.729792 6:-0.797469 7:-0.770492 8:-0.983718 10:-0.627585 11:-0.947355 12:0.704698 13:-0.731544 14:-0.728814 15:-0.967213 16:-0.934426 17:-0.967213 18:-0.994709 19:-0.982598 20:-0.508333 21:-0.862414 22:-0.836066 23:-1 24:-0.934426 25:-0.991515 26:-0.495868 
-306.6366836894541 1:0.322713 2:0.501258 3:0.333334 4:0.54023 6:0.285042 7:0.111112 8:-0.779827 10:-0.316593 11:-0.457535 12:-0.214765 13:0.198806 14:-0.26087 15:0.555556 16:1 17:0.111112 18:-0.301706 19:-0.492967 20:-0.616667 21:0.679554 22:0.4 23:0.111112 24:0.555556 25:0.200932 26:-0.917355 
-512 1:0.181029 2:0.232722 3:-0.2 4:0.37931 6:-0.13249 7:0.2 8:-0.924922 10:-0.13651 11:-0.677225 12:-0.281879 13:0.044962 14:-0.09804 15:-0.6 17:-0.2 18:-0.917275 19:-0.690065 20:-0.575 21:-0.832783 22:-0.6 23:-0.8 24:-0.8 25:-0.832783 26:-0.958678 
-391.1286060182288 1:0.196908 2:0.0720711 3:0.111112 4:0.310346 6:-0.000939387 7:0.333334 8:-0.921905 10:-0.255012 11:-0.538095 12:-0.134228 13:-0.43852 14:-0.5 15:-0.555556 16:-0.333334 17:-0.555556 18:-0.805397 19:-0.860633 20:-0.6 21:-0.79154 22:-0.6 23:-0.777778 24:-0.777778 25:-0.892876 26:-0.917355 
-140.2034928356535 1:-0.636084 2:0.617679 3:1 4:1 6:-0.0295376 7:1 8:-0.699106 10:-0.914907 11:-0.946421 12:-0.993289 13:0.500114 14:-0.142858 15:-1 16:-1 17:-1 18:-1 19:-1 20:-0.941667 21:0.500114 22:-0.142858 23:-1 24:-1 25:-1 26:-0.942149 
-512 1:0.377205 2:-0.0931653 3:-0.272728 4:0.24765 6:-0.240124 7:0.09091 8:-0.854912 10:-0.305132 11:-0.345784 12:-0.0671141 13:0.15024 14:-0.071428 15:0.09091 16:1 17:0.636364 18:-0.61858 19:-0.420495 20:-0.533333 21:0.27178 22:0.25 23:-0.636364 24:-0.272728 25:-0.458666 26:-0.933884 
-512 1:0.689236 2:0.940086 3:0.333334 4:0.54023 6:0.399435 7:0.555556 8:-0.671251 10:-0.0498438 11:-0.42983 12:-0.322148 13:0.248302 14:-0.117648 15:0.555556 16:0.555556 17:-0.111112 18:-0.189042 19:-0.581954 20:-0.716667 21:0.421484 22:-0.2 23:-0.333334 24:0.555556 25:0.040442 26:-0.793388 
-487.4646109967782 1:0.378439 2:0.201121 3:-0.142858 4:0.704434 6:0.00723152 7:0.714286 8:-0.792437 10:-0.267704 11:-0.437156 12:-0.422819 13:0.5398 14:0.103448 15:1 16:1 17:0.428572 18:-0.221424 19:-0.247612 20:-0.758333 21:0.89576 22:0.272728 23:-0.142858 24:1 25:-0.058334 26:-0.818182 
-101.2936906926738 1:-0.475515 2:-0.377043 3:-0.882353 4:-0.703853 6:-0.796641 7:-0.764706 8:-0.929787 10:-0.534248 11:-0.973104 12:0.785235 13:-0.58121 14:-0.59633 15:-0.764706 16:-0.647058 17:-0.882353 18:-0.936013 19:-0.980853 20:0.816667 21:-0.72217 22:-0.754546 23:-0.882353 24:-0.72549 25:-0.958106 26:0.818182 
-512 1:0.312723 2:0.410222 3:0.5 4:0.482759 6:0.00263748 7:0.25 8:-0.386019 10:-0.264509 11:-0.859982 12:-0.409396 13:0.67307 14:0.071428 15:0.5 16:0.75 17:0.25 18:-0.053788 19:-0.222871 20:-0.766667 21:0.852266 22:0.043478 23:-0.75 24:0.75 25:0.075246 26:-0.809917 
-512 1:0.380323 2:0.341334 3:0.333334 4:0.54023 6:0.142051 7:0.333334 8:-0.5198 10:-0.26493 11:-0.671228 12:-0.194631 13:0.457232 15:0.777778 16:1 17:0.111112 18:-0.384774 19:-0.256392 20:-0.666667 21:0.54432 22:0.391304 23:-1 24:0.777778 25:-0.572088 26:-0.809917 
-512 1:0.317065 2:0.537078 3:0.428572 4:0.408868 6:0.264615 7:0.428572 8:-0.82868 10:-0.285999 11:-0.454021 12:-0.42953 13:0.25101 15:1 16:1 17:0.428572 18:-0.226378 19:-0.46376 20:-0.766667 21:0.28099 22:-0.1875 23:-0.428572 24:1 25:-0.505128 26:-0.735537 
-512 1:-0.398814 2:-0.27763 4:0.37931 6:-0.544305 7:0.4 8:-0.893141 10:-0.706428 11:-0.739945 12:-0.248322 13:-0.436332 14:-0.619048 15:-0.2 16:-0.2 17:-1 18:-0.574938 19:-1 20:-0.65 21:-0.920951 22:-0.75 23:-0.8 24:-0.8 25:-0.957001 26:-0.867769 
-512 1:0.00842157 2:-0.00551435 3:0.166666 4:0.310346 6:-0.222574 8:-0.835791 10:-0.378834 11:-0.687785 12:0.0201342 13:-0.234616 14:-0.435898 15:0.333334 16:0.5 17:-0.333334 18:-0.674418 19:-0.755759 20:-0.35 21:-0.335996 22:-0.589744 23:-0.5 24:0.166666 25:-0.868799 26:-0.355372 
-512 1:-0.486746 2:-0.318831 3:-0.857143 4:-0.699508 6:-0.806284 7:-0.785714 8:-0.960028 10:-0.529016 11:-0.964997 12:0.791946 13:-0.59037 14:-0.578948 15:-0.964286 16:-0.821429 17:-0.857143 18:-0.972133 19:-0.949613 20:0.425 21:-0.867268 22:-0.872093 23:-0.892857 24:-0.892857 25:-0.966848 26:0.421488 
-187.570598434101 1:-0.658752 2:-0.534855 3:-0.652174 4:-0.169414 6:-0.689782 7:-0.391304 8:-0.958609 10:-0.730267 11:-0.942969 12:0.52349 13:-0.531326 14:-0.668202 15:-0.565218 16:-0.217392 17:-0.652174 18:-0.854581 19:-0.850102 20:0.808333 21:-0.62683 22:-0.779816 23:-0.826087 24:-0.304348 25:-0.962689 26:0.801653 
-512 1:0.0288102 2:0.0881668 3:0.333334 4:0.310346 6:-0.0295376 7:0.111112 8:-0.448122 10:-0.582592 11:-0.783299 12:-0.167785 13:0.399562 14:-0.151516 15:0.333334 16:0.333334 17:0.111112 18:-0.251476 19:-0.326473 20:-0.725 21:0.560126 22:0.333334 23:0.333334 24:0.333334 25:0.560126 26:-0.92562 
-512 1:-0.241655 2:0.0131722 3:0.428572 4:0.704434 6:-0.250152 7:0.714286 8:-0.829693 10:-0.579508 11:-0.755678 12:-0.42953 13:0.196382 14:-0.032258 15:0.714286 16:1 17:0.428572 18:-0.397256 19:-0.444675 20:-0.741667 21:-0.386552 22:-0.621622 23:-0.714286 24:-0.142858 25:-0.42569 26:-0.694215 
-189.3403708838082 1:0.361691 2:-0.0707865 3:-0.166666 4:-0.0344827 6:-0.13678 7:-0.166666 8:-0.264489 10:-0.266745 11:-0.908087 12:0.107383 13:0.007742 14:-0.16923 16:0.5 18:-0.58067 19:-0.613948 20:-0.458333 21:0.508884 22:0.4 23:-0.333334 24:-0.333334 25:0.359756 26:-0.917355 
-512 1:-0.529879 2:-0.516453 3:-0.444444 4:0.310346 6:-0.558602 7:0.111112 8:-0.888558 10:-0.734894 11:-0.857214 12:0.711409 13:-0.62138 14:-0.678572 15:-0.888889 16:-0.333334 17:-0.333334 18:-0.985693 19:-0.871775 20:-0.0666667 21:-0.692714 22:-0.736842 23:-0.444444 24:-0.333334 25:-0.912781 26:-0.0578512 
-512 1:-0.0293958 2:-0.0794979 3:-0.076924 4:0.522547 6:-0.247321 7:0.076924 8:-0.550362 10:-0.445373 11:-0.903444 12:0.14094 13:-0.122612 14:-0.307692 15:0.23077 16:0.23077 17:-0.384616 18:-0.748132 19:-0.679702 20:-0.35 21:-0.142036 22:-0.333334 23:-0.384616 24:0.23077 25:-0.99812 26:-0.355372 
-512 1:0.376483 2:0.037352 3:-0.2 4:0.37931 6:-0.183968 7:0.4 8:-0.933854 10:-0.518849 11:-0.0547679 12:-0.174497 13:-0.277218 14:-0.47826 15:-0.8 16:-0.6 17:-0.6 18:-0.93287 19:-0.808819 20:-0.616667 21:-0.719404 22:-0.6 23:-0.8 24:-0.8 25:-0.793756 26:-0.876033 
-133.1913203514727 1:-0.245102 2:-0.172439 3:-0.111112 4:0.54023 6:-0.344117 7:0.555556 8:-0.76124 10:-0.577423 11:-0.82019 12:-0.228188 13:-0.059676 14:-0.272728 15:0.555556 16:0.777778 17:-0.555556 18:-0.702724 19:-0.905656 20:-0.541667 21:0.454918 22:-0.058824 23:-0.555556 24:-0.333334 25:-0.769922 26:-0.859504 
-196.7944979078791 1:0.0975277 2:-0.188331 4:0.482759 6:-0.158228 7:0.5 8:-0.945273 10:-0.556992 11:-0.309795 12:-0.161074 13:-0.079192 14:-0.192308 15:0.5 16:1 17:0.25 18:-0.755698 19:-0.700408 20:-0.566667 21:-0.071282 22:-0.2 25:-0.071282 26:-0.917355 
-512 1:0.282542 2:0.0983497 4:0.310346 6:-0.0724331 8:-0.511161 10:-0.425279 11:-0.617197 12:0.0604027 13:0.091648 14:-0.402986 15:0.333334 16:0.666666 18:-0.482526 19:-0.461069 20:-0.441667 21:0.373302 23:-0.166666 24:-0.166666 25:0.373302 26:-0.917355 
-512 1:0.841348 2:0.799033 3:0.555556 4:0.54023 6:0.313641 7:0.111112 8:0.240551 10:-0.153764 11:-0.934529 12:-0.322148 13:0.663638 14:0.133334 15:0.333334 16:0.555556 17:-0.111112 18:-0.113962 19:-0.297184 20:-0.75 21:0.955706 22:0.571428 23:-0.555556 24:0.333334 25:0.133302 26:-0.884298 
-512 1:-0.186896 2:-0.467312 3:-0.157894 4:0.0199642 6:-0.557849 7:-0.368422 8:-0.966762 10:-0.248764 11:-0.925678 12:0.637584 13:-0.6494 14:-0.725714 15:-0.68421 16:-0.368422 17:-0.578948 18:-0.937944 19:-0.971205 20:0.458333 21:-0.791444 22:-0.841808 23:-0.894737 24:-0.473684 25:-0.978681 26:0.46281 
-512 1:0.324091 2:0.356148 3:0.2 4:0.172414 6:0.0219405 8:-0.375454 10:-0.278439 11:-0.841981 12:-0.221477 13:0.039018 14:-0.238096 15:0.6 16:0.8 17:-0.4 18:-0.185858 19:-0.918719 20:-0.65 21:0.150812 22:-0.17647 23:-0.2 24:0.6 25:-0.078614 26:-0.719008 
-512 1:0.360963 2:0.0519131 4:0.37931 6:-0.13249 7:0.2 8:-0.840175 10:-0.407869 11:-0.268328 12:-0.14094 13:0.246054 14:-0.181818 15:0.4 16:1 17:0.2 18:-0.344822 19:-0.453526 20:-0.633333 21:0.759116 22:0.05 23:-0.8 24:1 25:-0.686876 26:-0.669421 
-227.1485462857741 1:-0.615497 2:-0.582321 3:-0.538462 4:-0.27321 6:-0.732392 7:-0.307692 8:-0.95905 10:-0.845474 11:-0.774427 12:0.798658 13:-0.55622 14:-0.676056 15:-0.923077 16:-0.846154 17:-0.846154 18:-0.997199 19:-0.99678 20:0.183333 21:-0.573836 22:-0.722222 23:-1 24:-0.846154 25:-0.999185 26:0.190083 
-142.3997723523045 1:0.200281 2:0.302286 3:0.142858 4:0.704434 6:-0.213383 7:0.714286 8:-0.90785 10:-0.310968 11:-0.487708 12:-0.563758 13:-0.107658 14:-0.066666 15:-0.714286 16:-0.428572 17:-0.428572 18:-0.980324 19:-0.709304 20:-0.875 21:-0.385474 22:0.142858 23:-1 24:-0.142858 25:-0.892551 26:-0.884298 
-512 1:-0.153068 2:-0.347262 3:-0.6 4:0.586207 6:-0.252601 7:0.466666 8:-0.767538 10:-0.486123 11:-0.810044 12:0.724832 13:-0.320346 14:-0.489796 15:0.066666 16:0.6 17:-0.333334 18:-0.66394 19:-0.72449 20:-0.183333 21:-0.630348 22:-0.66 23:-0.733334 24:-0.066666 25:-0.773468 26:-0.173554 
-68.01514626582349 1:0.0929532 2:0.27631 3:0.111112 4:0.54023 6:-0.000939387 7:0.333334 8:-0.503749 10:-0.415442 11:-0.841033 12:-0.268456 13:-0.244812 14:-0.306122 15:0.333334 16:0.333334 17:-1 18:-0.479778 19:-1 20:-0.591667 21:-0.261082 22:-0.529412 23:-0.555556 24:-0.555556 25:-0.288286 26:-0.859504 
-361.6264105213624 1:-0.195097 2:-0.135318 3:-0.09091 4:0.435737 6:-0.450711 7:0.454546 8:-0.911126 10:-0.553815 11:-0.662107 12:-0.181208 13:-0.386106 14:-0.418182 15:-0.454546 16:-0.09091 17:-0.636364 18:-0.76727 19:-0.866576 20:-0.541667 21:-0.26092 22:-0.333334 23:-1 24:-0.636364 25:-0.740694 26:-0.900826 
-512 1:-0.445621 2:-0.377043 3:-0.2 4:0.448275 6:-0.252601 7:0.066666 8:-0.976602 10:-0.768761 11:-0.654287 12:0.785235 13:-0.466876 14:-0.563218 15:-1 16:-0.466666 17:-0.466666 18:-1 19:-0.823424 20:-0.275 21:-0.477806 22:-0.595506 23:-0.466666 24:-0.466666 25:-0.860178 26:-0.264463 
-512 1:-0.376115 2:-0.302049 3:0.066666 4:0.448275 6:-0.321238 7:-0.066666 8:-0.889499 10:-0.605942 11:-0.82371 12:0.550336 13:-0.195022 14:-0.494736 15:-0.2 16:0.066666 17:-0.466666 18:-0.678898 19:-0.833384 20:-0.208333 21:-0.240708 22:-0.587628 23:-0.866667 24:0.066666 25:-0.825217 26:-0.198347 
-512 1:0.235193 2:-0.071599 3:-0.285714 4:0.113301 6:-0.250152 8:-0.740097 10:-0.192597 11:-0.717281 12:0.181208 13:-0.309888 14:-0.363636 15:-0.571428 17:-0.142858 18:-0.907744 19:-0.789776 20:-0.266667 21:-0.530912 22:-0.545454 23:-0.428572 25:-0.918713 26:-0.272727 
-10.78579452586775 1:0.447074 2:0.244371 3:0.428572 4:1 6:0.227846 7:0.714286 8:-0.543733 10:-0.105977 11:-0.744626 12:-0.288591 13:0.248778 14:-0.133334 15:0.142858 16:0.714286 17:-0.142858 18:-0.325404 19:-0.65402 20:-0.75 21:1 22:1 23:-0.714286 24:-0.142858 25:0.342918 26:-0.975207 
-286.0523785355254 1:-0.611727 2:-0.485281 3:-0.5 4:-0.206896 6:-0.694446 7:-0.25 8:-0.918739 10:-0.745693 11:-0.909502 12:0.604027 13:-0.676826 14:-0.621052 15:-0.916667 16:-0.75 17:-0.833333 18:-0.986092 19:-0.96575 20:-0.208333 21:-0.799604 22:-0.752578 23:-0.833333 24:-0.833333 25:-0.972887 26:-0.198347 
-512 1:-0.248035 2:-0.328038 3:0.076924 4:0.363396 6:-0.425512 7:0.076924 8:-0.955817 10:-0.553584 11:-0.681967 12:0.228188 13:-0.386776 14:-0.494736 15:-0.538462 16:-0.23077 17:-0.692308 18:-0.910472 19:-0.898689 20:-0.208333 21:-0.492934 22:-0.578948 23:-0.692308 24:-0.384616 25:-0.914942 26:-0.214876 
-512 1:-0.480637 2:-0.405335 3:-0.444444 4:-0.149426 6:-0.630099 7:-0.222222 8:-0.917229 10:-0.633264 11:-0.88553 12:0.214765 13:-0.642972 14:-0.712122 15:-0.444444 16:-0.111112 17:-0.555556 18:-0.845725 19:-0.957901 20:0.1 21:-0.718802 22:-0.77612 23:-1 24:-0.444444 25:-0.93158 26:0.107438 
-512 1:-0.152825 2:-0.178167 3:-0.142858 4:0.261083 6:-0.250152 7:-0.142858 8:-0.907993 10:-0.286343 11:-0.899285 12:0.308725 13:0.013604 14:-0.235294 16:0.714286 17:0.428572 18:-0.684714 19:-0.630064 20:-0.15 21:0.00114 22:-0.254902 23:-0.571428 24:0.714286 25:-0.977788 26:-0.157025 
-104.3634967740583 1:-0.567707 2:-0.426956 3:-0.294118 4:0.269777 6:-0.468602 7:0.17647 8:-0.956105 10:-0.710849 11:-0.866002 12:0.691275 13:-0.486812 14:-0.47826 15:-1 16:-0.764706 17:-0.764706 18:-1 19:-0.75545 20:-0.808333 21:-0.891125 22:-0.666666 23:-0.882353 24:-0.882353 25:-0.978171 26:-0.900826 
-512 1:0.52348 2:0.179496 3:-0.166666 4:0.13793 6:0.0133614 7:-0.166666 8:-0.893329 10:-0.130787 11:-0.336045 12:0.033557 13:0.054052 14:-0.285714 15:0.166666 16:0.666666 17:0.166666 18:-0.473142 19:-0.610098 20:-0.416667 21:0.008968 22:-0.371428 23:-1 24:0.333334 25:-0.785938 26:-0.421488 
-423.9898836425303 1:0.530652 2:0.594442 3:0.428572 4:0.704434 6:0.301384 7:0.428572 8:-0.701704 10:-0.120805 11:-0.502603 12:-0.436242 13:0.477534 15:0.714286 16:0.714286 17:0.142858 18:0.127948 19:-0.558731 20:-0.833333 21:0.824476 22:0.25 23:0.142858 24:0.714286 25:0.08286 26:-0.867769 
-400.1766213119648 1:0.362112 2:0.468507 3:0.555556 4:0.54023 6:0.142051 7:-0.111112 8:-0.253046 10:-0.242455 11:-0.942904 12:-0.281879 13:0.264188 15:0.333334 16:0.777778 17:-0.333334 18:-0.554834 19:-0.727085 20:-0.65 21:0.460502 22:0.304348 23:-0.333334 24:0.333334 25:-0.978455 26:-0.809917 
-512 1:0.232214 2:0.242521 3:0.166666 4:0.13793 6:-0.115332 8:-0.733852 10:-0.285886 11:-0.62798 12:-0.0738255 13:0.243294 14:-0.301588 17:-0.333334 18:-0.500128 19:-0.383644 20:-0.475 21:0.517964 22:-0.04762 23:-0.5 24:-0.166666 25:-0.19686 26:-0.826446 
-512 1:-0.533141 2:-0.507403 3:-0.368422 4:0.0199642 6:-0.530757 7:-0.263158 8:-0.938388 10:-0.604625 11:-0.954859 12:0.765101 13:-0.5553 14:-0.57377 15:-0.578948 16:-0.157894 17:-0.578948 18:-0.82973 19:-0.947091 20:0.0166667 21:-0.588766 22:-0.645162 23:-0.894737 24:-0.263158 25:-0.87939 26:0.0247934 
-512 1:-0.190783 2:0.125116 3:0.333334 4:0.54023 6:-0.115332 7:0.555556 8:-0.688904 10:-0.534137 11:-0.868137 12:-0.214765 13:-0.044534 14:-0.09804 15:0.111112 16:0.111112 17:-0.333334 18:-0.828741 19:-0.946596 20:-0.575 21:0.07731 22:-0.142858 23:-0.777778 24:-0.777778 25:-0.864126 26:-0.884298 
-512 1:-0.492249 2:-0.295621 3:-0.333334 4:0.310346 6:-0.397228 7:-0.238096 8:-0.896598 10:-0.705624 11:-0.839933 12:0.865772 13:-0.523128 14:-0.563636 15:-0.52381 16:-0.04762 17:-0.428572 18:-0.804888 19:-0.904055 20:-0.0833333 21:-0.534058 22:-0.607142 23:-0.904762 24:-0.238096 25:-0.87121 26:-0.0743802 
-346.565754314722 1:0.348604 2:0.168393 3:-0.333334 4:0.482759 6:-0.201127 7:0.166666 8:-0.925147 10:-0.204561 11:-0.422501 12:-0.14094 13:0.190406 14:-0.06383 16:0.166666 17:-0.5 18:-0.550158 19:-0.83591 20:-0.608333 21:0.189446 22:-0.066666 23:-0.833333 24:-0.5 25:-0.31312 26:-0.876033 
-16.45606348460567 1:0.281253 2:-0.0385409 3:0.333334 4:0.655172 6:-0.0724331 7:0.666666 8:-0.846041 10:-0.507467 11:-0.245892 12:-0.422819 13:0.30432 14:-0.055556 15:0.666666 16:1 17:0.666666 18:-0.563892 19:-0.387214 20:-0.7 21:-0.099976 22:0.2 23:-1 25:-0.870273 26:-0.917355 
-512 1:-0.507832 2:-0.250164 3:-0.142858 4:0.211823 6:-0.409485 7:-0.333334 8:-0.917491 10:-0.642338 11:-0.905502 12:0.778523 13:-0.5648 14:-0.589042 15:-0.428572 16:-0.04762 17:-0.52381 18:-0.882484 19:-0.920862 20:0.216667 21:-0.719812 22:-0.714286 23:-1 24:-0.238096 25:-0.983696 26:0.214876 
-512 1:-0.374605 2:-0.172872 3:-0.4 4:0.172414 6:-0.274052 7:-0.3 8:-0.924902 10:-0.480443 11:-0.923475 12:0.778523 13:-0.480706 14:-0.647058 15:-0.7 16:-0.6 17:-0.8 18:-0.888633 19:-0.893781 20:-0.00833333 21:-0.617208 22:-0.719008 23:-1 24:-0.7 25:-0.991822 
-512 1:-0.171544 2:-0.165853 3:0.142858 4:0.704434 6:-0.194997 7:0.285714 8:-0.875888 10:-0.420998 11:-0.805893 12:0.503356 13:-0.079374 14:-0.390244 15:-0.428572 16:-0.142858 17:-0.714286 18:-0.826504 19:-0.847288 20:-0.316667 21:-0.226262 22:-0.595238 23:-0.857143 24:-0.285714 25:-0.974005 26:-0.305785 
