svm_type c_svc
kernel_type rbf
gamma 0.03125
nr_class 2
total_sv 262
rho -1.07334
label 1 -1
nr_sv 130 132
SV
128 1:0.21007 2:0.0979514 3:-0.555556 4:0.777778 5:-0.111111 6:-0.250749 7:0.333334 8:-0.966676 9:-0.464711 10:-0.380656 11:-0.861273 12:-0.425868 13:0.314912 14:-0.22807 15:-0.111112 16:0.555556 17:-0.111112 18:-0.576872 19:-0.561088 20:-0.563218 21:0.101524 22:-0.322034 23:-0.777778 24:0.333334 25:-0.8535 26:-0.551331 
128 1:0.10623 2:-0.241164 3:-0.5 4:0.5 5:0.027781 6:-0.629264 7:-0.583334 8:-0.988998 9:-0.57156 10:-0.243366 11:-0.978956 12:0.463722 13:-0.19048 14:-0.375 15:-0.333334 16:-0.25 17:-0.916667 18:-0.78566 19:-0.979148 20:0.471264 21:-0.562904 22:-0.639176 23:-0.666666 24:-0.666666 25:-0.877328 26:0.475285 
70.09555619853593 1:-0.282666 2:-0.337636 3:0.23077 4:0.692308 5:-0.538461 6:-0.175805 7:0.538462 8:-0.864645 9:-0.940461 10:-0.562465 11:-0.810353 12:0.305994 13:-0.280152 14:-0.346938 15:0.076924 16:0.076924 17:-0.538462 18:-0.842977 19:-0.899759 20:-0.249042 21:-0.411756 22:-0.46 23:-0.846154 24:-0.23077 25:-0.991122 26:-0.239544 
7.420434016096804 1:-0.066274 2:-0.252906 3:-0.153846 4:0.153846 5:-0.333332 6:-0.494821 7:-0.692308 8:-0.764288 9:-0.700601 10:-0.507847 11:-0.968934 12:0.684543 13:0.201054 14:-0.141242 15:-0.23077 16:-0.076924 17:-0.538462 18:-0.643248 19:-0.908646 20:0.356322 21:0.094496 22:-0.337078 23:-0.615384 24:-0.076924 25:-0.728634 26:0.353612 
46.94620952258349 1:0.303238 2:0.363065 3:-0.111112 4:1 5:0.481481 6:-0.171754 7:0.111112 8:-0.791296 9:-0.517092 10:-0.493879 11:-0.745829 12:-0.369085 13:0.451914 14:-0.2 15:0.111112 16:0.555556 17:0.111112 18:-0.369852 19:-0.52653 20:-0.655172 21:0.251578 22:-0.319148 23:-0.777778 24:0.333334 25:-0.826509 26:-0.642586 
99.96128925860101 1:0.698796 2:-0.393131 3:-0.529412 4:0.294118 5:-0.254901 6:-0.526455 7:-0.17647 8:1 9:-0.947358 10:-0.961156 11:-0.974787 12:0.205047 13:-0.44397 14:-0.432836 15:-0.882353 16:-0.529412 17:-0.647058 18:-0.89139 19:-0.943313 20:-0.48659 21:-0.60572 22:-0.594202 23:-0.764706 24:-0.529412 25:-0.948145 26:-0.475285 
128 1:0.0116743 2:-0.139643 3:-0.411764 4:0.529412 5:-0.215686 6:-0.651917 7:-0.411764 8:-0.935281 9:-0.622696 10:-0.512662 11:-0.809469 12:-0.18612 13:0.010936 14:-0.361112 15:-0.764706 16:-0.764706 17:-0.882353 18:-0.756004 19:-0.997864 20:-0.448276 21:-0.300934 22:-0.54054 23:-1 24:-0.882353 25:-0.8665 26:-0.437262 
128 1:-0.316076 2:-0.725892 3:0.058824 4:0.764706 5:-0.254901 6:-0.805259 7:-0.529412 8:-0.803007 9:-0.580684 10:-0.900781 11:-0.947646 12:0.198738 13:-0.612548 14:-0.695652 15:-0.647058 16:-0.529412 17:-0.882353 18:-0.903227 19:-0.983067 20:-0.295019 21:-0.75548 22:-0.829787 23:-0.647058 24:-0.647058 25:-0.903329 26:-0.285171 
128 1:0.264297 2:-0.128725 3:0.4 4:0.8 5:0.133332 6:-0.01903 7:0.6 8:-0.869947 9:-0.806722 10:-0.484601 11:-0.421304 12:0.116719 13:-0.230542 14:-0.283582 15:-0.2 16:0.4 17:0.2 18:-0.887296 19:-0.843039 20:-0.48659 21:-0.284104 22:-0.352942 23:-0.6 24:0.4 25:-0.955766 26:-0.48289 
128 1:0.223117 2:-0.41426 3:-0.2 4:0.466666 5:-0.111111 6:-0.635188 7:-0.333334 8:-0.953165 9:-0.734629 10:-0.0350633 11:-0.91543 12:0.0157729 13:-0.7671 14:-0.67347 15:-0.866667 16:-0.866667 17:-1 18:-0.996284 19:-1 20:-0.624521 21:-0.76616 22:-0.647058 23:-0.866667 24:-0.866667 25:-0.996289 26:-0.612167 
98.00197440822858 1:0.657299 2:0.157663 3:0.272728 4:0.636364 5:-0.272726 6:0.278275 7:0.454546 8:-0.738832 9:-0.916921 10:-0.308529 11:-0.161578 12:0.0977918 13:-0.51205 14:-0.469388 15:-0.272728 16:0.09091 17:-0.454546 18:-0.834463 19:-0.82325 20:-0.624521 21:-0.530366 22:-0.568628 23:-0.818182 24:0.09091 25:-0.988799 26:-0.612167 
128 1:0.0201092 2:-0.203551 3:-0.222222 4:0.666666 5:-0.296295 6:-0.39557 7:-0.222222 8:-0.978808 9:-0.158544 10:-0.78853 11:-0.980156 12:0.293375 13:-0.446056 14:-0.48 15:-0.777778 16:-0.555556 17:-0.666666 18:-0.89331 19:-0.943384 20:-0.233716 21:-0.541722 22:-0.54902 23:-0.888889 24:-0.555556 25:-0.949961 26:-0.224335 
128 1:-0.235534 2:-0.235969 3:-0.25 4:0.625 5:0.041665 6:-0.540395 7:-0.125 8:-0.932078 9:-0.473128 10:-0.78322 11:-0.975235 12:0.141956 13:-0.305214 14:-0.473684 15:-0.375 16:-0.25 17:-0.875 18:-0.806075 19:-0.944208 20:-0.126437 21:-0.456832 22:-0.603448 23:-0.5 24:-0.25 25:-0.861944 26:-0.117871 
79.32211857268443 1:0.0709305 2:-0.108716 3:-0.333334 4:0.04762 5:-0.206348 6:-0.608105 7:-0.333334 8:-0.920222 9:-0.654199 10:-0.496602 11:-0.73995 12:0.116719 13:0.150914 14:-0.227272 15:-0.52381 16:0.04762 17:-0.333334 18:-0.920501 19:-0.753994 20:0.0114943 21:0.434808 22:0.384616 23:-0.904762 24:-0.333334 25:-0.511124 26:-0.901141 
57.62607166098385 1:0.0479338 2:-0.391074 3:0.5 4:0.833334 5:-0.0555577 6:-0.402154 8:-0.80516 9:-0.538431 10:-0.58028 11:-0.906879 12:0.160883 13:0.157964 14:-0.34375 15:0.333334 16:0.666666 18:-0.512612 19:-0.472412 20:-0.509579 21:0.670068 22:0.142858 23:-0.666666 24:-0.333334 25:-0.513664 26:-0.946768 
98.21921896212112 1:0.395896 2:-0.300629 3:-0.6 4:0.5 5:-0.0333364 6:-0.682586 7:-0.3 8:-0.815551 9:-0.217675 10:-0.749648 11:-0.685928 12:0.167192 13:0.065144 14:-0.355932 15:-0.6 16:-0.1 17:-0.5 18:-0.804538 19:-0.79257 20:-0.0957854 21:-0.51164 22:-0.683334 23:-0.8 24:-0.2 25:-0.933651 26:-0.0874525 
128 1:-0.160208 2:-0.490711 3:-0.578948 4:0.578948 5:-0.157894 6:-0.627705 7:-0.68421 8:-0.950271 9:-0.440028 10:-0.701687 11:-0.992008 12:0.255521 13:-0.286696 14:-0.414966 15:-0.052632 16:0.052632 17:-0.789474 18:-0.803419 19:-0.94906 20:0.126437 21:-0.475902 22:-0.621622 23:-0.68421 24:-0.473684 25:-0.893365 26:0.125475 
128 1:0.504357 2:-0.0730229 4:0.857142 5:0.0952424 6:-0.472686 7:-0.571428 8:-0.878781 9:0.291858 10:-0.834382 11:-0.966537 12:-0.0788644 13:-0.506018 14:-0.454546 15:-0.142858 17:-0.857143 18:-0.792866 19:-0.96676 20:-0.409962 21:-0.585464 22:-0.615384 23:-0.428572 24:-0.142858 25:-0.87766 26:-0.406844 
128 1:0.301993 2:-0.516363 3:-0.384616 4:0.692308 5:0.12821 6:-0.777379 7:-0.384616 8:-0.963504 9:0.203304 10:-0.862104 11:-0.99342 12:-0.154574 13:-0.372658 14:-0.489362 15:-0.384616 16:-0.076924 17:-0.692308 18:-0.718456 19:-0.950334 20:-0.279693 21:-0.818448 22:-0.75 23:-0.846154 24:-0.538462 25:-0.98857 26:-0.269962 
128 1:0.00547575 2:-0.100102 3:-0.23077 4:0.692308 5:0.12821 6:-0.522166 7:-0.23077 8:-0.868444 9:-0.358937 10:-0.748561 11:-0.921124 12:-0.160883 13:-0.226364 14:-0.538462 15:-0.23077 16:0.076924 17:-0.384616 18:-0.635218 19:-0.75981 20:-0.302682 21:-0.36197 22:-0.673914 23:-0.692308 24:-0.076924 25:-0.78513 26:-0.30038 
128 1:-0.207125 2:-0.210309 3:-0.076924 4:0.846154 5:-0.0256404 6:-0.576853 7:-0.23077 8:-0.876793 9:-0.537056 10:-0.784043 11:-0.924216 12:-0.173502 13:-0.336054 14:-0.434344 15:-0.538462 16:-0.076924 17:-0.384616 18:-0.952573 19:-0.904915 20:-0.241379 21:-0.38472 22:-0.5 23:-0.846154 24:-0.076924 25:-0.952362 26:-0.239544 
24.64607697077698 1:0.247228 2:-0.262135 3:-0.23077 4:0.538462 5:0.384614 6:-0.595082 7:-0.076924 8:-0.764957 9:-0.268254 10:-0.743721 11:-0.846951 12:-0.00315457 13:0.184348 14:-0.268292 15:-0.384616 16:-0.076924 17:-0.384616 18:-0.6305 19:-0.897773 20:-0.371648 21:-0.298766 22:-0.487804 23:-0.692308 24:-0.076924 25:-0.994467 26:-0.376426 
127.1429884015591 1:-0.329808 2:-0.587098 3:-0.142858 4:0.714286 5:-0.380952 6:-0.726596 8:-0.809983 9:-0.786058 10:-0.801268 11:-0.837572 12:-0.0851735 13:-0.146348 14:-0.417476 15:0.142858 16:0.285714 17:-0.285714 18:-0.783464 19:-0.852977 20:-0.210728 21:-0.268262 22:-0.461538 23:-0.714286 24:0.142858 25:-0.968425 26:-0.209125 
39.37021001383575 1:0.241579 2:-0.127391 3:-0.23077 4:0.692308 5:0.230772 6:-0.467476 7:0.076924 8:-0.908928 9:-0.183519 10:-0.725032 11:-0.834172 12:-0.022082 13:0.10921 14:-0.242106 15:-0.538462 16:0.384616 17:-0.076924 18:-0.954176 19:-0.703498 20:-0.272031 21:-0.041698 22:-0.395834 23:-0.538462 24:0.384616 25:-0.749392 26:-0.269962 
128 1:-0.37043 2:-0.538898 3:-0.538462 4:0.538462 5:-0.0256404 6:-0.631544 7:-0.076924 8:-0.96182 9:-0.558261 10:-0.833504 11:-0.957591 12:0.00946372 13:-0.03496 14:-0.368422 15:-0.23077 16:0.23077 17:-0.23077 18:-0.70456 19:-0.736408 20:-0.272031 21:-0.50005 22:-0.670104 23:-0.692308 24:-0.23077 25:-0.81413 26:-0.262357 
128 1:0.373084 2:0.14795 3:0.25 4:0.75 5:0.0833344 6:-0.214543 7:0.25 8:-0.884528 9:-0.0125279 10:-0.839457 11:-0.778494 12:-0.432177 13:0.089406 14:-0.2 15:-0.75 16:-0.75 17:-1 18:-0.873704 19:-1 20:-0.923372 21:-0.048632 22:-0.5 23:-0.75 24:-0.75 25:-0.874365 26:-0.908745 
128 1:-0.387337 2:-0.291425 3:0.142858 4:0.714286 5:-0.047619 6:-0.506541 7:-0.714286 8:-0.8722 9:-0.719237 10:-0.724954 11:-0.992526 12:-0.577287 13:-0.41086 14:-0.421052 15:0.142858 16:0.142858 17:-1 18:-0.823078 19:-1 20:-0.708812 21:-0.44114 22:-0.538462 23:0.142858 24:0.142858 25:-0.823257 26:-0.703422 
110.5847616997525 1:0.554874 2:-0.3204 4:0.833334 5:0.388887 6:-0.560143 7:-0.166666 8:-0.931372 9:0.374798 10:-0.807257 11:-0.97912 12:0.00946372 13:-0.0617 14:-0.354838 15:-0.166666 16:0.5 18:-0.64955 19:-0.780354 20:-0.287356 21:-0.210716 22:-0.494736 23:-1 24:0.333334 25:-0.806211 26:-0.277567 
128 1:0.216457 2:-0.182875 3:-0.5 4:0.666666 5:0.111111 6:-0.382406 7:-0.166666 8:-0.906899 9:-0.144875 10:-0.728658 11:-0.90106 12:-0.0851735 13:0.15157 14:-0.232876 16:0.166666 17:-0.333334 18:-0.634154 19:-0.731668 20:-0.440613 21:-0.424544 22:-0.52 23:-0.5 24:-0.333334 25:-0.909662 26:-0.429658 
66.59652027214194 1:0.217875 2:0.290083 3:0.076924 4:0.538462 5:0.794877 6:-0.321641 7:-0.076924 8:-0.965658 9:-0.0215665 10:-0.778105 11:-0.929198 12:-0.00315457 13:-0.566142 14:-0.51282 15:-0.692308 16:-0.384616 17:-0.692308 18:-0.911294 19:-0.889414 20:-0.402299 21:-0.684034 22:-0.65 23:-1 24:-0.384616 25:-0.919988 26:-0.391635 
128 1:-0.229323 2:-0.461182 3:-1 4:0.733334 5:-0.111111 6:-0.666785 7:0.066666 8:-1 9:-0.61879 10:-0.80076 11:-0.736442 12:-0.0473186 13:-0.102428 14:-0.505154 15:-0.866667 16:-0.2 17:-0.2 18:-0.99844 19:-0.631504 20:-0.256705 21:-0.227126 22:-0.591836 23:-0.333334 24:-0.2 25:-0.633204 26:-0.254753 
66.500958890622 1:-0.218114 2:-0.139643 3:-0.058824 4:0.411764 5:-0.411764 6:-0.428874 7:-0.647058 8:-0.795083 9:-0.892636 10:-0.420351 11:-0.992361 12:0.022082 13:0.132936 14:-0.340426 15:0.17647 16:0.17647 17:-1 18:-0.431026 19:-1 20:-0.279693 21:0.107328 22:-0.4375 23:0.17647 24:0.17647 25:-0.431324 26:-0.269962 
128 1:-0.277303 2:-0.216458 3:-0.333334 4:0.733334 5:0.333333 6:-0.698384 7:-0.2 8:-0.909998 9:-0.510358 10:-0.841287 11:-0.94378 12:-0.0410095 13:-0.490878 14:-0.53271 15:-0.466666 16:0.066666 17:-0.333334 18:-0.863584 19:-0.916439 20:-0.180077 21:-0.77581 22:-0.761468 23:-0.733334 24:-0.2 25:-0.965686 26:-0.171103 
128 1:-0.277303 2:-0.216458 3:-0.333334 4:0.733334 5:0.333333 6:-0.698384 7:-0.2 8:-0.909998 9:-0.510358 10:-0.841287 11:-0.94378 12:-0.0410095 13:-0.490878 14:-0.53271 15:-0.466666 16:0.066666 17:-0.333334 18:-0.863584 19:-0.916439 20:-0.180077 21:-0.77581 22:-0.761468 23:-0.733334 24:-0.2 25:-0.965686 26:-0.171103 
128 1:-0.124839 2:-0.239296 3:-0.25 4:0.5 5:4.33334e-006 6:-0.673698 7:-0.125 8:-0.888524 9:-0.491844 10:-0.778844 11:-0.876155 12:-0.0410095 13:-0.337314 14:-0.518518 15:-0.5 17:-0.25 18:-0.847277 19:-0.72032 20:-0.172414 21:-0.439846 22:-0.618182 23:-1 25:-0.925549 26:-0.163498 
21.78212551183425 1:-0.160606 2:-0.217222 3:0.555556 4:0.777778 5:-0.111111 6:-0.0927595 7:0.777778 8:-0.828866 9:-0.789271 10:-0.72921 11:-0.70227 12:-0.022082 13:-0.151862 14:-0.363636 15:-0.111112 16:0.555556 17:0.333334 18:-0.766744 19:-0.773792 20:-0.494253 21:-0.167442 22:-0.441176 23:-0.555556 24:0.555556 25:-0.992958 26:-0.48289 
128 1:0.0219066 2:-0.386894 3:-0.571428 4:0.714286 5:-0.0952338 6:-0.64196 7:-0.285714 8:-0.992395 9:-0.357161 10:-0.694316 11:-0.849007 12:-0.135647 13:-0.236486 14:-0.364706 16:0.428572 17:-0.571428 18:-0.679984 19:-0.818299 20:-0.348659 21:-0.56831 22:-0.632184 23:-0.571428 24:-0.285714 25:-0.914502 26:-0.338403 
128 1:-0.211429 2:-0.302476 3:-0.23077 4:0.384616 5:0.0256404 6:-0.595082 7:-0.076924 8:-0.873632 9:-0.66863 10:-0.718028 11:-0.857734 12:-0.104101 13:-0.021616 14:-0.45 15:-0.23077 16:-0.23077 17:-0.538462 18:-0.543516 19:-0.664346 20:-0.386973 21:-0.07188 22:-0.585366 23:-0.692308 24:-0.23077 25:-0.882919 26:-0.376426 
23.7181425224615 1:0.139799 2:-0.515239 4:0.571428 5:-0.0952338 6:-0.675815 7:-0.571428 8:-0.89436 9:-0.0189237 10:-0.905677 11:-0.954685 12:-0.0157729 13:-0.091012 14:-0.481482 15:0.285714 16:0.714286 18:-0.501034 19:-0.709564 20:-0.172414 21:0.881248 22:0.818182 23:-1 24:0.428572 25:-0.525136 26:-0.91635 
28.79908278692314 1:0.155326 2:-0.38799 3:-0.571428 4:0.714286 5:0.0952424 6:-0.64196 8:-0.764685 9:-0.502276 10:-0.613161 11:-0.829944 12:-0.00946372 13:-0.02641 14:-0.42056 15:-0.142858 17:-0.285714 18:-0.712798 19:-0.726748 20:-0.180077 21:-0.150486 22:-0.559634 23:-1 24:-0.142858 25:-0.999142 26:-0.171103 
128 1:0.365646 2:-0.807642 3:-0.666666 5:-0.148147 6:-0.724716 7:-0.888889 8:-0.980225 9:-0.207727 10:-0.793024 11:-0.54111 12:0.400631 13:-0.703638 14:-0.638554 15:-0.777778 16:-0.777778 17:-1 18:-0.946873 19:-1 20:-0.363985 21:-0.765748 22:-0.717648 23:-0.777778 24:-0.777778 25:-0.957374 26:-0.353612 
128 1:-0.0768654 2:-0.16466 3:-0.130434 4:0.47826 5:0.0724664 6:-0.684647 7:-0.565218 8:-0.898499 9:-0.480536 10:-0.648804 11:-0.955382 12:0.324921 13:-0.33943 14:-0.440994 15:-0.391304 16:-0.130434 17:-0.565218 18:-0.826287 19:-0.939888 20:0.233716 21:-0.571352 22:-0.656442 23:-0.913043 24:-0.565218 25:-0.986557 26:0.239544 
128 1:-0.352454 2:-0.538527 3:0.23077 4:0.538462 5:-0.487179 6:-0.358099 7:0.23077 8:-0.942646 9:-0.71193 10:-0.776434 11:-0.848397 12:0.318612 13:-0.214632 14:-0.387388 15:-0.23077 16:0.384616 17:0.076924 18:-0.843629 19:-0.716492 20:-0.149425 21:-0.374676 22:-0.557522 23:-0.692308 24:0.384616 25:-0.872934 26:-0.140684 
63.59405088832857 1:0.00880583 2:-0.335627 3:0.4 4:0.6 5:-0.6 6:-0.279711 7:0.6 8:-0.799557 9:-0.973802 10:-0.370332 11:-0.701625 12:-0.116719 13:0.093962 14:-0.104478 16:0.8 17:0.2 18:-0.797842 19:-0.76841 20:-0.48659 21:0.084304 22:-0.134328 23:-0.8 24:0.8 25:-0.970569 26:-0.490494 
105.4308912404369 1:0.142809 2:-0.38362 3:-0.52381 4:0.52381 5:0.047619 6:-0.675815 7:-0.428572 8:-0.943033 9:-0.297029 10:-0.556143 11:-0.960121 12:0.381703 13:-0.221954 14:-0.312978 15:-0.142858 16:0.333334 17:-0.04762 18:-0.733448 19:-0.704792 20:0.00383142 21:-0.514966 22:-0.488722 23:-0.904762 24:0.04762 25:-0.99549 26:0.0114068 
67.97054561183354 1:-0.125744 2:-0.216842 3:0.692308 4:0.692308 5:-0.692307 6:-0.0117378 7:0.538462 8:-0.803801 9:-0.77386 10:-0.68231 11:-0.74885 12:0.343849 13:-0.78696 14:-0.68116 15:-0.538462 16:-0.384616 17:-0.846154 18:-0.94442 19:-0.992631 20:-0.471264 21:-0.811809 22:-0.71831 23:-0.692308 24:-0.384616 25:-0.951841 26:-0.460076 
128 1:-0.031822 2:-0.508545 3:-0.789474 4:0.578948 5:-0.298245 6:-0.540395 7:0.052632 8:-0.99012 9:-0.328704 10:-0.7076 11:-0.927288 12:0.463722 13:-0.461502 14:-0.503448 15:-0.578948 16:-0.368422 17:-0.473684 18:-0.882559 19:-0.922707 20:0.111111 21:-0.610814 22:-0.619048 23:-0.68421 24:-0.473684 25:-0.992613 26:0.117871 
128 1:0.457251 2:0.0607992 3:-0.4 4:0.8 5:0.0666684 6:-0.398205 8:-0.880352 9:0.258428 10:-0.829677 11:-0.986333 12:-0.394322 13:-0.036708 14:-0.30303 15:-0.2 16:0.4 17:-0.4 18:-0.630756 19:-0.827811 20:-0.494253 21:0.168562 22:-0.09091 23:-0.6 24:-0.2 25:-0.157374 26:-0.91635 
128 1:-0.173089 2:-0.251847 3:-0.4 4:0.8 5:0.133332 6:-0.564093 8:-0.967298 9:-0.502789 10:-0.740353 11:-0.886254 12:-0.33123 13:0.045138 14:-0.253334 16:0.4 17:-0.2 18:-0.644844 19:-0.865568 20:-0.425287 21:-0.110526 22:-0.394736 23:-1 24:0.2 25:-0.838924 26:-0.422053 
55.46212270655409 1:-0.223164 2:-0.223637 3:0.4 4:0.6 5:-0.399999 6:-0.327109 7:-0.4 8:-0.717358 9:-0.878386 10:-0.512258 11:-0.990655 12:-0.274448 13:0.382376 14:-0.14754 15:0.6 16:0.6 17:-1 18:-0.541092 19:-1 20:-0.532567 21:-0.679568 22:-0.6 23:-1 24:-1 25:-1 26:-0.961977 
128 1:0.751345 2:-0.490157 3:0.25 4:0.75 5:4.33334e-006 6:-0.51077 7:-0.5 8:-0.634638 9:0.347458 10:-0.810075 11:-0.993158 12:-0.337539 13:0.111786 14:-0.36 15:-1 16:-1 17:-1 18:-1 19:-1 20:-0.808429 21:-0.233428 22:-0.555556 23:-1 24:-1 25:-1 26:-0.794677 
128 1:-0.317026 2:-0.148665 3:-0.310344 4:0.37931 5:-0.21839 6:-0.622113 7:-0.24138 8:-0.842909 9:-0.784134 10:-0.725753 11:-0.871279 12:0.640379 13:-0.457004 14:-0.419354 15:-0.586206 16:-0.310344 17:-0.586206 18:-0.962229 19:-0.939869 20:0.187739 21:-0.602058 22:-0.602564 23:-1 24:-0.310344 25:-0.977645 26:0.186312 
43.18347796594718 1:0.748541 2:0.0415097 3:0.5 4:1 5:4.33334e-006 6:-0.00718132 7:0.5 8:-0.311192 9:-0.639689 10:-0.681204 11:-0.363612 12:-0.26183 13:-0.735374 14:-0.714286 15:-1 16:-0.75 17:-0.75 18:-1 19:-0.799758 20:-0.83908 21:-1 22:-1 23:-1 24:-1 25:-1 26:-0.984791 
128 1:0.300596 2:-0.294214 3:-0.2 4:0.6 5:4.33334e-006 6:-0.540395 7:-0.6 8:-0.728186 9:-0.0647358 10:-0.789431 11:-0.991066 12:-0.362776 13:-0.22027 14:-0.363636 16:0.2 17:-0.6 18:-0.608578 19:-0.922828 20:-0.494253 21:-0.336312 22:-0.5 23:-0.6 24:-0.4 25:-0.718626 26:-0.48289 
25.13565559121365 1:0.385182 2:-0.339127 4:1 5:0.200005 6:-0.611491 7:-0.2 8:-0.917554 9:0.262751 10:-0.884447 11:-0.983177 12:-0.274448 13:-0.687648 14:-0.614036 15:-0.6 16:-0.6 17:-0.8 18:-0.947656 19:-0.974133 20:-0.563218 21:-0.805262 22:-0.694916 23:-0.8 24:-0.6 25:-0.973567 26:-0.551331 
128 1:0.149946 2:-0.539541 3:-0.5 5:-0.277777 6:-0.698384 7:-0.333334 8:-0.985087 9:0.111447 10:-0.925334 11:-0.981946 12:-0.299685 13:-0.359558 14:-0.538462 15:-0.833333 16:-0.5 17:-0.666666 18:-0.976051 19:-0.910491 20:-0.402299 21:-0.467744 22:-0.625 23:-0.833333 24:-0.5 25:-0.93453 26:-0.391635 
128 1:0.311472 2:-0.178444 3:-0.636364 4:0.818182 5:0.212121 6:-0.389588 7:0.09091 8:-0.7695 9:-0.203445 10:-0.697849 11:-0.886279 12:-0.141956 13:-0.484602 14:-0.6 15:-1 16:-0.818182 17:-0.818182 18:-1 19:-0.819441 20:-0.808429 21:-0.571648 22:-0.703704 23:-0.818182 24:-0.818182 25:-0.819951 26:-0.794677 
55.65796378554424 1:-0.0229911 2:-0.123046 3:-0.166666 4:0.833334 5:0.166664 6:-0.520647 8:-0.83606 9:-0.587885 10:-0.599205 11:-0.886573 12:-0.179811 13:0.084074 14:-0.289474 15:0.166666 16:0.833334 18:-0.57893 19:-0.611868 20:-0.417625 21:0.014676 22:-0.410256 23:-0.833333 24:0.833334 25:-0.972751 26:-0.406844 
128 1:-0.231094 2:-0.054841 4:0.833334 5:0.166664 6:-0.500897 7:0.166666 8:-0.885764 9:-0.57168 10:-0.787576 11:-0.902504 12:-0.173502 13:-0.325242 14:-0.438596 15:-0.5 17:-0.5 18:-0.860464 19:-0.86041 20:-0.563218 21:-0.371488 22:-0.482758 23:-0.833333 24:-0.166666 25:-0.954174 26:-0.558935 
128 1:0.255751 2:-0.104771 3:-0.692308 4:0.692308 5:0.435895 6:-0.70446 7:-0.384616 8:-0.965927 9:0.0700045 10:-0.852452 11:-0.910525 12:-0.293375 13:-0.187796 14:-0.40625 15:-0.23077 16:-0.076924 17:-0.538462 18:-0.597722 19:-0.872203 20:-0.509579 21:-0.495736 22:-0.545454 23:-1 24:-0.23077 25:-0.961874 26:-0.498099 
128 1:-0.0664894 2:-0.188449 3:-0.272728 4:0.272728 5:-0.151514 6:-0.518851 7:-0.272728 8:-0.432367 9:-0.739855 10:-0.78887 11:-0.942507 12:-0.350158 13:0.262462 14:-0.121212 15:-0.09091 16:0.09091 17:-0.09091 18:-0.600568 19:-0.892968 20:-0.494253 21:-0.059704 22:0.2 23:-0.818182 24:-0.818182 25:-0.769724 26:-0.961977 
66.04453362829621 1:0.0510526 2:-0.476688 3:-0.2 4:0.8 5:-0.0666684 6:-0.540395 7:0.2 8:-0.945995 9:-0.460038 10:-0.562396 11:-0.879681 12:-0.167192 13:0.236454 14:-0.235294 15:0.2 16:0.4 18:-0.361948 19:-0.663298 20:-0.478927 21:0.856824 22:0.333334 23:-0.6 24:-0.2 25:-0.077696 26:-0.954373 
96.27238697970405 1:0.200859 2:-0.143524 3:-0.375 4:0.375 5:-0.145832 6:-0.695917 7:-0.4375 8:-0.799679 9:-0.490981 10:-0.627668 11:-0.746336 12:0.634069 13:-0.48232 14:-0.513044 15:-0.4375 16:-0.125 17:-0.4375 18:-0.893936 19:-0.878474 20:0.762452 21:-0.649292 22:-0.689656 23:-0.875 24:-0.375 25:-0.956276 26:0.764259 
128 1:0.0547848 2:-0.18895 3:-0.375 4:0.125 5:-0.249999 6:-0.614451 7:-0.375 8:-0.769437 9:-0.79028 10:-0.584458 11:-0.659753 12:0.817035 13:-0.405248 14:-0.258742 15:-0.625 16:-0.4375 17:-0.6875 18:-0.943706 19:-0.953463 20:0.0957854 21:-0.480402 22:-0.37931 23:-0.9375 24:-0.4375 25:-0.990248 26:0.102662 
128 1:0.0584535 2:-0.166863 3:-0.3125 4:0.1875 5:-0.041665 6:-0.725539 7:-0.375 8:-0.81703 9:-0.600094 10:-0.663667 11:-0.736684 12:0.716088 13:-0.426034 14:-0.497942 15:-0.4375 16:-0.0625 17:-0.375 18:-0.880847 19:-0.907851 20:0.862069 21:-0.598182 22:-0.640816 23:-0.9375 24:-0.125 25:-0.979224 26:0.863118 
55.07582793403314 1:0.08081 2:-0.208236 3:-0.6 4:0.314286 5:-0.27619 6:-0.689355 7:-0.371428 8:-0.879709 9:-0.498098 10:-0.613855 11:-0.814111 12:0.735016 13:-0.2802 14:-0.346342 15:-0.714286 16:-0.257142 17:-0.371428 18:-0.947372 19:-0.830293 20:0.570881 21:-0.50208 22:-0.565218 23:-0.714286 24:-0.314286 25:-0.892441 26:0.574144 
128 1:-0.00260633 2:-0.474279 4:0.666666 5:-0.277777 6:-0.263913 7:0.5 8:-0.890552 9:-0.529144 10:-0.645945 11:-0.831791 12:0.324921 13:-0.438486 14:-0.486486 15:-0.333334 16:-0.166666 17:-0.833333 18:-0.79815 19:-0.994381 20:-0.43295 21:-0.464476 22:-0.552632 23:-0.5 24:-0.166666 25:-0.803928 26:-0.422053 
54.58781785616828 1:0.408927 2:-0.348849 3:0.09091 4:0.636364 5:-0.151514 6:-0.23878 7:0.272728 8:-0.907845 9:-0.713019 10:-0.693574 11:-0.120296 12:0.116719 13:0.46117 14:-0.166666 15:-0.272728 16:0.09091 17:-0.272728 18:-0.427654 19:-0.484482 20:-0.632184 21:0.250694 22:-0.28 23:-1 24:0.09091 25:-0.989731 26:-0.619772 
17.9753548354924 1:-0.242992 2:-0.433376 3:-0.058824 4:0.647058 5:-0.45098 6:-0.303412 7:0.647058 8:-0.897017 9:-0.816081 10:-0.65201 11:-0.781003 12:0.728707 13:-0.620042 14:-0.555556 15:-0.882353 16:0.058824 17:-0.058824 18:-0.964803 19:-0.88864 20:0.0344828 21:-0.65897 22:-0.59124 23:-0.17647 24:0.058824 25:-0.92387 26:0.0418251 
54.09483752674514 1:0.0627807 2:-0.222505 3:-0.428572 4:1 5:0.428571 6:-0.57425 7:0.428572 8:-0.956776 9:-0.103794 10:-0.847654 11:-0.951984 12:-0.514196 13:0.144872 14:-0.306122 15:0.428572 16:0.714286 17:-0.142858 18:-0.439622 19:-0.72802 20:-0.624521 21:-1 22:-1 23:-1 24:-1 25:-1 26:-0.984791 
128 1:-0.434908 2:-0.239296 3:-0.571428 4:0.857142 5:-0.0952338 6:-0.472686 7:-0.142858 8:-0.9872 9:-0.586442 10:-0.852466 11:-0.957576 12:-0.0410095 13:-0.584048 14:-0.5 15:-0.857143 16:-0.571428 17:-0.714286 18:-0.867629 19:-0.934044 20:-0.662835 21:-0.728688 22:-0.695652 23:-1 24:-0.714286 25:-0.872464 26:-0.65019 
128 1:-0.254419 2:-0.312036 3:-0.23077 4:0.692308 5:0.0256404 6:-0.613311 7:-0.23077 8:-0.93787 9:-0.515879 10:-0.787992 11:-0.940882 12:-0.135647 13:-0.40737 14:-0.5 15:-0.384616 16:-0.23077 17:-0.538462 18:-0.910868 19:-0.897444 20:-0.203065 21:-0.560438 22:-0.679246 23:-1 24:-0.23077 25:-0.949439 26:-0.193916 
128 1:-0.33092 2:-0.511278 3:0.285714 4:0.571428 5:-0.285713 6:-0.354192 7:0.285714 8:-0.798966 9:-0.87886 10:-0.703732 11:-0.846896 12:0.514196 13:-0.404744 14:-0.395348 15:-0.428572 17:-0.428572 18:-0.8954 19:-0.86403 20:-0.340996 21:-0.438968 22:-0.477272 23:-1 25:-0.968659 26:-0.330798 
128 1:0.173297 2:-0.157756 3:-0.5 4:0.333334 5:0.222227 6:-0.599642 7:-0.166666 8:-0.874767 9:-0.0896144 10:-0.785545 11:-0.979271 12:-0.26183 13:-0.116992 14:-0.432836 17:-0.666666 18:-0.531012 19:-0.82256 20:-0.48659 21:-0.337618 22:-0.647058 23:-0.666666 24:-0.166666 25:-0.779472 26:-0.48289 
128 1:-0.150195 2:-0.555047 3:-0.428572 4:0.142858 5:-0.26984 6:-0.732239 7:-0.428572 8:-0.951934 9:-0.351416 10:-0.805873 11:-0.970104 12:0.293375 13:-0.58388 14:-0.60479 15:-0.619048 16:-0.428572 17:-0.714286 18:-0.929664 19:-0.978741 20:0.279693 21:-0.69155 22:-0.70238 23:-0.809524 24:-0.52381 25:-0.947207 26:0.277567 
128 1:0.659687 2:-0.574842 3:-0.642858 4:-0.142858 5:-0.285713 6:-0.709669 7:-0.714286 8:-0.984756 9:-0.935706 10:-0.0897011 11:-0.138472 12:0.690852 13:-0.544286 14:-0.42446 15:-0.928571 16:-0.785714 17:-0.857143 18:-0.997496 19:-0.979298 20:0.0651341 21:-0.5811 22:-0.531914 23:-0.928571 24:-0.785714 25:-0.981815 26:0.0722433 
128 1:-0.270117 2:-0.303212 3:-0.428572 4:0.285714 5:0.047619 6:-0.658886 7:-0.142858 8:-0.769472 9:-0.747553 10:-0.733345 11:-0.915769 12:-0.123028 13:-0.450984 14:-0.526316 15:-1 16:-0.714286 17:-0.714286 18:-1 19:-0.868663 20:-0.708812 21:-1 22:-1 23:-1 24:-1 25:-1 26:-0.984791 
15.26599145570514 1:-0.226451 2:-0.370115 3:0.058824 4:0.647058 5:-0.215686 6:-0.373111 7:0.529412 8:-0.899499 9:-0.83681 10:-0.576355 11:-0.813618 12:0.652997 13:-0.61994 14:-0.584 15:-0.529412 16:-0.058824 17:-0.294118 18:-0.93099 19:-0.909436 20:-0.0421456 21:-0.649294 22:-0.653544 23:-0.647058 24:-0.17647 25:-0.972899 26:-0.0342205 
128 1:-0.271432 2:-0.158488 3:-0.333334 4:0.666666 5:0.111111 6:-0.441653 7:-0.5 8:-0.939802 9:-0.489079 10:-0.800441 11:-0.974008 12:-0.173502 13:0.121324 14:-0.217392 17:-0.666666 18:-0.461622 19:-0.981464 20:-0.471264 21:-0.105966 22:-0.457142 23:-0.5 24:-0.333334 25:-0.500472 26:-0.467681 
128 1:-0.149222 2:-0.223637 3:-0.625 4:0.0625 5:-0.229166 6:-0.695917 7:-0.375 8:-0.852221 9:-0.804648 10:-0.616176 11:-0.76486 12:0.608833 13:-0.532212 14:-0.460992 15:-0.875 16:-0.6875 17:-0.8125 18:-0.993933 19:-0.946779 20:0.0804598 21:-0.655674 22:-0.622378 23:-1 24:-0.875 25:-0.961613 26:0.0874525 
128 1:0.291176 2:-0.216611 3:0.111112 4:1 5:0.037037 6:-0.356075 7:0.555556 8:-0.534482 9:-0.641442 10:-0.675976 11:-0.673911 12:-0.223975 13:-0.656106 14:-0.375 15:-0.333334 16:-0.111112 17:-0.333334 18:-0.94363 19:-0.97114 20:-0.509579 21:-0.769322 22:-0.60606 23:-1 24:-0.111112 25:-0.97252 26:-0.498099 
105.721622018824 1:0.198026 2:-0.431521 3:-0.384616 4:0.538462 5:0.179491 6:-0.70446 7:0.076924 8:-0.934338 9:-0.294994 10:-0.809124 11:-0.658128 12:-0.0536278 13:0.13794 14:-0.3 15:-0.076924 16:0.692308 17:-0.076924 18:-0.450498 19:-0.563266 20:-0.386973 21:0.061508 22:-0.536586 23:-1 24:0.692308 25:-0.887321 26:-0.376426 
128 1:0.175694 2:-0.262135 3:-0.23077 4:0.23077 5:-0.794872 6:-0.248721 7:0.076924 8:-0.895561 9:-0.985687 10:-0.393106 11:-0.397381 12:-0.0599369 13:-0.138956 14:-0.326086 15:-0.076924 16:0.384616 17:-0.076924 18:-0.837657 19:-0.820407 20:-0.295019 21:-0.358556 22:-0.543478 23:-0.692308 24:0.076924 25:-0.923072 26:-0.30038 
128 1:-0.0950773 2:-0.228782 3:0.076924 4:0.846154 5:-0.384615 6:-0.285183 7:0.538462 8:-0.929016 9:-0.855495 10:-0.469832 11:-0.728422 12:0.116719 13:-0.468194 14:-0.52381 15:-0.846154 16:-0.23077 17:-0.384616 18:-0.989015 19:-0.9811 20:-0.356322 21:-0.52237 22:-0.581396 23:-0.538462 24:-0.23077 25:-0.992091 26:-0.346008 
128 1:-0.254076 2:-0.426007 3:0.538462 4:0.846154 5:-0.589743 6:-0.321641 7:0.384616 8:-0.848758 9:-0.916073 10:-0.619633 11:-0.762026 12:0.242902 13:-0.562962 14:-0.564102 15:-0.538462 16:-0.384616 17:-0.846154 18:-0.974697 19:-0.990913 20:-0.402299 21:-0.75137 22:-0.7 23:-0.846154 24:-0.538462 25:-0.996644 26:-0.391635 
128 1:-0.337349 2:-0.589883 3:0.23077 4:0.692308 5:-0.487179 6:-0.503937 7:0.538462 8:-0.825504 9:-0.83565 10:-0.686827 11:-0.893086 12:0.242902 13:-0.487722 14:-0.460674 15:-0.076924 16:0.384616 17:0.076924 18:-0.887253 19:-0.875475 20:-0.318008 21:-0.499386 22:-0.488888 23:-0.692308 24:0.23077 25:-0.976772 26:-0.315589 
128 1:-0.133528 2:-0.28159 3:-0.52 4:0.2 5:-0.120003 6:-0.568834 7:-0.6 8:-0.96424 9:-0.331328 10:-0.80262 11:-0.965356 12:0.589905 13:-0.058312 14:-0.302858 15:-0.52 16:-0.2 17:-0.6 18:-0.824199 19:-0.859089 20:0.340996 21:-0.246048 22:-0.491526 23:-0.92 24:-0.2 25:-0.96512 26:0.346008 
128 1:0.0857035 2:-0.426977 3:-0.384616 4:0.692308 5:0.282053 6:-0.631544 7:-0.23077 8:-0.949535 9:-0.116972 10:-0.835099 11:-0.931583 12:0.0283912 13:-0.540258 14:-0.5 15:-0.692308 16:-0.692308 17:-1 18:-0.895618 19:-1 20:-0.448276 21:-0.716202 22:-0.72973 23:-0.692308 24:-0.692308 25:-0.895734 26:-0.437262 
107.2383014659391 1:-0.277713 2:-0.49749 3:-0.5 4:0.8 5:-0.433333 6:-0.635188 7:-0.1 8:-0.920902 9:-0.684329 10:-0.748082 11:-0.842572 12:0.287066 13:-0.19241 14:-0.372262 15:-0.8 17:-0.1 18:-0.989293 19:-0.760706 20:0.0498084 21:-0.420112 22:-0.553956 23:-0.3 25:-0.771534 26:0.0570342 
18.60696454288082 1:0.308452 2:0.0282552 3:0.142858 4:0.714286 5:-0.714286 6:0.136701 7:0.714286 8:-0.884242 9:-0.986768 10:-0.0219327 11:-0.62796 12:-0.425868 13:0.217952 14:0.043478 15:1 16:1 17:-0.142858 18:-0.07293 19:-0.846021 20:-0.823755 21:0.248272 22:-0.12 23:0.428572 24:1 25:0.032178 26:-0.809886 
128 1:-0.275583 2:-0.392679 3:-0.25 4:0.1875 5:-0.4375 6:-0.725539 7:-0.4375 8:-0.843379 9:-0.872912 10:-0.635345 11:-0.820688 12:0.665615 13:-0.267208 14:-0.37445 15:-0.375 17:-0.375 18:-0.860312 19:-0.847944 20:0.739464 21:-0.415354 22:-0.545852 23:-1 25:-0.987635 26:0.741445 
128 1:-0.379655 2:-0.649235 3:-0.125 4:0.375 5:-0.208333 6:-0.836625 7:-0.375 8:-0.862045 9:-0.685905 10:-0.844244 11:-0.910059 12:-0.0157729 13:-0.44375 14:-0.570094 15:-0.125 17:-0.625 18:-0.783704 19:-0.980848 20:-0.180077 21:-0.5568 22:-0.648148 23:-0.625 24:-0.375 25:-0.894219 26:-0.178707 
28.87178947455324 1:0.179783 2:0.122839 4:0.4 5:0.200005 6:-0.492997 7:0.2 8:-0.72574 9:-0.665255 10:-0.5661 11:-0.711297 12:-0.40694 13:-0.13183 14:-0.386666 16:0.2 17:-0.6 18:-0.804543 19:-0.988039 20:-0.425287 21:-0.16209 22:-0.2 23:-0.8 24:-0.8 25:-0.598932 26:-0.961977 
128 1:-0.270958 2:-0.363971 3:-0.571428 4:0.571428 5:0.0952424 6:-0.625031 7:-0.428572 8:-0.860586 9:-0.764597 10:-0.603191 11:-0.947102 12:-0.0725552 13:-0.015698 14:-0.45055 15:-0.285714 16:-0.142858 17:-0.857143 18:-0.582032 19:-0.989989 20:-0.302682 21:-0.130218 22:-0.548388 23:-0.285714 24:-0.285714 25:-0.582296 26:-0.292776 
61.076615148488 1:0.565318 2:-0.28098 3:-0.636364 4:0.818182 5:-0.030303 6:-0.518851 7:0.09091 8:-0.883187 9:0.16045 10:-0.658441 11:-0.930572 12:-0.255521 13:0.054998 14:-0.425 15:0.09091 16:0.272728 17:-0.454546 18:-0.460824 19:-0.826627 20:-0.386973 21:0.88523 22:0.2 23:-0.454546 24:-0.454546 25:0.88523 26:-0.961977 
75.51064464855421 1:0.350426 2:-0.356274 3:0.23077 4:0.538462 5:0.0769211 6:-0.39456 7:0.23077 8:-0.796893 9:-0.854635 10:-0.101198 11:-0.720423 12:0.287066 13:0.112578 14:-0.380282 15:0.076924 16:0.538462 17:0.076924 18:-0.467608 19:-0.585364 20:-0.455939 21:0.102844 22:-0.39726 23:-1 24:0.538462 25:-0.882344 26:-0.444867 
128 1:0.0972573 2:-0.335146 3:0.2 4:0.8 5:-0.133332 6:-0.113823 7:0.4 8:-0.937534 9:-0.818461 10:-0.475616 11:-0.542239 12:0.123028 13:-0.405904 14:-0.353846 15:-0.6 16:0.2 18:-0.951503 19:-0.874566 20:-0.501916 21:-0.486012 22:-0.476924 23:-0.4 24:0.2 25:-0.923063 26:-0.505703 
128 1:-0.492312 2:-0.509932 3:-0.25 4:0.625 5:-0.458333 6:-0.421902 7:0.5 8:-0.973669 9:-0.867537 10:-0.70783 11:-0.878292 12:0.488959 13:-0.473382 14:-0.511112 15:-0.625 16:0.125 17:0.125 18:-0.975892 19:-0.85545 20:0.0344828 21:-0.696238 22:-0.70803 23:-0.125 24:0.125 25:-0.874567 26:0.0418251 
24.10439635444151 1:-0.0717544 2:-0.285669 3:0.333334 4:0.833334 5:-0.5 6:-0.0269292 7:0.333334 8:-0.857381 9:-0.633626 10:-0.673194 11:-0.799614 12:0.287066 13:-0.259354 14:-0.387388 15:-0.333334 16:0.333334 17:0.166666 18:-0.946816 19:-0.834464 20:-0.149425 21:-0.40039 22:-0.464286 23:-0.333334 24:0.333334 25:-0.877106 26:-0.148289 
128 1:-0.0724253 2:-0.220674 3:-0.17647 4:0.764706 5:-0.137254 6:-0.568276 7:-0.294118 8:-0.902996 9:-0.6665 10:-0.534884 11:-0.862324 12:0.0725552 13:-0.201082 14:-0.503876 15:-0.411764 16:0.058824 17:-0.411764 18:-0.695918 19:-0.765548 20:-0.0114943 21:-0.393832 22:-0.648854 23:-1 24:-0.17647 25:-0.930799 26:-0.00380228 
73.33886773313404 1:0.303259 2:-0.242744 3:0.75 4:1 5:-0.583333 6:-0.184918 7:0.75 8:-0.586073 9:-0.872622 10:-0.548873 11:-0.495883 12:-0.280757 13:0.471294 15:0.75 16:0.75 17:-0.25 18:0.012962 19:-0.64733 20:-0.816092 21:0.468918 22:-0.076924 24:0.75 25:-0.340776 26:-0.802281 
92.90532120268469 1:0.461603 2:-0.271056 3:0.5 4:0.75 5:0.0833344 6:-0.273787 7:0.5 8:-0.894019 9:-0.553799 10:-0.509666 11:-0.425654 12:-0.205047 13:0.202042 14:-0.294118 15:0.75 16:0.75 17:-0.75 18:-0.195598 19:-0.85628 20:-0.739464 21:0.657718 22:0.142858 23:-0.25 24:-0.25 25:0.56732 26:-0.946768 
5.372393368252246 1:-0.264491 2:-0.362875 3:0.076924 4:0.846154 5:-0.333332 6:-0.33987 7:0.384616 8:-0.94328 9:-0.868276 10:-0.609572 11:-0.750534 12:0.192429 13:-0.375792 14:-0.42 15:-0.23077 16:0.538462 17:0.23077 18:-0.934534 19:-0.820448 20:-0.233716 21:-0.439206 22:-0.46 23:-0.692308 24:0.538462 25:-0.893554 26:-0.239544 
128 1:0.289875 2:-0.678246 3:-0.529412 4:0.058824 5:-0.45098 6:-0.679798 7:-0.411764 8:-0.937123 9:-0.0252874 10:-0.680871 11:-0.967522 12:0.129338 13:-0.537936 14:-0.666666 15:-1 16:-1 17:-1 18:-1 19:-1 20:-0.586207 21:-0.680792 22:-0.821429 23:-1 24:-1 25:-1 26:-0.574144 
128 1:0.0573742 2:-0.360127 3:-0.571428 4:0.285714 5:-0.380952 6:-0.794306 7:-0.285714 8:-0.781845 9:-0.489621 10:-0.743126 11:-0.807324 12:-0.463722 13:-0.213866 14:-0.5 15:-0.428572 16:-0.428572 17:-0.571428 18:-0.780288 19:-0.795868 20:-0.203065 21:-0.30011 22:-0.566038 23:-0.857143 24:-0.428572 25:-0.984427 26:-0.193916 
128 1:0.563857 2:-0.348663 3:-0.555556 4:1 5:-0.037037 6:-0.61939 7:-0.111112 8:-0.934319 9:0.254587 10:-0.666829 11:-0.978431 12:-0.470032 13:-0.197178 14:-0.448276 15:-0.111112 16:0.333334 17:-0.555556 18:-0.516838 19:-0.963091 20:-0.555556 21:-0.25723 22:-0.6 23:-0.555556 24:0.333334 25:-0.554366 26:-0.543726 
3.483126351372513 1:0.181072 2:0.301328 3:-0.23077 4:0.692308 5:0.12821 6:-0.175805 7:-0.23077 8:-0.980717 9:-0.522542 10:-0.379061 11:-0.8211 12:-0.116719 13:-0.156184 14:-0.27907 15:-0.384616 16:-0.23077 17:-0.692308 18:-0.626774 19:-0.891783 20:-0.340996 21:-0.284932 22:-0.477272 23:-0.692308 24:-0.23077 25:-0.735206 26:-0.330798 
128 1:0.446888 2:-0.355058 3:-0.6 4:1 5:0.133332 6:-0.516698 8:-0.999315 9:0.437996 10:-0.976803 11:-0.936963 12:-0.242902 13:-0.10641 14:-0.559322 15:-0.2 16:0.4 17:-0.4 18:-0.730544 19:-0.71597 20:-0.547893 21:-0.116108 22:-0.606558 23:-0.8 24:0.4 25:-0.985442 26:-0.536122 
8.768415114563018 1:0.396672 2:0.0699751 3:0.2 4:0.6 5:-0.866667 6:0.0520654 7:0.2 8:-0.435859 9:-0.994925 10:-0.271581 11:-0.671116 12:-0.26183 13:0.588948 14:0.128206 15:0.6 16:0.8 18:-0.199242 19:-0.406296 20:-0.701149 21:0.902274 22:0.5 23:-0.6 24:0.6 25:-0.888308 26:-0.847909 
128 1:-0.257209 2:-0.31603 3:-0.583334 4:0.25 5:-0.166665 6:-0.639138 7:-0.416666 8:-0.951824 9:-0.536966 10:-0.748192 11:-0.948732 12:0.419558 13:-0.226744 14:-0.355932 15:-0.166666 17:-0.416666 18:-0.779002 19:-0.843817 20:0.356322 21:-0.378686 22:-0.519554 23:-0.916667 24:-0.25 25:-0.940817 26:0.361217 
128 1:0.0150495 2:-0.172304 3:-0.09091 4:0.818182 5:0.151515 6:-0.605027 7:-0.09091 8:-0.874505 9:-0.365709 10:-0.764999 11:-0.881713 12:-0.305994 13:-0.381078 14:-0.544304 15:-0.272728 16:-0.09091 17:-0.818182 18:-0.817736 19:-0.926964 20:-0.394636 21:-0.578164 22:-0.7 23:-0.636364 24:-0.272728 25:-0.912136 26:-0.391635 
120.3990020311651 1:-0.128113 2:0.173792 3:0.142858 4:0.714286 5:0.428571 6:-0.303412 7:0.428572 8:-0.827352 9:-0.750428 10:-0.676548 11:-0.761184 12:-0.514196 13:0.077358 14:-0.454546 15:0.142858 16:0.142858 17:-0.142858 18:-0.552812 19:-0.758004 20:-0.578544 21:0.795 22:-0.142858 23:-1 24:-0.428572 25:-0.572944 26:-0.946768 
128 1:0.164419 2:-0.384627 3:-0.52 4:0.04 5:-0.0933358 6:-0.682586 7:-0.6 8:-0.739705 9:-0.731997 10:-0.221391 11:-0.987035 12:0.507886 13:-0.474196 14:-0.506494 15:-0.92 16:-0.92 17:-0.92 18:-0.911616 19:-0.956601 20:-0.409962 21:-0.474602 22:-0.518988 23:-1 24:-0.92 25:-0.95505 26:-0.39924 
128 1:0.0955071 2:-0.182875 3:-0.3 4:0.5 5:-0.133332 6:-0.338958 7:0.2 8:-0.825472 9:-0.74837 10:-0.479897 11:-0.713397 12:0.665615 13:-0.58144 14:-0.526316 15:-0.6 16:-0.1 17:-0.5 18:-0.846596 19:-0.923316 20:-0.126437 21:-0.610536 22:-0.586206 23:-0.8 24:-0.2 25:-0.938034 26:-0.117871 
18.62207525192635 1:0.00863964 2:-0.621954 4:0.8 5:-0.533332 6:-0.445602 7:0.4 8:-0.819817 9:-0.739146 10:-0.684782 11:-0.620787 12:-0.0473186 13:0.26098 14:-0.319148 15:0.4 16:0.8 18:-0.174562 19:-0.729212 20:-0.639847 21:0.761426 22:0.333334 23:-0.6 24:-0.6 25:0.761426 26:-0.977186 
128 1:0.570842 2:-0.170784 3:-0.4 4:0.6 5:-0.266666 6:-0.4693 8:-0.911622 9:0.300148 10:-0.728012 11:-0.978431 12:-0.413249 13:0.02124 14:-0.375 15:-0.8 16:-0.2 17:-0.4 18:-0.796762 19:-0.896295 20:-0.509579 21:-0.105496 22:-0.424242 23:-0.6 24:-0.2 25:-0.900564 26:-0.498099 
43.64654432211145 1:0.0556856 2:-0.307347 3:-0.111112 4:1 5:0.185185 6:-0.435069 7:0.333334 8:-0.794466 9:-0.349847 10:-0.797553 11:-0.892234 12:-0.217666 13:0.1602 14:-0.265306 15:0.555556 16:0.555556 17:-0.333334 18:-0.316392 19:-0.632152 20:-0.624521 21:-0.014126 22:-0.45098 23:-0.333334 24:0.333334 25:-0.839561 26:-0.612167 
128 1:0.0968736 2:-0.243156 3:-0.411764 4:0.294118 5:-0.411764 6:-0.0943061 7:0.17647 8:-0.917946 9:-0.951998 10:-0.183941 11:-0.707714 12:0.634069 13:-0.341256 14:-0.316456 15:-0.17647 16:-0.058824 17:-0.764706 18:-0.740842 19:-0.986736 20:-0.394636 21:-0.418704 22:-0.481482 23:-0.294118 24:-0.17647 25:-0.75568 26:-0.38403 
128 1:0.259098 2:-0.403965 3:-0.555556 4:1 5:0.037037 6:-0.645721 7:-0.111112 8:-0.938924 9:-0.13827 10:-0.580349 11:-0.979792 12:-0.438486 13:-0.705744 14:-0.678572 15:-0.555556 16:-0.333334 17:-0.777778 18:-0.867504 19:-0.979613 20:-0.570881 21:-0.751696 22:-0.75862 23:-0.777778 24:-0.333334 25:-0.888082 26:-0.558935 
128 1:0.124774 2:-0.385213 3:-0.17647 4:0.647058 5:-0.0588251 6:-0.596155 7:-0.764706 8:-0.956173 9:-0.134351 10:-0.699487 11:-0.998696 12:0.154574 13:-0.352414 14:-0.557522 15:-0.411764 16:-0.294118 17:-0.882353 18:-0.78388 19:-0.969749 20:-0.1341 21:-0.52179 22:-0.669566 23:-0.411764 24:-0.411764 25:-0.784006 26:-0.125475 
128 1:-0.134753 2:-0.419022 3:-0.157894 4:0.578948 5:-0.333332 6:-0.428141 7:0.263158 8:-0.950852 9:-0.860895 10:-0.46521 11:-0.75173 12:0.684543 13:-0.283932 14:-0.465648 15:-0.578948 16:-0.052632 17:-0.368422 18:-0.893883 19:-0.815868 20:0.00383142 21:-0.371024 22:-0.56391 23:-0.68421 24:-0.052632 25:-0.882986 26:0.0114068 
8.05473308328742 1:0.284241 2:0.0124986 3:0.75 4:0.75 5:-0.166665 6:0.170556 7:0.5 8:-0.715593 9:-0.905669 10:-0.521923 11:-0.393952 12:-0.167192 13:0.730788 14:0.166666 15:0.75 16:0.75 17:0.25 18:0.01486 19:-0.330672 20:-0.816092 21:0.953648 22:0.75 23:0.75 24:0.75 25:0.953648 26:-0.939163 
128 1:-0.153431 2:-0.466567 4:0.555556 5:-0.0740697 6:-0.487732 7:-0.111112 8:-0.833846 9:-0.640231 10:-0.713674 11:-0.863385 12:0.671924 13:-0.07067 14:-0.37037 15:-0.222222 16:0.444444 17:-0.222222 18:-0.893904 19:-0.835999 20:0.241379 21:-0.190658 22:-0.463414 23:-0.888889 24:0.333334 25:-0.93019 26:0.247148 
27.78924903345321 1:0.516208 2:0.371942 3:0.428572 4:0.714286 5:-0.238094 6:0.88151 7:0.714286 8:-0.72153 9:-0.849618 10:-0.378501 11:-0.334488 12:-0.192429 13:0.474166 14:0.034482 15:1 16:1 17:-0.142858 18:-0.165088 19:-0.54847 20:-0.777778 21:0.473628 22:0.032258 23:0.142858 24:1 25:-0.61705 26:-0.764259 
128 1:0.0794086 2:-0.302476 3:-0.111112 4:0.555556 5:-0.407407 6:-0.0927595 7:0.555556 8:-0.799194 9:-0.986061 10:-0.427291 11:-0.554566 12:-0.104101 13:-0.414292 14:-0.388888 15:-0.333334 16:0.555556 17:-0.111112 18:-0.840864 19:-0.733344 20:-0.724138 21:-0.33577 23:-1 24:-0.111112 25:-0.822985 26:-0.923954 
128 1:-0.224823 2:-0.276469 3:-0.692308 4:0.846154 5:-0.282051 6:-0.33987 7:0.384616 8:-0.992795 9:-0.785972 10:-0.49989 11:-0.859019 12:0.0283912 13:0.192694 14:-0.137254 15:-0.692308 16:-0.23077 17:-0.538462 18:-0.96466 19:-0.586034 20:-0.609195 21:0.090364 22:-0.245284 23:-0.846154 24:-0.23077 25:-0.621796 26:-0.596958 
102.8014066340636 1:-0.184009 2:-0.310908 3:-0.384616 4:0.538462 5:-0.384615 6:-0.157573 7:0.23077 8:-0.866951 9:-0.905496 10:-0.421159 11:-0.87671 12:0.236593 13:0.586034 14:0.09804 15:-0.538462 16:-0.076924 17:-0.23077 18:-0.55328 19:-0.797108 20:-0.609195 21:0.430622 22:-0.132076 23:-0.846154 24:-0.23077 25:-0.741038 26:-0.596958 
128 1:0.497822 2:-0.509616 3:-0.2 4:0.8 5:0.0666684 6:-0.635188 7:-0.2 8:-0.880844 9:0.356032 10:-0.880766 11:-0.993957 12:-0.230284 13:-0.080976 14:-0.40625 15:-0.2 16:0.4 17:-0.2 18:-0.551774 19:-0.860964 20:-0.509579 21:-0.331912 22:-0.60606 23:-0.6 25:-0.584196 26:-0.498099 
128 1:0.478941 2:-0.324595 3:-0.166666 4:1 5:0.27778 6:-0.658886 7:-0.666666 8:-0.950026 9:0.359355 10:-0.84371 11:-0.993849 12:-0.205047 13:-0.209062 14:-0.324324 15:-0.333334 16:-0.166666 17:-0.666666 18:-0.703928 19:-0.937592 20:-0.43295 21:-0.361772 22:-0.473684 23:-0.666666 24:-0.166666 25:-0.766502 26:-0.422053 
128 1:-0.0885279 2:-0.299772 3:-0.2 4:0.466666 5:-0.244444 6:-0.508796 7:-0.6 8:-0.926566 9:-0.330628 10:-0.799329 11:-0.953056 12:-0.0283912 13:-0.348596 14:-0.477272 15:-0.6 16:-0.466666 17:-0.733334 18:-0.796654 19:-0.936376 20:-0.32567 21:-0.579798 22:-0.688888 23:-0.733334 24:-0.6 25:-0.816644 26:-0.315589 
-128 1:-0.341612 2:-0.447184 3:-0.4 4:0.4 5:-0.399999 6:-0.58779 7:-0.3 8:-0.948364 9:-0.857439 10:-0.486837 11:-0.964344 12:0.312303 13:-0.23248 14:-0.386862 15:-0.2 16:0.1 17:-0.2 18:-0.862704 19:-0.814037 20:0.0498084 21:-0.367792 22:-0.496402 23:-0.9 24:-0.2 25:-0.973348 26:0.0570342 
-91.93511332467757 1:-0.0419375 2:-0.440466 3:-0.5 4:0.5 5:0.041665 6:-0.629264 7:-0.5 8:-0.909673 9:-0.543219 10:-0.513333 11:-0.974873 12:0.129338 13:-0.131844 14:-0.353536 15:-0.125 17:-0.875 18:-0.622258 19:-0.949045 20:-0.241379 21:0.169436 22:0.066666 23:-0.5 24:-0.5 25:-0.309878 26:-0.885932 
-97.55483422014081 1:0.29276 2:-0.276024 3:-0.272728 4:0.454546 5:0.212121 6:-0.281868 7:0.09091 8:-0.628862 9:-0.588551 10:-0.501825 11:-0.81747 12:0.0662461 13:0.209396 14:-0.346938 15:0.09091 16:0.09091 17:-0.636364 18:-0.486736 19:-0.533388 20:-0.624521 21:0.6267 22:-0.333334 23:-0.818182 24:-0.818182 25:0.6267 26:-0.977186 
-128 1:-0.125495 2:-0.457508 3:0.09091 4:0.818182 5:-0.393939 6:-0.281868 7:0.272728 8:-0.948438 9:-0.667194 10:-0.591316 11:-0.823951 12:0.104101 13:-0.389558 14:-0.607844 15:-1 16:-0.818182 17:-0.818182 18:-1 19:-0.905215 20:-0.609195 21:-0.525826 22:-0.698114 23:-0.818182 24:-0.818182 25:-0.905334 26:-0.596958 
-128 1:0.475059 2:-0.238071 3:-0.25 4:1 5:0.0833344 6:-0.481149 8:-0.91587 9:0.113095 10:-0.75651 11:-0.853737 12:-0.451104 13:0.259128 14:-0.121952 15:0.25 16:0.75 18:-0.269594 19:-0.681182 20:-0.685824 21:-0.138878 22:-0.333334 23:-1 24:0.75 25:-0.858681 26:-0.680608 
-128 1:0.378447 2:-0.391337 3:-0.333334 4:1 5:-0.111111 6:-0.382406 7:0.111112 8:-0.941131 9:-0.265584 10:-0.573172 11:-0.718305 12:-0.236593 13:-0.525556 14:-0.563636 15:-0.555556 16:-0.555556 17:-1 18:-0.822395 19:-1 20:-0.578544 21:-0.54282 22:-0.607142 23:-0.555556 24:-0.555556 25:-0.82253 26:-0.574144 
-25.37602976963603 1:-0.322789 2:-0.420651 3:-0.75 4:0.75 5:-0.166665 6:-0.68851 7:-0.25 8:-0.986754 9:-0.86381 10:-0.619081 11:-0.771682 12:-0.621451 13:-0.370176 15:-1 16:-1 17:-1 18:-1 19:-1 20:-0.984674 21:-1 22:-1 23:-1 24:-1 25:-1 26:-0.984791 
-127.8125970615838 1:0.409495 2:-0.393297 3:-0.652174 4:0.217392 5:-0.217391 6:-0.684647 7:-0.565218 8:0.3359 9:-0.692164 10:-0.939847 11:-0.998026 12:0.268139 13:-0.594404 14:-0.584 15:-0.73913 16:-0.73913 17:-1 18:-0.950732 19:-1 20:-0.0421456 21:-0.760126 22:-0.700788 23:-0.73913 24:-0.73913 25:-0.950758 26:-0.0342205 
-128 1:0.182873 2:-0.343303 4:0.714286 5:-0.047619 6:-0.286483 7:0.142858 8:-0.872683 9:-0.705558 10:-0.468353 11:-0.632089 12:0.413249 13:-0.29522 14:-0.39394 15:-0.142858 16:0.571428 17:-0.285714 18:-0.849065 19:-0.698088 20:-0.241379 21:-0.334254 22:-0.44 23:-0.857143 24:0.571428 25:-0.849069 26:-0.239544 
-128 1:0.143567 2:-0.379299 3:0.333334 4:0.833334 5:-0.166665 6:-0.224417 7:0.166666 8:-0.701137 9:-0.756576 10:-0.673917 11:-0.569247 12:0.293375 13:-0.28008 14:-0.347826 15:-0.166666 16:0.166666 17:-0.166666 18:-0.930649 19:-0.946448 20:-0.295019 21:-0.477112 22:-0.468086 23:-1 24:0.166666 25:-0.984212 26:-0.285171 
-128 1:-0.496327 2:-0.500914 3:-0.142858 4:0.857142 5:-0.428571 6:-0.371121 7:0.285714 8:-0.956636 9:-0.896824 10:-0.708884 11:-0.865694 12:0.337539 13:-0.634966 14:-0.654676 15:-0.285714 17:-0.714286 18:-0.960522 19:-0.934768 20:0.0651341 21:-0.74019 22:-0.801418 23:-0.571428 25:-0.974256 26:0.0722433 
-128 1:-0.647956 2:-0.403965 3:0.25 4:0.75 5:-0.916667 6:-0.362658 7:0.5 8:-0.897801 9:-0.997505 10:-0.729258 11:-0.958066 12:-0.438486 13:-0.252584 14:-0.282052 15:0.25 16:0.5 17:-0.25 18:-0.661836 19:-0.781338 20:-0.701149 21:-0.2764 22:-0.333334 23:-0.5 24:0.5 25:-0.880498 26:-0.703422 
-11.97507134363193 1:-0.516675 2:-0.537476 3:0.076924 4:0.692308 5:-0.0769211 6:-0.485705 7:0.076924 8:-0.936121 9:-0.781092 10:-0.811798 11:-0.926924 12:0.293375 13:-0.518406 14:-0.586206 15:-0.692308 16:-0.23077 17:-0.384616 18:-0.940055 19:-0.948346 20:-0.111111 21:-0.650648 22:-0.677966 23:-0.538462 24:-0.384616 25:-0.960412 26:-0.102662 
-128 1:0.112324 2:-0.40314 4:0.714286 5:0.047619 6:-0.337266 7:0.142858 8:-0.878837 9:-0.716315 10:-0.504696 11:-0.657019 12:0.470032 13:-0.296464 14:-0.387756 15:-0.285714 16:0.428572 17:-0.285714 18:-0.891973 19:-0.682832 20:-0.249042 21:-0.37569 22:-0.454546 23:-1 24:0.428572 25:-0.790922 26:-0.247148 
-128 1:0.188669 2:-0.486701 3:-0.294118 4:0.294118 5:-0.137254 6:-0.651917 7:-0.294118 8:-0.967888 9:-0.329793 10:-0.755464 11:-0.655092 12:0.205047 13:-0.26436 14:-0.462962 15:-0.058824 16:0.411764 17:-0.294118 18:-0.647152 19:-0.74706 20:-0.172414 21:0.267012 22:-0.142858 23:-1 24:-0.294118 25:-0.79291 26:-0.893536 
-128 1:-0.0293886 2:-0.244967 3:0.09091 4:0.818182 5:0.212121 6:-0.497307 7:-0.454546 8:-0.787881 9:-0.272889 10:-0.88126 11:-0.990484 12:-0.167192 13:-0.313034 14:-0.532468 15:-0.09091 16:-0.09091 17:-1 18:-0.477836 19:-1 20:-0.409962 21:-0.482216 22:-0.620254 23:-0.454546 24:-0.454546 25:-0.637528 26:-0.39924 
-128 1:0.408504 2:-0.0937071 4:1 5:0.133332 6:-0.492997 7:-0.2 8:-0.968252 9:0.257898 10:-0.826615 11:-0.964807 12:-0.350158 13:-0.584328 14:-0.661016 15:-0.6 16:-0.4 17:-0.8 18:-0.78508 19:-0.991283 20:-0.547893 21:-0.715028 22:-0.737704 23:-1 24:-0.6 25:-0.900297 26:-0.536122 
-128 1:0.321417 2:-0.0937071 3:-0.555556 4:1 5:0.555556 6:-0.435069 7:0.333334 8:-0.940021 9:-0.208105 10:-0.712027 11:-0.705414 12:-0.299685 13:0.198388 14:-0.233334 15:-0.333334 16:0.333334 17:-0.333334 18:-0.809483 19:-0.819132 20:-0.54023 21:0.018618 22:-0.48387 23:-0.777778 24:0.111112 25:-0.996657 26:-0.528517 
-128 1:-0.160526 2:-0.339127 3:-0.8 4:0.2 5:-0.177777 6:-0.706284 7:-0.4 8:-0.972265 9:-0.768275 10:-0.654755 11:-0.67141 12:0.608833 13:-0.351702 14:-0.4 15:-0.466666 16:-0.066666 17:-0.466666 18:-0.891693 19:-0.892844 20:0.609195 21:-0.552514 22:-0.582938 23:-0.866667 24:-0.266666 25:-0.949758 26:0.604563 
-128 1:0.707398 2:-0.620956 3:-0.538462 4:0.538462 5:-0.230768 6:-0.613311 7:-0.23077 8:-0.791959 9:0.447063 10:-0.883564 11:-0.935154 12:0.00315457 13:-0.550416 14:-0.641026 15:-0.538462 16:-0.384616 17:-0.692308 18:-0.815856 19:-0.99394 20:-0.402299 21:-0.717346 22:-0.825 23:-0.692308 24:-0.384616 25:-0.818068 26:-0.391635 
-128 1:-0.179105 2:-0.345235 3:-0.333334 4:0.866666 5:-0.199999 6:-0.414003 7:0.333334 8:-0.958848 9:-0.624411 10:-0.64366 11:-0.86732 12:0.274448 13:-0.612722 14:-0.515152 15:-0.466666 16:-0.066666 17:-0.333334 18:-0.935551 19:-0.982358 20:-0.241379 21:-0.779078 22:-0.643564 23:-0.733334 24:-0.066666 25:-0.960701 26:-0.231939 
-9.691046523875986 1:-0.39227 2:0.299287 3:1 4:1 5:-1 6:0.526033 7:1 8:-0.441834 9:-1 10:-0.832372 11:-0.974537 12:-0.930599 13:-1 14:-1 15:-1 16:-1 17:-1 18:-1 19:-1 20:-0.984674 21:-1 22:-1 23:-1 24:-1 25:-1 26:-0.984791 
-128 1:0.369902 2:-0.249883 3:-0.6 4:0.8 5:4.33334e-006 6:-0.635188 7:-0.2 8:-0.938146 9:0.215459 10:-0.844532 11:-0.971263 12:-0.463722 13:-0.018928 14:-0.46875 15:-0.6 16:-0.2 17:-0.6 18:-0.694766 19:-0.885543 20:-0.509579 21:-0.10335 22:-0.6 23:-0.8 24:-0.4 25:-0.855538 26:-0.505703 
-0.2678066090821988 1:-0.276061 2:-0.108142 3:1 4:1 5:4.33334e-006 6:-0.303412 7:1 8:-0.955072 9:-0.995552 10:-0.644167 11:-0.583602 12:-0.936909 13:0.771378 15:-1 16:-1 17:-1 18:-1 19:-1 20:-0.984674 21:0.771378 23:-1 24:-1 25:-1 26:-0.984791 
-128 1:-0.42675 2:-0.393588 3:-0.6 4:0.6 5:0.155554 6:-0.461401 7:0.333334 8:-0.976129 9:-0.82079 10:-0.692447 11:-0.868612 12:0.394322 13:-0.076576 14:-0.255814 15:-0.866667 16:-0.2 17:-0.2 18:-0.972425 19:-0.79785 20:-0.340996 21:-0.3465 22:-0.431818 23:-0.333334 24:-0.2 25:-0.825562 26:-0.330798 
-128 1:-0.23277 2:-0.579478 3:0.066666 4:0.6 5:-0.377777 6:-0.492997 7:0.466666 8:-0.932861 9:-0.839828 10:-0.586546 11:-0.777761 12:0.476341 13:-0.560122 14:-0.584 15:-0.733334 16:-0.066666 17:-0.2 18:-0.918755 19:-0.897103 20:-0.0421456 21:-0.581242 22:-0.637796 23:-0.6 24:-0.2 25:-0.990572 26:-0.0342205 
-128 1:0.0498297 2:-0.371073 3:0.384616 4:0.538462 5:-0.179486 6:-0.285183 7:0.076924 8:-0.870069 9:-0.835384 10:-0.596841 11:-0.516071 12:0.324921 13:-0.249232 14:-0.395348 15:-0.692308 16:-0.538462 17:-0.538462 18:-0.939385 19:-0.886829 20:-0.340996 21:-0.404576 22:-0.54023 23:-0.846154 24:-0.538462 25:-0.947465 26:-0.338403 
-79.85191700102492 1:0.144375 2:-0.178667 3:-0.25 4:0.5 5:-0.833333 6:-0.155296 7:0.5 8:-0.950369 9:-0.998417 10:-0.113066 11:-0.647707 12:-0.444795 13:0.308486 14:-0.12 16:0.25 18:-0.370104 19:-0.503634 20:-0.808429 21:0.532472 22:0.142858 23:-0.25 25:-0.31169 26:-0.840304 
-128 1:0.49101 2:-0.213135 3:-0.6 4:1 5:4.33334e-006 6:-0.611491 7:-0.2 8:-0.915919 9:0.313351 10:-0.841914 11:-0.963719 12:-0.463722 13:-0.181004 14:-0.415384 16:0.2 17:-0.4 18:-0.474342 19:-0.85184 20:-0.501916 21:0.2426 22:-0.2 23:-0.6 24:-0.6 25:0.2426 26:-0.961977 
-128 1:0.377682 2:-0.139643 3:-0.4 4:0.8 5:0.133332 6:-0.445602 7:-0.2 8:-0.663889 9:0.0335212 10:-0.880938 11:-0.976335 12:-0.324921 13:0.061858 14:-0.2 15:-0.2 16:0.2 18:-0.623528 19:-0.65917 20:-0.54023 21:-0.07492 22:-0.37705 23:-0.6 25:-0.96976 26:-0.536122 
-77.23475698440156 1:0.366346 2:-0.589176 3:0.6 4:1 5:-0.733333 6:-0.303412 7:1 8:-0.718695 9:-0.815767 10:-0.58185 11:-0.336511 12:-0.507886 13:0.480254 14:-0.294118 15:0.6 16:0.6 17:-0.2 18:0.291792 19:-0.811538 20:-0.869732 21:0.754054 22:0.5 23:0.2 24:0.2 25:0.754054 26:-0.969582 
-128 1:0.116573 2:-0.254729 3:0.4 4:0.6 5:0.0666684 6:-0.279711 7:0.4 8:-0.952304 9:-0.105822 10:-0.785585 11:-0.956015 12:-0.00946372 13:-0.079738 14:-0.22807 15:-0.8 16:-0.6 17:-0.8 18:-0.993407 19:-0.972375 20:-0.563218 21:-0.254878 22:-0.37931 23:-1 24:-0.6 25:-0.978987 26:-0.558935 
-4.703477865420704 1:0.145071 2:-0.39046 3:-0.771428 4:-0.371428 5:-0.409523 6:-0.770608 7:-0.714286 8:-0.91918 9:-0.497607 10:-0.376952 11:-0.943797 12:0.432177 13:-0.287018 14:-0.485714 15:-0.942857 16:-0.942857 17:-1 18:-0.992979 19:-1 20:-0.731801 21:-0.606724 22:-0.555556 23:-1 24:-1 25:-1 26:-0.931559 
-45.54138484990409 1:0.268518 2:-0.143681 4:1 5:-0.0833344 6:-0.599642 8:-0.914863 9:-0.122424 10:-0.845106 11:-0.744885 12:-0.583596 13:-0.286126 14:-0.463414 15:-0.25 16:0.25 17:-0.25 18:-0.596924 19:-0.805714 20:-0.685824 21:0.103788 22:-0.333334 23:-0.75 24:-0.75 25:0.103788 26:-0.977186 
-128 1:0.0508433 2:-0.558855 3:0.066666 4:0.733334 5:-0.244444 6:-0.414003 7:0.2 8:-0.636254 9:-0.873355 10:-0.495367 11:-0.782231 12:0.589905 13:-0.676168 14:-0.575758 15:-0.333334 16:0.066666 17:-0.6 18:-0.876248 19:-0.965439 20:-0.241379 21:-0.708714 22:-0.60396 23:-0.733334 24:0.066666 25:-0.910872 26:-0.231939 
-22.47825678565875 1:0.307122 2:-0.254968 3:0.09091 4:0.636364 5:0.030303 6:-0.281868 7:0.09091 8:-0.677518 9:-0.382507 10:-0.659908 11:-0.820238 12:0.0283912 13:-0.163888 14:-0.344262 15:-0.636364 16:0.09091 17:-0.09091 18:-0.91759 19:-0.736788 20:-0.532567 21:-0.273044 22:-0.51613 23:-0.454546 24:0.09091 25:-0.819346 26:-0.528517 
-128 1:0.378663 2:0.122839 3:0.333334 4:1 5:0.777778 6:-0.27708 7:-0.555556 8:-0.848175 9:0.0123422 10:-0.675344 11:-0.993658 12:-0.274448 13:-0.045054 14:-0.263158 15:0.333334 16:0.555556 17:-0.555556 18:-0.464944 19:-0.919264 20:-0.563218 21:-0.09838 22:-0.322034 23:-0.333334 24:0.333334 25:-0.596466 26:-0.551331 
-64.35986956545065 1:-0.278784 2:-0.555047 3:-0.23077 4:0.538462 5:-0.179486 6:-0.449247 7:0.23077 8:-0.9243 9:-0.768448 10:-0.679768 11:-0.819317 12:0.293375 13:-0.24607 14:-0.493976 15:-0.846154 16:-0.692308 17:-0.846154 18:-0.963806 19:-0.995078 20:-0.363985 21:-0.548958 22:-0.619048 23:-0.846154 24:-0.846154 25:-0.99508 26:-0.361217 
-42.13422567531619 1:-0.0640006 2:-0.326912 3:-0.25 4:0.75 5:0.0833344 6:-0.540395 7:-0.75 8:-0.962793 9:-0.297974 10:-0.729253 11:-0.998072 12:-0.501577 13:-0.523064 14:-0.555556 15:-0.75 16:-0.75 17:-1 18:-0.974448 19:-1 20:-0.655172 21:-1 22:-1 23:-1 24:-1 25:-1 26:-0.984791 
-128 1:-0.697103 2:-0.344152 3:-0.333334 4:0.777778 5:-0.037037 6:-0.593058 7:-0.111112 8:-0.916899 9:-0.909987 10:-0.838529 11:-0.979794 12:-0.432177 13:-0.2247 14:-0.454546 15:-0.555556 16:-0.111112 17:-0.333334 18:-0.732784 19:-0.887719 20:-0.494253 21:-0.540884 22:-0.764706 23:-0.555556 24:-0.555556 25:-0.73307 26:-0.48289 
-128 1:-0.462277 2:-0.53828 3:-0.04762 4:0.52381 5:-0.555555 6:-0.55168 7:-0.04762 8:-0.898121 9:-0.921016 10:-0.650819 11:-0.911851 12:0.62776 13:-0.50942 14:-0.52258 15:-0.714286 16:-0.428572 17:-0.714286 18:-0.956983 19:-0.950045 20:0.187739 21:-0.657708 22:-0.681528 23:-0.904762 24:-0.52381 25:-0.974804 26:0.193916 
-89.63886410137675 1:0.109461 2:-0.250517 3:-0.6 4:0.6 5:0.133332 6:-0.682586 7:0.2 8:-0.997501 9:-0.450835 10:-0.690971 11:-0.651901 12:-0.425868 13:-0.1288 14:-0.354838 15:-0.4 17:-0.6 18:-0.941291 19:-0.821801 20:-0.524904 21:-0.237156 22:-0.5 23:-1 24:-0.2 25:-0.873792 26:-0.513308 
-128 1:-0.0217702 2:-0.00734878 3:-0.649122 4:-0.122808 5:-0.380116 6:-0.852216 7:-0.754386 8:-0.952195 9:-0.617684 10:-0.390265 11:-0.958114 12:0.577287 13:-0.271154 14:-0.272728 15:-0.719298 16:-0.614036 17:-0.859649 18:-0.889959 19:-0.962313 20:0.685824 21:-0.519052 22:-0.513514 23:-0.929825 24:-0.68421 25:-0.97011 26:0.688213 
-4.589210218945315 1:0.666682 2:-0.361206 3:-0.8 4:0.4 5:0.266669 6:-0.635188 7:0.2 8:-0.996949 9:0.0431853 10:-0.654942 11:-0.597224 12:-0.299685 13:-0.010184 14:-0.415384 15:0.4 16:0.8 17:-0.4 18:-0.713754 19:-0.861623 20:-0.501916 21:-0.321328 22:-0.555556 23:-0.8 24:-0.8 25:-0.943676 26:-0.931559 
-43.83708830824858 1:0.315151 2:-0.163242 3:0.6 4:1 5:0.0666684 6:0.0283679 7:1 8:-0.803358 9:-0.452412 10:-0.706598 11:-0.579603 12:-0.470032 13:0.029952 14:-0.368422 15:1 16:1 17:-0.6 18:0.02502 19:-0.995068 20:-0.854406 21:-1 22:-1 23:-1 24:-1 25:-1 26:-0.984791 
-74.71956519776279 1:0.189223 2:-0.472666 3:-0.555556 4:0.777778 5:-0.111111 6:-0.408738 7:0.777778 8:-0.977662 9:-0.134936 10:-0.791436 11:-0.816758 12:-0.148265 13:-0.557354 14:-0.432836 15:-0.777778 16:0.111112 17:0.111112 18:-0.994779 19:-0.856401 20:-0.48659 21:-0.671944 22:-0.529412 23:-0.111112 24:0.111112 25:-0.861728 26:-0.48289 
-128 1:-0.473008 2:-0.61961 3:-0.111112 4:0.555556 5:-0.444444 6:-0.500897 7:0.111112 8:-0.8875 9:-0.930307 10:-0.7363 11:-0.838449 12:0.697161 13:-0.506512 14:-0.567902 15:-0.222222 16:0.222222 17:-0.222222 18:-0.898395 19:-0.900974 20:0.241379 21:-0.658198 22:-0.668712 23:-0.888889 24:-0.111112 25:-0.958921 26:0.239544 
-128 1:0.0157717 2:-0.176585 3:-0.294118 4:0.411764 5:-0.137254 6:-0.526455 7:-0.529412 8:-0.923483 9:-0.26037 10:-0.750487 11:-0.963664 12:0.0347003 13:-0.324854 14:-0.40909 15:-0.529412 16:-0.17647 17:-0.529412 18:-0.80866 19:-0.862271 20:-0.32567 21:-0.610868 22:-0.64045 23:-1 24:-0.529412 25:-0.978199 26:-0.323194 
-128 1:0.342865 2:0.0993662 3:-0.4 4:1 5:0.266669 6:-0.4693 7:0.4 8:-0.975236 9:-0.225174 10:-0.763552 11:-0.581389 12:-0.381703 13:-0.010042 14:-0.323944 15:-0.2 16:0.2 17:-0.2 18:-0.711736 19:-0.708434 20:-0.455939 21:-0.62238 22:-0.671232 23:-1 24:-1 25:-1 26:-0.444867 
-39.91644818191712 1:0.660967 2:-0.558564 3:-0.363636 4:0.09091 5:-0.333332 6:-0.648115 7:-0.818182 8:-0.983215 9:-0.959858 10:0.791859 11:-0.987223 12:0.419558 13:-0.603528 14:-0.449276 15:-1 16:-0.909091 17:-0.909091 18:-1 19:-0.994758 20:-0.471264 21:-0.714314 22:-0.633802 23:-0.909091 24:-0.909091 25:-0.994766 26:-0.460076 
-128 1:0.0418789 2:-0.163541 3:0.111112 4:0.555556 5:-0.333332 6:-0.356075 7:0.111112 8:-0.708967 9:-0.784027 10:-0.504538 11:-0.8134 12:-0.381703 13:0.111924 14:-0.192982 15:0.111112 16:0.333334 17:-0.111112 18:-0.689738 19:-0.779514 20:-0.563218 21:-0.1879 22:-0.457628 23:-0.777778 24:-0.111112 25:-0.973485 26:-0.551331 
-128 1:0.403878 2:-0.0653225 3:-0.5 4:1 5:4.33334e-006 6:-0.599642 7:0.5 8:-0.947258 9:0.225689 10:-0.868259 11:-0.91303 12:-0.596215 13:0.186318 14:-0.25926 15:-0.5 17:-0.5 18:-0.699726 19:-0.908917 20:-0.586207 21:-0.463766 22:-0.527272 23:-0.75 24:-0.25 25:-0.871888 26:-0.581749 
-128 1:0.152943 2:0.0265979 3:0.2 4:0.6 5:-0.0666684 6:-0.374507 7:-0.2 8:-0.774719 9:-0.672654 10:-0.501143 11:-0.754154 12:-0.362776 13:0.043596 14:-0.304348 15:-0.2 18:-0.553794 19:-0.748806 20:-0.471264 21:-0.04135 22:-0.380282 23:-0.8 25:-0.805173 26:-0.460076 
-9.797266883898958 1:-0.412888 2:-0.541114 3:0.384616 4:0.538462 5:-0.282051 6:-0.449247 7:-0.076924 8:-0.912977 9:-0.857807 10:-0.631488 11:-0.930416 12:0.274448 13:-0.57695 14:-0.592592 15:-0.076924 16:0.076924 17:-0.384616 18:-0.918627 19:-0.913487 20:-0.172414 21:-0.67191 22:-0.70909 23:-0.384616 24:0.076924 25:-0.995556 26:-0.163498 
-128 1:0.451517 2:0.204278 3:-0.25 4:0.25 5:4.33334e-006 6:-0.51077 7:-0.25 8:-0.497352 9:-0.64556 10:-0.215252 11:-0.982503 12:-0.665615 13:-0.806174 14:-0.714286 15:-1 16:-1 17:-1 18:-1 19:-1 20:-0.89272 21:-1 22:-1 23:-1 24:-1 25:-1 26:-0.977186 
-128 1:0.0971239 2:-0.350777 3:-0.5 4:0.5 5:-0.199999 6:-0.611491 7:-0.2 8:-0.970437 9:-0.154204 10:-0.844143 11:-0.852043 12:0.280757 13:-0.468534 14:-0.481482 15:-0.6 16:-0.3 17:-0.6 18:-0.937204 19:-0.924826 20:0.0344828 21:-0.585334 22:-0.635036 23:-0.8 24:-0.5 25:-0.937403 26:0.0418251 
-128 1:0.261972 2:-0.296332 3:-0.375 4:0.625 5:4.33334e-006 6:-0.58483 7:-0.25 8:-0.857691 9:0.0115224 10:-0.838716 11:-0.951052 12:0.0851735 13:0.014476 14:-0.446808 16:0.625 17:-0.125 18:-0.65864 19:-0.675706 20:-0.279693 21:-0.015192 22:-0.494736 23:-0.875 24:0.625 25:-0.965853 26:-0.277567 
-128 1:-0.0369906 2:-0.62786 3:-0.75 4:0.5 5:4.33334e-006 6:-0.732944 7:-0.25 8:-0.97743 9:-0.0763106 10:-0.964004 11:-0.957505 12:0.167192 13:-0.120902 14:-0.333334 15:-0.125 16:0.125 17:-0.5 18:-0.697462 19:-0.84939 20:-0.241379 21:-0.324476 22:-0.62 23:-1 24:-0.375 25:-0.822557 26:-0.239544 
-75.9452402213477 1:0.218312 2:-0.316972 3:0.111112 4:0.777778 5:-0.481481 6:-0.0927595 7:0.777778 8:-0.888372 9:-0.849758 10:-0.388444 11:-0.505476 12:-0.0725552 13:-0.560686 14:-0.549296 15:-0.555556 16:0.333334 17:-0.111112 18:-0.916066 19:-0.847093 20:-0.455939 21:-0.585622 22:-0.611112 23:-0.555556 24:0.333334 25:-0.931078 26:-0.452471 
-48.37504279295925 1:0.297149 2:-0.294024 3:-0.428572 4:0.285714 5:0.142857 6:-0.608105 7:-0.571428 8:-0.761122 9:0.0041532 10:-0.830581 11:-0.99795 12:-0.0914826 13:-0.155764 14:-0.35065 15:-0.285714 17:-0.571428 18:-0.644394 19:-0.876443 20:-0.409962 21:-0.708038 22:-0.670886 23:-0.714286 24:-0.428572 25:-0.863177 26:-0.39924 
-128 1:-0.124022 2:-0.634934 3:0.142858 4:0.857142 5:-0.142856 6:-0.523466 7:-0.142858 8:-0.868656 9:-0.612108 10:-0.622575 11:-0.920321 12:0.438486 13:-0.400116 14:-0.47651 15:-0.142858 16:0.428572 17:-0.428572 18:-0.876635 19:-0.90817 20:0.141762 21:-0.543276 22:-0.613334 23:-0.285714 25:-0.890133 26:0.140684 
-128 1:-0.0697374 2:-0.225718 3:-0.583334 4:0.25 5:-0.305555 6:-0.599642 7:-0.666666 8:-0.922573 9:-0.425401 10:-0.661156 11:-0.972424 12:0.242902 13:-0.376998 14:-0.348484 15:-0.5 16:-0.333334 17:-0.833333 18:-0.815043 19:-0.984722 20:0.0114943 21:-0.464064 22:-0.462686 23:-0.666666 24:-0.333334 25:-0.830403 26:0.0190114 
-128 1:-0.262398 2:-0.438295 3:-0.052632 4:0.368422 5:-0.403508 6:-0.428141 7:-0.052632 8:-0.840298 9:-0.917066 10:-0.566029 11:-0.830806 12:0.62776 13:-0.206862 14:-0.381818 15:-0.263158 16:-0.157894 17:-0.578948 18:-0.726658 19:-0.865131 20:-0.157088 21:-0.304204 22:-0.446428 23:-0.68421 24:-0.368422 25:-0.86198 26:-0.148289 
-9.545799612611349 1:-0.0815805 2:-0.175203 3:-0.4 4:0.6 5:-0.133332 6:-0.4693 8:-0.975118 9:-0.332154 10:-0.810741 11:-0.889492 12:-0.375394 13:-0.562742 14:-0.479452 15:-0.4 16:-0.2 17:-0.6 18:-0.911607 19:-0.989364 20:-0.440613 21:-0.789228 22:-0.733334 23:-0.8 24:-0.6 25:-0.957265 26:-0.429658 
-119.3664400770526 1:0.209294 2:-0.275215 3:-0.222222 4:0.111112 5:4.33334e-006 6:-0.606223 7:-0.666666 8:-0.921733 9:-0.428131 10:-0.354997 11:-0.966129 12:0.141956 13:0.065984 14:-0.261262 15:-0.333334 16:-0.222222 17:-0.555556 18:-0.66309 19:-0.907436 20:-0.149425 21:-0.036396 22:-0.410714 23:-1 24:-0.222222 25:-0.773266 26:-0.148289 
-100.8317048523308 1:0.154402 2:-0.115143 3:-0.454546 4:0.636364 5:0.515152 6:-0.389588 7:-0.272728 8:-0.929901 9:-0.144309 10:-0.710429 11:-0.967842 12:-0.116719 13:-0.059608 14:-0.405406 15:-0.09091 16:0.272728 17:-0.636364 18:-0.71196 19:-0.988549 20:-0.43295 21:-0.103358 22:-0.573334 23:-0.454546 24:-0.09091 25:-0.72 26:-0.429658 
-128 1:-0.0682806 2:-0.341395 3:-0.333334 4:0.555556 5:0.037037 6:-0.685217 7:-0.444444 8:-0.828605 9:-0.506828 10:-0.689581 11:-0.939431 12:0.129338 13:-0.201628 14:-0.46087 15:-0.333334 16:0.111112 17:-0.555556 18:-0.782616 19:-0.76484 20:-0.118774 21:-0.48127 22:-0.692308 23:-0.888889 24:-0.444444 25:-0.881064 26:-0.110266 
-39.98182453505335 1:-0.657158 2:-0.493407 4:1 5:4.33334e-006 6:-0.540395 7:0.25 8:-0.971518 9:-0.898288 10:-0.843308 11:-0.895064 12:-0.312303 13:-0.305602 14:-0.471698 16:0.25 17:-0.5 18:-0.665154 19:-0.950048 20:-0.59387 21:-0.620306 22:-0.563636 23:-0.75 25:-0.982363 26:-0.581749 
-74.14648582790301 1:0.22751 2:-0.555985 3:-0.428572 4:0.571428 5:-0.0952338 6:-0.608105 7:-0.714286 8:-0.949413 9:0.0618624 10:-0.813106 11:-0.986687 12:0.0283912 13:-0.388688 14:-0.360824 15:-0.142858 16:-0.142858 17:-1 18:-0.791828 19:-1 20:-0.256705 21:-0.492008 22:-0.44898 23:-0.285714 24:-0.285714 25:-0.807491 26:-0.254753 
-128 1:0.169832 2:0.313459 3:0.25 4:1 5:0.0833344 6:-0.184918 7:-0.25 8:-0.719563 9:-0.515734 10:-0.526776 11:-0.925285 12:-0.507886 13:0.553734 14:-0.07317 16:0.25 17:-0.25 18:-0.343342 19:-0.529556 20:-0.685824 21:0.311826 22:-0.333334 23:-0.75 24:0.25 25:-0.813905 26:-0.680608 
-128 1:0.366824 2:-0.0854245 3:-0.25 4:0.5 5:0.166664 6:-0.303412 7:0.25 8:-0.890642 9:-0.102169 10:-0.731353 11:-0.792172 12:-0.388013 13:0.076826 14:-0.448276 15:0.25 16:0.5 17:-0.5 18:-0.420098 19:-0.746322 20:-0.555556 21:-0.098224 22:-0.559322 23:-0.5 24:0.25 25:-0.832711 26:-0.551331 
-128 1:-0.0498616 2:-0.226203 3:-0.368422 4:0.263158 5:-0.122802 6:-0.540395 7:-0.157894 8:-0.931249 9:-0.538416 10:-0.613565 11:-0.870195 12:0.26183 13:-0.366408 14:-0.347518 15:-0.789474 16:-0.368422 17:-0.368422 18:-0.983701 19:-0.917706 20:0.0804598 21:-0.526518 22:-0.496504 23:-0.578948 24:-0.473684 25:-0.943361 26:0.0874525 
-52.93890528808075 1:-0.125149 2:-0.467569 3:0.166666 4:0.833334 5:-0.111111 6:-0.342907 8:-0.918044 9:-0.608925 10:-0.744196 11:-0.760602 12:0.249211 13:-0.370216 14:-0.466666 15:-0.333334 16:-0.166666 17:-0.666666 18:-0.905439 19:-0.871933 20:-0.425287 21:-0.40372 22:-0.532468 23:-0.666666 24:-0.166666 25:-0.966518 26:-0.414449 
-128 1:-0.121117 2:-0.0867867 3:-0.836735 4:-0.183674 5:-0.306122 6:-0.767706 7:-0.836735 8:-0.958097 9:-0.404376 10:-0.734109 11:-0.947601 12:0.684543 13:-0.117954 14:-0.24812 15:-0.795918 16:-0.714286 17:-0.918367 18:-0.821315 19:-0.947051 20:0.0191571 21:-0.43773 22:-0.54074 23:-0.877551 24:-0.877551 25:-0.961029 26:0.026616 
-128 1:-0.368436 2:-0.478386 3:-0.76 4:0.2 5:-0.146666 6:-0.75842 7:-0.52 8:-0.981324 9:-0.516417 10:-0.856885 11:-0.959309 12:0.375394 13:-0.250288 14:-0.44 15:-0.36 16:0.04 17:-0.36 18:-0.836715 19:-0.81549 20:0.340996 21:-0.512496 22:-0.611428 23:-0.76 24:-0.28 25:-0.906987 26:0.330798 
-64.81478651924607 1:-0.262778 2:-0.610693 3:-0.878788 4:0.030304 5:-0.353534 6:-0.842011 7:-0.636364 8:-0.98955 9:-0.689927 10:-0.749871 11:-0.757646 12:0.476341 13:-0.198896 14:-0.55 15:-1 16:-1 17:-1 18:-1 19:-1 20:-0.693487 21:-0.45687 22:-0.411764 23:-1 24:-1 25:-1 26:-0.870722 
-87.57717789124938 1:0.452378 2:-0.241871 3:1 4:1 5:-0.238094 6:-0.167992 7:0.428572 8:-0.433467 9:-0.965485 10:-0.51523 11:-0.401319 12:-0.318612 13:-0.673214 14:-0.575758 15:-0.428572 16:-0.428572 17:-0.428572 18:-0.875857 19:-0.886379 20:-0.747126 21:-0.673612 22:-0.588236 23:-1 24:-0.428572 25:-0.989491 26:-0.741445 
-121.4274560235398 1:0.0494624 2:-0.0149037 3:0.142858 4:0.714286 5:-0.714286 6:0.00128161 7:0.714286 8:-0.703841 9:-0.975922 10:-0.347195 11:-0.762171 12:-0.470032 13:0.630334 14:0.1 15:0.142858 16:1 17:0.428572 18:-0.256622 19:-0.159086 20:-0.846743 21:0.88666 22:0.125 23:-0.428572 24:0.714286 25:-0.651136 26:-0.878327 
-128 1:0.161581 2:-0.424754 3:-0.6 4:0.6 5:0.0666684 6:-0.777379 7:0.2 8:-0.99308 9:-0.241217 10:-0.897521 11:-0.615694 12:-0.425868 13:-0.417942 14:-0.491526 15:-0.6 16:-0.4 17:-0.8 18:-0.914959 19:-0.964745 20:-0.547893 21:-0.531208 22:-0.639344 23:-0.8 24:-0.4 25:-0.950275 26:-0.536122 
-128 1:-0.199578 2:-0.311773 3:0.166666 4:0.5 5:-0.277777 6:-0.342907 7:0.166666 8:-0.855797 9:-0.675483 10:-0.657062 11:-0.913645 12:0.0410095 13:-0.41879 14:-0.375 15:-0.333334 16:-0.166666 17:-0.333334 18:-0.854224 19:-0.862918 20:-0.509579 21:-0.452856 22:-0.424242 23:-1 24:-0.166666 25:-0.991314 26:-0.498099 
-128 1:-0.140059 2:-0.403965 3:-0.68 4:0.44 5:0.0666684 6:-0.824775 7:-0.68 8:-0.885236 9:-0.594895 10:-0.653101 11:-0.911312 12:0.280757 13:-0.432362 14:-0.448276 15:-0.92 16:-0.76 17:-0.84 18:-0.986143 19:-0.990213 20:-0.111111 21:-0.621342 22:-0.61017 23:-0.76 24:-0.76 25:-0.989587 26:-0.102662 
-128 1:0.040535 2:-0.255295 3:-0.294118 4:0.294118 5:0.0588251 6:-0.637976 7:-0.294118 8:-0.656624 9:-0.428669 10:-0.779973 11:-0.964778 12:0.0851735 13:-0.526566 14:-0.582418 15:-0.529412 16:-0.17647 17:-0.411764 18:-0.925134 19:-0.820097 20:-0.302682 21:-0.627292 22:-0.655914 23:-0.882353 24:-0.294118 25:-0.973844 26:-0.292776 
-128 1:0.139204 2:-0.338626 3:0.272728 4:0.818182 5:0.272727 6:-0.217236 7:0.272728 8:-0.79368 9:-0.73351 10:-0.621459 11:-0.568666 12:0.287066 13:-0.19362 14:-0.236364 15:-0.09091 16:0.09091 17:-0.636364 18:-0.897268 19:-0.877104 20:-0.578544 21:-0.35899 22:-0.321428 23:-0.454546 24:0.09091 25:-0.979848 26:-0.574144 
-21.27951976649461 1:-0.195368 2:-0.660125 3:-0.52381 4:0.142858 5:-0.428571 6:-0.61939 7:-0.238096 8:-0.928249 9:-0.839144 10:-0.53907 11:-0.788399 12:0.615142 13:-0.066986 14:-0.105264 15:-0.809524 16:-0.52381 17:-0.714286 18:-0.96374 19:-0.667736 20:-0.708812 21:-0.612636 22:-0.354838 23:-1 24:-0.619048 25:-0.738854 26:-0.764259 
-128 1:-0.35341 2:-0.481086 4:0.714286 5:4.33334e-006 6:-0.489612 7:0.142858 8:-0.922116 9:-0.830588 10:-0.709907 11:-0.807793 12:0.356467 13:-0.31805 14:-0.526316 15:-0.285714 16:0.428572 17:-0.285714 18:-0.831189 19:-0.68816 20:-0.126437 21:-0.339732 22:-0.565218 23:-1 24:0.428572 25:-0.857016 26:-0.125475 
-128 1:0.403633 2:-0.269225 3:-0.2 4:0.466666 5:0.0222257 6:-0.571992 7:-0.2 8:-0.590296 9:-0.167036 10:-0.748066 11:-0.931966 12:0.0410095 13:-0.467816 14:-0.61062 15:-0.466666 16:-0.2 17:-0.6 18:-0.940801 19:-0.84666 20:-0.1341 21:-0.657474 22:-0.756522 23:-0.733334 24:-0.2 25:-0.975084 26:-0.125475 
-128 1:0.304537 2:-0.190135 3:-0.272728 4:0.818182 5:0.0909091 6:-0.561939 7:-0.454546 8:-0.880248 9:-0.0057927 10:-0.762345 11:-0.94153 12:-0.33123 13:-0.09005 14:-0.345454 15:-0.636364 16:-0.454546 17:-0.818182 18:-0.734916 19:-0.864639 20:-0.578544 21:-0.21161 22:-0.473684 23:-1 24:-0.636364 25:-0.935128 26:-0.56654 
-128 1:0.0781447 2:-0.313778 4:0.222222 5:-0.296295 6:-0.27708 7:-0.111112 8:-0.681547 9:-0.859939 10:-0.461002 11:-0.760347 12:0.652997 13:-0.241784 14:-0.492064 15:-0.333334 16:-0.111112 17:-0.333334 18:-0.7703 19:-0.766612 20:-0.0344828 21:-0.3871 22:-0.640624 23:-0.888889 24:-0.222222 25:-0.9554 26:-0.026616 
-128 1:0.137224 2:-0.401519 4:0.571428 5:-0.0952338 6:-0.252628 8:-0.80459 9:-0.771229 10:-0.413103 11:-0.72787 12:0.488959 13:-0.176624 14:-0.25 15:-0.142858 16:0.285714 17:0.142858 18:-0.871161 19:-0.800287 20:-0.0804598 21:-0.284982 22:-0.37705 23:-0.714286 24:0.285714 25:-0.929164 26:-0.0722433 
-128 1:-0.137767 2:-0.103615 4:0.833334 5:0.0555577 6:-0.500897 8:-0.824766 9:-0.641365 10:-0.635174 11:-0.930801 12:-0.192429 13:0.087702 14:-0.333334 15:0.166666 16:0.666666 17:-0.166666 18:-0.691446 19:-0.71799 20:-0.402299 21:-0.247342 22:-0.56962 23:-0.5 24:0.166666 25:-0.846575 26:-0.39924 
-128 1:0.0428802 2:-0.254968 3:-0.285714 4:0.428572 5:4.33334e-006 6:-0.489612 7:-0.142858 8:-0.793856 9:-0.727597 10:-0.530581 11:-0.771182 12:0.0283912 13:-0.09257 14:-0.425742 15:-0.285714 16:0.285714 17:-0.142858 18:-0.72967 19:-0.68942 20:-0.226054 21:0.253334 22:0.2 23:-0.714286 24:-0.428572 25:-0.385518 26:-0.923954 
-71.00738723065767 1:0.0473922 2:-0.41445 3:-0.8 4:1 5:0.200005 6:-0.801077 7:0.2 8:-0.9996 9:-0.387233 10:-0.922054 11:-0.556742 12:-0.432177 13:-0.290368 14:-0.366666 15:-0.8 16:-0.4 17:-0.6 18:-0.971235 19:-0.865558 20:-0.54023 21:-0.355566 22:-0.48387 23:-0.8 24:-0.8 25:-0.884604 26:-0.528517 
-128 1:0.0151398 2:-0.561559 3:-0.263158 4:0.263158 5:-0.298245 6:-0.577815 7:-0.157894 8:-0.946931 9:-0.517177 10:-0.493176 11:-0.926546 12:0.545741 13:-0.423092 14:-0.488722 15:-0.157894 16:0.157894 17:-0.368422 18:-0.796956 19:-0.894206 20:0.0191571 21:-0.480732 22:-0.57037 23:-0.578948 24:0.052632 25:-0.885771 26:0.026616 
-118.7410248596676 1:0.152227 2:-0.487619 3:-0.428572 4:0.619048 5:-0.206348 6:-0.66453 7:-0.428572 8:-0.969825 9:-0.730353 10:-0.887982 11:-0.137424 12:0.388013 13:-0.501564 14:-0.550562 15:-0.52381 16:-0.04762 17:-0.428572 18:-0.930631 19:-0.851764 20:0.363985 21:-0.55032 22:-0.633334 23:-1 24:-0.04762 25:-0.921555 26:0.368821 
-128 1:-0.318232 2:-0.362136 3:0.125 4:0.5 5:-0.166665 6:-0.39228 8:-0.914177 9:-0.754732 10:-0.669057 11:-0.89696 12:0.457413 13:-0.665528 14:-0.612904 15:-0.5 16:-0.375 17:-0.75 18:-0.981967 19:-0.969588 20:-0.287356 21:-0.666716 22:-0.642106 23:-0.75 24:-0.375 25:-0.98763 26:-0.277567 
-31.16186201233439 1:-0.0640765 2:-0.349629 3:-0.375 4:0.375 5:-0.0833344 6:-0.436714 7:-0.25 8:-0.978717 9:-0.562605 10:-0.581658 11:-0.849877 12:0.299685 13:-0.20359 14:-0.516484 15:-0.25 16:0.125 17:-0.5 18:-0.70317 19:-0.847638 20:-0.302682 21:-0.381938 22:-0.569892 23:-0.75 24:0.125 25:-0.855635 26:-0.292776 
-128 1:0.211139 2:-0.444431 4:0.714286 5:-0.142856 6:-0.658886 7:-0.571428 8:-0.783655 9:-0.00999179 10:-0.894536 11:-0.994463 12:-0.0851735 13:-0.23196 14:-0.49367 15:-0.285714 17:-0.714286 18:-0.5003 19:-0.983533 20:-0.394636 21:-0.28435 22:-0.604938 23:-0.428572 24:-0.142858 25:-0.515982 26:-0.38403 
-18.48485133428602 1:0.430092 2:-0.383834 3:-0.733334 4:0.466666 5:-0.155555 6:-0.682586 7:-0.333334 8:-0.872498 9:-0.797872 10:-0.430515 11:-0.29918 12:-0.179811 13:-0.370482 14:-0.468354 15:-0.733334 16:-0.6 17:-0.733334 18:-0.993018 19:-0.968821 20:-0.394636 21:-0.660074 22:-0.703704 23:-0.733334 24:-0.733334 25:-0.968854 26:-0.38403 
-128 1:-0.0322078 2:-0.427604 3:-0.285714 4:0.428572 5:-0.285713 6:-0.625031 8:-0.908007 9:-0.760867 10:-0.6597 11:-0.589662 12:-0.0788644 13:-0.674278 14:-0.666666 15:-0.571428 16:-0.571428 17:-0.857143 18:-0.933511 19:-0.992139 20:-0.264368 21:-0.739602 22:-0.714286 23:-0.714286 24:-0.571428 25:-0.94142 26:-0.254753 
-128 1:0.492532 2:-0.409123 3:-0.25 4:0.25 5:-0.166665 6:-0.718133 7:-0.625 8:-0.952259 9:0.348833 10:-0.842295 11:-0.967125 12:-0.116719 13:-0.404792 14:-0.469388 15:-0.375 16:-0.125 17:-0.625 18:-0.673418 19:-0.958577 20:-0.249042 21:-0.622806 22:-0.74 23:-0.75 24:-0.25 25:-0.741572 26:-0.239544 
-128 1:-0.315891 2:-0.61583 3:-0.652174 4:0.130434 5:-0.333332 6:-0.715557 7:-0.73913 8:-0.983362 9:-0.399203 10:-0.895458 11:-0.985559 12:0.356467 13:-0.466856 14:-0.571428 15:-1 16:-1 17:-1 18:-1 19:-1 20:-0.89272 21:-0.901375 22:-0.777778 23:-1 24:-1 25:-1 26:-0.931559 
-128 1:-0.332634 2:-0.410578 3:-0.111112 4:0.777778 5:0.185185 6:-0.672053 7:-0.555556 8:-0.876262 9:-0.646589 10:-0.745732 11:-0.985007 12:-0.413249 13:0.0224 14:-0.363636 15:0.333334 16:0.333334 17:-0.777778 18:-0.676206 19:-0.942598 20:-0.494253 21:-0.059292 22:-0.462686 23:-0.111112 24:0.111112 25:-0.73391 26:-0.490494 
-64.55107706962679 1:0.034911 2:0.183627 3:-0.8 4:-0.233334 5:-0.377777 6:-0.828725 7:-0.7 8:-0.980349 9:-0.610114 10:-0.314083 11:-0.954264 12:0.520505 13:-0.33991 14:-0.358974 15:-0.8 16:-0.6 17:-0.766666 18:-0.9175 19:-0.946793 20:0.793103 21:-0.594284 22:-0.584746 23:-0.966667 24:-0.733334 25:-0.989265 26:0.794677 
-128 1:-0.14668 2:-0.0696477 3:-0.555556 4:0.555556 5:0.259259 6:-0.593058 7:0.111112 8:-0.990177 9:-0.644663 10:-0.560349 11:-0.864992 12:-0.495268 13:-0.205408 14:-0.517242 15:-0.333334 16:-0.111112 17:-0.555556 18:-0.797916 19:-0.804845 20:-0.555556 21:-0.216376 22:-0.6 23:-0.777778 24:-0.111112 25:-0.993081 26:-0.543726 
-128 1:-0.225476 2:-0.215669 3:-0.555556 4:1 5:-0.111111 6:-0.461401 7:0.111112 8:-0.98457 9:-0.491067 10:-0.788149 11:-0.893784 12:-0.425868 13:-0.164332 14:-0.39726 15:-0.333334 16:0.111112 17:-0.111112 18:-0.778674 19:-0.901174 20:-0.440613 21:-0.195406 22:-0.466666 23:-1 24:0.111112 25:-0.857086 26:-0.429658 
-75.87418679197667 1:-0.445976 2:-0.377625 3:-0.25 4:0.75 5:0.416672 6:-0.68851 7:-0.75 8:-0.969503 9:-0.603729 10:-0.831752 11:-0.987659 12:-0.495268 13:0.328696 14:-0.118644 17:-1 18:-0.51144 19:-1 20:-0.547893 21:0.071448 22:-0.442622 25:-0.511928 26:-0.536122 
-128 1:0.253802 2:-0.269455 4:0.857142 5:-0.0952338 6:-0.472686 7:-0.571428 8:-0.970081 9:-0.00958405 10:-0.718729 11:-0.957254 12:0.00315457 13:-0.18832 14:-0.425288 15:-0.571428 17:-0.428572 18:-0.842318 19:-0.791938 20:-0.333333 21:-0.389546 22:-0.64045 23:-0.857143 25:-0.949649 26:-0.323194 
-77.50612926425573 1:0.192974 2:-0.410412 3:-0.09091 4:0.818182 5:-0.151514 6:-0.260324 7:0.454546 8:-0.506499 9:-0.905328 10:-0.290631 11:-0.909428 12:0.160883 13:-0.153472 14:-0.538462 15:-0.636364 16:-0.272728 17:-0.636364 18:-0.728892 19:-0.926284 20:-0.601533 21:0.974386 22:0.5 23:-1 24:-0.636364 25:-0.4115 26:-0.969582 
-128 1:0.0025909 2:-0.448478 3:-0.538462 4:0.307692 5:-0.307691 6:-0.631544 7:-0.538462 8:-0.918274 9:-0.507378 10:-0.671225 11:-0.799533 12:0.621451 13:-0.17987 14:-0.497436 15:-0.461538 17:-0.538462 18:-0.825674 19:-0.873677 20:0.494253 21:-0.343924 22:-0.612244 23:-0.846154 24:-0.076924 25:-0.940848 26:0.490494 
-27.6646066574996 1:-0.358199 2:0.68718 3:0.333334 4:1 5:-0.333332 6:0.328545 7:1 8:-0.967196 9:-0.972685 10:-0.463109 11:-0.86732 12:-0.880126 13:0.607894 14:0.75 15:1 16:1 17:-0.333334 18:-0.699146 19:-0.960288 20:-0.938697 21:0.773416 22:0.428572 23:0.333334 24:0.333334 25:-0.910708 26:-0.946768 
-118.902612327288 1:-0.0960108 2:-0.295819 3:-0.571428 4:0.142858 5:0.0714264 6:-0.73506 7:-0.5 8:-0.873248 9:-0.523321 10:-0.661818 11:-0.94057 12:0.608833 13:-0.348676 14:-0.511312 15:-0.428572 16:-0.214286 17:-0.714286 18:-0.850461 19:-0.950268 20:0.693487 21:-0.653284 22:-0.747748 23:-0.785714 24:-0.428572 25:-0.918783 26:0.688213 
-128 1:0.733033 2:-0.391692 3:-0.384616 4:0.538462 5:-0.230768 6:-0.540395 7:-0.692308 8:-0.828389 9:0.399075 10:-0.723478 11:-0.982545 12:-0.173502 13:-0.28701 14:-0.612904 15:-0.846154 16:-0.846154 17:-0.846154 18:-0.931706 19:-0.990039 20:-0.524904 21:-0.525222 22:-0.68254 23:-0.846154 24:-0.846154 25:-0.990044 26:-0.520913 
-128 1:-0.100771 2:-0.207136 3:-0.416666 4:0.333334 5:-0.0555577 6:-0.639138 7:-0.5 8:-0.958555 9:-0.481938 10:-0.653637 11:-0.922333 12:0.388013 13:-0.419658 14:-0.505376 15:-0.583334 16:-0.416666 17:-0.5 18:-0.902462 19:-0.901482 20:0.425287 21:-0.577648 22:-0.659574 23:-0.833333 24:-0.5 25:-0.976676 26:0.429658 
-9.077543351371897 1:0.477771 2:-0.282245 3:0.5 4:0.5 5:-1 6:-0.066428 7:0.5 8:-0.879897 9:-1 10:-0.445861 11:-0.0104969 12:-0.735016 13:1 14:1 15:1 16:1 18:0.433176 19:-0.624966 20:-0.931034 21:0.943566 22:0.75 24:0.5 25:0.02624 26:-0.939163 
-128 1:0.125554 2:-0.155327 3:-0.333334 4:0.333334 5:0.155554 6:-0.61939 7:-0.6 8:-0.876231 9:-0.0916105 10:-0.834547 11:-0.979923 12:-0.123028 13:-0.323056 14:-0.38 15:-0.6 16:-0.466666 17:-0.866667 18:-0.956487 19:-0.954216 20:-0.233716 21:-0.535546 22:-0.60396 23:-0.6 24:-0.6 25:-0.956502 26:-0.231939 
-55.78172142085273 1:0.142313 2:-0.387472 3:-0.2 4:0.8 5:0.0666684 6:-0.137523 7:0.6 8:-0.931157 9:-0.488718 10:-0.45878 11:-0.864502 12:0.198738 13:-0.135928 14:-0.538462 15:-0.2 17:-0.6 18:-0.815781 19:-0.801396 20:-0.601533 21:-0.136662 22:-0.555556 23:-0.6 25:-0.985627 26:-0.589354 
-128 1:-0.190298 2:-0.362229 3:-0.285714 4:0.714286 5:-0.238094 6:-0.57425 8:-0.731161 9:-0.893753 10:-0.58428 11:-0.854452 12:-0.0536278 13:-0.333276 14:-0.466666 15:-0.428572 17:-0.428572 18:-0.901149 19:-0.869511 20:-0.195402 21:-0.417976 22:-0.570094 23:-1 25:-0.968385 26:-0.186312 
-83.49433557245598 1:-0.134238 2:-0.436505 4:0.5 5:-0.374999 6:-0.362658 7:-0.125 8:-0.943542 9:-0.425518 10:-0.7535 11:-0.933306 12:0.451104 13:-0.323442 14:-0.375 15:-0.5 16:0.125 17:-0.375 18:-0.858837 19:-0.887894 20:-0.141762 21:-0.417472 22:-0.486726 23:-0.875 24:0.125 25:-0.970951 26:-0.140684 
-21.13277938339786 1:0.272018 2:-0.0457621 3:0.4 4:0.4 5:-0.666667 6:-0.137523 7:-0.2 8:-0.446436 9:-0.981891 10:-0.134282 11:-0.949274 12:-0.293375 13:0.39263 14:-0.023256 17:-1 18:-0.427384 19:-1 20:-0.670498 21:0.889524 22:0.238096 25:0.086646 26:-0.840304 
-69.73112342065646 1:-0.197785 2:-0.62286 3:-0.333334 4:0.333334 5:-0.51111 6:-0.398205 7:-0.066666 8:-0.978978 9:-0.855238 10:-0.366017 11:-0.900764 12:0.444795 13:-0.00123 14:-0.296704 15:-0.066666 16:-0.066666 17:-0.866667 18:-0.635564 19:-0.974875 20:-0.302682 21:-0.236588 22:-0.505376 23:-0.733334 24:-0.466666 25:-0.749168 26:-0.292776 
-128 1:-0.273271 2:-0.303321 3:-0.692308 4:0.692308 5:-0.0256404 6:-0.230492 7:0.538462 8:-0.992397 9:-0.712224 10:-0.608892 11:-0.882896 12:0.287066 13:-0.30827 14:-0.266666 15:-0.846154 16:0.23077 17:0.23077 18:-0.994949 19:-0.804368 20:-0.310345 21:-0.432836 22:-0.369566 23:0.076924 24:0.23077 25:-0.809572 26:-0.30038 
-21.45755920251305 1:-0.236266 2:-0.276469 3:0.2 4:0.8 5:-0.199999 6:-0.113823 7:0.2 8:-0.926163 9:-0.838172 10:-0.516941 11:-0.858343 12:0.0283912 13:-0.045206 14:-0.111112 15:-0.6 16:-0.6 17:-0.8 18:-0.953971 19:-0.784596 20:-0.586207 21:0.204632 22:-0.111112 23:-1 24:-1 25:-1 26:-0.931559 
-4.591317378098215 1:0.0867397 2:-0.186678 3:-0.636364 4:0.454546 5:-0.151514 6:-0.540395 7:0.09091 8:-0.56533 9:-0.756999 10:-0.515328 11:-0.908961 12:-0.369085 13:-0.28693 14:-0.52 15:-0.636364 16:-0.454546 17:-0.636364 18:-0.899461 19:-0.884283 20:-0.425287 21:-0.723376 22:-0.766234 23:-1 24:-0.818182 25:-0.962097 26:-0.414449 
-128 1:-0.0793604 2:-0.344152 3:-0.619048 4:0.52381 5:-0.26984 6:-0.59682 7:-0.238096 8:-0.996609 9:-0.570988 10:-0.612961 11:-0.810967 12:0.293375 13:-0.31614 14:-0.328358 15:-0.714286 16:-0.142858 17:-0.428572 18:-0.984105 19:-0.902437 20:0.0268199 21:-0.574934 22:-0.525926 23:-0.714286 24:-0.333334 25:-0.925133 26:0.026616 
-28.12786511258716 1:0.161393 2:-0.473709 3:-0.4 4:0.4 5:-0.466666 6:-0.564093 7:-0.2 8:-0.927029 9:0.00790826 10:-0.882761 11:-0.953135 12:-0.394322 13:-0.41903 14:-0.532468 17:-1 18:-0.737206 19:-1 20:-0.409962 21:-0.54582 22:-0.594936 23:-0.2 24:-0.2 25:-0.805643 26:-0.39924 
-31.39632930650048 1:-0.0482406 2:-0.447402 4:0.571428 5:0.0952424 6:-0.489612 7:0.142858 8:-0.919093 9:-0.768602 10:-0.452753 11:-0.794608 12:0.356467 13:-0.259034 14:-0.5 15:-0.428572 16:0.142858 17:-0.428572 18:-0.790266 19:-0.738982 20:-0.478927 21:-0.266968 22:-0.542858 23:-1 24:0.142858 25:-0.948764 26:-0.467681 
-128 1:0.0691413 2:-0.0783951 3:-0.166666 4:0.833334 5:0.111111 6:-0.599642 7:-0.333334 8:-0.878202 9:-0.257002 10:-0.745168 11:-0.953701 12:-0.324921 13:-0.357572 14:-0.536232 15:-0.833333 16:-0.5 17:-0.5 18:-0.719144 19:-0.890409 20:-0.471264 21:-0.853293 22:-0.802817 23:-0.833333 24:-0.833333 25:-0.986205 26:-0.460076 
-128 1:0.198032 2:-0.157481 3:-0.375 4:0.625 5:0.291664 6:-0.495961 7:-0.625 8:-0.939947 9:0.107354 10:-0.891428 11:-0.99813 12:0.141956 13:-0.41391 14:-0.509434 15:-0.625 16:-0.375 17:-0.75 18:-0.891207 19:-0.983693 20:-0.187739 21:-0.540236 22:-0.700934 23:-0.875 24:-0.625 25:-0.907323 26:-0.186312 
-87.09041756525488 1:0.40958 2:-0.324806 3:-0.2 4:0.6 5:0.0666684 6:-0.611491 7:-0.2 8:-0.829909 9:0.0982667 10:-0.764332 11:-0.978551 12:-0.343849 13:-0.108556 14:-0.213114 15:-0.4 16:0.4 18:-0.67646 19:-0.875614 20:-0.532567 21:-0.269616 22:-0.428572 23:-0.8 24:0.2 25:-0.720304 26:-0.520913 
-101.3767223143347 1:-0.178276 2:-0.215669 3:-0.5 4:0.25 5:-0.333332 6:-0.570017 7:0.25 8:-0.955283 9:-0.82534 10:-0.731054 11:-0.569834 12:-0.608833 13:-0.046264 14:-0.512196 15:-0.25 16:-0.25 17:-0.5 18:-0.5526 19:-0.723824 20:-0.685824 21:-0.516854 22:-0.72093 23:-0.5 24:-0.5 25:-0.724204 26:-0.673004 
-128 1:-0.00800669 2:-0.155505 3:-0.5 4:0.666666 5:0.222227 6:-0.639138 8:-0.992328 9:-0.428396 10:-0.678899 11:-0.82183 12:-0.280757 13:-0.098312 14:-0.45 16:0.5 17:-0.333334 18:-0.600908 19:-0.756294 20:-0.386973 21:-0.2907 22:-0.560976 23:-0.833333 24:0.166666 25:-0.989268 26:-0.376426 
-128 1:-0.089958 2:-0.311212 3:-0.111112 4:0.555556 5:4.33334e-006 6:-0.316576 8:-0.788457 9:-0.770583 10:-0.636105 11:-0.772257 12:0.747634 13:-0.354302 14:-0.415384 15:-0.222222 17:-0.555556 18:-0.856368 19:-0.959528 20:-0.00383142 21:-0.449098 22:-0.480916 23:-0.666666 25:-0.896866 26:-0.00380228 
