svm_type c_svc
kernel_type rbf
gamma 0.125
nr_class 2
total_sv 383
rho 0.276328
label 1 -1
nr_sv 189 194
SV
2 1:0.0262362 2:-0.269813 3:-0.307692 4:0.356644 5:-0.1582 6:-0.619295 7:-0.615384 8:-0.929537 9:-0.395676 10:-0.692299 11:-0.878817 12:0.676012 13:-0.198842 14:-0.394286 15:-0.153846 16:0.153846 17:-0.258241 18:-0.681222 19:-0.678259 20:0.434426 21:-0.355296 22:-0.536724 23:-0.923077 24:0.153846 25:-0.926084 26:0.439024 
2 1:0.0757234 2:0.0430409 3:0.142858 4:0.850648 5:-0.0296489 6:0.127522 7:0.571428 8:-0.761691 9:-0.846807 10:-0.45984 11:-0.760235 12:0.52648 13:-0.263534 14:-0.39394 16:0.571428 17:-0.234693 18:-0.698894 19:-0.715197 20:-0.459016 21:-0.276288 22:-0.470588 23:-0.857143 24:0.428572 25:-0.89212 26:-0.447154 
2 1:-0.152235 2:-0.182118 4:0.738636 5:0.0377344 6:-0.331921 7:0.5 8:-0.868464 9:-0.70697 10:-0.722047 11:-0.761914 12:0.538941 13:-0.507058 14:-0.489796 15:-0.5 16:-0.375 17:-0.598214 18:-0.875978 19:-0.910669 20:-0.196721 21:-0.58659 22:-0.58 23:-0.875 24:-0.375 25:-0.933146 26:-0.186992 
2 1:-0.0117514 2:-0.322951 3:0.125 4:0.607955 5:-0.386792 6:-0.364409 7:0.375 8:-0.924624 9:-0.725359 10:-0.615226 11:-0.640975 12:0.501558 13:-0.414076 14:-0.44186 15:-0.625 16:-0.375 17:-0.732143 18:-0.876083 19:-0.978922 20:-0.295082 21:-0.464054 22:-0.5 23:-0.875 24:-0.375 25:-0.889642 26:-0.284553 
2 1:0.549679 2:0.415371 4:0.790909 5:-0.0188672 6:-0.247458 7:0.2 8:-0.817184 9:-0.287167 10:-0.382136 11:-0.887227 12:-0.395639 13:0.320206 14:-0.066666 16:0.4 17:-0.571428 18:-0.500624 19:-0.534805 20:-0.631148 21:1 22:1 23:-0.6 24:-0.6 25:0.237386 26:-0.96748 
2 1:-0.198423 2:-0.396067 4:0.738636 5:-0.292452 6:-0.510594 7:0.375 8:-0.901654 9:-0.669233 10:-0.765483 11:-0.770748 12:0.426791 13:-0.38029 14:-0.595506 15:-0.375 16:-0.125 17:-0.598214 18:-0.809737 19:-0.831693 20:-0.270492 21:-0.419248 22:-0.626374 23:-0.75 24:-0.125 25:-0.917423 26:-0.260163 
2 1:-0.16501 2:-0.256239 3:0.466666 4:0.581818 5:-0.496854 6:-0.126179 7:0.2 8:-0.934911 9:-0.702534 10:-0.583191 11:-0.861282 12:0.576324 13:-0.226192 14:-0.291666 15:-0.6 16:-0.2 17:-0.428571 18:-0.978429 19:-0.743454 20:-0.213115 21:-0.365104 22:-0.44898 23:-0.733334 24:-0.333334 25:-0.842817 26:-0.203252 
0.9670378599538716 1:-0.281551 2:-0.220087 3:0.066666 4:0.721213 5:0.00628906 6:-0.334087 7:0.466666 8:-0.954478 9:-0.823711 10:-0.58789 11:-0.827637 12:0.470405 13:-0.481528 14:-0.435114 15:-0.333334 16:0.733334 17:0.428573 18:-0.919544 19:-0.828476 20:0.0737705 21:-0.551134 22:-0.518796 23:-0.333334 24:0.733334 25:-0.970793 26:0.0813008 
2 1:0.577027 2:0.0306839 3:-0.47826 4:0.545455 5:0.0172287 6:-0.389832 7:-0.391304 8:-0.954522 9:-0.686541 10:0.284011 11:-0.993436 12:0.588785 13:-0.482694 14:-0.525424 15:-0.652174 16:-0.391304 17:-0.720496 18:-0.883086 19:-0.896653 20:0.45082 21:-0.584128 22:-0.642458 23:-0.826087 24:-0.47826 25:-0.933037 26:0.455285 
2 1:-0.327303 2:-0.439157 4:0.607955 5:-0.245282 6:-0.461866 7:0.375 8:-0.919911 9:-0.719693 10:-0.768618 11:-0.833606 12:0.582555 13:-0.033034 14:-0.404762 15:0.125 16:0.625 17:-0.330357 18:-0.564148 19:-0.441414 20:-0.311475 21:-0.04556 22:-0.44186 23:-0.5 24:0.625 25:-0.921401 26:-0.300813 
0.715298912242658 1:0.108635 2:-0.0219679 3:-0.076924 4:0.195805 5:0.0740167 6:-0.549326 7:-0.307692 8:-0.788938 9:-0.6392 10:-0.532198 11:-0.846761 12:0.750779 13:-0.118632 14:-0.20442 15:-0.23077 17:-0.587911 18:-0.866812 19:-0.905887 20:0.483607 21:-0.269794 22:-0.373626 23:-0.76923 24:-0.153846 25:-0.942141 26:0.479675 
2 1:-0.204698 2:-0.182825 3:0.125 4:0.607955 5:-0.198112 6:-0.266948 7:0.125 8:-0.908569 9:-0.724749 10:-0.711612 11:-0.767305 12:0.482866 13:-0.016864 14:-0.360824 15:0.25 16:0.5 17:0.205358 18:-0.511096 19:-0.562964 20:-0.204918 21:-0.048234 22:-0.454546 23:-0.875 24:0.5 25:-0.790722 26:-0.195122 
2 1:-0.14751 2:-0.301212 3:0.428572 4:0.850648 5:-0.137466 6:-0.336563 7:0.428572 8:-0.768205 9:-0.81025 10:-0.633625 11:-0.84983 12:0.451713 13:-0.420024 14:-0.608696 15:-0.714286 16:-0.571428 17:-0.540816 18:-0.97578 19:-0.80553 20:-0.245902 21:-0.735412 22:-0.74468 23:-0.714286 24:-0.571428 25:-0.885818 26:-0.235772 
2 1:-0.268525 2:-0.125535 3:0.333334 4:0.860605 5:-0.0943389 6:-0.212807 7:0.6 8:-0.911923 9:-0.811404 10:-0.656932 11:-0.797707 12:0.507788 13:-0.456692 14:-0.538462 15:-0.6 16:-0.066666 17:-0.285715 18:-0.932603 19:-0.719115 20:-0.147541 21:-0.533724 22:-0.622642 23:-0.733334 24:-0.066666 25:-0.887851 26:-0.138211 
2 1:0.311769 2:-0.0379616 3:0.25 4:0.477273 5:-0.386792 6:-0.120763 7:0.25 8:-0.861073 9:-0.855903 10:-0.42284 11:-0.418001 12:0.445483 13:-0.221386 14:-0.404762 15:-0.125 16:0.25 17:-0.330357 18:-0.650202 19:-0.770251 20:-0.311475 21:-0.257302 22:-0.44186 23:-0.75 24:0.25 25:-0.79725 26:-0.300813 
2 1:-0.293131 2:-0.172388 3:0.066666 4:0.721213 5:-0.194968 6:-0.178154 7:0.2 8:-0.909329 9:-0.713528 10:-0.726979 11:-0.860445 12:0.470405 13:-0.050978 14:-0.356322 15:0.466666 16:0.866666 17:1.07143e-006 18:-0.546082 19:-0.470133 20:-0.286885 21:-0.14312 22:-0.41573 23:-0.466666 24:0.866666 25:-0.884979 26:-0.276423 
2 1:0.228709 2:-0.0799645 3:0.333334 4:0.721213 5:-0.0440244 6:-0.0222213 7:0.333334 8:-0.707144 9:-0.709232 10:-0.466859 11:-0.797644 12:0.632399 13:-0.429902 14:-0.5 15:-0.733334 16:0.066666 17:-0.142857 18:-0.93812 19:-0.598514 20:-0.311475 21:-0.43405 22:-0.534884 23:-0.466666 24:0.066666 25:-0.805292 26:-0.300813 
2 1:0.410529 2:0.028273 3:0.25 4:1 5:0.886797 6:-0.461866 7:0.25 8:-0.883466 9:-0.604775 10:-0.556068 11:-0.418137 12:-0.327103 13:0.325204 14:-0.163636 15:0.5 16:0.5 17:0.071429 18:-0.343058 19:-0.512736 20:-0.54918 21:0.089452 22:-0.285714 23:-0.75 24:0.25 25:-0.74065 26:-0.544715 
2 1:-0.481436 2:-0.217484 3:0.428572 4:0.850648 5:-0.460916 6:-0.0395497 7:0.428572 8:-0.945979 9:-0.978796 10:-0.660678 11:-0.804243 12:0.545171 13:0.031178 14:-0.373494 15:0.285714 16:0.428572 17:-0.234693 18:-0.424164 19:-0.61238 20:-0.319672 21:0.013534 22:-0.411764 23:-0.428572 24:0.428572 25:-0.672246 26:-0.308943 
2 1:0.398215 2:0.104368 3:0.142858 4:0.850648 5:0.185984 6:0.0903952 7:0.571428 8:-0.904608 9:-0.55539 10:-0.404152 11:-0.632378 12:0.495327 13:-0.341394 14:-0.45946 16:0.285714 17:-0.540816 18:-0.645374 19:-0.930391 20:-0.393443 21:-0.373358 22:-0.552632 23:-0.428572 24:0.285714 25:-0.690146 26:-0.382114 
2 1:0.24344 2:-0.00418844 3:0.333334 4:0.721213 5:-0.0440244 6:-0.160829 7:0.066666 8:-0.693793 9:-0.736107 10:-0.478307 11:-0.753141 12:0.376947 13:0.211216 14:-0.096774 15:-0.066666 16:0.333334 17:-0.285715 18:-0.70051 19:-0.790686 20:-0.237705 21:0.04158 22:-0.263158 23:-1 24:0.2 25:-0.896153 26:-0.227642 
2 1:-0.323678 2:-0.0936822 3:-0.130434 4:0.818181 5:-0.0483993 6:-0.694917 7:-0.043478 8:-0.962578 9:-0.599124 10:-0.785966 11:-0.898635 12:0.364486 13:-0.65799 14:-0.550562 15:-0.913043 16:-0.826087 17:-0.813665 18:-0.988243 19:-0.931228 20:-0.270492 21:-0.839217 22:-0.824176 23:-0.913043 24:-0.826087 25:-0.96781 26:-0.260163 
2 1:0.111846 2:-0.0514954 3:0.25 4:0.607955 5:-0.481132 6:-0.153251 7:0.375 8:-0.877543 9:-0.915196 10:-0.360932 11:-0.62407 12:0.4081 13:-0.391902 14:-0.355556 15:-0.375 17:-0.330357 18:-0.877205 19:-0.735216 20:-0.262295 21:-0.450108 22:-0.456522 23:-0.875 24:-0.125 25:-0.968443 26:-0.252033 
2 1:0.143836 2:-0.0706601 3:0.428572 4:0.701299 5:0.185984 6:0.0161419 7:0.428572 8:-0.742928 9:-0.87132 10:-0.387444 11:-0.757976 12:0.638629 13:-0.425766 14:-0.510204 15:-0.428572 16:-0.285714 17:-0.540816 18:-0.733502 19:-0.962762 20:-0.196721 21:-0.628032 22:-0.6 23:-1 24:-0.285714 25:-0.869854 26:-0.186992 
2 1:0.00717582 2:-0.102566 3:-0.76923 4:0.195805 5:0.161102 6:-0.679271 8:-0.978503 9:-0.60898 10:-0.567572 11:-0.743883 12:0.588785 13:-0.208658 14:-0.317074 15:-0.923077 16:-0.384616 17:-0.34066 18:-0.991767 19:-0.740666 20:0.344262 21:-0.284412 22:-0.445784 23:-0.384616 24:-0.384616 25:-0.834227 26:0.349593 
2 1:0.268061 2:-0.121126 3:0.17647 4:0.385026 5:-0.733629 6:-0.0242619 7:-0.17647 8:-0.732007 9:-0.989485 10:-0.038474 11:-0.88585 12:0.538941 13:0.573268 14:-0.129032 15:-0.17647 16:-0.17647 17:-0.495798 18:-0.486586 19:-0.730935 20:-0.491803 21:0.609458 22:0.6 23:-0.882353 24:-0.882353 25:-0.793584 26:-0.95935 
2 1:-0.00159459 2:-0.121387 3:-0.857143 4:0.701299 5:-0.137466 6:-0.0766764 7:0.428572 8:-0.997644 9:-0.743986 10:-0.426013 11:-0.737411 12:0.339564 13:0.442078 14:-0.211268 15:-1 16:-0.285714 17:-0.234693 18:-1 19:-0.361103 20:-0.418033 21:0.356012 22:-0.287672 23:-0.285714 24:-0.285714 25:-0.59177 26:-0.406504 
2 1:-0.31188 2:-0.577253 3:0.285714 4:0.701299 5:-0.622642 6:-0.447943 7:0.428572 8:-0.922363 9:-0.956827 10:-0.674082 11:-0.651674 12:0.482866 13:0.108874 14:-0.253334 15:0.571428 16:0.714286 17:-0.0816332 18:-0.38119 19:-0.621178 20:-0.385246 21:-0.014 22:-0.376624 23:-0.285714 24:0.714286 25:-0.623752 26:-0.373984 
2 1:-0.0360671 2:-0.0379616 3:-0.25 4:0.738636 5:-0.103773 6:-0.185735 7:0.5 8:-0.982662 9:-0.750704 10:-0.492651 11:-0.710959 12:0.445483 13:0.244926 14:-0.363636 15:-0.75 16:0.25 17:0.071429 18:-0.987627 19:-0.351098 20:-0.278689 21:0.230424 22:-0.377778 23:-0.25 24:0.25 25:-0.597688 26:-0.268293 
0.7630394161699367 1:-0.0298599 2:-0.0156382 3:-0.066666 4:0.721213 5:-0.44654 6:-0.108854 7:0.6 8:-0.924942 9:-0.807439 10:-0.470639 11:-0.728719 12:0.320872 13:-0.374448 14:-0.428572 15:-0.466666 16:0.066666 17:-0.285715 18:-0.901233 19:-0.727851 20:-0.254098 21:-0.678566 22:-0.72043 23:-1 24:-0.2 25:-0.9972 26:-0.243902 
2 1:-0.23954 2:-0.242864 3:0.692308 4:0.839161 5:-0.419448 6:-0.099522 7:0.384616 8:-0.841847 9:-0.835326 10:-0.6834 11:-0.787018 12:0.439252 13:-0.220526 14:-0.443038 15:-0.23077 16:0.076924 17:-0.34066 18:-0.747508 19:-0.794615 20:-0.352459 21:-0.34705 22:-0.555556 23:-0.846154 24:0.076924 25:-0.932084 26:-0.341463 
2 1:0.168104 2:0.211167 4:0.701299 5:0.185984 6:0.164649 7:0.571428 8:-0.838628 9:-0.557996 10:-0.606668 11:-0.734212 12:0.439252 13:0.416246 14:0.043478 15:-0.428572 16:0.142858 17:-0.387755 18:-0.926983 19:-0.738137 20:-0.434426 21:0.344776 22:-0.042254 23:-1 24:0.142858 25:-0.905631 26:-0.422764 
2 1:-0.272239 2:-0.316193 3:0.23077 4:0.678322 5:-0.303338 6:-0.199479 7:0.384616 8:-0.8774 9:-0.838087 10:-0.61731 11:-0.854088 12:0.4081 13:-0.055538 14:-0.444444 15:0.23077 16:0.23077 17:-0.0109896 18:-0.525154 19:-0.432419 20:-0.409836 21:-0.129272 22:-0.567568 23:-0.846154 24:0.23077 25:-0.899756 26:-0.398374 
1.922831671945408 1:-0.032351 2:0.144683 3:0.142858 4:0.701299 5:-0.245282 6:0.127522 7:0.571428 8:-0.897444 9:-0.692769 10:-0.531622 11:-0.823464 12:0.364486 13:0.356966 14:-0.098592 15:0.142858 16:0.428572 17:-0.0816332 18:-0.458786 19:-0.111147 20:-0.418033 21:1 22:1 23:-1 24:0.142858 25:-0.514312 26:-0.934959 
0.4037704385359722 1:0.519772 2:0.209692 3:0.333334 4:0.721213 5:-0.44654 6:0.324294 7:0.333334 8:-0.755526 9:-0.953695 10:-0.230314 11:-0.407217 12:0.514019 13:-0.424016 14:-0.580646 15:-0.733334 16:-0.6 17:-0.857143 18:-0.845111 19:-0.988654 20:-0.491803 21:-0.424512 22:-0.59375 23:-0.866667 24:-0.6 25:-0.852493 26:-0.479675 
2 1:-0.105298 2:0.0524761 3:-0.52 4:0.749091 5:0.177359 6:-0.580114 7:-0.2 8:-0.92565 9:-0.650749 10:-0.620951 11:-0.821542 12:0.53271 13:-0.29696 14:-0.25641 15:-0.76 16:-0.6 17:-0.828571 18:-0.88757 19:-0.907106 20:-0.360656 21:-0.456842 22:-0.475 23:-0.92 24:-0.6 25:-0.947017 26:-0.349593 
2 1:-0.0538262 2:-0.0405033 3:-0.333334 4:0.380472 5:0.146051 6:-0.645952 7:-0.185186 8:-0.865762 9:-0.536047 10:-0.727599 11:-0.841619 12:0.688474 13:-0.348016 14:-0.358024 15:-1 16:-0.777778 17:-0.761905 18:-1 19:-0.922091 20:-0.336066 21:-0.579276 22:-0.542168 23:-0.777778 24:-0.777778 25:-0.950216 26:-0.325203 
2 1:0.0889128 2:-0.209859 3:0.142858 4:0.850648 5:-0.299191 6:-0.188056 7:0.857142 8:-0.609345 9:-0.845894 10:-0.519254 11:-0.84992 12:0.457944 13:-0.35953 14:-0.575 15:-0.428572 16:0.428572 17:-0.0816332 18:-0.927196 19:-0.417653 20:-0.344262 21:-0.412718 22:-0.634146 23:-0.857143 24:0.285714 25:-0.74035 26:-0.333333 
0.2987744378155656 1:0.454724 2:0.153326 3:-0.368422 4:0.779905 5:-0.523336 6:-0.0258701 7:0.578948 8:-0.967013 9:-0.883793 10:-0.203741 11:-0.352825 12:0.538941 13:0.651944 14:-0.04 15:-0.68421 16:0.368422 17:0.353384 18:-0.963106 19:-0.372163 20:-0.385246 21:0.989354 22:0.818182 23:-1 24:-1 25:-1 26:-0.910569 
2 1:-0.113003 2:-0.202296 3:-0.375 4:0.738636 5:-0.433962 6:-0.153251 7:0.625 8:-0.981299 9:-0.84133 10:-0.570802 11:-0.609431 12:0.545171 13:-0.502188 14:-0.384616 15:-0.375 16:0.375 17:0.205358 18:-0.888963 19:-0.749863 20:-0.360656 21:-0.530122 22:-0.425 23:-0.5 24:0.375 25:-0.951133 26:-0.349593 
2 1:0.0144747 2:-0.196207 3:0.333334 4:0.721213 5:-0.144653 6:-0.195482 7:0.6 8:-0.86707 9:-0.64148 10:-0.65907 11:-0.721499 12:0.595016 13:-0.338396 14:-0.473684 15:0.066666 16:0.2 17:-0.285715 18:-0.67226 19:-0.797894 20:-0.377049 21:-0.578336 22:-0.333334 23:-0.866667 24:-0.866667 25:-0.93341 26:-0.95122 
2 1:0.117862 2:0.131897 3:0.058824 4:0.508022 5:-0.112097 6:-0.0242619 7:0.294118 8:-0.941429 9:-0.793384 10:-0.324389 11:-0.724026 12:0.545171 13:-0.651382 14:-0.676768 15:-0.764706 16:-0.764706 17:-1 18:-0.997108 19:-1 20:-0.188525 21:-0.679922 22:-0.70297 23:-0.764706 24:-0.764706 25:-0.99711 26:-0.178862 
2 1:0.0856117 2:0.158707 3:-0.294118 4:0.508022 5:-0.245282 6:-0.100698 7:0.294118 8:-0.943092 9:-0.77798 10:-0.382418 11:-0.711053 12:0.352025 13:0.069738 14:-0.252748 15:0.058824 16:0.294118 17:-0.495798 18:-0.440954 19:-0.655924 20:-0.254098 21:-0.206692 22:-0.48387 23:-0.647058 24:-0.058824 25:-0.790244 26:-0.243902 
1.092016979364747 1:0.414536 2:0.0175629 3:0.571428 4:0.701299 5:-0.137466 6:0.201775 7:0.428572 8:-0.617617 9:-0.681816 10:-0.427695 11:-0.764602 12:0.619938 13:-0.561228 14:-0.50685 15:-0.571428 16:-0.428572 17:-0.846939 18:-0.901917 19:-0.907435 20:-0.401639 21:-0.862552 22:-0.666666 23:-1 24:-1 25:-1 26:-0.902439 
2 1:-0.216001 2:-0.102566 3:0.066666 4:0.581818 5:-0.245282 6:-0.160829 7:0.6 8:-0.956817 9:-0.949298 10:-0.687234 11:-0.500615 12:0.445483 13:-0.214346 14:-0.390244 15:-0.733334 16:0.6 17:0.571428 18:-0.968489 19:-0.260897 20:-0.327869 21:-0.242628 22:-0.47619 23:0.066666 24:0.466666 25:-0.56304 26:-0.317073 
1.580436543850439 1:-0.209447 2:-0.330805 3:0.384616 4:0.839161 5:0.0449948 6:-0.199479 7:0.384616 8:-0.914143 9:-0.614543 10:-0.73368 11:-0.865954 12:0.576324 13:0.19614 14:-0.388888 15:0.384616 16:0.692308 17:0.153848 18:-0.431256 19:-0.192199 20:-0.409836 21:0.191938 22:-0.405406 23:-0.692308 24:0.692308 25:-0.9489 26:-0.398374 
2 1:-0.203866 2:-0.275293 3:-0.157894 4:0.449761 5:-0.523336 6:-0.313113 7:0.263158 8:-0.913163 9:-0.888765 10:-0.560156 11:-0.744631 12:0.663551 13:-0.082942 14:-0.403226 15:-0.052632 16:0.368422 17:-0.0977432 18:-0.560526 19:-0.666367 20:0.0163934 21:-0.177244 22:-0.52381 23:-0.894737 24:0.368422 25:-0.773958 26:0.0243902 
2 1:0.109862 2:0.0249509 3:0.571428 4:0.701299 5:0.0242634 6:-0.0766764 7:0.428572 8:-0.781691 9:-0.578921 10:-0.588499 11:-0.858855 12:0.41433 13:0.22206 14:-0.156626 16:0.142858 17:-0.234693 18:-0.81547 19:-0.625723 20:-0.319672 21:0.539544 22:0.2 23:-0.714286 24:-0.714286 25:-0.074064 26:-0.95935 
2 1:-0.0202554 2:-0.0601379 3:-0.052632 4:0.779905 5:-0.563058 6:-0.190009 7:0.157894 8:-0.912333 9:-0.95082 10:-0.370154 11:-0.682098 12:0.538941 13:0.036592 14:-0.338984 15:-0.263158 16:0.473684 17:0.12782 18:-0.535276 19:-0.507238 20:-0.0327869 21:-0.278774 22:-0.391304 23:-0.894737 24:-0.263158 25:-0.847697 26:-0.813008 
2 1:0.10801 2:-0.0936822 3:0.157894 4:0.779905 5:-0.285004 6:-0.27208 7:0.052632 8:-0.677589 9:-0.880257 10:-0.443235 11:-0.79849 12:0.613707 13:-0.385856 14:-0.339286 15:-0.263158 16:0.157894 17:-0.323309 18:-0.879339 19:-0.732504 20:-0.0819672 21:-0.43832 22:-0.421052 23:-0.894737 24:0.157894 25:-0.949641 26:-0.0731707 
2 1:0.243758 2:-0.201458 3:0.111112 4:0.419191 5:-0.412997 6:-0.126179 7:0.111112 8:-0.855213 9:-0.924511 10:-0.346626 11:-0.507477 12:0.794393 13:0.134234 14:-0.346938 15:0.111112 16:0.333334 17:-0.0476197 18:-0.44065 19:-0.516977 20:-0.196721 21:-0.02705 22:-0.44 23:-0.777778 24:0.111112 25:-0.714046 26:-0.186992 
0.1356641313439819 1:0.0491655 2:-0.00889993 4:0.651514 5:-0.203354 6:-0.111739 7:0.555556 8:-0.957446 9:-0.795597 10:-0.438277 11:-0.653897 12:0.700935 13:-0.612704 14:-0.652174 15:-0.777778 16:-0.333334 17:-0.52381 18:-0.939184 19:-0.97118 20:-0.245902 21:-0.740176 22:-0.723404 23:-0.666666 24:-0.444444 25:-0.993204 26:-0.235772 
2 1:0.0386768 2:-0.278403 3:-0.703704 4:0.535354 5:0.146051 6:-0.751831 7:-0.25926 8:-0.979769 9:-0.334039 10:-0.714519 11:-0.853908 12:0.688474 13:-0.576498 14:-0.45614 15:-0.777778 16:-0.62963 17:-0.761905 18:-0.966291 19:-0.926728 20:-0.0655738 21:-0.779852 22:-0.672414 23:-0.851852 24:-0.703704 25:-0.957272 26:-0.0569106 
1.003576503634281 1:-0.164595 2:-0.107698 3:-0.052632 4:0.669856 5:-0.602781 6:-0.231045 7:0.578948 8:-0.88185 9:-0.970939 10:-0.452814 11:-0.76226 12:0.595016 13:-0.518076 14:-0.496184 15:-0.578948 16:-0.052632 17:-0.43609 18:-0.909043 19:-0.944109 20:0.0737705 21:-0.356366 22:-0.6 23:-0.894737 24:-0.894737 25:-0.902613 26:-0.918699 
2 1:0.138671 2:0.0227198 3:-0.052632 4:0.449761 5:-0.642503 6:-0.176333 7:0.157894 8:-0.891132 9:-0.96143 10:-0.196715 11:-0.709188 12:0.433022 13:-0.124818 14:-0.372882 15:-0.263158 16:-0.052632 17:-0.661653 18:-0.817993 19:-0.83038 20:-0.0327869 21:-0.52893 22:-0.616666 23:-0.894737 24:-0.263158 25:-0.97083 26:-0.0243902 
0.7408611444161475 1:-0.208336 2:-0.248838 3:0.052632 4:0.669856 5:-0.761668 6:-0.340472 7:0.368422 8:-0.905204 9:-0.978019 10:-0.526156 11:-0.6957 12:0.52648 13:0.102246 14:-0.21101 15:-0.052632 16:0.368422 17:-0.323309 18:-0.793776 19:-0.792192 20:-0.106557 21:0.016934 22:-0.333334 23:-0.789474 24:0.263158 25:-0.936789 26:-0.097561 
2 1:0.000739382 2:-0.144434 3:-0.407408 4:0.535354 5:0.00628906 6:-0.530447 7:-0.62963 8:-0.934478 9:-0.349085 10:-0.660529 11:-0.989358 12:0.825545 13:-0.098394 14:-0.32886 15:-0.555556 16:-0.481482 17:-0.84127 18:-0.675854 19:-0.968228 20:0.221311 21:-0.306406 22:-0.493334 23:-0.777778 24:-0.555556 25:-0.70519 26:0.219512 
2 1:-0.107383 2:-0.102566 3:-0.052632 4:0.559809 5:-0.602781 6:-0.40886 7:0.263158 8:-0.87113 9:-0.889837 10:-0.563852 11:-0.678659 12:0.302181 13:-0.588734 14:-0.625 15:-0.68421 16:-0.473684 17:-0.774436 18:-0.944521 19:-0.977801 20:0.0491803 21:-0.726442 22:-0.738462 23:-0.894737 24:-0.68421 25:-0.991379 26:0.0569106 
2 1:-0.175898 2:-0.166406 3:-0.5625 4:0.346591 5:-0.174528 6:-0.729874 7:-0.1875 8:-0.931955 9:-0.786553 10:-0.69516 11:-0.657973 12:0.707165 13:-0.05799 14:-0.169812 15:-0.75 16:-0.1875 17:-0.263393 18:-0.905222 19:-0.725812 20:0.303279 21:-0.23516 22:-0.403726 23:-0.625 24:-0.375 25:-0.922397 26:0.308943 
1.871528631192828 1:-0.0511276 2:-0.0944586 3:-0.157894 4:0.669856 5:-0.602781 6:-0.244721 7:0.368422 8:-0.926223 9:-0.921702 10:-0.305221 11:-0.805791 12:0.507788 13:-0.462806 14:-0.435484 15:-0.578948 16:-0.368422 17:-0.661653 18:-0.970526 19:-0.890905 20:0.0163934 21:-0.71328 22:-0.698412 23:-1 24:-0.578948 25:-0.948124 26:0.0243902 
2 1:-0.313196 2:-0.286485 3:0.052632 4:0.779905 5:-0.523336 6:-0.40886 7:0.578948 8:-0.884579 9:-0.929225 10:-0.68838 11:-0.710315 12:0.638629 13:-0.309986 14:-0.377358 15:-0.368422 16:-0.052632 17:-0.548873 18:-0.765052 19:-0.835677 20:-0.131148 21:-0.463548 22:-0.537038 23:-0.789474 24:-0.052632 25:-0.870197 26:-0.121951 
2 1:-0.111992 2:-0.04745 3:0.157894 4:0.779905 5:-0.404171 6:-0.244721 7:0.263158 8:-0.894238 9:-0.889473 10:-0.511823 11:-0.71622 12:0.576324 13:-0.379864 14:-0.409524 15:-0.578948 16:-0.368422 17:-0.661653 18:-0.984834 19:-0.778346 20:-0.139344 21:-0.309286 22:-0.142858 23:-0.894737 24:-0.894737 25:-0.924779 26:-0.943089 
2 1:0.435882 2:-0.562404 3:-0.555556 4:0.535354 5:-0.32914 6:-0.819209 7:0.111112 8:-0.996809 9:0.373289 10:-0.949443 11:-0.928564 12:-0.495327 13:-0.544756 14:-0.642858 15:-1 16:-0.555556 17:-0.52381 18:-1 19:-0.706056 20:-0.540984 21:-0.779664 22:-0.827586 23:-0.555556 24:-0.555556 25:-0.812382 26:-0.528455 
0.2403375019302289 1:-0.510717 2:-0.269037 3:-0.285714 4:0.701299 5:-0.245282 6:-0.206618 7:0.714286 8:-0.981609 9:-0.922432 10:-0.693401 11:-0.824396 12:0.451713 13:-0.071648 14:-0.32653 15:0.571428 16:0.571428 17:0.071429 18:-0.41586 19:-0.6915 20:-0.196721 21:-0.234972 22:-0.46 23:-0.857143 24:0.571428 25:-0.747824 26:-0.186992 
2 1:-0.103645 2:-0.116386 3:0.25 4:0.607955 5:-0.245282 6:-0.153251 7:0.25 8:-0.935179 9:-0.744802 10:-0.487528 11:-0.851211 12:0.551402 13:-0.209726 14:-0.296296 15:0.25 16:0.5 17:-0.598214 18:-0.789024 19:-0.860663 20:-0.114754 21:-0.29529 22:-0.4 23:-0.25 24:0.375 25:-0.889422 26:-0.105691 
2 1:-0.257491 2:-0.37714 3:-0.62963 4:0.22559 5:-0.245282 6:-0.780707 7:-0.407408 8:-0.980709 9:-0.568543 10:-0.777119 11:-0.849078 12:0.445483 13:-0.234818 14:-0.393618 15:-0.777778 16:-0.185186 17:-0.285715 18:-0.97317 19:-0.726575 20:0.540984 21:-0.413024 22:-0.642106 23:-0.555556 24:-0.25926 25:-0.84944 26:0.544715 
2 1:-0.241044 2:-0.207191 3:-0.416666 4:0.564395 5:0.100625 6:-0.700096 7:-0.166666 8:-0.967659 9:-0.537044 10:-0.772656 11:-0.885671 12:0.551402 13:-0.338992 14:-0.295454 15:-0.75 16:-0.583334 17:-0.732143 18:-0.989829 19:-0.938404 20:-0.278689 21:-0.404838 22:-0.4 23:-1 24:-0.583334 25:-0.970804 26:-0.268293 
1.301775114372678 1:0.00251224 2:-0.228231 3:-0.066666 4:0.721213 5:-0.0943389 6:-0.143504 7:0.6 8:-0.963952 9:-0.73852 10:-0.543437 11:-0.646213 12:0.657321 13:-0.251672 14:-0.52 15:0.466666 16:0.6 17:-0.428571 18:-0.540966 19:-0.822426 20:-0.180328 21:-0.271154 22:-0.54902 23:-0.066666 24:0.6 25:-0.654702 26:-0.170732 
1.406930284269106 1:0.213408 2:0.0265895 3:0.333334 4:0.535354 5:-0.245282 6:-0.126179 7:0.222222 8:-0.74884 9:-0.719337 10:-0.412808 11:-0.816919 12:0.626168 13:0.095046 14:-0.227272 15:-0.222222 16:0.333334 17:-0.166666 18:-0.654368 19:-0.347388 20:-0.278689 21:-0.02065 22:-0.333334 23:-0.888889 24:0.222222 25:-0.918645 26:-0.268293 
2 1:-0.000293329 2:-0.0701084 3:-0.36 4:0.665455 5:0.237738 6:-0.538531 7:-0.2 8:-0.966669 9:-0.288279 10:-0.775445 11:-0.895762 12:0.813084 13:-0.616382 14:-0.452632 15:-0.76 16:-0.52 17:-0.657143 18:-0.959624 19:-0.94523 20:-0.221311 21:-0.676898 22:-0.587628 23:-0.92 24:-0.52 25:-0.99465 26:-0.211382 
2 1:-0.162859 2:-0.176434 3:-0.481482 4:0.457913 5:-0.133472 6:-0.684453 7:-0.037038 8:-0.904725 9:-0.611568 10:-0.729316 11:-0.832764 12:0.607477 13:-0.551798 14:-0.45614 15:-0.925926 16:-0.703704 17:-0.68254 18:-0.999674 19:-0.952796 20:-0.0655738 21:-0.755834 22:-0.672414 23:-0.851852 24:-0.777778 25:-0.971911 26:-0.0569106 
2 1:-0.232459 2:-0.339452 3:-0.461538 4:0.356644 5:0.103048 6:-0.769231 7:-0.692308 8:-0.938338 9:-0.512764 10:-0.814333 11:-0.889798 12:0.588785 13:-0.270972 14:-0.442106 15:-0.76923 16:-0.461538 17:-0.587911 18:-0.924073 19:-0.79347 20:0.557377 21:-0.571946 22:-0.677084 23:-0.846154 24:-0.615384 25:-0.953697 26:0.560976 
2 1:0.089522 2:-0.341777 3:0.058824 4:0.262032 5:-0.511653 6:-0.253573 7:-0.17647 8:-0.788513 9:-0.846062 10:-0.283991 11:-0.910916 12:0.613707 13:0.421716 14:-0.113402 15:0.294118 16:0.294118 17:-0.369747 18:-0.512138 19:-0.671813 20:-0.204918 21:1 22:1 23:-0.647058 24:-0.17647 25:-0.298818 26:-0.910569 
2 1:-0.42519 2:-0.283163 3:0.058824 4:0.631015 5:-0.289678 6:-0.253573 7:0.529412 8:-0.973555 9:-0.823706 10:-0.673843 11:-0.870971 12:0.757009 13:-0.656938 14:-0.571428 15:-0.647058 16:-0.294118 17:-0.495798 18:-0.938802 19:-0.977837 20:-0.196721 21:-0.7136 22:-0.64 23:-0.882353 24:-0.294118 25:-0.953008 26:-0.186992 
0.07481030959956965 1:-0.372515 2:-0.297996 3:-0.692308 4:0.597901 5:0.015963 6:-0.689265 7:-0.307692 8:-0.976071 9:-0.683504 10:-0.744245 11:-0.889285 12:0.676012 13:-0.283646 14:-0.452174 15:-0.153846 16:0.384616 17:-0.0934061 18:-0.810349 19:-0.679842 20:0.885246 21:-0.391258 22:-0.568966 23:-0.923077 24:0.307692 25:-0.974752 26:0.886179 
2 1:-0.0319559 2:-0.208221 3:-0.777778 4:0.535354 5:-0.32914 6:-0.27056 7:0.222222 8:-0.995628 9:-0.837635 10:-0.393226 11:-0.704395 12:0.514019 13:0.067094 14:-0.349206 15:-0.666666 16:-0.333334 17:-0.285715 18:-0.954659 19:-0.651029 20:0.0327869 21:-0.036956 22:-0.421876 23:-0.666666 24:-0.333334 25:-0.822288 26:0.0406504 
2 1:-0.15322 2:-0.425693 3:-0.481482 4:0.22559 5:-0.10552 6:-0.732581 7:-0.185186 8:-0.944774 9:-0.545452 10:-0.746414 11:-0.833004 12:0.862928 13:-0.484246 14:-0.5 15:-0.777778 16:-0.62963 17:-0.761905 18:-0.935682 19:-0.960561 20:-0.147541 21:-0.680874 22:-0.660378 23:-1 24:-0.62963 25:-0.960926 26:-0.138211 
2 1:-0.125762 2:-0.119221 3:-0.333334 4:0.564395 5:0.0691797 6:-0.559323 7:-0.25 8:-0.914884 9:-0.463731 10:-0.773653 11:-0.897418 12:0.663551 13:-0.459306 14:-0.476636 15:-0.583334 16:-0.5 17:-0.732143 18:-0.908246 19:-0.984473 20:-0.122951 21:-0.684032 22:-0.633028 23:-0.916667 24:-0.583334 25:-0.946049 26:-0.113821 
2 1:-0.114151 2:-0.0551444 3:-0.416666 4:0.477273 5:0.257861 6:-0.613464 7:-0.083334 8:-0.918465 9:-0.495413 10:-0.749941 11:-0.87116 12:0.619938 13:-0.574478 14:-0.465518 15:-0.75 16:-0.5 17:-0.553572 18:-0.948695 19:-0.941827 20:-0.0491803 21:-0.627392 22:-0.576272 23:-0.833333 24:-0.5 25:-0.9859 26:-0.0406504 
2 1:0.0930743 2:-0.333273 3:0.294118 4:0.631015 5:-0.467259 6:-0.330012 7:0.058824 8:-0.848208 9:-0.788306 10:-0.452321 11:-0.719012 12:0.601246 13:-0.055216 14:-0.486726 15:-0.058824 16:0.411764 17:0.00840322 18:-0.511918 19:-0.616202 20:-0.0737705 21:-0.19878 22:-0.634782 23:-1 24:0.411764 25:-0.76804 26:-0.0650407 
2 1:-0.179854 2:-0.122495 3:-0.172414 4:0.351097 5:0.14509 6:-0.702708 7:-0.37931 8:-0.866496 9:-0.611762 10:-0.790113 11:-0.826501 12:0.813084 13:-0.446998 14:-0.44 15:-0.586206 16:-0.24138 17:-0.556649 18:-0.939721 19:-0.864012 20:0.639344 21:-0.582576 22:-0.60396 23:-1 24:-0.24138 25:-0.973333 26:0.642276 
2 1:0.198361 2:-0.0403276 3:0.037038 4:0.690236 5:-0.0216624 6:-0.540072 7:-0.333334 8:-0.834643 9:-0.609437 10:-0.44095 11:-0.830835 12:0.825545 13:-0.562762 14:-0.488372 15:-0.777778 16:-0.555556 17:-0.761905 18:-0.989513 19:-0.951872 20:-0.295082 21:-0.607664 22:-0.545454 23:-1 24:-0.555556 25:-0.979729 26:-0.284553 
0.5348581159421783 1:-0.164246 2:-0.215106 3:-0.384616 4:0.517483 5:0.103048 6:-0.739243 7:-0.23077 8:-0.983241 9:-0.506152 10:-0.743872 11:-0.849595 12:0.619938 13:-0.299222 14:-0.44134 15:-0.692308 16:-0.307692 17:-0.423076 18:-0.94043 19:-0.719663 20:0.467213 21:-0.588554 22:-0.59116 23:-0.76923 24:-0.307692 25:-0.846854 26:0.471545 
2 1:0.501259 2:0.0902742 3:-0.777778 4:0.767677 5:-0.245282 6:0.0326427 7:0.555556 8:-0.940173 9:-0.829804 10:-0.223869 11:-0.369303 12:0.619938 13:-0.141744 14:-0.1875 15:-0.888889 16:-0.222222 17:-0.285715 18:-0.963624 19:-0.826819 20:-0.213115 21:-0.232482 22:-0.306122 23:-0.444444 24:-0.222222 25:-0.925678 26:-0.203252 
2 1:-0.234472 2:-0.292582 3:-0.44 4:0.414545 5:-0.0339619 6:-0.611298 7:-0.44 8:-0.917671 9:-0.479996 10:-0.798213 11:-0.969742 12:0.750779 13:-0.159064 14:-0.359116 15:-0.2 16:0.12 17:-0.4 18:-0.686684 19:-0.775831 20:0.483607 21:-0.47396 22:-0.57377 23:-1 24:-0.36 25:-0.869845 26:0.487805 
1.314288293453605 1:0.415667 2:0.581176 3:0.272728 4:0.809918 5:-0.451114 6:0.763739 7:0.636364 8:-0.942292 9:-0.81665 10:-0.183887 11:-0.521317 12:0.102804 13:0.36387 14:-0.045454 15:1 16:1 17:-0.415585 18:0.092104 19:-0.817945 20:-0.639344 21:0.257894 22:-0.304348 23:0.272728 24:0.818182 25:-0.02999 26:-0.626016 
2 1:-0.111804 2:-0.14957 3:-0.375 4:0.738636 5:0.509434 6:-0.575567 7:-0.125 8:-0.960122 9:-0.295294 10:-0.874763 11:-0.909086 12:0.258567 13:0.103788 14:-0.395834 15:-0.125 16:0.125 17:-0.196428 18:-0.538306 19:-0.403472 20:-0.213115 21:-0.076708 22:-0.510204 23:-0.875 25:-0.943031 26:-0.203252 
2 1:0.432649 2:0.11489 3:0.636364 4:0.809918 5:-0.176672 6:0.0313284 7:0.636364 8:-0.77221 9:-0.49107 10:-0.634957 11:-0.557587 12:0.0654206 13:0.086868 14:-0.25926 15:-0.454546 16:0.09091 17:-0.22078 18:-0.899137 19:-0.390448 20:-0.557377 21:0.03706 22:-0.321428 23:-0.818182 24:0.09091 25:-0.711304 26:-0.544715 
0.9328137725983706 1:0.402746 2:0.20241 3:0.272728 4:0.619835 5:0.0977699 6:0.0313284 7:0.636364 8:-0.8636 9:-0.792997 10:-0.36442 11:-0.449538 12:0.0342679 13:-0.379244 14:-0.402598 15:-0.272728 16:0.272728 17:0.168833 18:-0.887132 19:-0.74579 20:-0.368852 21:-0.379784 22:-0.417722 23:-0.636364 24:0.272728 25:-0.950359 26:-0.357724 
2 1:0.191684 2:-0.259079 3:0.272728 4:0.809918 5:-0.382503 6:-0.110428 7:0.454546 8:-0.793848 9:-0.659148 10:-0.651286 11:-0.594405 12:0.17757 13:0.20381 14:-0.320754 15:0.636364 16:0.818182 17:0.168833 18:-0.17798 19:-0.566849 20:-0.565574 21:0.16135 22:-0.418182 23:-0.454546 24:0.818182 25:-0.4555 26:-0.552846 
2 1:-0.0756179 2:-0.350387 3:-0.272728 4:0.809918 5:-0.313893 6:-0.299436 7:0.636364 8:-0.930452 9:-0.484296 10:-0.777995 11:-0.796374 12:0.0841121 13:0.316806 14:-0.25 15:0.272728 16:0.636364 17:0.363638 18:-0.40203 19:-0.355255 20:-0.540984 21:0.275768 22:-0.344828 23:-1 24:0.636364 25:-0.814475 26:-0.528455 
1.895076904138501 1:-0.0975407 2:0.0845493 3:0.333334 4:0.651514 5:-0.371068 6:-0.0612061 7:0.5 8:-0.94399 9:-0.724522 10:-0.555231 11:-0.782385 12:0.0404984 13:0.311512 14:-0.137932 15:0.166666 16:0.5 17:0.071429 18:-0.348994 19:-0.309821 20:-0.52459 21:0.245334 22:-0.266666 23:-1 24:0.333334 25:-0.828986 26:-0.512195 
1.837583046900499 1:-0.287046 2:-0.124775 3:0.666666 4:0.825758 5:-0.0566025 6:-0.472694 7:0.666666 8:-0.909128 9:-0.536981 10:-0.884201 11:-0.878253 12:0.0155763 13:-0.443958 14:-0.423728 15:-0.333334 16:0.166666 17:-0.107142 18:-0.940432 19:-0.599171 20:-0.516393 21:-0.631068 22:-0.606558 23:-0.666666 25:-0.796656 26:-0.504065 
2 1:-0.0694828 2:-0.296243 3:-0.444444 4:0.767677 5:0.215938 6:-0.645952 7:-0.333334 8:-0.898398 9:-0.281762 10:-0.847909 11:-0.97556 12:0.320872 13:-0.052198 14:-0.376 15:-0.444444 16:0.333334 17:-0.166666 18:-0.733324 19:-0.712596 20:0.0245902 21:-0.432198 22:-0.669292 23:-0.888889 25:-0.933783 26:0.0325203 
2 1:0.262891 2:0.066349 3:0.454546 4:0.809918 5:-0.0394504 6:0.0785805 7:0.454546 8:-0.80583 9:-0.769823 10:-0.412024 11:-0.642612 12:0.133956 13:0.35466 14:-0.22807 15:0.272728 16:0.272728 17:0.168833 18:-0.27529 19:-0.427887 20:-0.532787 21:0.243912 22:-0.38983 23:-0.818182 24:0.272728 25:-0.641418 26:-0.520325 
1.182956305870992 1:0.372839 2:0.131064 3:0.4 4:0.790909 5:0.207549 6:0.194349 7:0.8 8:-0.846328 9:-0.334702 10:-0.648622 11:-0.702638 12:0.115265 13:0.43404 14:-0.037038 15:0.4 16:1 17:0.500001 18:-0.493066 19:0.0904416 20:-0.557377 21:0.953398 22:0.818182 24:0.8 25:-0.850384 26:-0.910569 
2 1:-0.43975 2:-0.447493 3:0.4 4:0.790909 5:-0.169811 6:-0.325424 7:0.4 8:-0.894945 9:-0.887706 10:-0.857402 11:-0.698924 12:0.146417 13:0.346412 14:-0.24 15:0.4 16:0.6 17:0.071429 18:-0.26221 19:-0.236344 20:-0.590164 21:0.722186 22:0.333334 23:-1 24:-0.2 25:-0.975567 26:-0.95122 
0.5780445035762672 1:0.34785 2:-0.0601379 3:0.6 4:0.790909 5:-0.0188672 6:0.0384166 7:0.6 8:-0.80968 9:-0.728641 10:-0.586672 11:-0.396497 12:0.121495 13:0.379666 14:-0.24138 15:0.8 16:0.8 17:0.071429 18:-0.253406 19:-0.34534 20:-0.52459 21:0.871444 22:0.428572 23:-1 24:-0.2 25:-0.843938 26:-0.943089 
2 1:0.447478 2:-0.199623 3:-0.09091 4:0.809918 5:-0.108061 6:-0.0868018 7:0.818182 8:-0.911397 9:-0.712151 10:-0.415808 11:-0.380685 12:0.214953 13:0.335422 14:-0.137254 15:0.636364 16:0.818182 17:-0.415585 18:-0.257832 19:-0.565379 20:-0.581967 21:0.856894 22:0.272728 23:-0.09091 24:0.09091 25:0.4707 26:-0.910569 
2 1:-0.108492 2:-0.399708 3:-0.666666 4:0.535354 5:0.0901465 6:-0.703704 7:-0.111112 8:-0.994624 9:-0.257348 10:-0.83094 11:-0.958377 12:0.29595 13:-0.11636 14:-0.384616 15:-0.888889 16:-0.333334 17:-0.404761 18:-0.989927 19:-0.469542 20:-0.147541 21:-0.346296 22:-0.54717 23:-0.555556 24:-0.333334 25:-0.671066 26:-0.138211 
2 1:-0.254574 2:-0.228231 3:-0.375 4:0.738636 5:0.0849072 6:-0.591807 7:-0.125 8:-0.91832 9:-0.527421 10:-0.790723 11:-0.946322 12:0.146417 13:-0.33554 14:-0.370968 15:-0.75 16:0.125 17:-0.0624997 18:-0.972932 19:-0.84595 20:0.0163934 21:-0.522828 22:-0.555556 23:-0.375 24:0.125 25:-0.928597 26:0.0243902 
0.0483429988071069 1:0.494188 2:-0.1485 3:0.454546 4:0.619835 5:-0.451114 6:-0.0159237 7:0.454546 8:-0.826666 9:-0.887742 10:-0.478022 11:-0.156226 12:0.146417 13:0.555158 14:-0.106382 15:0.454546 16:0.454546 17:0.168833 18:-0.026528 19:-0.476861 20:-0.614754 21:0.540208 22:-0.142858 23:-0.636364 24:0.454546 25:-0.361628 26:-0.601626 
2 1:0.682196 2:-0.135718 3:0.454546 4:0.809918 5:0.0977699 6:-0.134054 7:0.272728 8:-0.683229 9:-0.906365 10:-0.330764 11:-0.248678 12:0.17134 13:0.34198 14:-0.185186 15:0.636364 16:0.818182 17:0.168833 18:-0.207276 19:-0.539904 20:-0.557377 21:0.307216 22:-0.214286 23:-0.636364 24:0.636364 25:-0.515254 26:-0.544715 
2 1:0.127477 2:-0.116811 3:0.111112 4:0.651514 5:-0.161425 6:-0.472694 7:-0.888889 8:-0.826646 9:-0.280674 10:-0.703225 11:-0.99776 12:0.190031 13:0.057912 14:-0.287356 15:-0.111112 16:0.555556 17:-0.285715 18:-0.479932 19:-0.517024 20:-0.286885 21:-0.209084 22:-0.438202 23:-0.333334 24:0.111112 25:-0.592406 26:-0.276423 
0.867565665106606 1:0.0946397 2:-0.161788 3:-0.375 4:0.738636 5:0.179243 6:-0.478106 7:0.125 8:-0.929392 9:-0.259366 10:-0.710527 11:-0.936058 12:0.28972 13:0.034448 14:-0.14 15:0.375 16:0.875 17:0.071429 18:-0.62837 19:-0.538115 20:-0.180328 21:0.922966 22:0.733334 23:-0.875 24:0.5 25:-0.86881 26:-0.878049 
1.336335933021595 1:0.74568 2:0.441425 3:0.818182 4:0.809918 5:0.0291593 6:0.503849 7:0.636364 8:-0.644678 9:-0.850784 10:-0.44122 11:-0.160934 12:0.17757 13:-0.1969 14:-0.28 15:-0.636364 16:-0.272728 17:-0.415585 18:-0.99091 19:-0.425641 20:-0.590164 21:-0.411342 22:-0.423076 23:-0.818182 24:-0.272728 25:-0.642194 26:-0.577236 
2 1:0.418618 2:0.289816 3:0.666666 4:0.825758 5:-0.0566025 6:-0.01789 7:0.5 8:-0.880355 9:-0.841065 10:-0.305431 11:-0.42458 12:0.0342679 13:0.327022 14:-0.018868 15:0.166666 16:0.5 17:0.071429 18:-0.226446 19:-0.440539 20:-0.565574 21:0.944946 22:0.75 23:0.166666 24:0.166666 25:0.944946 26:-0.934959 
2 1:0.22587 2:0.171493 3:-0.25 4:0.869318 5:0.226416 6:-0.461866 8:-0.927323 9:-0.240608 10:-0.708509 11:-0.815688 12:0.0404984 13:-0.349096 14:-0.384616 15:-0.75 16:-0.625 17:-0.732143 18:-0.941032 19:-0.818719 20:-0.57377 21:-0.47063 22:-0.481482 23:-1 24:-0.625 25:-0.943115 26:-0.560976 
2 1:0.0311159 2:-0.154302 3:0.4 4:0.790909 5:-0.245282 6:-0.117516 7:0.4 8:-0.730177 9:-0.847816 10:-0.602771 11:-0.685249 12:0.00311526 13:0.39599 14:-0.307692 15:0.6 16:0.8 17:0.500001 18:-0.255032 19:-0.0429125 20:-0.57377 21:0.394562 22:-0.333334 23:-0.8 24:0.8 25:-0.867169 26:-0.560976 
0.3403248244451848 1:0.180291 2:0.0847455 3:-0.333334 4:0.721213 5:0.610068 6:-0.334087 7:-0.066666 8:-0.955278 9:-0.290863 10:-0.667244 11:-0.824552 12:0.246106 13:0.217668 14:-0.19192 15:-0.333334 16:0.2 17:-0.285715 18:-0.707362 19:-0.745949 20:-0.188525 21:-0.001722 22:-0.366336 23:-0.6 24:-0.066666 25:-0.978927 26:-0.178862 
2 1:-0.198179 2:-0.297996 4:0.607955 5:-0.103773 6:-0.559323 7:-0.5 8:-0.870119 9:-0.671798 10:-0.632788 11:-0.94975 12:0.17757 13:-0.22819 14:-0.376344 15:-0.5 16:-0.125 17:-0.598214 18:-0.863451 19:-0.949188 20:-0.237705 21:-0.345846 22:-0.536842 23:-0.75 24:-0.25 25:-0.885001 26:-0.227642 
2 1:0.787759 2:0.377912 3:0.4 4:0.372727 5:-0.245282 6:0.272316 8:-0.137279 9:-0.985124 10:-0.160239 11:-0.838063 12:-0.140187 13:0.66163 14:0.294118 15:0.8 16:0.8 17:0.285715 18:-0.049974 19:-0.0406418 20:-0.721311 21:0.778208 22:0.473684 23:-0.4 24:0.6 25:-0.969384 26:-0.845528 
2 1:0.33872 2:0.461436 3:-0.058824 4:0.508022 5:0.509434 6:-0.268861 7:-0.058824 8:-0.772678 9:-0.42703 10:-0.58968 11:-0.783852 12:0.190031 13:0.297556 14:-0.283018 15:-0.882353 16:-0.647058 17:-0.747899 18:-0.895021 19:-0.841877 20:-0.565574 21:-0.63207 22:-0.5 23:-1 24:-1 25:-1 26:-0.96748 
2 1:0.185809 2:-0.132804 3:0.09091 4:0.809918 5:-0.176672 6:-0.204932 7:0.636364 8:-0.788838 9:-0.871736 10:-0.582231 11:-0.443827 12:0.0404984 13:0.480324 14:-0.183674 15:0.272728 16:0.636364 17:-0.0259747 18:-0.182638 19:-0.371578 20:-0.598361 21:0.264682 22:-0.294118 23:-0.818182 24:0.454546 25:-0.671888 26:-0.585366 
0.06777074142813538 1:0.412514 2:-0.0466817 3:0.4 4:0.790909 5:-0.0943389 6:0.220337 7:0.6 8:-0.807414 9:-0.598459 10:-0.463363 11:-0.610298 12:0.196262 13:0.568648 14:0.086956 15:0.8 16:0.8 17:-0.357143 18:-0.174096 19:-0.436935 20:-0.622951 21:0.434596 22:-0.125 23:0.2 24:0.8 25:-0.534524 26:-0.609756 
1.386348572307239 1:0.474062 2:0.0989004 3:0.636364 4:0.619835 5:0.166381 6:0.0785805 7:0.454546 8:-0.776453 9:-0.687076 10:-0.460944 11:-0.479159 12:0.17134 13:0.502894 14:-0.37931 15:0.454546 16:0.636364 17:0.168833 18:-0.017482 19:-0.345211 20:-0.52459 21:0.992906 22:0.5 23:-0.818182 24:-0.454546 25:-0.995348 26:-0.96748 
2 1:0.392901 2:0.303652 3:0.5 4:0.825758 5:-0.308176 6:0.220337 7:0.5 8:-0.65152 9:-0.922795 10:-0.437594 11:-0.468842 12:0.109034 13:0.644698 14:-0.12 15:0.5 16:0.833334 17:0.25 18:-0.13687 19:0.109199 20:-0.590164 21:1 22:1 23:-0.333334 25:0.279032 26:-0.95122 
2 1:0.449419 2:0.093151 3:0.818182 4:0.809918 5:-0.451114 6:0.0549545 7:0.454546 8:-0.738704 9:-0.488678 10:-0.593328 11:-0.624998 12:0.0342679 13:-0.56294 14:-0.59091 15:-0.454546 16:-0.09091 17:-0.415585 18:-0.872793 19:-0.734094 20:-0.639344 21:-0.5634 22:-0.608696 23:-1 24:-0.09091 25:-0.957221 26:-0.626016 
2 1:0.152502 2:-0.148099 3:0.818182 4:0.809918 5:-0.588336 6:-0.0868018 7:0.636364 8:-0.752455 9:-0.912114 10:-0.560778 11:-0.499645 12:0.109034 13:-0.498932 14:-0.698114 15:-0.636364 16:-0.636364 17:-1 18:-0.793664 19:-1 20:-0.565574 21:-0.498404 22:-0.672728 23:-0.636364 24:-0.636364 25:-0.793882 26:-0.552846 
0.3820259289734549 1:-0.142578 2:0.263868 3:0.333334 4:0.651514 5:-0.433962 6:0.155368 7:0.666666 8:-0.948836 9:-0.818622 10:-0.629802 11:-0.638529 12:0.0654206 13:0.225766 14:-0.172414 15:0.5 16:0.5 17:0.071429 18:-0.19438 19:-0.640313 20:-0.52459 21:1 22:1 23:-0.5 25:0.239092 26:-0.943089 
2 1:0.0652827 2:-0.181529 3:-0.368422 4:0.669856 5:0.112212 6:-0.66875 7:-0.578948 8:-0.948357 9:-0.248826 10:-0.726249 11:-0.942089 12:0.158879 13:0.243884 14:-0.213484 15:-0.263158 16:0.157894 17:-0.210526 18:-0.425566 19:-0.486229 20:-0.270492 21:0.195034 22:-0.318682 23:-1 24:0.157894 25:-0.754272 26:-0.260163 
2 1:0.264371 2:0.0690787 3:0.272728 4:0.809918 5:0.0977699 6:-0.15768 7:0.272728 8:-0.898833 9:-0.370971 10:-0.444239 11:-0.950811 12:-0.0280374 13:0.192398 14:-0.310344 15:0.09091 16:0.636364 17:0.558443 18:-0.471566 19:-0.0629238 20:-0.52459 21:0.158536 22:-0.366666 23:-0.636364 24:0.636364 25:-0.929279 26:-0.512195 
2 1:0.0719615 2:0.00331398 3:-0.263158 4:0.779905 5:0.0724959 6:-0.627714 7:-0.263158 8:-0.929427 9:-0.492887 10:-0.638097 11:-0.77876 12:0.102804 13:-0.256886 14:-0.403508 15:-0.789474 16:-0.263158 17:-0.323309 18:-0.849545 19:-0.654845 20:-0.0655738 21:-0.246672 22:-0.2 23:-0.473684 24:-0.368422 25:-0.362902 26:-0.756098 
2 1:0.101225 2:0.0579068 3:0.333334 4:0.825758 5:0.0691797 6:-0.01789 7:0.666666 8:-0.903901 9:-0.742687 10:-0.360851 11:-0.800845 12:0.221184 13:0.544978 14:-0.136364 15:0.333334 16:0.666666 17:-0.107142 18:-0.193466 19:-0.292975 20:-0.639344 21:0.4277 22:-0.217392 23:-0.5 24:0.666666 25:-0.645892 26:-0.626016 
1.177741158859241 1:0.345846 2:0.0327965 3:0.166666 4:0.651514 5:-0.119496 6:0.0254228 7:0.333334 8:-0.942355 9:-0.796295 10:-0.144854 11:-0.665122 12:0.17757 13:0.184086 14:-0.19403 15:0.5 16:0.5 17:0.071429 18:-0.229322 19:-0.5788 20:-0.45082 21:0.181736 22:-0.246376 23:-0.5 24:0.5 25:-0.499076 26:-0.439024 
2 1:0.394021 2:0.233025 3:-0.2 4:0.372727 5:0.0566016 6:-0.507344 7:-0.1 8:-0.742427 9:-0.478764 10:-0.547515 11:-0.744451 12:0.158879 13:-0.019132 14:-0.253732 15:-0.9 16:-0.8 17:-0.892857 18:-0.993496 19:-0.98625 20:-0.45082 21:-0.194894 22:-0.449276 23:-1 24:-0.8 25:-0.997714 26:-0.439024 
0.9916914198164122 1:0.328541 2:-0.203975 3:0.5 4:0.825758 5:-0.308176 6:-0.147835 7:0.666666 8:-0.802521 9:-0.757633 10:-0.643594 11:-0.330187 12:0.277259 13:0.571286 14:-0.14754 15:0.5 16:0.833334 17:0.607143 18:-0.227692 19:0.03712 20:-0.5 21:-1 22:-1 23:-1 24:-1 25:-1 26:-0.98374 
0.4787765407635414 1:0.186865 2:-0.255724 3:0.818182 4:0.809918 5:-0.245282 6:-0.0868018 7:0.636364 8:-0.871439 9:-0.928607 10:-0.492388 11:-0.386527 12:0.314642 13:0.201446 14:-0.424242 15:0.636364 16:0.818182 17:0.168833 18:-0.161788 19:-0.624015 20:-0.459016 21:1 22:1 23:0.636364 24:0.636364 25:1 26:-0.926829 
2 1:0.600642 2:0.243673 3:0.538462 4:0.678322 5:-0.303338 6:0.180355 7:0.23077 8:-0.866677 9:-0.808119 10:-0.0887065 11:-0.514627 12:0.208723 13:-0.245554 14:-0.233334 15:0.076924 16:0.23077 17:-0.67033 18:-0.576908 19:-0.96574 20:-0.508197 21:-0.25191 22:-0.278688 23:-0.23077 24:0.23077 25:-0.598966 26:-0.504065 
2 1:-0.247397 2:-0.109398 3:-0.263158 4:0.669856 5:0.191654 6:-0.586679 7:-0.157894 8:-0.985542 9:-0.608341 10:-0.696142 11:-0.877479 12:0.327103 13:-0.593998 14:-0.459016 15:-0.368422 16:-0.157894 17:-0.661653 18:-0.924078 19:-0.974466 21:-0.6965 22:-0.548388 23:-0.68421 24:-0.157894 25:-0.940442 26:0.00813008 
2 1:-0.123358 2:-0.0805611 3:0.272728 4:0.809918 5:-0.176672 6:0.102207 7:0.454546 8:-0.772938 9:-0.858681 10:-0.550586 11:-0.855268 12:0.227414 13:0.4083 14:-0.22807 15:0.454546 16:0.818182 17:0.363638 18:-0.367656 19:-0.28017 20:-0.532787 21:0.399152 22:-0.288136 23:-0.818182 24:0.818182 25:-0.828076 26:-0.520325 
2 1:-0.171988 2:-0.306692 3:-0.333334 4:0.767677 5:0.0901465 6:-0.617075 7:-0.333334 8:-0.97233 9:-0.30936 10:-0.84788 11:-0.97647 12:0.333333 13:-0.09435 14:-0.293234 16:0.111112 17:-0.761905 18:-0.607508 19:-0.95036 20:0.0901639 21:-0.336752 22:-0.585186 23:-0.555556 24:-0.222222 25:-0.678872 26:0.097561 
0.1562462099008092 1:0.0476284 2:0.049158 3:-0.111112 4:0.535354 5:-0.0775674 6:-0.386065 8:-0.972103 9:-0.692087 10:-0.273352 11:-0.938696 12:0.277259 13:-0.09275 14:-0.322034 15:-0.666666 16:0.222222 17:0.071429 18:-0.935959 19:-0.418363 20:-0.0327869 21:-0.419904 22:-0.583334 23:-0.555556 24:-0.222222 25:-0.776442 26:-0.0243902 
1.616483308844131 1:-0.0134609 2:-0.0630841 3:0.076924 4:0.356644 5:-0.245282 6:-0.159498 7:0.23077 8:-0.959303 9:-0.295283 10:-0.786089 11:-0.898909 12:0.158879 13:0.314668 14:-0.212122 15:0.538462 16:0.692308 17:-0.175825 18:-0.348172 19:-0.401827 20:-0.459016 21:0.21411 22:-0.382352 23:-0.384616 24:0.538462 25:-0.874641 26:-0.447154 
2 1:-0.267058 2:-0.16744 3:-0.222222 4:0.767677 5:-0.0356387 6:-0.50157 7:0.111112 8:-0.982407 9:-0.648105 10:-0.675504 11:-0.880971 12:0.370717 13:0.214424 14:-0.092784 15:-0.555556 16:0.222222 17:0.071429 18:-0.921022 19:-0.263737 20:-0.204918 21:-0.045982 22:-0.353536 23:-0.444444 24:0.222222 25:-0.608412 26:-0.195122 
2 1:0.276216 2:0.461975 3:0.846154 4:0.839161 5:-0.0130589 6:0.220337 7:0.538462 8:-0.615443 9:-0.793227 10:-0.422073 11:-0.801772 12:0.202492 13:0.74166 14:0.190476 15:0.23077 16:0.692308 17:-0.0109896 18:-0.076942 19:0.0416959 20:-0.655738 21:0.871294 22:0.333334 23:-0.538462 24:-0.538462 25:0.850272 26:-0.95122 
2 1:-0.0852682 2:-0.369061 3:-0.384616 4:0.678322 5:-0.419448 6:-0.239461 7:0.384616 8:-0.984469 9:-0.777943 10:-0.544802 11:-0.675211 12:0.302181 13:-0.14257 14:-0.301588 15:-0.538462 16:-0.384616 17:-0.67033 18:-0.850249 19:-0.990363 20:-0.483607 21:-0.198812 22:-0.384616 23:-0.846154 24:-0.384616 25:-0.856579 26:-0.471545 
2 1:-0.0715024 2:0.0297563 3:-0.142858 4:0.551947 5:-0.460916 6:-0.169491 7:0.142858 8:-0.930846 9:-0.909952 10:-0.330431 11:-0.808594 12:0.0654206 13:-0.141806 14:-0.492538 15:-0.571428 16:-0.571428 17:-1 18:-0.764954 19:-1 20:-0.45082 21:-0.42688 22:-0.68116 23:-0.714286 24:-0.714286 25:-0.87503 26:-0.439024 
2 1:-0.0646817 2:-0.155177 3:0.384616 4:0.839161 5:-0.477504 6:-0.239461 7:0.384616 8:-0.80101 9:-0.934186 10:-0.538609 11:-0.68711 12:0.152648 13:-0.350092 14:-0.363636 15:0.076924 16:0.538462 17:-0.0109896 18:-0.816713 19:-0.677965 20:-0.278689 21:-0.390166 22:-0.370786 23:-0.846154 24:0.538462 25:-0.977374 26:-0.276423 
2 1:-0.331652 2:-0.180446 3:-0.333334 4:0.601732 5:-0.0296489 6:-0.70783 7:-0.238096 8:-0.9477 9:-0.698433 10:-0.77637 11:-0.82291 12:0.233645 13:-0.42252 14:-0.432624 15:-0.52381 16:0.142858 17:-0.285715 18:-0.909113 19:-0.842002 20:0.155738 21:-0.583558 22:-0.622378 23:-0.809524 24:-0.04762 25:-0.986199 26:0.162602 
0.9459480964831253 1:-0.104955 2:-0.0946874 3:0.636364 4:0.809918 5:-0.313893 6:-0.0631758 7:0.636364 8:-0.859168 9:-0.813382 10:-0.504258 11:-0.841365 12:0.133956 13:0.238546 14:-0.152542 15:0.272728 16:0.818182 17:0.558443 18:-0.477632 19:-0.213746 20:-0.516393 21:0.972654 22:0.777778 23:-1 24:0.454546 25:-0.921134 26:-0.926829 
0.2744141442174752 1:-0.15194 2:-0.369462 4:0.825758 5:-0.371068 6:-0.27778 7:0.666666 8:-0.956248 9:-0.33936 10:-0.877667 11:-0.905237 12:0.258567 13:-0.20648 14:-0.217392 15:-0.333334 16:0.5 17:0.607143 18:-0.954978 19:-0.48961 20:-0.434426 21:-0.469308 22:-0.380282 23:-0.166666 24:0.5 25:-0.718954 26:-0.422764 
2 1:-0.31381 2:-0.0779663 3:-0.5 4:0.581818 5:-0.132075 6:-0.663277 7:-0.1 8:-0.959763 9:-0.692851 10:-0.729991 11:-0.847366 12:0.0841121 13:-0.36215 14:-0.460318 15:-0.5 17:-0.142857 18:-0.879703 19:-0.62906 20:0.0327869 21:-0.621804 22:-0.671876 23:-0.6 24:-0.1 25:-0.810478 26:0.0406504 
1.736661754176452 1:-0.194823 2:-0.168531 3:0.111112 4:0.535354 5:-0.0356387 6:-0.689265 7:-0.222222 8:-0.796272 9:-0.664163 10:-0.754262 11:-0.901941 12:0.127726 13:-0.530868 14:-0.49315 15:0.111112 16:0.222222 17:-0.52381 18:-0.850007 19:-0.910955 20:0.196721 21:-0.68346 22:-0.662162 23:-0.444444 24:0.111112 25:-0.925635 26:0.203252 
0.8880570958635581 1:0.328024 2:0.219082 3:0.384616 4:0.678322 5:0.103048 6:-0.019559 7:0.384616 8:-0.692341 9:-0.868504 10:-0.495183 11:-0.492931 12:0.183801 13:-0.204124 14:-0.205128 15:0.076924 16:0.692308 17:0.318683 18:-0.777936 19:-0.568097 20:-0.360656 21:-0.36784 22:-0.392406 23:-1 24:0.538462 25:-0.949049 26:-0.357724 
2 1:-0.0700701 2:-0.105034 3:0.454546 4:0.809918 5:0.234991 6:-0.134054 7:0.636364 8:-0.926964 9:-0.506605 10:-0.739572 11:-0.811572 12:0.214953 13:0.078208 14:-0.137254 15:0.454546 16:0.818182 17:0.168833 18:-0.30202 19:-0.55736 20:-0.581967 21:0.059058 22:-0.245284 23:-0.636364 24:0.818182 25:-0.585442 26:-0.569106 
2 1:0.0201426 2:-0.221481 3:-0.4 4:0.581818 5:-0.0943389 6:-0.572317 7:0.1 8:-0.851601 9:-0.623911 10:-0.559959 11:-0.862047 12:0.433022 13:-0.33361 14:-0.385826 15:-0.7 16:-0.5 17:-0.571428 18:-0.921667 19:-0.950854 20:0.0409836 21:-0.449476 22:-0.51938 23:-0.9 24:-0.5 25:-0.957749 26:0.0487805 
2 1:0.298538 2:0.0406871 3:0.666666 4:0.825758 5:-0.371068 6:0.0903952 7:0.833334 8:-0.732876 9:-0.913496 10:-0.515668 11:-0.407368 12:0.252336 13:-0.365488 14:-0.454546 15:-0.166666 16:-0.166666 17:-0.821429 18:-0.716414 19:-0.997437 20:-0.54918 21:-0.456392 22:-0.6 23:-1 24:-1 25:-1 26:-0.95935 
2 1:-0.365037 2:-0.233478 3:-0.222222 4:0.535354 5:0.0482227 6:-0.617075 7:-0.111112 8:-0.896237 9:-0.677555 10:-0.809943 11:-0.903485 12:0.28972 13:-0.028702 14:-0.213114 15:-0.222222 16:0.111112 17:-0.0476197 18:-0.846114 19:-0.602233 21:-0.33354 22:-0.5 23:-0.888889 25:-0.880298 26:0.00813008 
2 1:-0.142067 2:-0.141459 3:-0.384616 4:0.517483 5:-0.419448 6:-0.159498 7:0.23077 8:-0.976359 9:-0.86764 10:-0.521108 11:-0.672748 12:0.121495 13:0.237744 14:-0.171428 15:-0.384616 16:-0.076924 17:-0.175825 18:-0.743288 19:-0.736808 20:-0.42623 21:0.13457 22:-0.305556 23:-0.692308 24:-0.23077 25:-0.969597 26:-0.414634 
0.9805617357461325 1:0.362747 2:0.2188 3:0.454546 4:0.809918 5:0.303602 6:0.125833 7:0.636364 8:-0.79038 9:-0.551656 10:-0.557071 11:-0.633359 12:0.140187 13:0.47858 14:-0.192308 15:0.818182 16:0.818182 17:-0.0259747 18:0.037734 19:-0.538459 20:-0.57377 21:0.970122 22:0.428572 23:-0.09091 24:-0.09091 25:0.970122 26:-0.943089 
2 1:-0.298216 2:0.0690787 4:0.883837 5:0.0482227 6:-0.386065 7:0.111112 8:-0.930869 9:-0.656079 10:-0.793566 11:-0.832999 12:0.339564 13:-0.560626 14:-0.538462 15:-0.666666 16:-0.444444 17:-0.761905 18:-0.932945 19:-0.895119 20:-0.467213 21:-0.560018 22:-0.522388 23:-0.888889 24:-0.444444 25:-0.999989 26:-0.455285 
2 1:0.266081 2:-0.233478 3:0.5 4:0.825758 5:-0.245282 6:-0.126179 7:0.166666 8:-0.824192 9:-0.550585 10:-0.582374 11:-0.676511 12:0.28972 13:0.366108 14:-0.157894 15:0.5 16:0.833334 17:0.25 18:-0.281046 19:-0.327806 20:-0.532787 21:0.327262 22:-0.220338 23:-0.666666 24:0.833334 25:-0.711096 26:-0.520325 
0.679698008931069 1:-0.0671488 2:-0.129045 3:0.5 4:0.825758 5:0.00628906 6:-0.299436 7:0.666666 8:-0.927063 9:-0.746026 10:-0.672767 11:-0.612846 12:0.165109 13:-0.067892 14:-0.424242 15:0.5 16:0.5 17:-0.464286 18:-0.290006 19:-0.822254 20:-0.459016 21:-0.071396 22:-0.470588 24:0.5 25:-0.404186 26:-0.447154 
2 1:-0.0352374 2:-0.221881 3:0.454546 4:0.809918 5:-0.176672 6:-0.228558 7:0.636364 8:-0.898798 9:-0.548543 10:-0.638311 11:-0.869185 12:0.140187 13:-0.821944 14:-0.74074 15:-1 16:-0.818182 17:-0.805195 18:-1 19:-0.996322 20:-0.557377 21:-0.887639 22:-0.821429 23:-0.818182 24:-0.818182 25:-0.997651 26:-0.544715 
2 1:-0.0258251 2:-0.242591 3:-0.625 4:0.738636 5:0.0849072 6:-0.429378 8:-0.992961 9:-0.268976 10:-0.754923 11:-0.939449 12:0.339564 13:-0.513614 14:-0.505154 15:-0.875 16:-0.375 17:-0.330357 18:-0.99723 19:-0.789298 20:-0.204918 21:-0.579212 22:-0.555556 23:-0.875 24:-0.5 25:-0.892596 26:-0.195122 
2 1:0.389973 2:-0.176511 4:0.651514 5:0.194971 6:-0.429378 8:-0.91541 9:-0.56524 10:-0.177889 11:-0.869352 12:0.0218069 13:0.12014 14:-0.32 17:-0.464286 18:-0.62827 19:-0.896726 20:-0.180328 21:-0.010714 22:-0.445544 23:-0.5 25:-0.694396 26:-0.178862 
0.8682983746240476 1:0.412162 2:0.366025 3:0.8 4:0.790909 5:-0.320754 6:0.142371 7:0.8 8:-0.762833 9:-0.702819 10:-0.528342 11:-0.47071 12:-0.133956 13:0.7455 14:0.17647 15:1 16:1 17:0.285715 18:0.151632 19:-0.337483 20:-0.721311 21:1 22:1 23:0.8 24:0.8 25:1 26:-0.926829 
2 1:-0.292147 2:0.0865966 3:-0.384616 4:0.678322 5:0.567487 6:-0.479357 7:-0.076924 8:-0.904425 9:-0.557618 10:-0.80596 11:-0.952682 12:-0.0716511 13:-0.246506 14:-0.375 15:-0.692308 16:-0.23077 17:-0.505495 18:-0.961922 19:-0.818494 20:-0.213115 21:-0.519086 22:-0.571428 23:-0.846154 24:-0.23077 25:-0.922071 26:-0.203252 
2 1:0.161897 2:0.206778 3:0.2 4:0.860605 5:0.308174 6:-0.593973 7:0.2 8:-0.839347 9:-0.453696 10:-0.737392 11:-0.712751 12:-0.0716511 13:-0.61986 14:-0.658536 15:-0.866667 16:-0.466666 17:-0.571428 18:-0.912714 19:-0.769922 20:-0.663934 21:-0.636388 22:-0.666666 23:-0.866667 24:-0.866667 25:-0.636388 26:-0.95122 
2 1:0.570617 2:0.219948 3:0.777778 4:0.767677 5:-0.32914 6:0.162584 7:0.777778 8:-0.756818 9:-0.853325 10:-0.45571 11:-0.212241 12:-0.152648 13:0.603432 14:0.272728 15:0.777778 16:1 17:0.190478 18:0.14211 19:-0.286951 20:-0.819672 21:1 22:1 23:-0.777778 24:-0.333334 25:0.509788 26:-0.97561 
2 1:-0.0106663 2:0.15393 3:-0.333334 4:0.721213 5:0.0566016 6:-0.611298 7:0.2 8:-0.894799 9:-0.609206 10:-0.692352 11:-0.718096 12:-0.190031 13:-0.554936 14:-0.4375 15:-1 16:-1 17:-1 18:-1 19:-1 20:-0.737705 21:0.132146 22:-0.333334 23:-1 24:-1 25:-1 26:-0.97561 
2 1:0.426605 2:-0.127946 3:0.25 4:1 5:0.509434 6:-0.201979 7:0.75 8:-0.721774 9:-0.710273 10:-0.504597 11:-0.518186 12:-0.127726 13:0.473394 14:-0.25926 15:0.75 16:0.75 17:-0.464286 18:0.182528 19:-0.569176 20:-0.778689 21:1 22:1 23:-0.5 25:-0.636158 26:-0.96748 
2 1:0.561975 2:0.24065 3:-0.23077 4:0.839161 5:0.683604 6:-0.399393 7:0.23077 8:-0.81609 9:-0.121282 10:-0.708702 11:-0.699342 12:-0.0342679 13:0.104668 14:-0.44 15:-0.076924 16:0.23077 17:-0.175825 18:-0.46914 19:-0.388715 20:-0.385246 21:1 22:1 23:-0.076924 24:-0.076924 25:1 26:-0.95122 
1.40971032441605 1:0.454185 2:-0.102566 3:0.555556 4:0.767677 5:-0.66457 6:-0.0106734 7:0.777778 8:-0.838815 9:-0.827326 10:-0.511199 11:-0.218448 12:-0.127726 13:0.678474 14:0.055556 15:1 16:1 17:0.190478 18:-0.018736 19:-0.430893 20:-0.704918 21:1 22:1 23:-0.555556 24:-0.555556 25:0.17737 26:-0.97561 
2 1:-0.0364688 2:-0.198013 3:-0.066666 4:0.721213 5:-0.345911 6:-0.472694 7:-0.2 8:-0.940091 9:-0.190487 10:-0.880697 11:-0.958884 12:0.0404984 13:-0.171816 14:-0.364706 15:-0.2 16:-0.066666 17:-0.571428 18:-0.685256 19:-0.845301 20:-0.303279 21:-0.223252 22:-0.471264 23:-0.6 24:-0.066666 25:-0.784354 26:-0.292683 
2 1:0.0936528 2:-0.127946 3:0.555556 4:0.767677 5:-0.32914 6:-0.126179 7:0.555556 8:-0.785024 9:-0.742076 10:-0.709528 11:-0.555374 12:-0.127726 13:0.582176 14:0.027028 15:0.777778 16:0.777778 17:0.190478 18:0.016218 19:-0.374162 20:-0.696721 21:0.541406 22:-0.076924 23:-0.333334 24:0.777778 25:-0.384758 26:-0.682927 
2 1:-0.0732883 2:-0.340424 3:-0.142858 4:0.701299 5:-0.299191 6:-0.577885 8:-0.835777 9:-0.62316 10:-0.67815 11:-0.853371 12:0.00934579 13:0.022234 14:-0.309524 16:0.428572 17:0.224491 18:-0.549882 19:-0.358141 20:-0.311475 21:0.928324 22:0.333334 23:-1 25:-0.723704 26:-0.878049 
2 1:0.324375 2:0.231124 3:0.777778 4:0.767677 5:-0.496854 6:0.249213 7:0.555556 8:-0.826005 9:-0.926108 10:-0.494824 11:-0.284098 12:-0.158879 13:0.469306 14:-0.111112 15:0.777778 16:0.777778 17:0.428573 18:-0.068116 19:-0.441064 20:-0.631148 21:0.78715 22:0.5 23:-0.555556 24:-0.555556 25:0.768282 26:-0.96748 
2 1:0.471167 2:0.219948 3:0.555556 4:0.767677 5:0.00628906 6:0.0759554 7:0.777778 8:-0.726828 9:-0.52123 10:-0.506707 11:-0.673399 12:-0.152648 13:0.685744 14:0.179488 15:0.777778 16:0.777778 17:0.428573 18:-0.19681 19:-0.22337 20:-0.680328 21:0.537024 22:0.333334 23:-0.111112 24:-0.111112 25:0.537024 26:-0.95122 
2 1:0.258487 2:-0.183756 3:-0.23077 4:0.517483 5:0.277219 6:-0.519341 7:-0.076924 8:-0.924494 9:-0.0456525 10:-0.795567 11:-0.905411 12:0.0280374 13:0.003418 14:-0.435898 15:-0.076924 16:0.23077 17:-0.0109896 18:-0.518418 19:-0.385293 20:-0.360656 21:0.413392 22:0.142858 23:-0.846154 24:-0.538462 25:-0.277608 26:-0.943089 
0.7949373256067761 1:0.677464 2:-0.0538164 3:0.777778 4:0.767677 5:-0.412997 6:-0.0395497 7:0.777778 8:-0.732637 9:-0.713785 10:-0.558292 11:-0.163507 12:-0.109034 13:0.65172 14:0.117648 15:0.777778 16:0.777778 17:0.428573 18:0.058976 19:-0.263731 20:-0.721311 21:0.83201 22:0.777778 23:0.555556 24:0.555556 25:0.829934 26:-0.926829 
0.1800489490082338 1:0.481915 2:0.572329 3:0.8 4:0.790909 5:0.13208 6:0.142371 7:0.6 8:-0.840375 9:-0.719076 10:-0.377463 11:-0.455976 12:-0.17134 13:0.710478 14:0.235294 15:0.6 16:0.6 17:-0.357143 18:0.226456 19:-0.504041 20:-0.721311 21:-0.508802 22:-0.2 23:-0.8 24:-0.8 25:-0.882839 26:-0.95935 
2 1:0.387107 2:-0.178101 3:0.75 4:0.738636 5:-0.433962 6:0.0903952 7:0.5 8:-0.75441 9:-0.742298 10:-0.481665 11:-0.515271 12:-0.0903427 13:-0.20338 14:-0.276596 15:-0.25 16:0.5 17:0.339286 18:-0.608798 19:-0.931037 20:-0.614754 21:-0.466258 22:-0.469388 23:-0.5 24:0.5 25:-0.653374 26:-0.601626 
2 1:0.449124 2:0.160162 3:0.555556 4:0.767677 5:-0.161425 6:0.191461 7:0.555556 8:-0.762905 9:-0.768176 10:-0.49606 11:-0.391748 12:-0.102804 13:0.584282 14:-0.030304 15:0.555556 16:0.777778 17:-0.0476197 18:0.149236 19:-0.480129 20:-0.729508 21:0.553922 23:-0.777778 24:-0.777778 25:0.553922 26:-0.98374 
0.8096776177818563 1:0.378122 2:0.0391793 3:-0.428572 4:0.551947 5:0.671164 6:-0.540758 7:-0.142858 8:-0.907632 9:0.0854574 10:-0.779047 11:-0.956894 12:0.00934579 13:0.163832 14:-0.13924 15:0.571428 16:0.714286 17:0.071429 18:-0.423264 19:-0.544983 20:-0.352459 21:0.968822 22:0.8 23:-0.714286 24:0.142858 25:-0.31742 26:-0.918699 
2 1:0.313959 2:-0.288492 3:-0.2 4:0.442424 5:-0.144653 6:-0.645952 7:-0.466666 8:-0.779311 9:-0.482258 10:-0.560272 11:-0.774488 12:-0.05919 13:0.27254 14:-0.405406 15:-0.333334 16:-0.333334 17:-0.428571 18:-0.458114 19:-0.257985 20:-0.393443 21:1 22:1 23:-0.333334 24:-0.333334 25:1 26:-0.95935 
2 1:0.46918 2:-0.228775 3:-0.166666 4:1 5:0.698115 6:-0.580979 7:-0.5 8:-0.955393 9:0.246935 10:-0.773381 11:-0.990537 12:0.00934579 13:0.032062 14:-0.367088 16:0.5 17:-0.464286 18:-0.422756 19:-0.745177 20:-0.352459 21:-0.283008 22:-0.580246 23:-0.166666 24:-0.166666 25:-0.426682 26:-0.341463 
0.1518737671294349 1:0.318072 2:0.0142121 3:-0.076924 4:0.839161 5:0.393326 6:-0.479357 7:0.076924 8:-0.920958 9:-0.308865 10:-0.632212 11:-0.727949 12:-0.0218069 13:0.36715 14:-0.121952 15:0.538462 16:0.846154 17:-0.0109896 18:-0.426072 19:-0.336047 20:-0.327869 21:0.610532 22:0.4 23:-0.692308 24:-0.076924 25:-0.435994 26:-0.918699 
2 1:0.14421 2:0.0142121 3:0.23077 4:0.517483 5:0.103048 6:-0.459366 7:0.384616 8:-0.888922 9:-0.741553 10:-0.462535 11:-0.658182 12:-0.0218069 13:0.438064 14:-0.038962 15:-0.23077 16:0.23077 17:0.153848 18:-0.876704 19:-0.272229 20:-0.368852 21:0.384204 22:-0.153846 23:-0.692308 24:0.23077 25:-0.658048 26:-0.365854 
2 1:-0.0714129 2:-0.207493 3:-0.4 4:0.581818 5:-0.35849 6:-0.299436 7:0.3 8:-0.978425 9:-0.766798 10:-0.478421 11:-0.752658 12:0.725857 13:-0.275526 14:-0.327102 15:0.1 16:0.1 17:-0.678571 18:-0.592242 19:-0.89574 20:-0.122951 21:-0.305724 22:-0.46789 23:-0.2 24:0.1 25:-0.659114 26:-0.113821 
2 1:-0.299972 2:-0.356373 3:-0.4 4:0.686364 5:-0.169811 6:-0.715256 8:-0.919727 9:-0.672704 10:-0.825152 11:-0.793594 12:0.308411 13:-0.486838 14:-0.57647 15:-0.7 16:0.2 17:0.071429 18:-0.969559 19:-0.776647 20:0.393443 21:-0.64619 22:-0.697674 23:-0.4 24:0.1 25:-0.910131 26:0.398374 
2 1:-0.660087 2:-0.463659 3:-0.333334 4:0.303031 5:0.13208 6:-0.602636 7:-0.333334 8:-0.947516 9:-0.845166 10:-0.81616 11:-0.979298 12:0.0218069 13:-0.05715 14:-0.354838 15:-0.333334 16:-0.166666 17:-0.464286 18:-0.73665 19:-0.858436 20:-0.237705 21:-0.260654 22:-0.536842 23:-0.666666 24:-0.166666 25:-0.807647 26:-0.227642 
2 1:0.438041 2:-0.113141 3:0.75 4:0.738636 5:-0.150942 6:0.0903952 7:0.5 8:-0.837741 9:-0.313964 10:-0.680766 11:-0.627322 12:-0.0841121 13:0.53078 15:0.75 16:0.75 17:0.071429 18:0.101274 19:-0.483204 20:-0.721311 21:1 22:1 23:0.75 24:0.75 25:1 26:-0.943089 
2 1:-0.235284 2:-0.170631 3:-0.142858 4:0.701299 5:0.0242634 6:-0.70783 7:-0.142858 8:-0.945957 9:-0.489004 10:-0.859618 11:-0.861004 12:-0.17134 13:0.036762 14:-0.280898 15:-0.142858 16:0.428572 17:-0.234693 18:-0.480716 19:-0.4644 20:-0.270492 21:-0.230072 22:-0.538462 23:-0.857143 24:0.285714 25:-0.962686 26:-0.260163 
2 1:0.209967 2:0.0456847 3:-0.076924 4:0.839161 5:0.161102 6:-0.579314 7:0.076924 8:-0.850787 9:-0.481257 10:-0.694288 11:-0.663334 12:-0.190031 13:0.25836 14:-0.324324 15:0.076924 16:0.846154 17:0.153848 18:-0.43667 19:-0.300697 20:-0.393443 21:0.562902 22:0.4 23:-0.538462 24:0.076924 25:-0.863323 26:-0.918699 
2 1:-0.106016 2:0.00562273 3:-0.166666 4:1 5:0.257861 6:-0.321093 7:0.166666 8:-0.950453 9:-0.303877 10:-0.814997 11:-0.969996 12:-0.0155763 13:0.111348 14:-0.295774 15:0.5 16:0.833334 17:-0.285715 18:-0.42701 19:-0.716395 20:-0.418033 21:-0.501136 22:-0.671232 23:-0.833333 24:-0.166666 25:-0.896624 26:-0.406504 
0.8561697308159993 1:0.643311 2:0.390669 3:-0.076924 4:0.678322 5:0.161102 6:-0.399393 7:0.076924 8:-0.715136 9:-0.549562 10:-0.439195 11:-0.537819 12:-0.239875 13:0.59039 15:0.384616 16:0.692308 17:0.318683 18:-0.284094 19:0.126067 20:-0.47541 21:0.973952 22:0.75 23:-0.23077 24:0.076924 25:-0.106906 26:-0.934959 
2 1:0.359542 2:0.166124 3:-0.09091 4:0.619835 5:0.646655 6:-0.323062 7:0.09091 8:-0.752833 9:-0.514478 10:-0.491128 11:-0.793588 12:-0.121495 13:-0.115028 14:-0.210526 15:-0.09091 16:0.636364 17:-0.0259747 18:-0.857469 19:-0.679548 20:-0.377049 21:-0.289794 22:-0.410256 23:-1 24:0.636364 25:-0.937676 26:-0.365854 
-2 1:0.0760443 2:-0.391192 3:-0.368422 4:0.559809 5:-0.443892 6:-0.42254 7:0.157894 8:-0.881889 9:-0.924108 10:-0.422301 11:-0.581003 12:0.64486 13:-0.182038 14:-0.37931 15:-0.052632 16:0.368422 17:-0.323309 18:-0.705944 19:-0.752808 20:-0.0491803 21:-0.254684 22:-0.508474 23:-0.68421 24:0.263158 25:-0.87565 26:-0.0406504 
-2 1:0.159356 2:-0.463842 3:-0.076924 4:0.678322 5:-0.477504 6:-0.299436 7:0.23077 8:-0.894897 9:-0.93419 10:-0.458545 11:-0.422323 12:0.358255 13:-0.025534 14:-0.324324 15:0.23077 16:0.538462 17:-0.0109896 18:-0.460364 19:-0.63748 20:-0.393443 21:-0.037588 22:-0.36 23:-0.692308 24:0.538462 25:-0.692284 26:-0.390244 
-2 1:-0.112361 2:-0.109398 3:0.4 4:0.790909 5:-0.0943389 6:0.0903952 7:0.6 8:-0.88296 9:-0.7472 10:-0.581506 11:-0.812005 12:0.165109 13:-0.063342 14:-0.296296 15:-0.4 16:0.2 17:-0.142857 18:-0.883976 19:-0.696881 20:-0.557377 21:-0.158434 22:-0.428572 23:-1 25:-0.943998 26:-0.544715 
-2 1:0.0372161 2:-0.0921907 3:0.25 4:0.738636 5:0.13208 6:-0.201979 8:-0.791638 9:-0.840634 10:-0.566788 11:-0.658179 12:0.576324 13:-0.111114 14:-0.428572 15:-0.125 16:0.375 17:-0.330357 18:-0.622546 19:-0.568929 20:-0.368852 21:-0.111668 22:-0.443038 23:-0.75 24:0.375 25:-0.898253 26:-0.357724 
-2 1:-0.326969 2:-0.334753 3:0.272728 4:0.619835 5:-0.245282 6:-0.370314 7:0.272728 8:-0.875972 9:-0.856935 10:-0.62925 11:-0.882119 12:0.046729 13:-0.218048 14:-0.309524 15:-0.272728 16:0.454546 17:-0.22078 18:-0.920678 19:-0.811118 20:-0.311475 21:-0.40155 22:-0.488372 23:-1 24:0.454546 25:-0.958563 26:-0.300813 
-0.04427867421880378 1:0.396052 2:0.089126 3:1 4:1 5:-0.622642 6:0.220337 7:1 8:-0.266258 9:-0.990924 10:-0.477008 11:-0.772878 12:-0.894081 13:-0.683966 16:1 17:0.071429 18:-0.898681 19:-0.971802 20:-0.95082 21:-0.683966 23:-1 24:1 25:-0.916711 26:-0.95122 
-0.1524645461203371 1:-0.386289 2:-0.306692 3:-0.111112 4:0.303031 5:0.0901465 6:-0.790333 7:-0.777778 8:-0.947773 9:-0.579277 10:-0.799778 11:-0.991765 12:-0.545171 13:1 14:1 15:-0.777778 16:-0.777778 17:-1 18:0.13246 19:-1 20:-0.983607 21:-0.210152 23:-0.777778 24:-0.777778 25:-0.210152 26:-0.98374 
-2 1:0.429948 2:-0.0462527 3:-0.652174 4:0.181819 5:0.0828567 6:-0.62712 7:-0.652174 8:-0.980744 9:0.107514 10:-0.647018 11:-0.989243 12:0.264798 13:-0.391556 14:-0.421052 15:-0.73913 16:-0.652174 17:-0.813665 18:-0.898112 19:-0.768809 20:-0.377049 21:-0.501292 22:-0.142858 23:-1 24:-0.826087 25:-0.815525 26:-0.943089 
-1.57496476056934 1:-0.275868 2:-0.217484 3:-0.555556 4:0.070708 5:-0.133472 6:-0.665203 7:-0.555556 8:-0.922826 9:-0.666149 10:-0.674627 11:-0.937616 12:0.545171 13:-0.405234 14:-0.502222 15:-0.703704 16:-0.481482 17:-0.761905 18:-0.969689 19:-0.948316 20:0.844262 21:-0.530688 22:-0.612334 23:-1 24:-0.555556 25:-0.992328 26:0.845528 
-2 1:-0.153073 2:-0.235415 4:1 5:0.320752 6:-0.65678 8:-0.943652 9:-0.349603 10:-0.896835 11:-0.887705 12:-0.439252 13:-0.145318 14:-0.266666 15:0.75 16:1 17:-0.464286 18:-0.449488 19:-0.960564 20:-0.508197 21:-0.2618 22:-0.409836 24:1 25:-0.647806 26:-0.504065 
-0.2416468628778817 1:0.466208 2:-0.0881616 3:1 4:1 5:-1 6:0.0903952 7:1 8:-0.973992 9:-1 10:-0.521009 11:0.150279 12:-0.900312 13:-1 14:-1 15:-1 16:-1 17:-1 18:-1 19:-1 20:-0.959016 21:-1 22:-1 23:-1 24:-1 25:-1 26:-0.95935 
-2 1:-0.184013 2:-0.0561537 3:0.333334 4:0.825758 5:-0.308176 6:0.263653 7:0.166666 8:-0.894274 9:-0.703473 10:-0.637897 11:-0.865846 12:0.395639 13:-0.426774 14:-0.380282 15:-0.5 16:-0.5 17:-1 18:-0.973045 19:-1 20:-0.418033 21:-0.540072 22:-0.50685 23:-0.666666 24:-0.666666 25:-0.985715 26:-0.406504 
-2 1:-0.0262443 2:-0.367386 3:0.111112 4:0.767677 5:-0.245282 6:-0.386065 7:0.555556 8:-0.944285 9:-0.572607 10:-0.623976 11:-0.797467 12:0.850467 13:-0.457722 14:-0.495328 15:-0.555556 17:-0.166666 18:-0.894419 19:-0.706978 20:-0.122951 21:-0.51451 22:-0.537038 23:-0.555556 24:-0.111112 25:-0.907766 26:-0.121951 
-2 1:-0.376822 2:0.0477646 3:0.333334 4:0.825758 5:-0.308176 6:0.19868 7:0.166666 8:-0.926642 9:-0.887225 10:-0.559369 11:-0.924707 12:0.246106 13:0.111084 14:-0.297298 15:0.333334 16:0.833334 17:0.25 18:-0.37743 19:-0.425403 20:-0.393443 21:0.107362 22:-0.31579 23:-0.833333 24:0.833334 25:-0.745014 26:-0.382114 
-0.09239922937957942 1:0.809592 2:0.0477646 3:1 4:1 5:-0.622642 6:0.220337 7:1 8:-0.976605 9:-0.993147 10:-0.428282 11:0.424723 12:-0.88785 13:-0.506146 14:-0.75 15:-1 17:0.071429 18:-1 19:-0.227677 20:-0.934426 21:-0.506146 22:-0.75 25:-0.506146 26:-0.934959 
-2 1:0.311452 2:0.330662 3:0.5 4:1 5:0.509434 6:-0.0720343 7:0.5 8:-0.854671 9:-0.312837 10:-0.662391 11:-0.771009 12:-0.320872 13:0.170528 14:-0.128206 15:0.5 16:0.75 17:-0.196428 18:-0.293748 19:-0.817697 20:-0.680328 21:0.441936 22:0.5 25:0.207108 26:-0.934959 
-2 1:0.281556 2:-0.00287675 3:0.5 4:0.738636 5:0.13208 6:0.285309 7:0.75 8:-0.877691 9:-0.491089 10:-0.583877 11:-0.665159 12:-0.00934579 13:0.310308 14:-0.288888 15:0.75 16:1 17:0.071429 18:-0.13703 19:-0.452702 20:-0.631148 21:0.572948 22:0.5 24:1 25:0.110216 26:-0.869919 
-2 1:-0.00279542 2:-0.226413 3:-0.703704 4:0.070708 5:0.00628906 6:-0.71333 7:-0.333334 8:-0.972842 9:-0.484115 10:-0.688945 11:-0.76721 12:0.576324 13:-0.153638 14:-0.347826 15:-0.481482 16:-0.185186 17:-0.603175 18:-0.821928 19:-0.725113 20:0.508197 21:-0.352142 22:-0.535136 23:-0.925926 24:-0.25926 25:-0.9771 26:0.504065 
-1.561223433724217 1:0.510106 2:0.208703 3:-0.538462 4:0.517483 5:0.567487 6:-0.719252 7:-0.23077 8:-0.978708 9:0.412311 10:-0.895635 11:-0.96966 12:-0.352025 13:-0.392034 14:-0.6 15:-1 16:-1 17:-1 18:-1 19:-1 20:-0.795082 21:0.591258 22:-0.333334 23:-1 24:-1 25:-1 26:-0.97561 
-0.5515825036214364 1:0.131088 2:-0.25648 3:-0.4 4:0.790909 5:-0.320754 6:-0.091525 7:0.6 8:-0.896325 9:-0.749052 10:-0.429203 11:-0.693079 12:0.0342679 13:-0.064424 14:-0.368422 15:0.2 16:0.8 17:-0.142857 18:-0.617726 19:-0.437846 20:-0.532787 21:1 22:1 23:-0.6 24:-0.2 25:0.66415 26:-0.96748 
-0.02544251083182477 1:-0.155787 2:-0.529922 3:1 4:1 5:-0.245282 6:-0.429378 7:-1 8:-0.516047 9:-0.989238 10:-0.57742 11:-1 12:-0.900312 13:1 14:1 15:1 16:1 17:-1 18:1 19:-1 20:-0.983607 21:1 22:1 23:1 24:1 25:1 26:-0.98374 
-2 1:0.0102063 2:-0.121489 3:0.555556 4:0.767677 5:-0.32914 6:-0.0395497 7:0.555556 8:-0.852697 9:-0.800696 10:-0.628805 11:-0.596594 12:-0.0778816 13:0.015914 14:-0.45 15:0.333334 16:0.777778 17:-0.285715 18:-0.18212 19:-0.777166 20:-0.672131 21:-1 22:-1 23:-1 24:-1 25:-1 26:-0.99187 
-2 1:-0.505861 2:-0.379722 3:-0.666666 4:0.651514 5:-0.119496 6:-0.797552 8:-0.981619 9:-0.769579 10:-0.812433 11:-0.859017 12:-0.352025 13:-0.312474 14:-0.384616 15:-0.833333 16:-0.333334 17:-0.464286 18:-0.967197 19:-0.85362 20:-0.360656 21:-0.614854 22:-0.7 23:-0.5 24:-0.5 25:-0.906502 26:-0.349593 
-2 1:0.626958 2:0.0760376 3:0.09091 4:0.809918 5:0.0977699 6:-0.0631758 7:0.636364 8:-0.667954 9:-0.83527 10:-0.427172 11:-0.300221 12:0.046729 13:0.468918 14:-0.121952 15:0.09091 16:0.818182 17:0.168833 18:-0.311454 19:-0.0864976 20:-0.663934 21:0.46711 22:-0.16279 23:-1 24:0.818182 25:-0.895711 26:-0.650407 
-2 1:0.554126 2:-0.0379616 3:0.2 4:0.790909 5:-0.169811 6:-0.247458 7:0.4 8:-0.956711 9:-0.496956 10:0.0391161 11:-0.958297 12:-0.17134 13:0.325322 14:-0.121952 15:-0.2 17:-0.142857 18:-0.564014 19:-0.409149 20:-0.663934 21:0.168504 22:-0.302326 23:-1 25:-0.94192 26:-0.650407 
-2 1:-0.492036 2:-0.463842 3:0.333334 4:0.825758 5:-0.119496 6:-0.364409 7:0.166666 8:-0.902492 9:-0.892278 10:-0.732925 11:-0.881597 12:0.358255 13:-0.20755 14:-0.355556 15:0.166666 16:0.833334 17:0.071429 18:-0.74308 19:-0.824626 20:-0.262295 21:-0.346632 22:-0.47826 23:-0.833333 24:0.833334 25:-0.855307 26:-0.252033 
-1.269980216936864 1:0.36245 2:-0.576542 3:-0.6 4:0.247273 5:-0.275471 6:-0.756836 7:-0.44 8:-0.998026 9:0.297744 10:-0.883228 11:-0.99732 12:0.669782 13:-0.856784 14:-0.748148 15:-0.92 16:-0.68 17:-0.742857 18:-0.999463 19:-0.979581 20:0.106557 21:-0.886643 22:-0.810219 23:-0.84 24:-0.68 25:-0.98749 26:0.113821 
-2 1:-0.124444 2:-0.181672 3:0.058824 4:0.754011 5:0.0210845 6:-0.314724 7:-0.058824 8:-0.884857 9:-0.578109 10:-0.684811 11:-0.899091 12:0.576324 13:-0.0381 14:-0.359376 15:-0.294118 16:0.529412 17:0.00840322 18:-0.716422 19:-0.586138 20:0.0491803 21:-0.22724 22:-0.538462 23:-0.882353 24:0.294118 25:-0.988288 26:0.0569106 
-2 1:-0.292498 2:-0.219748 3:-0.111112 4:0.535354 5:-0.161425 6:-0.328313 7:0.111112 8:-0.938932 9:-0.763213 10:-0.66428 11:-0.840468 12:0.626168 13:-0.215158 14:-0.365854 15:-1 16:-0.555556 17:-0.52381 18:-1 19:-0.612689 20:0.00819672 21:-0.319078 22:-0.52 23:-0.555556 24:-0.555556 25:-0.752436 26:0.0162602 
-2 1:0.245254 2:-0.221007 3:0.09091 4:0.619835 5:-0.382503 6:-0.0868018 7:0.636364 8:-0.872634 9:-0.983297 10:-0.484288 11:-0.267663 12:0.158879 13:0.207974 14:-0.09434 15:0.636364 16:0.818182 17:0.168833 18:-0.338388 19:-0.686976 20:-0.565574 21:0.19798 22:-0.163636 23:-0.454546 24:0.818182 25:-0.5389 26:-0.552846 
-2 1:0.0613855 2:-0.000424974 3:0.111112 4:0.535354 5:-0.0775674 6:-0.126179 8:-0.835416 9:-0.718286 10:-0.536273 11:-0.754186 12:0.657321 13:-0.143222 14:-0.470588 15:-0.666666 16:-0.444444 17:-0.52381 18:-0.837127 19:-0.772952 20:-0.163934 21:-0.168048 22:-0.538462 23:-0.888889 24:-0.444444 25:-0.982319 26:-0.154472 
-2 1:-0.229424 2:-0.438904 3:-0.444444 4:0.651514 5:0.0901465 6:-0.530447 7:-0.111112 8:-0.817581 9:-0.621722 10:-0.805435 11:-0.90779 12:0.676012 13:-0.236284 14:-0.433628 15:-0.444444 17:-0.285715 18:-0.837547 19:-0.738097 20:-0.0737705 21:-0.50321 22:-0.617392 23:-0.777778 24:-0.111112 25:-0.876154 26:-0.0650407 
-1.383123331260915 1:-0.0848316 2:-0.142399 3:-0.17647 4:0.385026 5:-0.0677021 6:-0.177137 7:-0.058824 8:-0.944077 9:-0.784963 10:-0.472348 11:-0.792034 12:0.619938 13:-0.408964 14:-0.534482 15:-0.411764 16:-0.294118 17:-0.369747 18:-0.961334 19:-0.607547 20:-0.0491803 21:-0.644162 22:-0.661016 23:-0.764706 24:-0.411764 25:-0.871603 26:-0.0406504 
-2 1:0.182361 2:0.107048 3:0.333334 4:0.651514 5:0.383652 6:0.0687389 7:0.333334 8:-0.869257 9:-0.627667 10:-0.530601 11:-0.690268 12:0.28972 13:0.4226 14:-0.272728 15:0.333334 16:0.5 17:0.25 18:-0.22336 19:-0.0687789 20:-0.54918 21:0.85789 22:0.375 23:-0.166666 24:0.5 25:-0.266036 26:-0.869919 
-2 1:0.0889893 2:-0.197167 3:0.285714 4:0.551947 5:0.0242634 6:-0.336563 8:-0.915355 9:-0.425066 10:-0.614575 11:-0.877852 12:0.308411 13:-0.104394 14:-0.406594 15:-0.285714 16:-0.142858 17:-0.540816 18:-0.862907 19:-0.853226 20:-0.254098 21:-0.281844 22:-0.526882 23:-0.857143 24:-0.285714 25:-0.990001 26:-0.243902 
-2 1:0.388561 2:-0.0528193 3:0.333334 4:0.767677 5:0.00628906 6:-0.27056 7:0.777778 8:-0.899015 9:-0.314014 10:-0.718272 11:-0.572673 12:-0.196262 13:0.310352 14:-0.16279 15:1 16:1 17:-0.285715 18:-0.02972 19:-0.686372 20:-0.647541 21:1 22:1 23:-0.555556 24:0.333334 25:0.209048 26:-0.95122 
-2 1:-0.171341 2:-0.289656 3:-0.25 4:0.477273 5:-0.0566025 6:-0.445622 7:0.125 8:-0.883983 9:-0.743943 10:-0.560447 11:-0.903512 12:0.395639 13:-0.216424 14:-0.414142 15:-0.875 16:-0.5 17:-0.464286 18:-0.988183 19:-0.8543 20:-0.188525 21:-0.241404 22:-0.465346 23:-0.5 24:-0.5 25:-0.906918 26:-0.178862 
-2 1:0.480171 2:0.181419 3:1 4:1 5:-0.0296489 6:0.108957 7:0.428572 8:-0.458803 9:-0.835205 10:-0.512173 11:-0.601674 12:-0.339564 13:0.689454 14:0.263158 15:0.428572 16:1 17:0.224491 18:-0.1774 19:0.0788784 20:-0.844262 21:1 22:1 23:-0.142858 24:-0.142858 25:1 26:-0.97561 
-2 1:-0.45711 2:-0.473936 3:-0.68421 4:0.669856 5:-0.126117 6:-0.586679 7:0.368422 8:-0.996227 9:-0.722417 10:-0.788843 11:-0.867778 12:0.663551 13:-0.38172 14:-0.492958 15:-0.473684 16:-0.263158 17:-0.323309 18:-0.857654 19:-0.912889 20:0.163934 21:-0.545342 22:-0.680556 23:-0.789474 24:-0.368422 25:-0.957833 26:0.170732 
-2 1:0.344643 2:-0.349663 4:0.701299 5:0.0781669 6:-0.336563 7:0.142858 8:-0.874291 9:-0.635237 10:-0.530671 11:-0.495513 12:0.495327 13:0.111706 14:-0.421052 16:0.571428 17:-0.234693 18:-0.485378 19:-0.456696 20:-0.377049 21:0.684246 22:0.571428 23:-0.857143 24:0.285714 25:-0.735058 26:-0.886179 
-0.8317066945530726 1:0.420891 2:-0.280904 3:-0.461538 4:0.276223 5:-0.0711164 6:-0.719252 7:-0.615384 8:0.0121016 9:-0.777669 10:-0.760799 11:-0.979737 12:0.507788 13:-0.734068 14:-0.590164 15:-0.923077 16:-0.846154 17:-0.917582 18:-0.999847 19:-0.949801 21:-0.815251 22:-0.67742 23:-0.923077 24:-0.923077 25:-0.967917 26:0.00813008 
-2 1:0.0202583 2:-0.1381 3:-0.333334 4:0.581818 5:-0.345911 6:-0.230133 7:0.466666 8:-0.977069 9:-0.587538 10:-0.636219 11:-0.678933 12:0.302181 13:0.10942 14:-0.25641 15:0.2 16:0.6 17:-0.142857 18:-0.65214 19:-0.547085 20:-0.360656 21:-0.19193 22:-0.425 23:-0.733334 24:0.2 25:-0.987485 26:-0.349593 
-2 1:0.598107 2:-0.32524 3:0.166666 4:0.651514 5:0.509434 6:-0.472694 7:0.166666 8:-0.64946 9:-0.739365 10:-0.60834 11:-0.259909 12:0.271028 13:-0.148916 14:-0.493334 15:0.166666 16:0.666666 17:0.071429 18:-0.581972 19:-0.392775 20:-0.385246 21:-0.166356 22:-0.584416 23:-0.833333 24:0.5 25:-0.965758 26:-0.373984 
-2 1:0.0397772 2:-0.108021 3:0.23077 4:0.678322 5:-0.303338 6:-0.0395497 7:0.076924 8:-0.888494 9:-0.867921 10:-0.275179 11:-0.840385 12:0.28972 13:0.068992 14:-0.352942 15:-0.076924 16:0.538462 17:-0.175825 18:-0.562598 19:-0.631865 20:-0.442623 21:0.05419 22:-0.428572 23:-0.692308 24:0.384616 25:-0.792596 26:-0.430894 
-2 1:0.261734 2:-0.435394 4:0.402598 5:-0.622642 6:-0.37369 7:0.285714 8:-0.952679 9:-0.276424 10:-0.636933 11:-0.78668 12:0.29595 13:-0.012092 14:-0.1875 16:0.428572 17:-0.0816332 18:-0.577126 19:-0.703885 20:-0.47541 21:-0.09072 22:-0.272728 23:-0.857143 24:0.428572 25:-0.766594 26:-0.463415 
-2 1:0.285471 2:-0.168151 3:-0.076924 4:0.839161 5:-0.187228 6:-0.199479 7:0.076924 8:-0.848375 9:-0.610765 10:-0.492072 11:-0.66048 12:0.202492 13:0.254348 14:-0.35065 15:-0.076924 16:0.846154 17:-0.0109896 18:-0.529558 19:-0.169195 20:-0.368852 21:0.245802 22:-0.392406 23:-1 24:0.846154 25:-0.939226 26:-0.357724 
-0.8399419754599833 1:-0.154222 2:0.0490804 3:-0.25 4:0.346591 5:-0.339622 6:-0.0557903 7:0.125 8:-0.951896 9:-0.857996 10:-0.479656 11:-0.770257 12:0.358255 13:-0.15686 14:-0.48718 15:-0.375 16:-0.25 17:-0.732143 18:-0.571474 19:-0.870571 20:-0.360656 21:-0.352014 22:-0.55 23:-0.625 24:-0.375 25:-0.69027 26:-0.349593 
-2 1:0.42076 2:0.000849947 3:0.75 4:1 5:-0.528302 6:-0.0720343 7:0.75 8:-0.578456 9:-0.915192 10:-0.402962 11:-0.565951 12:-0.29595 13:0.619896 15:0.5 16:0.75 17:0.339286 18:-0.070252 19:0.0793006 20:-0.819672 21:1 22:1 23:-0.75 24:-0.25 25:-0.255596 26:-0.97561 
-2 1:-0.217479 2:-0.31625 3:-0.375 4:0.607955 5:0.226416 6:-0.364409 7:0.375 8:-0.986781 9:-0.674964 10:-0.644847 11:-0.824711 12:0.682243 13:-0.42169 14:-0.4 15:-0.75 16:-0.25 17:-0.196428 18:-0.955109 19:-0.835761 20:-0.0163934 21:-0.610532 22:-0.557378 23:-0.375 24:-0.25 25:-0.896618 26:-0.00813008 
-1.662422793126007 1:0.10374 2:-0.267729 3:0.384616 4:0.517483 5:0.219156 6:-0.139504 7:-0.076924 8:-0.911873 9:-0.191722 10:-0.805662 11:-0.91603 12:0.551402 13:-0.487742 14:-0.486486 15:-0.384616 16:-0.23077 17:-0.34066 18:-0.741288 19:-0.803449 20:-0.393443 21:-0.500296 22:-0.526316 23:-1 24:-0.23077 25:-0.867056 26:-0.382114 
-0.8753654484192153 1:0.302239 2:-0.196268 3:-0.076924 4:0.839161 5:-0.0130589 6:-0.139504 7:0.076924 8:-0.937262 9:-0.690809 10:-0.128852 11:-0.855759 12:0.345794 13:-0.216392 14:-0.288136 15:-0.384616 16:-0.23077 17:-0.835165 18:-0.675028 19:-0.980471 20:-0.516393 21:-0.236838 22:-0.344262 23:-0.384616 24:-0.384616 25:-0.675296 26:-0.504065 
-2 1:-0.0475142 2:-0.059811 3:0.09091 4:0.619835 5:0.0977699 6:-0.181306 7:0.272728 8:-0.906924 9:-0.494414 10:-0.744477 11:-0.817016 12:0.0342679 13:0.099452 14:-0.307692 15:0.454546 16:0.454546 17:-0.61039 18:-0.355834 19:-0.781632 20:-0.57377 21:0.051866 22:-0.407408 23:0.09091 24:0.454546 25:-0.49587 26:-0.560976 
-2 1:0.345881 2:-0.180193 3:0.454546 4:0.809918 5:0.0291593 6:-0.0395497 7:0.09091 8:-0.751526 9:-0.812946 10:-0.46133 11:-0.507385 12:0.252336 13:0.44595 14:-0.192982 15:-0.09091 16:0.272728 17:-0.22078 18:-0.334528 19:-0.277533 20:-0.532787 21:0.974148 22:0.666666 23:-0.818182 24:-0.272728 25:-0.918198 26:-0.95122 
-1.470481098087786 1:-0.0279713 2:-0.268318 3:0.2 4:0.790909 5:-0.0188672 6:-0.299436 7:0.2 8:-0.96186 9:-0.683664 10:-0.523023 11:-0.766823 12:-0.0155763 13:-0.768644 14:-0.660378 15:-0.6 16:-0.6 17:-1 18:-0.983569 19:-1 20:-0.565574 21:-0.880096 22:-0.781818 23:-0.6 24:-0.6 25:-0.983589 26:-0.552846 
-1.832704816976749 1:0.0332119 2:-0.186024 3:-0.642858 4:0.178572 5:-0.0566025 6:-0.661422 7:-0.5 8:-0.971939 9:-0.353706 10:-0.729025 11:-0.830467 12:0.619938 13:-0.3347 14:-0.454546 15:-0.928571 16:-0.714286 17:-0.770408 18:-0.904492 19:-0.84328 20:-0.0983607 21:-0.576726 22:-0.678572 23:-0.857143 24:-0.857143 25:-0.907308 26:-0.0894309 
-0.2173328774812749 1:-0.0222139 2:-0.143 3:-0.6875 4:0.0198863 5:0.0377344 6:-0.746116 7:-0.5 8:-0.933845 9:-0.488492 10:-0.60639 11:-0.918744 12:0.676012 13:-0.478874 14:-0.482994 15:-0.75 16:-0.625 17:-0.732143 18:-0.986267 19:-0.885919 20:0.204918 21:-0.603762 22:-0.597316 23:-0.9375 24:-0.625 25:-0.950554 26:0.211382 
-2 1:0.361064 2:-0.083205 3:0.555556 4:0.767677 5:0.0901465 6:-0.241684 7:0.333334 8:-0.67029 9:-0.76059 10:-0.584256 11:-0.503338 12:-0.158879 13:0.156274 14:-0.227272 15:0.555556 16:1 17:0.428573 18:-0.40813 19:-0.21805 20:-0.639344 21:0.087268 22:-0.347826 23:-1 24:0.777778 25:-0.93825 26:-0.626016 
-2 1:-0.202814 2:-0.336996 3:0.076924 4:0.678322 5:0.161102 6:-0.359409 7:0.076924 8:-0.914263 9:-0.58331 10:-0.699139 11:-0.931889 12:0.370717 13:-0.595838 14:-0.621052 15:-1 16:-0.692308 17:-0.67033 18:-1 19:-0.948193 20:-0.221311 21:-0.799212 22:-0.793814 23:-0.692308 24:-0.692308 25:-0.9669 26:-0.211382 
-0.09100838252810821 1:0.448681 2:-0.417181 3:1 4:1 5:-0.622642 6:-0.0395497 7:1 8:-0.846591 9:-0.999024 10:-0.408466 11:-0.136619 12:-0.831776 13:0.99888 14:0.5 16:1 17:0.071429 18:-0.6 19:1 20:-0.967213 21:-1 22:-1 23:-1 24:-1 25:-1 26:-1 
-2 1:0.199736 2:-0.0771859 3:0.25 4:0.738636 5:-0.150942 6:0.0903952 7:0.75 8:-0.700873 9:-0.662019 10:-0.603564 11:-0.7384 12:-0.127726 13:0.253672 15:0.25 16:1 17:0.607143 18:-0.54555 19:0.100235 20:-0.754098 21:0.25211 22:-0.0625 23:-0.75 24:1 25:-0.751226 26:-0.739837 
-0.9527048413804586 1:-0.248712 2:-0.381479 3:0.4 4:0.581818 5:-0.471697 6:-0.247458 7:0.2 8:-0.803859 9:-0.93894 10:-0.702013 11:-0.702172 12:0.0280374 13:-0.014824 14:-0.278688 15:0.2 16:0.6 17:0.071429 18:-0.59483 19:-0.494383 20:-0.5 21:-0.015642 22:-0.301588 23:-0.8 24:0.6 25:-0.91821 26:-0.487805 
-2 1:-0.0502325 2:-0.346174 4:0.651514 5:0.383652 6:-0.407722 7:0.166666 8:-0.85392 9:-0.625366 10:-0.690575 11:-0.791309 12:0.29595 13:0.147944 14:-0.269842 16:0.166666 17:-0.107142 18:-0.507902 19:-0.519874 20:-0.483607 21:0.09485 22:-0.323076 23:-0.833333 24:0.166666 25:-0.815049 26:-0.471545 
-2 1:-0.059743 2:-0.111069 3:0.6 4:0.790909 5:0.207549 6:-0.195482 7:0.4 8:-0.775624 9:-0.805157 10:-0.661031 11:-0.719277 12:0.0404984 13:-0.011578 14:-0.295774 15:0.4 16:0.6 17:0.285715 18:-0.603938 19:-0.542925 20:-0.418033 21:-0.01374 22:-0.369864 23:-0.8 24:0.6 25:-0.896268 26:-0.406504 
-0.4687197872224579 1:-0.275944 2:-0.589876 3:-1 4:1 5:-0.622642 6:-0.429378 7:1 8:-1 9:-0.996128 10:-0.842888 11:-0.294053 12:-0.912773 13:1 14:1 15:1 16:1 17:-1 18:1 19:-1 20:-0.983607 21:1 22:1 23:1 24:1 25:1 26:-0.98374 
-2 1:-0.0265696 2:-0.344041 3:-0.142858 4:0.601732 5:-0.532794 6:-0.460319 7:-0.04762 8:-0.852976 9:-0.828244 10:-0.575838 11:-0.664931 12:0.638629 13:-0.221254 14:-0.421876 15:-0.52381 16:-0.142858 17:-0.489796 18:-0.828916 19:-0.728968 20:0.0491803 21:-0.28492 22:-0.523076 23:-1 24:-0.142858 25:-0.997776 26:0.0569106 
-2 1:0.667039 2:0.209692 3:0.428572 4:1 5:0.509434 6:0.0347036 7:1 8:-0.769828 9:-0.0385745 10:-0.614985 11:-0.830817 12:-0.308411 13:0.495556 14:-0.225806 15:0.142858 16:0.428572 17:-0.0816332 18:-0.222872 19:-0.316636 20:-0.745902 21:0.926036 22:0.23077 23:-0.714286 24:0.428572 25:-0.044608 26:-0.894309 
-2 1:-0.0448462 2:-0.3419 3:-0.384616 4:0.678322 5:0.45138 6:-0.399393 7:0.076924 8:-0.986328 9:-0.265318 10:-0.789108 11:-0.93419 12:0.376947 13:-0.314786 14:-0.384616 15:-0.846154 16:-0.538462 17:-0.505495 18:-0.996106 19:-0.698494 20:-0.254098 21:-0.34047 22:-0.44086 23:-0.692308 24:-0.538462 25:-0.811212 26:-0.243902 
-2 1:-0.147711 2:-0.226339 4:0.651514 5:-0.245282 6:-0.212807 7:0.5 8:-0.784509 9:-0.861163 10:-0.635667 11:-0.772382 12:0.183801 13:-0.393646 14:-0.50685 15:-0.5 16:-0.166666 17:-0.464286 18:-0.856098 19:-0.902854 20:-0.401639 21:-0.57727 22:-0.68 23:-1 24:-0.333334 25:-0.931808 26:-0.390244 
-2 1:0.145644 2:0.0306839 3:-0.866667 4:-0.184849 5:-0.371068 6:-0.888512 7:-0.766666 8:-0.899077 9:-0.211441 10:-0.730063 11:-0.945251 12:0.588785 13:-0.124012 14:-0.184616 15:-0.9 16:-0.8 17:-0.857143 18:-0.985251 19:-0.850246 20:0.0655738 21:-0.303808 22:-0.439394 23:-0.966667 24:-0.833333 25:-0.92998 26:0.0731707 
-2 1:-0.0129653 2:-0.0533832 3:0.111112 4:0.535354 5:0.0482227 6:-0.212807 8:-0.908651 9:-0.652567 10:-0.50616 11:-0.862923 12:0.669782 13:-0.058282 14:-0.38053 15:-0.333334 17:-0.166666 18:-0.794184 19:-0.63047 20:-0.0737705 21:-0.243894 22:-0.495652 23:-1 25:-0.954198 26:-0.0650407 
-2 1:0.0520343 2:-0.233478 3:0.285714 4:0.850648 5:-0.137466 6:-0.169491 7:0.428572 8:-0.932415 9:-0.875254 10:-0.535623 11:-0.480923 12:0.52648 13:-0.271432 14:-0.458824 15:-0.285714 16:0.142858 17:-0.387755 18:-0.89461 19:-0.663643 20:-0.303279 21:-0.284522 22:-0.488372 23:-0.857143 24:0.142858 25:-0.890343 26:-0.300813 
-2 1:0.308417 2:-0.108274 3:-0.875 4:0.150568 5:-0.127358 6:-0.673024 7:-0.5 8:-0.946784 9:-0.795413 10:-0.456058 11:-0.357771 12:0.613707 13:-0.321114 14:-0.333334 15:-0.8125 16:-0.6875 17:-0.866071 18:-0.915322 19:-0.968594 20:-0.0409836 21:-0.487228 22:-0.529412 23:-0.9375 24:-0.6875 25:-0.935445 26:-0.0325203 
-2 1:0.246199 2:-0.335145 3:0.777778 4:0.767677 5:-0.66457 6:-0.183931 7:0.111112 8:-0.803463 9:-0.873623 10:-0.516398 11:-0.431263 12:-0.102804 13:0.399486 14:-0.24138 15:0.333334 16:0.555556 17:-0.0476197 18:0.024016 19:-0.422845 20:-0.762295 21:0.574174 22:0.2 23:0.333334 24:0.333334 25:0.574174 26:-0.918699 
-2 1:-0.257572 2:-0.237458 3:-0.368422 4:0.449761 5:-0.00694642 6:-0.463575 7:-0.052632 8:-0.9315 9:-0.70433 10:-0.69596 11:-0.841002 12:0.551402 13:-0.447658 14:-0.52 15:-0.68421 16:-0.368422 17:-0.661653 18:-0.907112 19:-0.968158 20:0.0245902 21:-0.528048 22:-0.622048 23:-1 24:-0.368422 25:-0.927504 26:0.0325203 
-2 1:0.129763 2:-0.0148373 3:-0.166666 4:0.825758 5:0.761006 6:-0.0828625 7:0.666666 8:-0.848552 9:-0.511225 10:-0.582179 11:-0.845645 12:0.370717 13:0.133362 14:-0.451612 16:0.5 17:-0.285715 18:-0.41382 19:-0.492171 20:-0.491803 21:0.047744 22:-0.53125 23:-0.666666 24:0.5 25:-0.738744 26:-0.479675 
-1.38595769963572 1:0.36509 2:0.157453 3:0.454546 4:0.809918 5:-0.176672 6:0.149459 7:0.272728 8:-0.921801 9:-0.442013 10:-0.533541 11:-0.634265 12:0.0654206 13:0.111248 14:-0.363636 15:0.09091 16:0.636364 17:-0.415585 18:-0.286378 19:-0.52728 20:-0.639344 21:0.83705 22:0.4 23:-0.454546 24:0.272728 25:-0.242298 26:-0.918699 
-0.9183735054150719 1:0.329836 2:-0.188921 3:0.23077 4:0.839161 5:-0.0130589 6:-0.0395497 7:-0.23077 8:-0.477678 9:-0.725638 10:-0.526912 11:-0.854945 12:0.433022 13:0.077472 14:-0.388888 15:0.076924 16:0.692308 17:-0.0109896 18:-0.583784 19:-0.283332 20:-0.409836 21:0.662958 23:-0.538462 24:-0.538462 25:0.662958 26:-0.95122 
-2 1:0.200714 2:-0.297996 4:0.607955 5:0.273589 6:-0.396893 7:-0.125 8:-0.934541 9:-0.59437 10:-0.523989 11:-0.642136 12:0.613707 13:0.10486 14:-0.212766 15:-0.25 17:-0.464286 18:-0.722144 19:-0.848525 20:-0.229508 21:0.01249 22:-0.354166 23:-0.75 25:-0.819105 26:-0.219512 
-0.3373675732892497 1:0.527431 2:0.157334 3:0.333334 4:0.767677 5:0.509434 6:0.162584 7:0.111112 8:-0.903166 9:-0.57553 10:-0.05716 11:-0.852295 12:-0.0404984 13:0.490802 14:-0.055556 15:0.111112 16:0.333334 17:-0.0476197 18:-0.530556 19:-0.591974 20:-0.704918 21:0.478912 22:0.555556 23:0.111112 24:0.111112 25:-0.128112 26:-0.926829 
-2 1:0.0220857 2:-0.241634 3:-0.238096 4:0.103897 5:-0.31716 6:-0.398441 7:-0.142858 8:-0.820004 9:-0.894173 10:-0.461102 11:-0.700445 12:0.676012 13:-0.04843 14:-0.234376 15:-0.238096 16:-0.04762 17:-0.285715 18:-0.696732 19:-0.694247 20:0.0491803 21:-0.109042 22:-0.338462 23:-1 24:-0.142858 25:-0.936092 26:0.0569106 
-2 1:0.27584 2:0.0260868 3:0.09091 4:0.809918 5:-0.313893 6:-0.0395497 7:0.09091 8:-0.810188 9:-0.935958 10:-0.311291 11:-0.548091 12:-0.046729 13:0.272942 14:-0.23077 15:0.272728 16:0.818182 17:-0.0259747 18:-0.31446 19:-0.447542 20:-0.57377 21:0.607432 22:0.5 23:-0.09091 24:0.09091 25:0.158962 26:-0.902439 
-0.8557253576910484 1:0.11975 2:-0.260848 4:0.477273 5:0.0691797 6:-0.25612 7:0.166666 8:-0.795622 9:-0.623017 10:-0.471092 11:-0.912936 12:0.239875 13:0.019364 14:-0.361112 16:0.333334 17:-0.107142 18:-0.666934 19:-0.613552 20:-0.409836 21:-1 22:-1 23:-1 24:-1 25:-1 26:-0.96748 
-1.006052189858618 1:0.0186164 2:-0.267672 3:-0.5 4:0.372727 5:-0.283019 6:-0.364409 7:-0.2 8:-0.973487 9:-0.778086 10:-0.481087 11:-0.642314 12:0.632399 13:-0.381986 14:-0.51049 15:-0.9 16:-0.4 17:-0.357143 18:-0.969787 19:-0.713973 20:0.172131 21:-0.467448 22:-0.613794 23:-0.4 24:-0.4 25:-0.81717 26:0.178862 
-2 1:0.256411 2:-0.13135 3:0.333334 4:0.767677 5:-0.245282 6:0.0759554 7:0.333334 8:-0.65928 9:-0.921275 10:-0.442113 11:-0.608789 12:-0.0155763 13:0.404516 14:-0.142858 15:0.555556 16:0.777778 17:0.190478 18:-0.320102 19:-0.15502 20:-0.655738 21:0.280534 22:0.2 23:-0.777778 24:-0.333334 25:-0.526626 26:-0.95935 
-2 1:-0.0322353 2:-0.444755 3:-0.5 4:0.477273 5:0.13208 6:-0.478106 7:0.25 8:-0.983114 9:-0.404779 10:-0.748763 11:-0.811514 12:0.638629 13:-0.100472 14:-0.40594 15:-0.5 17:-0.196428 18:-0.862211 19:-0.305836 20:-0.172131 21:-0.166128 22:-0.514564 23:-0.75 25:-0.694066 26:-0.162602 
-0.4294819651033432 1:0.55812 2:0.263868 3:0.333334 4:1 5:-0.748428 6:0.220337 7:1 8:-0.904415 9:-0.99169 10:-0.317255 11:-0.0600136 12:-0.831776 13:0.122422 15:0.333334 16:0.333334 17:-1 18:-0.230092 19:-1 20:-0.95082 21:-1 22:-1 23:-1 24:-1 25:-1 26:-1 
-0.7773435677829126 1:-0.105067 2:-0.152913 3:0.058824 4:0.631015 5:-0.0677021 6:-0.0854099 7:-0.058824 8:-0.844202 9:-0.848135 10:-0.563324 11:-0.753508 12:0.781931 13:-0.190148 14:-0.24138 15:-0.294118 16:0.17647 17:-0.495798 18:-0.765074 19:-0.940129 20:-0.286885 21:-0.33325 22:-0.348314 23:-0.764706 24:0.17647 25:-0.803449 26:-0.276423 
-2 1:0.304874 2:-0.266565 3:0.555556 4:0.767677 5:0.00628906 6:-0.126179 7:-0.111112 8:-0.875335 9:0.0170336 10:-0.806708 11:-0.966592 12:0.00311526 13:0.143702 14:-0.306122 15:0.111112 16:0.111112 17:-0.0476197 18:-0.478888 19:-0.354373 20:-0.598361 21:0.099934 22:-0.411764 23:-0.777778 24:0.111112 25:-0.891854 26:-0.585366 
-1.338140445930572 1:-0.0263731 2:-0.262683 3:-0.2 4:0.581818 5:-0.295597 6:-0.264783 7:0.066666 8:-0.945539 9:-0.590888 10:-0.50538 11:-0.907149 12:0.383178 13:-0.25762 14:-0.434782 15:-0.333334 16:0.066666 17:-0.571428 18:-0.789994 19:-0.742744 20:-0.245902 21:-0.29192 22:-0.489362 23:-0.733334 24:0.066666 25:-0.954518 26:-0.235772 
-2 1:0.162037 2:0.132718 3:0.09091 4:0.809918 5:0.166381 6:-0.0159237 7:0.272728 8:-0.893547 9:-0.578455 10:-0.660106 11:-0.597685 12:0.0218069 13:0.136374 14:-0.307692 15:0.09091 16:0.272728 17:-0.0259747 18:-0.498332 19:-0.594114 20:-0.57377 21:-0.013332 22:-0.444444 23:-0.818182 24:0.272728 25:-0.758076 26:-0.560976 
-2 1:-0.202296 2:0.0700594 3:-0.724138 4:-0.0454546 5:-0.23227 6:-0.926749 7:-0.689656 8:-0.949175 9:-0.593764 10:-0.698061 11:-0.881967 12:0.626168 13:-0.098482 14:-0.136986 15:-0.896552 16:-0.827586 17:-0.926108 18:-0.968477 19:-0.954967 20:0.196721 21:-0.43371 22:-0.445946 23:-1 24:-0.862069 25:-0.990521 26:0.203252 
-2 1:-0.111689 2:-0.190163 3:-0.111112 4:0.535354 5:-0.832285 6:-0.068426 7:0.333334 8:-0.744739 9:-0.992523 10:-0.460924 11:-0.8224 12:-0.233645 13:0.457612 14:0.045454 15:0.333334 16:0.777778 17:0.428573 18:-0.3241 19:-0.29549 20:-0.639344 21:0.641808 22:0.142858 23:-0.555556 24:0.555556 25:-0.222126 26:-0.772358 
-2 1:0.0891508 2:-0.00927587 3:0.2 4:0.581818 5:0.509434 6:-0.247458 7:0.2 8:-0.886754 9:-0.51502 10:-0.559878 11:-0.868857 12:0.482866 13:-0.132352 14:-0.266666 15:-0.866667 16:0.066666 17:0.142857 18:-0.998752 19:-0.273765 20:-0.262295 21:-0.245106 22:-0.413044 23:-0.2 24:-0.066666 25:-0.565004 26:-0.252033 
-2 1:-0.536434 2:-0.375546 3:0.058824 4:0.262032 5:0.154273 6:-0.559323 7:-0.058824 8:-0.925732 9:-0.847424 10:-0.737403 11:-0.950697 12:0.576324 13:-0.275524 14:-0.383458 15:0.17647 16:0.411764 17:0.00840322 18:-0.76047 19:-0.652483 20:0.0901639 21:-0.454006 22:-0.585186 23:-0.882353 24:0.058824 25:-0.995339 26:0.097561 
-2 1:-0.587797 2:-0.353876 3:-0.294118 4:0.508022 5:-0.422863 6:-0.482884 7:0.058824 8:-0.955262 9:-0.942747 10:-0.739951 11:-0.864945 12:0.327103 13:-0.004102 14:-0.296876 15:-0.294118 16:-0.058824 17:-0.369747 18:-0.7076 19:-0.688149 20:0.0491803 21:0.48037 22:0.111112 23:-0.882353 24:-0.294118 25:-0.652056 26:-0.853659 
-2 1:0.122239 2:0.159737 3:0.076924 4:0.678322 5:0.103048 6:0.140374 7:0.384616 8:-0.935406 9:-0.714042 10:-0.489082 11:-0.632524 12:0.320872 13:-0.192836 14:-0.294118 15:-0.076924 16:0.384616 17:-0.505495 18:-0.451782 19:-0.844234 20:-0.442623 21:-0.241406 22:-0.314286 23:-0.538462 24:0.384616 25:-0.55168 26:-0.430894 
-2 1:-0.371991 2:-0.255262 3:-0.111112 4:0.535354 5:-0.203354 6:-0.227244 8:-0.931131 9:-0.885231 10:-0.607203 11:-0.863548 12:0.775701 13:-0.2825 14:-0.507042 15:-0.333334 17:-0.52381 18:-0.737946 19:-0.837225 20:0.163934 21:-0.419326 22:-0.625 23:-1 24:-0.222222 25:-0.935403 26:0.170732 
-2 1:0.228851 2:-0.0837811 3:0.5 4:0.651514 5:-0.119496 6:0.0470791 7:-0.166666 8:-0.421813 9:-0.748603 10:-0.580455 11:-0.94414 12:0.283489 13:-0.26426 14:-0.45238 15:-0.333334 16:-0.166666 17:-0.285715 18:-0.812629 19:-0.795578 20:-0.311475 21:-0.282826 22:-0.488372 23:-0.833333 24:-0.166666 25:-0.925368 26:-0.300813 
-1.264408377842781 1:-0.0486299 2:-0.212609 3:0.333334 4:0.535354 5:-0.66457 6:-0.27056 7:0.111112 8:-0.767011 9:-0.979901 10:-0.382521 11:-0.828639 12:-0.29595 13:-0.61271 14:-0.51282 15:-0.111112 16:-0.111112 17:-0.52381 18:-0.923856 19:-0.905749 20:-0.360656 21:-0.715086 22:-0.615384 23:-0.555556 24:-0.111112 25:-0.984124 26:-0.365854 
-1.203218541591816 1:-0.34328 2:-0.506695 3:0.285714 4:0.850648 5:-0.353099 6:-0.48507 7:-0.285714 8:-0.871419 9:-0.86079 10:-0.68719 11:-0.836742 12:0.320872 13:-0.526134 14:-0.576272 15:-0.428572 17:-0.234693 18:-0.900515 19:-0.826064 20:-0.0327869 21:-0.62347 22:-0.663866 23:-1 24:-0.285714 25:-0.969262 26:-0.0325203 
-1.377516380910725 1:0.216725 2:-0.000813171 3:0.6 4:1 5:-0.0943389 6:0.272316 7:1 8:-0.924525 9:-0.752901 10:-0.540497 11:-0.438733 12:-0.445483 13:-0.619344 14:-0.538462 15:-1 16:-1 17:-1 18:-1 19:-1 20:-0.893443 21:-0.620728 22:-0.6 23:-1 24:-1 25:-1 26:-0.878049 
-0.07388230164963718 1:0.432421 2:-0.335525 3:-0.454546 4:0.619835 5:0.166381 6:-0.346688 7:0.09091 8:-0.707605 9:-0.334758 10:-0.595929 11:-0.848784 12:0.0903427 13:-0.23108 14:-0.37931 15:-0.818182 16:-0.09091 17:-0.0259747 18:-0.806932 19:-0.698018 20:-0.52459 21:-1 22:-1 23:-1 24:-1 25:-1 26:-0.98374 
-2 1:0.0186841 2:0.269646 3:-0.888889 4:-0.200337 5:-0.301187 6:-0.881774 7:-0.888889 8:-0.946274 9:-0.37235 10:-0.656294 11:-0.934802 12:0.246106 13:-0.494814 14:-0.474178 15:-0.851852 16:-0.777778 17:-0.920635 18:-0.969468 19:-0.979878 20:0.745902 21:-0.761356 22:-0.748838 23:-1 24:-0.925926 25:-0.998151 26:0.747967 
-2 1:-0.065079 2:-0.0895142 3:0.384616 4:0.839161 5:-0.245282 6:0.0404167 7:0.23077 8:-0.825943 9:-0.861126 10:-0.530047 11:-0.751574 12:0.395639 13:-0.012944 14:-0.34375 15:0.23077 16:0.846154 17:-0.0109896 18:-0.449654 19:-0.456703 20:-0.47541 21:-0.052674 22:-0.39394 23:-0.692308 24:0.846154 25:-0.79716 26:-0.463415 
-2 1:-0.378019 2:-0.350003 3:-0.333334 4:0.535354 5:-0.203354 6:-0.414941 7:-0.111112 8:-0.975174 9:-0.785437 10:-0.682657 11:-0.849982 12:0.582555 13:-0.273146 14:-0.421876 15:-0.666666 16:0.111112 17:-0.0476197 18:-0.968139 19:-0.690803 20:0.0491803 21:-0.369692 22:-0.538462 23:-0.222222 25:-0.803738 26:0.0569106 
-2 1:-0.404097 2:-0.328975 3:-0.17647 4:0.631015 5:-0.0677021 6:-0.437024 7:0.294118 8:-0.958616 9:-0.812503 10:-0.727656 11:-0.817032 12:0.595016 13:-0.231378 14:-0.373914 15:-0.411764 16:-0.294118 17:-0.621848 18:-0.874648 19:-0.95942 20:-0.057377 21:-0.359344 22:-0.504274 23:-0.882353 24:-0.411764 25:-0.906588 26:-0.0487805 
-0.4086707127995643 1:-0.292212 2:0.0385214 3:0.333334 4:1 5:-1 6:-0.386065 7:1 8:-0.859928 9:-1 10:-0.66887 11:-0.656331 12:-0.919003 13:0.493774 14:0.333334 15:-1 16:-1 17:-1 18:-1 19:-1 20:-0.97541 21:0.493774 22:0.333334 23:-1 24:-1 25:-1 26:-0.97561 
-1.396134807853249 1:-0.439855 2:-0.233478 3:0.166666 4:0.825758 5:-0.496854 6:0.00376638 7:0.166666 8:-0.954898 9:-0.884871 10:-0.613443 11:-0.906146 12:0.28972 13:-0.125768 14:-0.481482 16:0.333334 17:-0.464286 18:-0.448066 19:-0.727511 20:-0.336066 21:-0.153838 22:-0.518072 23:-0.5 24:0.333334 25:-0.622602 26:-0.325203 
-2 1:-0.0840892 2:-0.323716 3:-0.333334 4:0.535354 5:-0.287211 6:-0.313873 7:-0.111112 8:-0.953899 9:-0.678669 10:-0.447398 11:-0.927585 12:0.65109 13:-0.074196 14:-0.361344 15:-0.444444 16:0.111112 17:-0.166666 18:-0.884599 19:-0.523424 20:-0.0245902 21:-0.27098 22:-0.504132 23:-0.444444 24:-0.111112 25:-0.71323 26:-0.0162602 
-0.04269341853961039 1:0.550585 2:0.366025 3:0.6 4:0.581818 5:-0.849057 6:0.428248 7:0.2 8:-0.319968 9:-0.996819 10:-0.145343 11:-0.902398 12:-0.632399 13:-0.295842 14:-0.444444 15:-0.6 16:-0.6 17:-1 18:-0.872709 19:-1 20:-0.852459 21:-0.77256 22:-0.666666 23:-0.6 24:-0.6 25:-0.872709 26:-0.853659 
-2 1:-0.113263 2:0.253652 3:0.333334 4:0.825758 5:-0.496854 6:0.306966 7:0.166666 8:-0.722154 9:-0.849327 10:-0.543589 11:-0.91873 12:0.115265 13:0.217508 14:-0.163636 16:0.833334 17:0.25 18:-0.694244 19:0.0276586 20:-0.54918 21:0.355322 22:0.5 24:0.333334 25:-0.017502 26:-0.902439 
-2 1:-0.0267836 2:-0.315988 3:-0.111112 4:0.651514 5:0.215938 6:-0.386065 8:-0.903111 9:-0.651837 10:-0.580647 11:-0.80268 12:0.850467 13:-0.211428 14:-0.392858 15:-0.555556 16:-0.333334 17:-0.52381 18:-0.77639 19:-0.781503 20:-0.0819672 21:-0.251422 22:-0.486726 23:-1 24:-0.333334 25:-0.916127 26:-0.0813008 
-2 1:-0.252236 2:-0.537539 3:-0.5 4:0.738636 5:-0.433962 6:-0.380649 7:0.375 8:-0.955299 9:-0.948046 10:-0.503449 11:-0.747811 12:0.676012 13:-0.301818 14:-0.322034 15:-0.5 16:0.25 17:0.071429 18:-0.900865 19:-0.716571 20:-0.0327869 21:-0.345114 22:-0.416666 23:-0.5 24:0.25 25:-0.917929 26:-0.0243902 
-2 1:-0.34023 2:-0.459388 3:-0.066666 4:0.721213 5:-0.144653 6:-0.576648 7:0.2 8:-0.906672 9:-0.845289 10:-0.682289 11:-0.817072 12:0.352025 13:-0.223808 14:-0.462366 15:-0.066666 16:0.333334 17:-0.428571 18:-0.703372 19:-0.643594 20:-0.237705 21:-0.352588 22:-0.621052 23:-0.6 24:0.066666 25:-0.913863 26:-0.227642 
-0.2366064853859745 1:-0.140576 2:0.292243 3:1 4:1 5:-1 6:0.480223 7:1 8:-0.352699 9:-1 10:-0.768629 11:-0.940381 12:-0.906542 13:-1 14:-1 15:-1 16:-1 17:-1 18:-1 19:-1 20:-1 21:-1 22:-1 23:-1 24:-1 25:-1 26:-1 
-2 1:-0.0825478 2:-0.141148 3:-0.166666 4:0.825758 5:-0.245282 6:-0.169491 7:0.333334 8:-0.952459 9:-0.841488 10:-0.549206 11:-0.631343 12:0.102804 13:0.24074 14:-0.319148 16:0.5 17:-0.464286 18:-0.219074 19:-0.550741 20:-0.614754 21:1 22:1 23:-0.666666 24:-0.666666 25:0.837758 26:-0.97561 
-1.906668305641772 1:0.150827 2:0.0838383 3:0.428572 4:0.402598 5:-0.353099 6:0.146084 7:0.142858 8:-0.758483 9:-0.982582 10:-0.284867 11:-0.721446 12:-0.370717 13:0.478042 14:0.09091 15:0.714286 16:1 17:0.224491 18:-0.283094 19:-0.446481 20:-0.729508 21:0.828544 22:0.128206 23:-0.428572 24:1 25:-0.196876 26:-0.682927 
-2 1:-0.215696 2:-0.0807695 3:-0.25 4:0.477273 5:0.415098 6:-0.234464 7:-0.125 8:-0.925777 9:-0.657564 10:-0.665051 11:-0.887667 12:0.545171 13:-0.117672 14:-0.269566 15:-0.5 16:-0.125 17:-0.196428 18:-0.952727 19:-0.801785 20:-0.057377 21:-0.17466 22:-0.418804 23:-0.75 24:-0.25 25:-0.930154 26:-0.0487805 
-2 1:-0.0572147 2:-0.206202 3:-0.125 4:0.477273 5:0.13208 6:-0.234464 7:-0.25 8:-0.916284 9:-0.383847 10:-0.740049 11:-0.946753 12:0.588785 13:-0.564874 14:-0.491804 15:-0.75 16:-0.5 17:-0.732143 18:-0.964663 19:-0.983338 21:-0.64275 22:-0.645162 23:-0.875 24:-0.625 25:-0.9784 26:0.00813008 
-2 1:0.378969 2:0.278889 3:0.454546 4:0.809918 5:-0.245282 6:0.102207 7:0.09091 8:-0.796264 9:-0.481635 10:-0.568849 11:-0.674517 12:-0.0716511 13:0.54296 14:-0.028572 15:0.454546 16:0.636364 17:-0.0259747 18:-0.077504 19:-0.316674 20:-0.713115 21:0.564914 22:-0.25 23:-0.454546 24:-0.454546 25:0.564914 26:-0.934959 
-2 1:0.240702 2:0.311277 3:0.555556 4:0.767677 5:0.0901465 6:0.335842 7:0.333334 8:-0.852135 9:-0.731237 10:-0.355523 11:-0.721944 12:-0.0903427 13:0.086724 14:-0.18919 15:-0.555556 16:-0.333334 17:-0.761905 18:-0.695798 19:-0.997774 20:-0.696721 21:-0.109682 22:-0.384616 23:-0.555556 24:-0.555556 25:-0.696074 26:-0.682927 
-0.3206137959880017 1:0.397759 2:-0.189583 3:0.09091 4:0.809918 5:0.0291593 6:-0.228558 7:0.272728 8:-0.607707 9:-0.782394 10:-0.387464 11:-0.725692 12:0.0903427 13:0.35588 14:0.066666 15:0.09091 16:0.454546 17:-0.415585 18:-0.518186 19:-0.370978 20:-0.631148 21:0.811868 22:0.6 23:-0.818182 24:-0.454546 25:-0.477456 26:-0.95935 
-2 1:0.581165 2:0.504562 3:-0.25 4:1 5:-0.0566025 6:0.480223 7:1 8:-0.950498 9:-0.817646 10:0.0773426 11:-0.616597 12:-0.264798 13:0.592878 14:-0.076924 16:0.25 17:-0.464286 18:-0.356672 19:-0.611607 20:-0.786885 21:0.987734 22:0.333334 23:-1 24:-1 25:-1 26:-0.97561 
-1.162391237720704 1:0.455281 2:-0.230381 3:-0.4 4:0.790909 5:0.13208 6:-0.507344 7:-0.2 8:-0.968082 9:0.315976 10:-0.842804 11:-0.992629 12:-0.264798 13:-0.11581 14:-0.371428 15:-0.2 16:0.2 17:-0.357143 18:-0.888682 19:-0.591417 20:-0.42623 21:0.266982 23:-1 24:-1 25:-1 26:-0.96748 
-2 1:0.0162366 2:-0.377087 3:-0.578948 4:0.669856 5:-0.126117 6:-0.395184 7:0.157894 8:-0.984859 9:-0.507998 10:-0.681358 11:-0.714221 12:0.800623 13:-0.28996 14:-0.473684 15:0.052632 16:0.368422 17:-0.210526 18:-0.637704 19:-0.690028 20:-0.0655738 21:-0.315878 22:-0.517242 23:-0.578948 24:0.368422 25:-0.816944 26:-0.0569106 
-2 1:0.0365764 2:0.114232 3:0.538462 4:0.839161 5:0.393326 6:-0.119513 7:0.384616 8:-0.905758 9:-0.74515 10:-0.573461 11:-0.632196 12:0.283489 13:-0.267776 14:-0.409836 15:-0.384616 16:0.076924 17:-0.34066 18:-0.745074 19:-0.701098 20:-0.5 21:-0.279214 22:-0.492064 23:-1 24:0.076924 25:-0.936243 26:-0.487805 
-2 1:-0.349031 2:-0.250416 3:-0.866667 4:0.372727 5:-0.0943389 6:-0.715256 7:-0.266666 8:-0.983671 9:-0.533316 10:-0.829271 11:-0.929458 12:0.688474 13:-0.633964 14:-0.52174 15:-0.866667 16:-0.466666 17:-0.500001 18:-0.999178 19:-0.95446 20:0.131148 21:-0.713922 22:-0.628572 23:-0.733334 24:-0.6 25:-0.983085 26:0.138211 
-2 1:-0.184852 2:-0.287695 3:0.142858 4:0.850648 5:-0.245282 6:-0.317998 7:0.285714 8:-0.89884 9:-0.779877 10:-0.583226 11:-0.836346 12:0.352025 13:-0.71011 14:-0.674418 15:-0.571428 17:-0.234693 18:-0.850835 19:-0.942615 20:-0.295082 21:-0.845653 22:-0.75 23:-0.571428 24:-0.142858 25:-0.955745 26:-0.284553 
-2 1:0.302256 2:0.1144 3:-0.166666 4:0.825758 5:-0.18239 6:0.19868 7:0.666666 8:-0.932128 9:-0.819958 10:-0.307251 11:-0.518285 12:0.221184 13:0.119712 14:-0.132076 15:-0.833333 16:-0.166666 17:-0.107142 18:-0.927508 19:-0.52413 20:-0.565574 21:-0.110804 22:-0.381818 23:-0.166666 24:-0.166666 25:-0.695922 26:-0.552846 
-2 1:0.179663 2:0.1254 3:0.6 4:0.581818 5:-0.245282 6:-0.0135587 7:0.6 8:-0.816959 9:-0.904066 10:-0.345651 11:-0.645375 12:-0.0965732 13:0.440856 14:-0.028572 15:0.4 16:0.4 17:0.071429 18:-0.345678 19:-0.367775 20:-0.713115 21:0.887718 22:0.333334 23:-0.8 24:-0.8 25:-0.418256 26:-0.97561 
-2 1:-0.107877 2:-0.199754 3:-0.3 4:0.477273 5:-0.0566025 6:-0.40339 7:-0.1 8:-0.941306 9:-0.603616 10:-0.622241 11:-0.858632 12:0.657321 13:-0.47725 14:-0.549668 15:-0.4 16:-0.1 17:-0.357143 18:-0.90298 19:-0.880049 20:0.237705 21:-0.72343 22:-0.712418 23:-1 24:-0.2 25:-0.986989 26:0.243902 
-1.632462930056582 1:-0.442909 2:-0.536942 3:0.333334 4:0.825758 5:-0.0566025 6:-0.49435 7:0.166666 8:-0.956869 9:-0.73438 10:-0.789209 11:-0.881826 12:0.339564 13:-0.338874 14:-0.325842 15:0.333334 16:0.5 17:-0.642856 18:-0.80223 19:-0.931189 20:-0.270492 21:-0.51068 22:-0.516484 23:-0.666666 25:-0.954336 26:-0.260163 
