svm_type c_svc
kernel_type rbf
gamma 0.125
nr_class 2
total_sv 126
rho 0.581561
label 1 -1
nr_sv 58 68
SV
4.047735963521657 1:0.306842 2:-0.264524 3:-0.130435 4:0.261363 5:-0.710745 6:-0.446641 7:-0.206118 8:-0.815441 9:-0.914376 10:-0.37549 11:-0.910005 12:-0.0494858 13:-0.466098 14:0.613169 15:0.0225427 16:-0.340995 17:-0.181818 18:0.272728 21:-0.181818 22:-0.99968 23:-0.999866 24:-0.385945 27:-0.209391 28:0.171717 29:0.757872 30:0.636364 31:-0.363637 32:-0.181818 35:-0.99968 36:-0.999866 37:0.587391 40:-0.909548 
8 1:-0.41122 2:-0.33725 3:-0.470699 4:0.29348 5:-0.507576 6:-0.576557 7:-0.32587 8:-0.00234073 9:-0.536894 10:-0.920185 11:-0.615804 12:-0.663811 13:-0.825263 14:0.646091 15:-0.492394 16:-0.3724 17:-0.391304 18:-0.043478 21:-0.47826 22:-0.602654 23:-0.834001 24:-0.812596 27:-0.853479 28:0.494949 29:-0.459134 30:-0.417218 31:-0.913044 32:-0.043478 35:-0.602654 36:-0.834001 37:-0.969752 40:0.497487 
4.93573303743714 1:0.0197106 2:-0.157443 3:-0.0513826 4:0.261363 5:-0.275138 6:-0.571144 7:-0.0441019 8:0.403016 9:-0.349018 10:-0.56833 11:-0.8479 12:-0.321022 13:-0.531344 14:0.596708 15:-0.148098 16:-0.254055 17:-0.181818 18:0.181818 21:-0.272728 22:-0.638539 23:-0.84906 24:-0.647057 27:-0.6093 28:0.212121 29:-0.066456 30:0.09091 31:-0.909091 32:-0.727272 35:-0.638539 36:-0.84906 37:-0.803486 40:-0.909548 
2.918463442578993 1:-0.301683 2:-0.323546 3:-0.243856 4:0.29348 5:-0.128793 6:-0.797733 7:-0.248384 8:-0.888153 9:-0.948092 10:-0.900152 11:-0.396155 12:-0.79156 13:-0.849559 14:0.646091 15:-0.31665 16:-0.278485 17:0.043478 18:0.47826 21:-0.217392 22:-0.978502 23:-0.991018 24:-0.598333 27:-0.710931 28:0.525253 29:-0.31788 30:-0.35065 31:-0.73913 32:0.47826 35:-0.978502 36:-0.991018 37:-0.923313 40:0.527638 
8 1:-0.0561981 2:-0.350958 3:-0.130435 4:0.556817 5:-0.314738 6:-0.695653 7:-0.287127 8:-0.948526 9:-0.976128 10:-0.641793 11:-0.644166 12:-0.474865 13:-0.697895 14:0.646091 15:0.0317471 16:-0.319672 18:0.454546 21:-0.181818 22:-0.939076 23:-0.974558 24:-0.312821 27:-0.278252 28:0.272727 29:-0.037856 30:-0.379844 31:-0.818182 32:0.454546 35:-0.939076 36:-0.974558 37:-0.976656 40:0.276382 
8 1:-0.310462 2:-0.250772 3:-0.621929 4:0.0108696 5:-0.318182 6:-0.508508 7:-0.558329 8:-0.391896 9:-0.717727 10:-0.927738 11:-0.583602 12:-0.554012 13:-0.824154 14:0.588477 15:-0.214136 16:-0.282994 17:-0.043478 18:0.391304 21:-0.47826 22:-0.937678 23:-0.973963 24:-0.546243 27:-0.753737 28:0.282828 29:-0.235484 30:-0.353846 31:-0.565218 32:0.391304 35:-0.937678 36:-0.973963 37:-0.875254 40:0.286432 
5.156666930816212 1:-0.508276 2:-0.274302 3:-0.395085 4:0.576087 5:-0.469697 6:-0.64461 7:-0.0159256 8:-0.293587 9:-0.672092 10:-0.928589 11:-0.70829 12:-0.686756 13:-0.812998 14:0.580247 15:-0.221561 16:-0.160719 17:-0.826087 18:-0.304348 21:-0.47826 22:-0.93134 23:-0.971315 24:-0.939281 27:-0.740576 28:0.292929 29:-0.241452 30:-0.267176 31:-0.652173 32:-0.304348 35:-0.93134 36:-0.971315 37:-0.909188 40:0.296482 
2.130829245720473 1:0.41668 2:-0.0869658 3:0.130435 4:0.5125 5:-0.873106 6:-0.010866 7:-0.0198 8:-0.425709 9:-0.733861 10:-0.549579 11:-0.757863 12:0.0499566 13:-0.458348 14:0.662551 15:0.268801 16:-0.0468156 17:0.4 18:0.6 21:0.2 22:-0.849138 23:-0.937077 24:-0.126309 27:-0.152125 28:0.161616 29:0.913694 30:0.642858 31:-0.9 32:0.4 35:-0.849138 36:-0.937077 37:-0.496736 40:-0.738693 
8 1:-0.0808455 2:-0.136355 3:-0.42029 4:0.226192 5:-0.269481 6:-0.416149 7:-0.0749621 8:-0.880236 9:-0.944257 10:-0.836084 11:-0.770031 12:-0.148548 13:-0.722503 14:0.539095 15:-0.57979 16:-0.463064 17:-0.714286 18:-0.04762 21:-0.238096 22:-0.601615 23:-0.833089 24:-0.957408 27:-0.768787 28:0.333333 29:-0.529378 30:-0.481482 31:-0.52381 32:-0.04762 35:-0.601615 36:-0.833089 37:-0.912926 40:0.336683 
1.12716661813198 1:0.0696346 2:0.0385425 3:-0.00621043 4:0.535715 5:-0.227994 6:-0.285715 7:-0.0749621 8:0.396497 9:-0.348271 10:-0.781528 11:-0.780239 12:-0.165173 13:-0.520333 14:0.555556 15:-0.314794 16:-0.40824 17:-0.142858 18:-0.142858 21:-0.619048 22:-0.606584 23:-0.83476 24:-0.42157 27:-0.857085 28:0.20202 29:-0.173886 30:0.04 31:-0.238096 32:-0.238096 35:-0.606584 36:-0.83476 37:-0.569286 40:-0.768844 
2.232251665521689 1:-0.346198 2:-0.0261203 3:0.159421 4:0.380953 5:-0.601371 6:-0.267081 7:0.179635 8:-0.978014 9:-0.989764 10:-0.844805 11:-0.643234 12:-0.656898 13:-0.765746 14:0.588477 15:0.141831 16:0.0353415 17:-0.52381 18:-0.52381 21:-0.809524 22:-0.859765 23:-0.941177 24:0.0517271 27:-0.888531 28:-0.636364 29:0.63845 30:0.2 31:-0.714286 32:-0.619048 35:-0.859765 36:-0.941177 37:0.174364 40:-0.869347 
1.522443384668768 1:0.376995 2:0.0754129 3:-0.267734 4:0.657895 5:-0.5315 6:0.148743 7:0.134968 8:-0.693788 9:-0.857341 10:-0.771664 11:-0.883833 12:0.308276 13:-0.413278 14:0.563786 15:-0.290597 16:-0.0450465 17:-0.894737 18:-0.68421 21:-0.789474 22:-0.638523 23:-0.848427 24:-0.907362 27:-0.622556 28:-0.757576 29:-0.50326 30:-0.166666 31:-1 32:-1 35:-0.638523 36:-0.848427 37:-1 40:-0.899497 
7.573163531056784 1:-0.338508 2:-0.309838 3:-0.470699 4:0.29348 5:-0.166666 6:-0.678637 7:-0.403356 8:-0.33557 9:-0.691581 10:-0.946325 11:-0.489873 12:-0.70248 13:-0.826719 14:0.646091 15:-0.279641 16:-0.259933 17:-0.565218 18:0.217392 21:-0.217392 22:-0.0676427 23:-0.610487 24:-0.866303 27:-0.718791 28:0.585859 29:-0.288134 30:-0.3375 31:-0.652174 32:0.217392 35:-0.0676427 36:-0.610487 37:-0.937711 40:0.58794 
8 1:-0.211783 2:-0.40977 3:-0.130435 4:0.261363 5:-0.512741 6:-0.713437 7:-0.125111 8:-0.550719 9:-0.791547 10:-0.679631 11:-0.805671 12:-0.482025 13:-0.668988 14:0.654321 15:-0.561747 16:-0.569806 17:-0.545454 18:-0.363636 21:-0.636364 22:-0.606628 23:-0.835735 24:-0.795981 27:-0.838636 28:0.383838 29:-0.514876 30:-0.557142 31:-0.90909 32:-0.363636 35:-0.606628 36:-0.835735 37:-0.967949 40:0.386935 
1.343947703350049 1:-0.00467723 2:-0.105227 3:-0.171843 4:0.380953 5:-0.393939 6:-0.341615 7:-0.0749621 8:-0.437568 9:-0.738179 10:-0.803371 11:-0.716657 12:-0.11565 13:-0.743741 14:0.580247 15:-0.198663 16:-0.30108 17:-0.04762 18:0.333334 21:-0.238096 22:-0.944752 23:-0.976852 24:-0.535656 27:-0.476346 28:0.181818 29:0.88649 30:0.8 31:-0.238096 32:-0.238096 35:-0.944752 36:-0.976852 37:0.556338 40:-0.919598 
8 1:-0.325838 2:-0.431323 3:-0.44664 4:0.556817 5:-0.710745 6:-0.64229 7:-0.125111 8:-0.0853064 9:-0.582324 10:-0.92374 11:-0.863834 12:-0.405642 13:-0.623094 14:0.555556 15:-0.677109 16:-0.5812 17:-0.636364 18:0.09091 21:-0.181818 22:-0.962808 23:-0.984715 24:-0.905064 27:-0.768518 28:0.363636 29:-0.607598 30:-0.565218 31:-0.545454 32:0.09091 35:-0.962808 36:-0.984715 37:-0.940674 40:0.366834 
1.8694136776618 1:-0.141767 2:-0.274929 3:0.118012 4:0.767856 5:-0.580628 6:-0.164594 7:0.476664 8:-0.831672 9:-0.893352 10:-0.820165 11:-0.901094 12:-0.206472 13:-0.592345 14:0.251029 15:0.247242 16:-0.0462598 17:0.714286 18:1 21:0.142858 22:-0.973116 23:-0.98467 24:0.157217 27:-0.483584 28:-0.161616 29:0.934056 30:0.12 31:0.714286 32:0.571428 35:-0.973116 36:-0.98467 37:0.932046 40:-0.768844 
8 1:-0.00164875 2:-0.330659 3:-0.00621043 4:0.380953 5:-0.518398 6:-0.527951 7:-0.499292 8:-0.995043 9:-0.997763 10:-0.744807 11:-0.503626 12:-0.416906 13:-0.77508 14:0.580247 15:-0.173735 16:-0.337657 17:0.04762 18:0.238096 21:-0.238096 22:-0.988283 23:-0.995215 24:-0.453019 27:-0.546298 28:0.333333 29:-0.203012 30:-0.392592 31:-0.714284 32:0.238096 35:-0.988283 36:-0.995215 37:-0.924078 40:0.336683 
3.030524765068824 1:0.330892 2:0.00495959 3:-0.00621043 4:0.690477 5:0.0209221 6:-0.434783 7:0.0947693 8:-0.591827 9:-0.815035 10:-0.79147 11:-0.119525 12:-0.3948 13:-0.785837 14:0.604938 15:-0.48149 16:-0.332431 17:-0.809524 18:-0.714286 21:-0.809524 22:-0.877213 23:-0.949921 24:-0.918493 27:-0.686573 28:-0.666667 29:-0.150448 31:-0.904762 32:-0.904762 35:-0.877213 36:-0.949921 37:-0.150448 40:-1 
0.0892537298424216 1:0.0206204 2:-0.44861 3:-0.0846678 4:0.315791 5:-0.806619 6:-0.407324 7:-0.0526296 8:-0.711591 9:-0.866843 10:-0.532386 11:-0.918717 12:-0.190346 13:-0.59613 14:0.679012 15:-0.452135 16:-0.397179 17:-0.157894 18:0.263158 21:-0.052632 22:-0.561695 23:-0.817863 24:-0.790054 27:-0.637483 28:0.363636 29:-0.426776 30:-0.434782 31:-0.894738 32:0.263158 35:-0.561695 36:-0.817863 37:-0.939721 40:0.366834 
1.543550221171372 1:0.238813 2:-0.00108573 3:-0.42029 4:0.690477 5:-0.186508 6:-0.304348 7:0.179635 8:0.436293 9:-0.337675 10:-0.937941 11:-0.646486 12:-0.257871 13:-0.226123 14:0.572016 15:-0.485803 16:-0.467813 17:-0.904762 18:-0.238096 21:-0.238096 22:0.722283 23:-0.285226 24:-0.989347 27:-0.74215 28:0.30303 29:-0.453836 30:-0.484848 31:-0.333334 32:-0.238096 35:0.722283 36:-0.285226 37:-0.883273 40:0.306533 
4.721527983458567 1:-0.00447534 2:-0.323546 3:-0.0434783 4:0.187501 5:-0.611743 6:-0.402176 7:-0.198018 8:0.14669 9:-0.47209 10:-0.384355 11:-0.958951 12:-0.155523 13:-0.740868 14:0.646091 15:0.0157172 16:-0.238508 18:0.6 21:0.1 22:-0.9934 23:-0.997265 24:-0.529444 27:-0.175188 28:0.191919 29:-0.05074 30:-0.322314 31:-0.9 32:0.6 35:-0.9934 36:-0.997265 37:-0.859058 40:0.19598 
0.1437607047593861 1:-0.303372 2:-0.338286 3:-0.130435 4:0.5125 5:-0.48106 6:-0.480433 7:-0.198018 8:0.346025 9:-0.380316 10:-0.635477 11:-0.886379 12:-0.427801 13:-0.786326 14:0.621399 15:-0.345876 16:-0.371621 17:-0.1 18:0.4 21:-0.2 22:-0.599724 23:-0.834151 24:-0.67289 27:-0.731449 28:0.424242 29:-0.34137 30:-0.416666 31:-0.9 32:0.4 35:-0.599724 36:-0.834151 37:-0.953279 40:0.427136 
3.546206548913114 1:0.112484 2:-0.413729 3:-0.130435 4:0.187501 5:-0.568182 6:-0.558696 7:-0.0198 8:-0.982618 9:-0.992028 10:-0.862555 11:-0.581559 12:-0.325719 13:-0.494154 14:0.662551 15:-0.60687 16:-0.583541 17:-0.9 18:-0.3 21:-0.3 22:-0.708952 23:-0.879695 24:-0.938087 27:-0.784108 28:0.555556 29:-0.551144 30:-0.566878 31:-0.4 32:-0.3 35:-0.708952 36:-0.879695 37:-0.930489 40:0.557789 
8 1:-0.357295 2:-0.241164 3:-0.130435 4:0.187501 5:-0.263258 6:-0.382606 7:-0.108909 8:-0.27365 9:-0.664904 10:-0.88295 11:-0.825549 12:-0.403336 13:-0.757377 14:0.720165 15:-0.210172 16:-0.268093 18:0.2 21:-0.2 22:-0.964136 23:-0.985109 24:-0.506479 27:-0.656146 28:0.323232 29:-0.232298 30:-0.343284 31:-0.8 32:0.2 35:-0.964136 36:-0.985109 37:-0.900404 40:0.326633 
0.5121680711221178 1:-0.348736 2:-0.276377 3:-0.42029 4:0.380953 5:-0.393939 6:-0.416149 7:0.00990358 8:-0.815712 9:-0.915132 10:-0.919266 11:-0.862902 12:-0.431456 13:-0.635881 14:0.736626 15:-0.408679 16:-0.385599 17:-0.809524 18:0.238096 21:0.238096 22:-0.912395 23:-0.963686 24:-0.915233 27:-0.615307 28:0.414141 29:-0.391848 30:-0.426574 31:0.0476198 32:0.238096 35:-0.912395 36:-0.963686 37:-0.86253 40:0.417085 
4.272455776992779 1:-0.160367 2:-0.163125 3:-0.359268 4:0.486842 5:-0.302234 6:-0.180776 7:-0.0526296 8:-0.405402 9:-0.714588 10:-0.851057 11:-0.811876 12:-0.242122 13:-0.676567 14:0.62963 15:-0.475765 16:-0.329573 17:-0.68421 18:0.052632 21:-0.157894 22:-0.640017 23:-0.844484 24:-0.967038 27:-0.803869 28:0.353535 29:-0.445768 30:-0.386862 31:-0.473684 32:0.052632 35:-0.640017 36:-0.844484 37:-0.924451 40:0.356784 
3.686308137137765 1:0.0469721 2:-0.147496 3:-0.478261 4:0.35 5:-0.0890171 6:-0.323913 7:-0.287127 8:-0.660559 9:-0.83693 10:-0.880805 11:-0.660909 12:-0.183309 13:-0.609213 14:0.580247 15:-0.208679 16:-0.423352 17:-0.2 18:0.2 21:-0.4 22:-0.977556 23:-0.990295 24:-0.504605 27:-0.634805 28:0.484848 29:-0.231098 30:-0.453334 31:-0.8 32:0.2 35:-0.977556 36:-0.990295 37:-0.909536 40:0.487437 
8 1:-0.28395 2:-0.299215 3:-0.359268 4:0.486842 5:-0.348086 6:-0.283751 7:-0.146429 8:-0.449194 9:-0.735609 10:-0.847404 11:-0.840892 12:-0.375327 13:-0.688553 14:0.703704 15:-0.169896 16:-0.369812 17:0.052632 18:0.263158 21:-0.263158 22:-0.981743 23:-0.992112 24:-0.340582 27:-0.594922 28:0.282828 29:-0.199926 30:-0.415384 31:-0.68421 32:0.263158 35:-0.981743 36:-0.992112 37:-0.841118 40:0.286432 
0.8554506337007509 1:-0.334307 2:-0.386499 3:-0.267734 4:0.315791 5:-0.714913 6:-0.345537 7:0.0411702 8:-0.388831 9:-0.706633 10:-0.870432 11:-0.863143 12:-0.408193 13:-0.679678 14:0.662551 15:-0.116653 16:-0.369812 17:0.052632 18:0.368422 21:-0.263158 22:-0.98685 23:-0.994318 24:-0.223562 27:-0.508392 28:0.282828 29:-0.157132 30:-0.415384 31:-0.68421 32:0.368422 35:-0.98685 36:-0.994318 37:-0.819876 40:0.286432 
0.9379706797534756 1:-0.135468 2:-0.104224 3:-0.391304 4:0.5125 5:-0.4375 6:-0.167392 7:0.158418 8:0.0405095 9:-0.500547 10:-0.901148 11:-0.683621 12:-0.322794 13:-0.68839 14:0.646091 15:-0.322535 16:-0.341545 17:-0.1 18:0.1 21:-0.4 22:-0.683268 23:-0.863171 24:-0.573279 27:-0.625196 28:0.272727 29:-0.922769 30:-0.857143 31:-1 32:-1 35:-0.683268 36:-0.863171 37:-1 40:-0.879397 
8 1:-0.219755 2:-0.336049 3:0.00686435 4:0.144737 5:-0.669059 6:-0.407324 7:-0.0526296 8:-0.473161 9:-0.744827 10:-0.641506 11:-0.95579 12:-0.309823 13:-0.683909 14:0.563786 15:-0.536087 16:-0.400362 17:-0.368422 18:-0.157894 21:-0.368422 22:-0.604506 23:-0.827598 24:-0.8658 27:-0.901574 28:0.333333 29:-0.494252 30:-0.437038 31:-1 32:-0.157894 35:-0.604506 36:-0.827598 37:-0.975254 40:0.336683 
3.489041052155633 1:0.124669 2:-0.0306452 3:-0.254659 4:0.767856 5:-0.0827879 6:0.0869563 7:0.349366 8:-0.921292 9:-0.946928 10:-0.882519 11:-0.735295 12:-0.0898931 13:-0.488098 14:0.209877 15:0.128215 16:-0.136487 17:0.714286 18:0.714286 22:-0.988954 23:-0.993296 24:0.277973 27:-0.625035 28:-0.30303 29:0.03968 30:-0.25 31:-0.285714 32:0.714286 35:-0.988954 36:-0.993296 37:-0.497416 40:-0.296482 
2.496396707221637 1:0.214724 2:-0.245657 3:0.0983983 4:0.144737 5:-0.714913 6:-0.160184 7:-0.0526296 8:-0.0325283 9:-0.531401 10:-0.296816 11:-0.948973 12:-0.0137173 13:-0.651324 14:0.703704 15:-0.485034 16:-0.423056 17:-0.473684 18:-0.052632 21:-0.263158 22:-0.692779 23:-0.866078 24:-0.8792 27:-0.745861 28:0.262626 29:-0.453218 30:-0.453124 31:-0.789474 32:-0.052632 35:-0.692779 36:-0.866078 37:-0.943693 40:0.266332 
8 1:-0.335191 2:-0.423434 3:-0.391304 4:0.187501 5:-0.611743 6:-0.441304 7:-0.287127 8:-0.711198 9:-0.863475 10:-0.864356 11:-0.750177 12:-0.475691 13:-0.770012 14:0.654321 15:-0.19073 16:-0.434156 17:-0.1 18:0.1 21:-0.3 22:-0.92644 23:-0.968701 24:-0.499607 27:-0.577409 28:0.393939 29:-0.216672 30:-0.460992 31:-0.8 32:0.1 35:-0.92644 36:-0.968701 37:-0.93412 40:0.396985 
8 1:-0.418743 2:-0.341468 3:-0.391304 4:0.5125 5:-0.350379 6:-0.519562 7:0.069309 8:-0.905478 9:-0.95536 10:-0.931264 11:-0.776361 12:-0.560776 13:-0.714593 14:0.654321 15:-0.493225 16:-0.513515 17:-0.5 18:-0.2 21:-0.3 22:-0.715256 23:-0.878947 24:-0.864365 27:-0.773215 28:0.434343 29:-0.459802 30:-0.517242 31:-0.8 32:-0.2 35:-0.715256 36:-0.878947 37:-0.964578 40:0.437186 
8 1:0.071845 2:-0.137411 3:-0.359268 4:0.486842 5:-0.0729685 6:-0.304348 7:-0.0526296 8:-0.839734 9:-0.924808 10:-0.888248 11:-0.588045 12:-0.164543 13:-0.682542 14:0.563786 15:-0.476982 16:-0.382309 17:-0.578948 18:-0.157894 21:-0.473684 22:-0.712747 23:-0.878693 24:-0.874367 27:-0.812125 28:0.30303 29:-0.446746 30:-0.424242 31:-0.894736 32:-0.157894 35:-0.712747 36:-0.878693 37:-0.977722 40:0.306533 
8 1:0.133836 2:-0.241443 3:-0.450802 4:0.144737 5:0.0187362 6:-0.407324 7:-0.334027 8:-0.95383 9:-0.978346 10:-0.825808 11:-0.553411 12:-0.1358 13:-0.720838 14:0.572016 15:-0.222103 16:-0.294946 17:-0.157894 18:0.263158 21:-0.263158 22:-0.944214 23:-0.976441 24:-0.591723 27:-0.585406 28:0.363636 29:-0.241888 30:-0.362318 31:-0.894736 32:0.263158 35:-0.944214 36:-0.976441 37:-0.97938 40:0.366834 
1.202740435375522 1:-0.19473 2:-0.287857 3:-0.337475 4:0.226192 5:-0.642857 6:-0.416149 7:-0.0749621 8:-0.350097 9:-0.695695 10:-0.884188 11:-0.602945 12:-0.512021 13:-0.709075 14:0.604938 15:-0.121393 16:-0.194807 17:-0.238096 18:0.04762 21:-0.52381 22:-0.959501 23:-0.982933 24:-0.479214 27:-0.669607 28:0.252525 29:-0.160942 30:-0.291338 31:-0.714286 32:0.04762 35:-0.959501 36:-0.982933 37:-0.879494 40:0.256281 
6.244595868403416 1:0.129515 2:-0.259272 3:-0.254659 4:-0.0833316 5:-0.601371 6:-0.304348 7:-0.329561 8:-0.990563 9:-0.995598 10:-0.923756 11:-0.887857 12:0.107854 13:-0.438186 14:0.679012 15:-0.24954 16:-0.371621 17:0.04762 18:0.04762 21:-0.333334 22:-0.925036 23:-0.968449 24:-0.21886 27:-0.85825 28:0.181818 29:-0.26394 30:-0.416666 31:-0.619046 32:0.04762 35:-0.925036 36:-0.968449 37:-0.651296 40:0.18593 
0.3731765122754573 1:0.27678 2:0.0828735 3:0.159421 4:0.535715 5:-0.518398 6:-0.136646 7:0.179635 8:-0.779418 9:-0.896508 10:-0.778404 11:-0.832478 12:0.305425 13:-0.61905 14:0.613169 15:0.0360743 16:-0.0113337 17:-0.809524 18:-0.52381 21:-0.714286 22:-0.975151 23:-0.989506 24:-0.668848 27:-0.683101 28:-0.717172 29:-0.186944 30:0.2 31:-0.904762 32:-0.714286 35:-0.975151 36:-0.989506 37:-0.766645 40:-0.919598 
4.889314349961077 1:-0.329847 2:-0.303457 3:-0.337475 4:0.380953 5:-0.642857 6:-0.397516 7:0.0947693 8:-0.894213 9:-0.949272 10:-0.921017 11:-0.875724 12:-0.456645 13:-0.564758 14:0.711934 15:-0.29431 16:-0.337042 17:-1 18:-0.04762 21:-0.04762 22:-0.638821 23:-0.844099 24:-1 27:-0.226463 29:-0.832644 30:-0.857143 31:-1 32:-1 35:-0.638821 36:-0.844099 37:-1 40:-0.879397 
0.6074543611186041 1:0.224488 2:0.0461082 3:-0.254659 4:0.380953 5:-0.393939 6:-0.00621144 7:0.00990358 8:0.087561 9:-0.479071 10:-0.876804 11:-0.736834 12:-0.120239 13:-0.31558 14:0.728395 15:-0.214402 16:-0.237698 17:-0.52381 18:-0.333334 21:-0.809524 22:0.36007 23:-0.413695 24:-0.748353 27:-0.935574 28:0.131313 29:-0.235698 30:-0.32174 31:-0.714286 32:-0.333334 35:0.36007 36:-0.413695 37:-0.896569 40:0.135678 
2.595154330186027 1:0.223172 2:0.0872852 3:0.0276678 4:-0.181816 5:-0.512741 6:0.0335991 7:-0.206118 8:-0.190766 9:-0.614187 10:-0.682796 11:-0.955752 12:0.202919 13:-0.512953 14:0.786008 15:0.418781 16:-0.109357 17:-0.363636 18:-0.181818 21:-0.363636 22:-0.984019 23:-0.993142 24:-0.452681 27:-0.524806 28:0.020202 29:0.273222 30:-0.23077 31:-1 32:-0.181818 35:-0.984019 36:-0.993142 37:-0.9341 40:0.0251256 
6.033506469624615 1:-0.170853 2:-0.192296 3:-0.267734 4:0.315791 5:-0.302234 6:-0.407324 7:0.0411702 8:-0.0411904 9:-0.463966 10:-0.905486 11:-0.667278 12:-0.485484 13:-0.596446 14:0.465021 15:-0.272564 16:-0.23991 17:-0.263158 18:-0.052632 21:-0.263158 22:-0.725964 23:-0.86212 24:-0.811672 27:-0.68698 28:0.313131 29:-0.282446 30:-0.323308 31:-1 32:-0.052632 35:-0.725964 36:-0.86212 37:-0.951704 40:0.316583 
4.05519046493203 1:0.529744 2:0.195616 3:0.545894 4:0.638889 5:-0.393939 6:0.521739 7:0.207924 8:-0.806169 9:-0.806605 10:-0.610565 11:-0.710862 12:-0.0721068 13:-0.182915 14:-0.473251 15:0.539033 16:0.181806 17:0.777778 18:0.777778 21:0.333334 22:-0.990787 23:-0.991723 24:0.56777 27:-0.225916 28:-0.616162 29:0.533856 31:-0.11111 32:0.333334 35:-0.990787 36:-0.991723 37:0.362518 40:-0.859296 
5.764847645690224 1:0.0808938 2:-0.0956718 3:-0.243856 4:-0.271737 5:-0.507576 6:-0.593573 7:-0.170899 8:-0.955829 9:-0.982079 10:-0.61741 11:-0.845851 12:-0.20746 13:-0.515563 14:0.341564 15:-0.48156 16:-0.388418 17:-0.652174 18:-0.47826 21:-0.652174 22:-0.687411 23:-0.885747 24:-0.948548 27:-0.9111 28:0.454545 29:-0.450426 30:-0.428572 31:-1 32:-0.47826 35:-0.687411 36:-0.885747 37:-0.9852 40:0.457286 
1.100192616791945 1:0.0802461 2:-0.0803179 3:-0.331104 4:-0.75 5:-0.393939 6:-0.499998 7:-0.629855 8:-0.530261 9:-0.810323 10:-0.830734 11:-0.874202 12:0.141178 13:-0.64124 14:0.62963 15:0.134889 16:-0.114444 17:-0.23077 21:-0.615384 22:-0.94512 23:-0.980055 24:-0.434966 27:-0.6847 28:0.262626 29:0.971602 30:0.833334 31:-0.461539 32:-0.307692 35:-0.94512 36:-0.980055 37:0.233183 40:-0.899497 
5.128842918156876 1:0.636304 2:-0.116711 3:0.304348 4:1 5:-0.176136 6:-0.0597822 7:0.603964 8:-0.519402 9:-0.471487 10:-0.494457 11:-0.870345 12:-0.229881 13:0.241839 14:-0.580247 15:0.428053 16:0.0952897 17:0.5 18:1 21:0.5 22:-0.955371 23:-0.955829 24:0.553243 27:-0.318961 28:-0.676768 29:1 30:1 31:0.5 32:0.5 35:-0.955371 36:-0.955829 37:1 40:-0.959799 
8 1:-0.34113 2:-0.350409 3:0.159421 4:0.783332 5:-0.626262 6:-0.382606 7:0.36634 8:-0.688595 9:-0.806719 10:-0.865592 11:-0.711974 12:-0.609446 13:-0.695805 14:0.26749 15:-0.704092 16:-0.663794 17:-0.6 18:-0.333334 21:-0.6 22:-0.367731 23:-0.646833 24:-0.883939 27:-0.911272 28:-0.010101 29:-0.629286 30:-0.623762 31:-1 32:-0.333334 35:-0.367731 36:-0.646833 37:-0.980311 40:-0.00502513 
4.584530421819122 1:0.337893 2:-0.111923 3:0.521739 4:0.59375 5:-0.285038 6:0.282611 7:0.381191 8:-0.797437 9:-0.787168 10:-0.681492 11:-0.744711 12:-0.312414 13:-0.117294 14:-0.44856 15:0.625789 16:0.337142 17:1 18:1 21:0.25 22:-0.941645 23:-0.944828 24:0.875898 27:-0.356875 28:-0.676768 29:0.854738 31:-0.25 32:0.75 35:-0.941645 36:-0.944828 37:0.727041 40:-0.758794 
3.1104864304241 1:0.520747 2:0.499237 3:-0.0338157 4:0.638889 5:0.186867 6:0.869565 7:0.801982 8:-0.794071 9:-0.792912 10:-0.680498 11:-0.301022 12:-0.371003 13:-0.386321 14:-0.440329 15:0.803282 16:0.534785 17:0.777778 18:0.777778 21:-0.333334 22:-0.979012 23:-0.981003 24:0.761083 27:-0.0211104 28:-0.717172 29:0.926556 30:0.44 31:0.333334 32:0.777778 35:-0.979012 36:-0.981003 37:0.800336 40:-0.768844 
3.708561228550672 1:0.906754 2:-0.00660133 3:0.545894 4:0.638889 5:-0.490741 6:0.260869 7:0.405944 8:-0.67607 9:-0.67514 10:-0.457251 11:-0.627758 12:-0.264086 13:0.313423 14:-0.432099 15:0.826904 16:0.465182 17:0.777778 18:0.777778 21:0.333334 22:-0.959406 23:-0.963361 24:0.777934 27:0.0218393 28:-0.686869 29:0.955802 30:0.52 31:-0.111112 32:1 35:-0.959406 36:-0.963361 37:0.599766 40:-0.768844 
8 1:0.000815986 2:0.00675904 3:0.581028 4:0.704546 5:-0.552341 6:-0.304348 7:0.279931 8:-0.913651 9:-0.914206 10:-0.627528 11:-0.802992 12:-0.384777 13:-0.50457 14:-0.506173 15:0.0989622 16:-0.0525097 17:0.454546 18:0.636364 21:-0.272728 22:-0.952192 23:-0.95727 24:0.28735 27:-0.51994 28:-0.606061 29:0.680474 30:0.304348 31:0.272728 32:0.454546 35:-0.952192 36:-0.95727 37:0.486664 40:-0.788945 
8 1:0.565975 2:0.207189 3:0.545894 4:0.638889 5:0.186867 6:0.434782 7:0.207924 8:-0.516599 9:-0.521631 10:-0.522027 11:-0.682821 12:-0.206814 13:-0.110075 14:-0.407407 15:0.315973 16:-0.0483111 17:0.333334 18:0.555556 21:-0.333334 22:-0.991734 23:-0.992633 24:0.428465 27:-0.468952 28:-0.707071 29:0.888554 30:0.238096 31:0.111112 32:0.555556 35:-0.991734 36:-0.992633 37:0.747763 40:-0.809045 
6.092890696543169 1:0.518464 2:-0.0120805 3:0.565217 4:0.675 5:-0.48106 6:-0.147827 7:0.782182 8:-0.86574 9:-0.867794 10:-0.319038 11:-0.435172 12:-0.473908 13:-0.419368 14:-0.44856 15:0.654275 16:0.149033 17:0.6 18:0.6 22:-0.934218 23:-0.94172 24:0.549863 27:-0.13997 28:-0.606061 29:0.940762 30:0.428572 31:0.6 32:0.4 35:-0.934218 36:-0.94172 37:0.902718 40:-0.879397 
0.9344172533464126 1:0.665595 2:0.0634314 3:0.490683 4:0.767856 5:-0.456169 6:0.22671 7:0.222067 8:-0.757653 9:-0.83465 10:-0.308067 11:-0.966383 12:-0.0640361 13:0.0876653 14:0.176955 15:0.655654 16:0.196346 17:0.714286 18:0.857142 21:0.571428 22:-0.940088 23:-0.963212 24:0.449556 27:0.0433352 28:-0.313131 29:0.463608 30:-0.014084 31:-0.857142 32:0.857142 35:-0.940088 36:-0.963212 37:-0.723312 40:-0.306533 
8 1:0.617158 2:0.29778 3:0.391304 4:0.675 5:0.303035 6:0.282611 7:0.603964 8:-0.825194 9:-0.829962 10:-0.653369 11:-0.26916 12:-0.250988 13:-0.43107 14:-0.349794 15:0.299042 16:0.149033 17:-0.2 18:0.6 21:0.2 22:-0.949427 23:-0.955734 24:-0.568408 27:-0.762642 28:-0.393939 29:0.176982 30:-0.04762 31:-0.6 32:0.6 35:-0.949427 36:-0.955734 37:-0.882831 40:-0.386935 
-8 1:-0.141675 2:-0.331233 3:-0.378882 4:0.303571 5:-0.207251 6:-0.0807456 7:0.349366 8:-0.592075 9:-0.747106 10:-0.911769 11:-0.772922 12:-0.281783 13:-0.609763 14:0.44856 15:-0.393963 16:-0.359395 17:-0.571428 21:-0.142858 22:-0.947475 23:-0.970693 24:-0.901642 27:-0.70244 28:0.232323 29:-0.38002 30:-0.408 31:-0.57143 35:-0.947475 36:-0.970693 37:-0.911129 40:0.236181 
-0.4038014948994591 1:0.133568 2:-0.258827 3:-0.652174 4:0.566668 5:-0.0454582 6:-0.226085 7:-0.227722 8:0.0776659 9:-0.343805 10:-0.990694 11:0.0713029 12:-0.617582 13:-0.935182 14:0.226337 15:-0.0954742 16:-0.236795 17:-0.2 18:0.066666 21:-0.466666 22:-0.942793 23:-0.968649 24:-0.728344 27:-0.731954 28:0.0707071 29:-0.14011 30:-0.3211 31:-0.733334 32:0.066666 35:-0.942793 36:-0.968649 37:-0.982571 40:0.0753769 
-8 1:-0.052501 2:-0.26038 3:0.391304 4:0.675 5:-0.742425 6:-0.186956 7:0.425745 8:-0.46881 9:-0.509259 10:-0.563169 11:-0.860189 12:-0.435073 13:-0.511229 14:-0.374486 15:0.365416 16:0.126164 17:0.6 18:0.6 21:0.2 22:-0.98334 23:-0.986144 24:0.111816 27:-0.0578919 28:-0.555556 29:0.93671 30:0.714286 31:0.2 32:0.2 35:-0.98334 36:-0.986144 37:0.93671 40:-0.949749 
-1.498168363598415 1:0.72879 2:-0.0185747 3:-0.0513826 4:0.409092 5:-0.631542 6:0.158103 7:-0.0441019 8:-0.890974 9:-0.900544 10:-0.680996 11:-0.253203 12:0.138861 13:-0.653205 14:-0.358025 15:0.532282 16:0.183406 17:0.272728 18:0.454546 21:-0.272728 22:-0.920576 23:-0.934817 24:0.226563 27:-0.27695 28:-0.59596 29:0.89229 30:0.25926 31:-0.272726 32:0.454546 35:-0.920576 36:-0.934817 37:0.24015 40:-0.748744 
-1.729055928350371 1:-0.216257 2:-0.441238 3:-0.806763 4:0.0972221 5:-0.345539 6:-0.391305 7:-0.0891073 8:0.373793 9:-0.29591 10:-0.949012 11:-0.798979 12:-0.304969 13:-0.628435 14:0.604938 15:-0.55353 16:-0.483636 17:-0.888889 18:-0.333334 21:-0.444444 22:0.721749 23:-0.205835 24:-0.979755 27:-0.848647 28:0.252525 29:-0.508272 30:-0.496064 31:-0.555555 32:-0.333334 35:0.721749 36:-0.205835 37:-0.938935 40:0.256281 
-0.4124490742638227 1:0.210557 2:-0.419196 3:-0.130435 4:0.303571 5:-0.456169 6:-0.304348 7:-0.669024 8:-0.720959 9:-0.804288 10:-0.443441 11:-0.846668 12:0.248096 13:-0.927762 14:0.102881 15:-0.0403202 16:0.324741 17:-0.714286 18:-0.714286 21:-1 22:-0.894684 23:-0.933525 24:-0.114088 27:-1 28:-0.89899 29:-0.301646 30:0.2 31:-0.857143 32:-0.857143 35:-0.894684 36:-0.933525 37:-0.387982 40:-0.969849 
-2.39583555447013 1:-0.182859 2:-0.231985 3:-0.181586 4:0.235295 5:0.118539 6:-0.327367 7:-0.129876 8:-0.00262798 9:-0.46266 10:-0.944573 11:-0.597516 12:-0.369838 13:-0.788255 14:0.555556 15:-0.301382 16:-0.318919 17:-0.764706 18:-0.058824 21:-0.17647 22:-0.734524 23:-0.871278 24:-0.935194 27:-0.703887 28:0.141414 29:-0.305608 30:-0.37931 31:-0.411764 32:-0.058824 35:-0.734524 36:-0.871278 37:-0.893949 40:0.145729 
-8 1:-0.0794952 2:-0.327974 3:-0.359268 4:0.315791 5:-0.623206 6:-0.118994 7:0.134968 8:-0.153319 9:-0.628874 10:-0.900455 11:-0.668827 12:-0.284351 13:-0.66546 14:0.893004 15:-0.302564 16:-0.35266 17:-0.68421 18:-0.157894 21:-0.473684 22:-0.928995 23:-0.971988 24:-0.794363 27:-0.835749 28:0.222222 29:-0.038218 30:-0.1 31:-1 32:-0.789474 35:-0.928995 36:-0.971988 37:-0.778369 40:-0.819095 
-8 1:-0.280859 2:-0.388828 3:-0.0724643 4:0.566668 5:-0.626262 6:-0.226085 7:-0.108909 8:-0.0736905 9:-0.4251 10:-0.835575 11:-0.798493 12:-0.351749 13:-0.774253 14:0.333333 15:-0.17003 16:-0.377809 17:0.066666 18:-0.066666 21:-0.2 22:-0.934658 23:-0.963501 24:-0.497556 27:-0.580897 28:0.121212 29:-0.200034 30:-0.421052 31:-0.733334 32:-0.066666 35:-0.934658 36:-0.963501 37:-0.931372 40:0.125628 
-1.362231892794451 1:0.344689 2:-0.141653 3:0.242237 4:0.535715 5:-0.145022 6:-0.0807456 7:-0.159828 8:-0.617411 9:-0.731177 10:-0.745771 11:-0.633141 12:-0.320715 13:-0.192828 14:0.201646 15:-0.278415 16:-0.355735 17:-1 22:-0.613694 23:-0.75573 24:-1 27:-0.182165 28:-0.282828 29:0.245456 30:0.071428 32:-0.142858 35:-0.613694 36:-0.75573 37:0.156346 40:-0.738693 
-4.554339521364708 1:0.0784028 2:-0.618558 3:-0.590793 4:0.235295 5:-0.393939 6:-0.534528 7:-0.339545 8:0.166071 9:-0.367288 10:-0.986256 11:-0.846691 12:-0.0832636 13:-0.324008 14:0.62963 15:-0.600679 16:-0.619486 17:-0.647058 18:0.17647 21:-0.058824 22:-0.79443 23:-0.899613 24:-0.895523 27:-0.712658 28:0.555556 29:-0.546168 30:-0.592356 31:-0.411766 32:0.17647 35:-0.79443 36:-0.899613 37:-0.919239 40:0.557789 
-2.513115797902811 1:-0.297014 2:-0.518311 3:-0.503106 4:-0.0833316 5:-0.642857 6:-0.639752 7:-0.244694 8:-0.971829 9:-0.987168 10:-0.831126 11:-0.923001 12:-0.26794 13:-0.71855 14:0.621399 15:-0.335308 16:-0.404541 17:-0.904762 18:-0.428572 21:-0.428572 22:-0.997378 23:-0.998924 24:-0.97077 27:-0.744902 28:0.232323 29:-0.332876 30:-0.44 31:-0.52381 32:-0.428572 35:-0.997378 36:-0.998924 37:-0.894473 40:0.236181 
-2.059179884896468 1:-0.181289 2:-0.364667 3:-0.38619 4:0.42647 5:-0.496435 6:-0.120205 7:-0.23471 8:-0.338514 9:-0.66327 10:-0.884712 11:-0.845532 12:-0.231499 13:-0.643658 14:0.646091 15:-0.641949 16:-0.606758 17:-0.647058 18:-0.294118 21:-0.411764 22:-0.685764 23:-0.856035 24:-0.856897 27:-0.75466 28:0.181818 29:-0.679826 30:-0.75 31:-0.882353 32:-0.882353 35:-0.685764 36:-0.856035 37:-0.679826 40:-0.939698 
-8 1:0.171221 2:-0.184888 3:0.159421 4:0.566668 5:-0.335859 6:-0.330434 7:0.128715 8:-0.908353 9:-0.939302 10:-0.637521 11:-0.616807 12:-0.165704 13:-0.714104 14:0.144033 15:0.110891 16:-0.401014 17:0.2 18:0.6 21:0.066666 22:-0.960433 23:-0.976418 24:-0.213832 27:-0.159591 28:-0.0606061 29:0.79893 30:0.6 31:-0.333333 32:-0.066666 35:-0.960433 36:-0.976418 37:-0.113396 40:-0.919598 
-0.7402128582986188 1:-0.351796 2:-0.504465 3:-0.806763 4:0.0972221 5:-0.635943 6:-0.391305 7:0.108913 8:-0.0288964 9:-0.502294 10:-0.881549 11:-0.916631 12:-0.271833 13:-0.75952 14:0.621399 15:-0.785735 16:-0.621094 17:-0.777778 18:-0.555556 21:-0.666666 22:-0.301677 23:-0.677894 24:-0.898804 27:-0.946172 28:0.212121 29:-0.694906 30:-0.593496 31:-0.888888 32:-0.555556 35:-0.301677 36:-0.677894 37:-0.97166 40:0.21608 
-8 1:-0.00157271 2:-0.283861 3:-0.254659 4:0.226192 5:-0.435426 6:-0.509317 7:-0.244694 8:0.25471 9:-0.339856 10:-0.586253 11:-0.614907 12:-0.450476 13:-0.729474 14:0.572016 15:-0.106097 16:-0.363418 17:-0.142858 18:0.142858 21:-0.142858 22:-0.995559 23:-0.997896 24:-0.508398 27:-0.406276 28:0.272727 29:-0.148648 30:-0.410852 31:-1 32:0.142858 35:-0.995559 36:-0.997896 37:-0.979962 40:0.276382 
-2.591589251413528 1:0.35303 2:-0.236732 3:0.449275 4:1 5:-0.539141 6:0.217391 7:0.603964 8:-0.757259 9:-0.692528 10:-0.721422 11:-0.581799 12:-0.239455 13:-0.350874 14:-0.744856 15:0.46925 16:-0.0972972 17:1 18:1 21:-0.666666 22:-0.962621 23:-0.957392 24:1 27:-0.476093 28:-0.848485 29:0.954368 30:0.166666 31:0.666666 32:0.666666 35:-0.962621 36:-0.957392 37:0.954368 40:-0.899497 
-0.6157146488137657 1:0.252054 2:-0.101353 3:-0.331104 4:0.75 5:0.343242 6:-0.0936462 7:0.0556005 8:-0.726946 9:-0.805209 10:-0.936661 11:-0.53718 12:-0.452748 13:-0.160433 14:0.102881 15:0.17575 16:0.00874491 17:0.076924 18:0.384616 21:-0.384616 22:-0.982916 23:-0.989029 24:-0.395319 27:-0.762451 28:-0.343434 29:0.077886 30:-0.147058 31:-0.53846 32:0.384616 35:-0.982916 36:-0.989029 37:-0.790743 40:-0.336683 
-8 1:-0.171642 2:-0.210808 3:-0.0338157 4:0.277779 5:0.138472 6:-0.26087 7:-0.0891073 8:-0.906144 9:-0.950133 10:-0.693616 11:-0.832026 12:-0.506556 13:-0.538995 14:0.786008 15:-0.10007 16:-0.280181 17:-0.444444 18:-0.111112 21:-0.555556 22:-0.645051 23:-0.830262 24:-0.56472 27:-0.783718 28:0.0606061 29:-0.143804 30:-0.351852 31:-0.888888 32:-0.111112 35:-0.645051 36:-0.830262 37:-0.870862 40:0.0653266 
-0.8760208769438235 1:-0.16999 2:-0.0754978 3:0.10672 4:0.704546 5:0.318869 6:0.0513832 7:0.117914 8:-0.806057 9:-0.840318 10:-0.694142 11:-0.682049 12:-0.591237 13:-0.652321 14:-0.0617284 15:0.325662 16:-0.113973 17:0.272728 18:0.454546 21:-0.454546 22:-0.975847 23:-0.982102 24:0.0352477 27:-0.346591 28:-0.555556 29:0.719698 31:-0.272726 32:0.454546 35:-0.975847 36:-0.982102 37:0.209322 40:-0.678392 
-0.3907533730612188 1:0.111567 2:-0.182813 3:0.242237 4:0.767856 5:-0.829546 6:-0.0807456 7:0.222067 8:-0.558979 9:-0.693752 10:-0.487858 11:-0.910679 12:-0.136196 13:-0.566589 14:0.0699588 15:0.159673 16:-0.103567 17:0.285714 18:0.857142 21:0.142858 22:-0.964133 23:-0.977583 24:-0.1552 27:-0.294427 28:-0.272727 29:0.504766 30:0.333334 31:-0.571429 32:-0.285714 35:-0.964133 36:-0.977583 37:-0.202188 40:-0.929648 
-0.5796590055823299 1:0.344678 2:-0.586184 3:-0.38619 4:0.42647 5:-0.598931 6:-0.74169 7:-0.23471 8:0.0101212 9:-0.358603 10:-0.968908 11:0.149072 12:-0.752435 13:-0.616681 14:0.218107 15:-0.491036 16:-0.489189 17:-0.882353 18:-0.647058 21:-0.764706 22:0.315504 23:-0.248258 24:-0.966654 27:-0.919609 28:-0.141414 29:-0.458042 30:-0.5 31:-0.882353 32:-0.647058 35:0.315504 36:-0.248258 37:-0.979597 40:-0.135678 
-3.255240137170509 1:-0.434976 2:-0.580774 3:-0.516908 4:0.458333 5:-0.151936 6:-0.739131 7:-0.287127 8:-0.80655 9:-0.895734 10:-0.857994 11:-0.714429 12:-0.666571 13:-0.778921 14:0.572016 15:-0.595526 16:-0.501861 17:-0.666666 18:-0.222222 21:-0.444444 22:-0.752711 23:-0.880044 24:-0.931929 27:-0.905415 28:0.656566 29:-0.542026 30:-0.508982 31:-0.777778 32:-0.222222 35:-0.752711 36:-0.880044 37:-0.991352 40:0.658291 
-7.115300922144506 1:0.681692 2:0.0754129 3:0.490683 4:1 5:-0.269481 6:-0.47205 7:0.603964 8:-0.648455 9:-0.590229 10:-0.13463 11:-0.576175 12:-0.721524 13:0.0936062 14:-1 15:0.555769 16:0.00245552 17:0.428572 18:1 21:0.428572 22:-0.970633 23:-0.96919 24:0.58147 27:-0.090022 28:-0.69697 29:0.902048 30:0.142858 31:-0.142858 32:0.714286 35:-0.970633 36:-0.96919 37:0.411104 40:-0.738693 
-0.1567781759283578 1:-0.0857409 2:-0.498262 3:-0.42029 4:1 5:-0.539141 6:0.0217414 7:0.603964 8:-0.82505 9:-0.778869 10:-0.956984 11:-0.923242 12:-0.232568 13:-0.337611 14:-0.679012 15:-0.0802979 16:0.686487 17:-1 18:-1 21:-1 22:0.758851 23:1 24:-1 27:-1 28:-1 29:-0.130976 31:-1 32:-1 35:0.758851 36:1 37:-1 40:-0.979899 
-2.170616182969593 1:-0.311519 2:-0.413353 3:-0.613527 4:-0.0833316 5:-0.345539 6:-0.413041 7:0.00990358 8:0.233369 9:-0.367878 10:-0.875906 11:-0.870462 12:-0.269554 13:-0.769677 14:0.604938 15:-0.734833 16:-0.585613 17:-0.777778 18:-0.222222 21:-0.333334 22:-0.235635 23:-0.647435 24:-0.971313 27:-0.876491 28:0.373737 29:-0.653994 30:-0.568346 31:-0.555556 32:-0.222222 35:-0.235635 36:-0.647435 37:-0.956648 40:0.376884 
-0.9868104892841856 1:0.302686 2:-0.286652 3:0.391304 4:0.675 5:-0.655303 6:-0.226085 7:-0.287127 8:-0.964929 9:-0.967612 10:-0.475255 11:-0.711448 12:-0.336303 13:-0.366674 14:-0.44856 15:0.352081 16:-0.113973 17:-0.2 22:-0.92391 23:-0.936839 24:-0.0684806 27:-0.0372218 28:-0.555556 29:0.885854 30:0.294118 35:-0.92391 36:-0.936839 37:0.677439 40:-0.849246 
-5.940206954761976 1:0.518988 2:-0.257468 3:-0.0338157 4:0.638889 5:0.38047 6:-0.0434785 7:0.603964 8:-0.938455 9:-0.946405 10:-0.178408 11:-0.742851 12:-0.185558 13:-0.415052 14:-0.176955 15:0.433373 16:-0.0972972 17:0.777778 18:1 21:0.333334 22:-0.983773 23:-0.987286 24:0.010262 27:-0.00912375 28:-0.484848 29:0.869258 30:-0.227272 31:0.111112 32:1 35:-0.983773 36:-0.987286 37:0.25487 40:-0.577889 
-2.136874054221984 1:0.840967 2:-0.169336 3:0.337793 4:0.75 5:-0.326924 6:0.117056 7:-0.218581 8:-0.914631 9:-0.942685 10:0.143756 11:-0.93241 12:0.161632 13:-0.315297 14:0.193416 15:0.106402 16:-0.216432 17:0.076924 18:0.846154 21:-0.076924 22:-0.990736 23:-0.994401 24:-0.231043 27:-0.277212 28:-0.272727 29:0.860944 30:0.714286 31:-0.692308 32:-0.384616 35:-0.990736 36:-0.994401 37:0.0786272 40:-0.949749 
-0.8949894982023583 1:-0.0294007 2:-0.294088 3:-0.0338157 4:1 5:-0.200337 6:-0.565218 7:0.405944 8:-0.839946 9:-0.819564 10:-0.49902 11:-0.655485 12:-0.395449 13:-0.845475 14:-0.621399 15:-0.471169 16:-0.452062 17:-1 18:-1 21:-1 22:-0.302307 23:-0.292387 24:-1 27:-1 28:-0.646465 29:0.1411 30:-0.142858 31:-1 32:-1 35:-0.302307 36:-0.292387 37:-1 40:-0.809045 
-8 1:0.339935 2:0.235034 3:-0.0338157 4:0.638889 5:-0.393939 6:0.304348 7:0.405944 8:-0.403502 9:-0.363868 10:-0.839564 11:-0.751942 12:-0.0225874 13:-0.256403 14:-0.62963 15:0.473709 16:0.167568 17:0.555556 18:0.555556 21:-0.111112 22:-0.948909 23:-0.950962 24:0.496944 27:-0.289224 28:-0.737374 29:0.785748 30:0.125 31:0.555556 32:0.555556 35:-0.948909 36:-0.950962 37:0.618946 40:-0.859296 
-0.1987061240940063 1:0.327328 2:-0.365787 3:-0.633868 4:-0.197368 5:-0.485646 6:-0.263159 7:-0.709223 8:-0.740113 9:-0.870979 10:-0.971607 11:-0.899764 12:0.972318 13:-0.951522 14:0.539095 15:-0.6346 16:-0.561538 17:-0.894737 18:-0.789474 21:-0.894737 22:0.140198 23:-0.490539 24:-0.991912 27:-0.959245 28:0.545455 29:-0.573432 30:-0.551282 31:-1 32:-0.789474 35:0.140198 36:-0.490539 37:-0.984961 40:0.547739 
-2.02897899607267 1:0.129517 2:-0.541097 3:-0.751553 4:-0.0833316 5:-0.642857 6:-0.658386 7:-0.329561 8:-0.94641 9:-0.973882 10:-0.992907 11:0.1259 12:-0.768042 13:-0.862694 14:0.514403 15:-0.50285 16:-0.425062 17:-0.142858 18:-0.04762 21:-0.714286 22:-0.980271 23:-0.991343 24:-0.720652 27:-0.934922 28:0.191919 29:-0.467538 30:-0.454546 31:-0.428572 32:-0.04762 35:-0.980271 36:-0.991343 37:-0.882127 40:0.19598 
-8 1:-0.450284 2:-0.555327 3:0.0628017 4:0.458333 5:-0.539141 6:-0.695653 7:-0.386138 8:-0.963289 9:-0.980795 10:-0.772085 11:-0.849818 12:-0.615011 13:-0.745525 14:0.481481 15:-0.296893 16:-0.388418 18:0.444444 22:-0.971458 23:-0.986558 24:-0.506753 27:-0.582407 28:0.383838 29:-0.302 30:-0.428572 31:-1 32:0.444444 35:-0.971458 36:-0.986558 37:-0.935553 40:0.386935 
-1.358372347195846 1:-0.344276 2:-0.570325 3:-0.48849 4:0.235295 5:-0.393939 6:-0.419436 7:-0.444378 8:-0.954881 9:-0.97633 10:-0.980926 11:-0.886627 12:-0.0731599 13:-0.900382 14:0.679012 15:-0.311343 16:-0.342428 17:-0.17647 18:0.17647 21:-0.17647 22:-0.975848 23:-0.988594 24:-0.764363 27:-0.866465 28:0.474747 29:-0.313614 30:-0.395974 31:-1 32:0.17647 35:-0.975848 36:-0.988594 37:-0.937901 40:0.477387 
-8 1:-0.250931 2:-0.397744 3:-0.176202 4:0.144737 5:-0.348086 6:-0.448513 7:-0.521625 8:-0.308872 9:-0.671239 10:-0.694457 11:-0.797793 12:-0.284835 13:-0.919491 14:0.62963 15:-0.387309 16:-0.444794 17:-0.263158 18:0.052632 21:-0.473684 22:-0.99291 23:-0.996964 24:-0.722273 27:-0.811065 28:0.414141 29:-0.374672 30:-0.468532 31:-0.789474 32:0.052632 35:-0.99291 36:-0.996964 37:-0.941785 40:0.417085 
-5.191594610025415 1:0.874249 2:0.236853 3:0.490683 4:1 5:-0.269481 6:0.142857 7:0.603964 8:-0.723269 9:-0.610083 10:-0.53663 11:-0.414078 12:-0.0781714 13:-0.135471 14:-0.868313 15:1 16:1 17:0.714286 18:0.714286 21:-0.714286 22:-0.980366 23:-0.975099 24:0.90364 27:-0.860068 28:-0.848485 29:0.960026 30:0.8 31:0.428572 32:0.428572 35:-0.980366 36:-0.975099 37:0.771478 40:-0.919598 
-8 1:-0.570825 2:-0.573705 3:-0.176202 4:0.144737 5:-0.623206 6:-0.675055 7:-0.240227 8:-0.542113 9:-0.768714 10:-0.865578 11:-0.898049 12:-0.588639 13:-0.802272 14:0.588477 15:-0.401859 16:-0.439766 17:-0.263158 18:-0.052632 21:-0.578948 22:-0.897956 23:-0.95361 24:-0.740921 27:-0.809047 28:0.555556 29:-0.386366 30:-0.464968 31:-0.68421 32:-0.052632 35:-0.897956 36:-0.95361 37:-0.952673 40:0.557789 
-8 1:0.0215434 2:-0.250485 3:-0.42029 4:-0.238093 5:-0.476912 6:-0.304348 7:-0.499292 8:-0.872311 9:-0.941225 10:-0.768653 11:-0.932149 12:0.120295 13:-0.681971 14:0.63786 15:-0.10654 16:-0.254055 17:-0.238096 18:0.333334 21:-0.333334 22:-0.934462 23:-0.972845 24:-0.526913 27:-0.545451 28:0.181818 29:-0.149004 30:-0.333334 31:-0.904762 32:0.333334 35:-0.934462 36:-0.972845 37:-0.963832 40:0.18593 
-5.670456902228496 1:-0.266283 2:-0.360878 3:0.0869565 4:0.390625 5:-0.0127834 6:-0.230979 7:-0.287127 8:-0.0408376 9:-0.483489 10:-0.694334 11:-0.723953 12:-0.508285 13:-0.818686 14:0.720165 15:-0.449523 16:-0.412929 17:-0.125 18:0.25 21:-0.375 22:-0.801758 23:-0.903923 24:-0.802412 27:-0.828492 28:0.464646 29:-0.424676 30:-0.445946 31:-0.75 32:0.25 35:-0.801758 36:-0.903923 37:-0.97619 40:0.467337 
-8 1:0.225852 2:-0.343631 3:-0.450802 4:0.144737 5:0.293862 6:-0.633866 7:-0.427825 8:-0.600576 9:-0.800027 10:-0.97074 11:0.00402924 12:-0.535568 13:-0.809659 14:0.604938 15:-0.367972 16:-0.368754 17:-0.68421 18:-0.157894 21:-0.368422 22:-0.564865 23:-0.803931 24:-0.956543 27:-0.623733 28:0.626263 29:-0.35913 30:-0.414634 31:-0.684212 32:-0.157894 35:-0.564865 36:-0.803931 37:-0.844531 40:0.628141 
-3.553842687307888 1:0.224226 2:-0.0991898 3:0.0434783 4:-0.0833316 5:-0.277778 6:-0.0434785 7:-0.108909 8:-0.66652 9:-0.788366 10:-0.927767 11:-0.617756 12:-0.545384 13:-0.00901834 14:0.234568 15:0.0967226 16:-0.19135 17:0.066666 18:0.333334 21:-0.466666 22:-0.985916 23:-0.991954 24:-0.323588 27:-0.544529 28:-0.121212 29:0.014368 30:-0.288888 31:-0.466668 32:0.333334 35:-0.985916 36:-0.991954 37:-0.85599 40:-0.115578 
-0.5618405022245022 1:0.314126 2:-0.294088 3:0.159421 4:0.638889 5:-0.393939 6:-0.478261 7:0.207924 8:-0.681093 9:-0.660246 10:-0.825511 11:-0.765778 12:-0.39741 13:0.0845556 14:-0.621399 15:-0.623244 16:-0.489189 17:-0.777778 18:-0.333334 21:-0.555556 22:-0.652751 23:-0.66711 24:-0.864057 27:-0.822838 28:-0.707071 29:-0.66378 30:-0.142858 31:-1 32:-0.777778 35:-0.652751 36:-0.66711 37:-0.996589 40:-0.879397 
-0.7676612817666324 1:0.441655 2:-0.164706 3:-0.00621043 4:1 5:-0.518398 6:0.254658 7:0.0947693 8:-0.764995 9:-0.709218 10:-0.905911 11:-0.375554 12:-0.271683 13:-0.306552 14:-0.703704 15:-0.547307 16:-0.375413 17:-1 18:-0.428572 21:-0.428572 22:-0.6613 23:-0.622931 24:-1 27:-0.73541 28:-0.717172 29:-0.762192 30:-0.407408 31:-0.714286 32:-0.714286 35:-0.6613 36:-0.622931 37:-0.927558 40:-0.748744 
-0.2902999615223544 1:0.465278 2:-0.274698 3:0.242237 4:1 5:0.352812 6:-0.360249 7:0.858566 8:-0.902877 9:-0.880289 10:-0.788642 11:-0.791825 12:-0.292767 13:0.203675 14:-0.613169 15:0.280788 16:-0.178811 17:0.428572 18:0.428572 21:-1 22:-0.980846 23:-0.978758 24:0.542728 27:-1 28:-0.777778 29:0.748688 30:0.272728 31:-0.142856 32:0.142858 35:-0.980846 36:-0.978758 37:0.402478 40:-0.909548 
-0.825933353614099 1:-0.226192 2:-0.452395 3:-0.806763 4:0.277779 5:-0.393939 6:-0.369563 7:0.108913 8:0.611083 9:-0.174292 10:-0.902064 11:-0.865336 12:-0.243901 13:-0.655312 14:0.687243 15:-0.791687 16:-0.677657 17:-0.888889 18:-0.555556 21:-0.666666 22:0.0677198 23:-0.50751 24:-0.924688 27:-0.948379 28:0.292929 29:-0.69969 30:-0.633588 31:-0.777777 32:-0.555556 35:0.0677198 36:-0.50751 37:-0.984397 40:0.296482 
-5.561502027098692 1:0.256784 2:0.00633445 3:0.204014 4:0.75 5:0.142187 6:0.20736 7:0.192691 8:-0.929389 9:-0.956456 10:-0.753954 11:-0.599885 12:0.155998 13:-0.831402 14:0.226337 15:0.130848 16:-0.18249 17:-0.076924 18:0.23077 21:-0.538462 22:-0.670411 23:-0.81711 24:-0.486582 27:-0.738735 28:-0.10101 29:0.041796 30:-0.282608 31:-0.538462 32:0.23077 35:-0.670411 36:-0.81711 37:-0.850603 40:-0.0954774 
-2.809651847702705 1:-0.287071 2:-0.372928 3:-0.590793 4:0.0441171 5:-0.291444 6:-0.28133 7:-0.0250414 8:-0.984413 9:-0.992013 10:-0.975186 11:-0.845077 12:-0.332306 13:-0.620271 14:0.580247 15:-0.60158 16:-0.538404 17:-0.882353 18:-0.411764 21:-0.529412 22:-0.0226246 23:-0.54897 24:-0.988904 27:-0.743464 28:0.272727 29:-0.546892 30:-0.534884 31:-0.647059 32:-0.411764 35:-0.0226246 36:-0.54897 37:-0.884133 40:0.276382 
-7.404579840757654 1:0.678467 2:0.228062 3:0.545894 4:0.638889 5:-0.781146 6:1 7:0.405944 8:-0.782794 9:-0.786342 10:-0.724704 11:-0.855708 12:0.136786 13:0.117725 14:-0.349794 15:0.574626 16:0.0952897 17:0.777778 18:0.777778 21:-0.333334 22:-0.997034 23:-0.997369 24:0.767986 27:-0.385113 28:-0.676768 29:0.903274 30:0.052632 31:-0.555556 32:1 35:-0.997034 36:-0.997369 37:0.369743 40:-0.638191 
-3.868523746196291 1:-0.0974274 2:-0.429289 3:-0.450802 4:0.144737 5:-0.118815 6:-0.551488 7:-0.240227 8:-0.694589 9:-0.845788 10:-0.956537 11:-0.765192 12:-0.305511 13:-0.49362 14:0.695473 15:-0.210699 16:-0.297802 17:-0.368422 18:-0.052632 21:-0.473684 22:-0.996786 23:-0.998538 24:-0.795373 27:-0.769764 28:0.272727 29:-0.232722 30:-0.364342 31:-0.894738 32:-0.052632 35:-0.996786 36:-0.998538 37:-0.999681 40:0.276382 
-8 1:-0.0331633 2:-0.517543 3:-0.283887 4:0.0441171 5:-0.598931 6:-0.465473 7:0.0797918 8:-0.1675 9:-0.560326 10:-0.731439 11:-0.821034 12:-0.285592 13:-0.538995 14:0.588477 15:-0.532678 16:-0.447695 17:-0.529412 18:-0.294118 21:-0.647058 22:-0.551004 23:-0.786585 24:-0.79425 27:-0.935024 28:0.343434 29:-0.491512 30:-0.470588 31:-0.882354 32:-0.294118 35:-0.551004 36:-0.786585 37:-0.921272 40:0.346734 
-0.6584550598963345 1:0.536999 2:-0.128899 3:-0.254659 4:1 5:0.60173 6:-0.360249 7:0.603964 8:-0.734109 9:-0.654673 10:-0.963193 11:0.0634873 12:-0.696824 13:-0.282666 14:-0.753086 15:0.296912 16:-0.090483 17:0.714286 18:0.714286 21:-1 22:-0.974686 23:-0.97041 24:0.861822 27:-1 28:-0.79798 29:0.767004 30:-0.066666 31:0.428572 32:0.428572 35:-0.974686 36:-0.97041 37:0.718838 40:-0.869347 
-0.06960802865207817 1:0.348265 2:-0.761701 3:-0.751553 4:-0.392855 5:-0.850289 6:-0.751553 7:-0.669024 8:-0.50799 9:-0.774689 10:-0.989804 11:-0.957835 12:0.865619 13:-0.721926 14:0.563786 15:-0.596698 16:-0.537284 17:-0.714286 18:-0.238096 21:-0.428572 22:-0.417047 23:-0.759732 24:-0.936469 27:-0.876353 28:0.747475 29:-0.542968 30:-0.53409 31:-0.714286 32:-0.238096 35:-0.417047 36:-0.759732 37:-0.975139 40:0.748744 
-0.7201704111010773 1:-0.161836 2:-0.316312 3:-0.130435 4:0.390625 5:-0.502841 6:-0.15761 7:-0.175741 8:-0.750636 9:-0.858484 10:-0.849713 11:-0.818998 12:-0.167118 13:-0.744813 14:0.44856 15:-0.592393 16:-0.68815 17:-0.625 21:-0.25 22:-0.634373 23:-0.813258 24:-0.873979 27:-0.625722 28:0.151515 29:-0.480932 30:-0.6 31:-1 32:-1 35:-0.634373 36:-0.813258 37:-1 40:-0.919598 
-8 1:-0.345503 2:-0.403987 3:-0.304348 4:0.187501 5:-0.524622 6:-0.61739 7:-0.198018 8:-0.871672 9:-0.927505 10:-0.85218 11:-0.774981 12:-0.481406 13:-0.756701 14:0.473251 15:-0.32424 16:-0.353057 17:-0.2 18:0.4 21:-0.2 22:-0.909847 23:-0.954164 24:-0.629622 27:-0.545713 28:0.121212 29:-0.32398 30:-0.403508 31:-1 32:0.4 35:-0.909847 36:-0.954164 37:-0.981595 40:0.125628 
-0.186847211840731 1:0.23951 2:-0.524902 3:-0.44664 4:0.113638 5:-0.314738 6:-0.855729 7:-0.368136 8:-0.132764 9:-0.581578 10:-0.365029 11:-0.700952 12:-0.00746443 13:-0.893937 14:0.604938 15:-0.609881 16:-0.471701 17:-0.545454 18:-0.454546 21:-0.818182 22:-0.426707 23:-0.751061 24:-0.834299 27:-0.894255 28:0.191919 29:-0.537908 30:-0.538462 31:-0.909091 32:-0.909091 35:-0.426707 36:-0.751061 37:-0.843898 40:-0.889447 
-0.1579266355448689 1:-0.325833 2:-0.439204 3:-0.673913 4:0.59375 5:-0.44839 6:-0.499998 7:-0.287127 8:0.386699 9:-0.128826 10:-0.982703 11:-0.844927 12:-0.250934 13:-0.751198 14:0.135802 15:-0.27412 16:-0.270271 17:-0.75 18:-0.5 21:-0.625 22:0.122818 23:-0.36517 24:-0.910299 27:-0.930415 28:0.141414 29:-0.283696 30:-0.344828 31:-0.875 32:-0.5 35:0.122818 36:-0.36517 37:-0.985262 40:0.145729 
-8 1:-0.249221 2:-0.390227 3:0.0434783 4:0.783332 5:-0.45202 6:-0.199999 7:0.128715 8:-0.72896 9:-0.850775 10:-0.730042 11:-0.805877 12:-0.443808 13:-0.717759 14:0.530864 15:-0.238079 16:-0.30985 17:-0.066666 18:0.333334 21:-0.466666 22:-0.623357 23:-0.813373 24:-0.493233 27:-0.778437 28:0.161616 29:-0.254728 30:-0.372882 31:-0.6 32:0.333334 35:-0.623357 36:-0.813373 37:-0.835299 40:0.165829 
-5.477093169749714 1:-0.220132 2:-0.550195 3:-0.130435 4:0.767856 5:-0.393939 6:-0.499998 7:0.0947693 8:-0.807264 9:-0.881677 10:-0.908492 11:-0.417864 12:-0.720837 13:-0.764938 14:0.341564 15:-0.488408 16:-0.4602 17:-0.428572 18:0.285714 21:-0.285714 22:-0.916535 23:-0.953886 24:-0.905127 27:-0.854882 28:0.444444 29:-0.45593 30:-0.479452 31:-0.857142 32:0.285714 35:-0.916535 36:-0.953886 37:-0.981638 40:0.447236 
-3.777619836773392 1:-0.513675 2:-0.486143 3:-0.347826 4:0.59375 5:-0.666194 6:-0.499998 7:0.158418 8:-0.596431 9:-0.750245 10:-0.96848 11:-0.909984 12:-0.643323 13:-0.560339 14:0.308642 15:-0.274702 16:-0.309379 17:-0.875 18:0.125 21:0.125 22:-0.661744 23:-0.811608 24:-0.983014 27:-0.434454 29:-0.284164 30:-0.372548 32:0.125 35:-0.661744 36:-0.811608 37:-0.740584 40:0.00502513 
-8 1:-0.103191 2:-0.318277 3:-0.36759 4:0.113638 5:-0.235537 6:-0.695653 7:-0.368136 8:-0.761085 9:-0.892048 10:-0.88477 11:-0.587728 12:-0.368651 13:-0.738026 14:0.530864 15:-0.621191 16:-0.445101 17:-0.363636 18:-0.272728 21:-0.545454 22:-0.610294 23:-0.841509 24:-0.818711 27:-0.880671 28:0.262626 29:-0.562654 30:-0.46875 31:-0.818182 32:-0.272728 35:-0.610294 36:-0.841509 37:-0.9601 40:0.266332 
-8 1:0.278353 2:-0.337105 3:-0.0792835 4:0.0441171 5:-0.240197 6:-0.327367 7:-0.339545 8:-0.828795 9:-0.90565 10:-0.840007 11:-0.831621 12:-0.0544666 13:-0.207594 14:0.539095 15:-0.0320863 16:-0.308465 17:-0.17647 18:0.294118 21:-0.17647 22:-0.960111 23:-0.980215 24:-0.606392 27:-0.680684 28:0.191919 29:-0.089162 30:-0.3719 31:-1 32:0.294118 35:-0.960111 36:-0.980215 37:-0.941964 40:0.19598 
-0.5474495445676767 1:0.481395 2:-0.330768 3:0.159421 4:0.458333 5:-0.103537 6:0.0869563 7:0.00990358 8:-0.701689 9:-0.604371 10:-0.834984 11:0.109832 12:-0.476433 13:-0.754583 14:-0.720165 15:0.418746 16:-0.254055 17:0.666666 18:0.666666 21:-0.666666 22:-0.937525 23:-0.925439 24:0.946806 27:-0.501929 28:-0.848485 29:0.879466 30:0.23077 32:0.666666 35:-0.937525 36:-0.925439 37:0.806626 40:-0.889447 
-3.201768061686867 1:-0.516685 2:-0.703512 3:-0.188405 4:0.35 5:-0.568182 6:-0.695653 7:-0.346533 8:-0.501241 9:-0.703225 10:-0.883394 11:-0.926402 12:-0.565487 13:-0.693287 14:0.333333 15:-0.606644 16:-0.521254 17:-0.333334 18:0.2 21:-0.066666 22:-0.199848 23:-0.571518 24:-0.899857 27:-0.814017 28:0.747475 29:-0.550962 30:-0.522728 31:-0.733332 32:0.2 35:-0.199848 36:-0.571518 37:-0.965045 40:0.748744 
-1.50583805036011 1:0.0644665 2:-0.184888 3:0.118012 4:0.767856 5:-0.456169 6:0.114909 7:0.222067 8:-0.789365 9:-0.864499 10:-0.601768 11:-0.782277 12:-0.102287 13:-0.742237 14:0.358025 15:0.335011 16:-0.200614 18:0.428572 21:-0.285714 22:-0.949973 23:-0.971036 24:-0.326006 27:-0.321788 28:-0.141414 29:0.205892 30:-0.295454 31:-0.714286 32:0.428572 35:-0.949973 36:-0.971036 37:-0.963012 40:-0.135678 
-8 1:-0.357305 2:-0.340417 3:-0.267734 4:0.315791 5:-0.485646 6:-0.283751 7:-0.334027 8:-0.781182 9:-0.890438 10:-0.697883 11:-0.830297 12:-0.537889 13:-0.776697 14:0.679012 15:-0.287616 16:-0.512702 17:-0.263158 18:0.052632 21:-0.473684 22:-0.694766 23:-0.862448 24:-0.442398 27:-0.661976 28:0.181818 29:-0.294544 30:-0.516666 31:-0.789474 32:0.052632 35:-0.694766 36:-0.862448 37:-0.86351 40:0.18593 
-2.834668035645159 1:0.0810249 2:-0.335839 3:-0.188405 4:0.35 5:0.303035 6:-0.382606 7:-0.227722 8:-0.895291 9:-0.942772 10:-0.770334 11:-0.465849 12:-0.389888 13:-0.710073 14:0.45679 15:-0.382046 16:-0.394135 17:0.066666 18:0.6 21:-0.2 22:-0.898992 23:-0.950314 24:-0.750553 27:-0.686503 28:0.393939 29:-0.370442 30:-0.432624 31:-0.733334 32:0.6 35:-0.898992 36:-0.950314 37:-0.984026 40:0.396985 
-8 1:-0.598168 2:-0.463021 3:-0.48849 4:0.42647 5:-0.547683 6:-0.396417 7:-0.129876 8:-0.9061 9:-0.947006 10:-0.976046 11:-0.853183 12:-0.543708 13:-0.851528 14:0.473251 15:-0.617085 16:-0.582915 17:-0.647058 18:-0.411764 21:-0.529412 22:-0.576256 23:-0.784779 24:-0.855745 27:-0.806926 28:0.414141 29:-0.559354 30:-0.566434 31:-0.882354 32:-0.411764 35:-0.576256 36:-0.784779 37:-0.985171 40:0.417085 
